{
  "name": "n-gram",
  "parameter_count": 12555,
  "layers": [
    {
      "layer_type": "Linear",
      "name": "Input",
      "index": 0,
      "weights": [
        -0.17664537,
        -0.15471639,
        -0.116820574,
        -0.0067582284,
        0.19678824,
        0.21833348,
        -0.09059156,
        -0.074677125,
        -0.13580063,
        -0.172276,
        0.13953376,
        -0.2995936,
        0.24306105,
        0.36970207,
        0.2583883,
        -0.081365936,
        -0.008121224,
        -0.028039195,
        0.13966736,
        0.39657128,
        -0.035944514,
        -0.110271156,
        0.21350046,
        0.0038256089,
        0.25080517,
        0.18004821,
        -0.17233709,
        -0.024577864,
        0.13300408,
        -0.23456399,
        -0.17351067,
        0.055910178,
        -0.27580494,
        -0.22048748,
        -0.18283579,
        0.25595477,
        -0.30991885,
        -0.22813493,
        0.13383302,
        -0.33565453,
        0.29745463,
        0.026143473,
        0.26479807,
        -0.6408392,
        0.3060226,
        -0.056798052,
        -0.21950775,
        -0.19590318,
        -0.120278314,
        -0.0040454487,
        0.24467452,
        -0.4934311,
        -0.24254116,
        0.06160846,
        -0.3165333,
        -0.07066735,
        -0.0154887065,
        -0.07894822,
        0.23784234,
        -0.28572217,
        -0.08163076,
        0.07430089,
        -0.1332802,
        0.24675095,
        -0.2689332,
        0.033253036,
        -0.06824679,
        -0.054026403,
        0.1569664,
        0.23754111,
        0.048721008,
        -0.076501526,
        0.07520245,
        0.17879118,
        -0.06577481,
        0.2681535,
        0.024606958,
        -0.25776726,
        -0.5488767,
        0.8749642,
        -0.3419024,
        -0.44122022,
        0.05545152,
        0.31205302,
        0.21654978,
        -0.3025905,
        -0.07117317,
        -0.1648944,
        0.11330588,
        -0.044090677,
        0.44000456,
        -0.24150231,
        0.10767971,
        0.12911633,
        0.07637567,
        0.18478261,
        -0.17875646,
        0.09099993,
        0.19383198,
        -0.022242948,
        0.12660517,
        0.18685068,
        0.101086065,
        0.07584137,
        0.08328991,
        -0.19797297,
        -0.2962762,
        0.091615185,
        -0.1287444,
        0.42161444,
        -0.10085476,
        0.12789933,
        0.23156488,
        -0.014320226,
        0.07093053,
        0.038377754,
        -0.20445234,
        -0.07145984,
        0.11799558,
        0.17051648,
        0.04323448,
        -0.13268586,
        -0.002135676,
        0.041526563,
        -0.2647328,
        0.059114464,
        -0.0065340167,
        0.067691326,
        -0.029239722,
        -0.09687357,
        -0.1234842,
        -0.08478525,
        0.14513968,
        0.3984066,
        0.056868188,
        -0.035554808,
        -0.0052289907,
        0.031433478,
        -0.16132292,
        0.16590624,
        -0.06739273,
        0.09270903,
        -0.34710884,
        0.0072939107,
        0.2979427,
        -0.09335111,
        0.06145769,
        0.006778832,
        0.1185965,
        -0.23833244,
        -0.17519356,
        0.2232076,
        0.15490451,
        0.15145525,
        0.08974711,
        0.25519904,
        -0.029721107,
        0.1958502,
        -0.21776848,
        0.18190716,
        0.11333161,
        -0.040537048,
        0.16261135,
        0.026359377,
        0.19698192,
        -0.2653449,
        0.08462118,
        0.055292416,
        -0.22029997,
        0.3850627,
        0.11871667,
        -0.03241983,
        0.21973279,
        0.17877205,
        0.070656225,
        0.043344215,
        -0.26634082,
        0.17040826,
        -0.102685966,
        0.28238487,
        -0.03126972,
        -0.12054944,
        -0.03810855,
        -0.031944755,
        0.093843706,
        -0.09168941,
        -0.024108753,
        0.08389659,
        0.07836488,
        0.3111421,
        0.0924467,
        -0.014688109,
        0.26181066,
        -0.012977908,
        0.1645318,
        -0.097593755,
        0.24653271,
        -0.24966799,
        0.15280439,
        0.016181925,
        0.07540783,
        0.046358883,
        0.09344571,
        -0.18140621,
        0.18101582,
        0.1737626,
        -0.27243814,
        -0.113230444,
        0.2245839,
        0.047461096,
        0.02053199,
        0.10629412,
        0.023248058,
        0.034173217,
        0.43483514,
        -0.037160274,
        0.062926024,
        -0.053845968,
        -0.12218838,
        -0.020991767,
        0.25709823,
        -0.1178523,
        -0.30208966,
        0.122303724,
        0.24450979,
        0.18870568,
        -0.1509674,
        -0.13613877,
        0.09228329,
        0.1265108,
        0.21492043,
        0.298519,
        -0.17879179,
        0.18831338,
        -0.2617578,
        -0.1647777,
        -0.061223414,
        -0.029860578,
        0.0023530517,
        0.093960755,
        -0.1396119,
        -0.14920126,
        -0.09228039,
        0.17601359,
        -0.06879101,
        -0.14351745,
        -0.06532333,
        -0.33704403,
        0.19057599,
        -0.13941237,
        -0.062038142,
        0.038913295,
        -0.15429625,
        0.16234775,
        -0.25545746,
        0.2903187,
        -0.11290745,
        -0.25365362,
        0.11747508,
        -0.012015627,
        -0.14629354,
        -0.1966265,
        0.047611278,
        -0.23020342,
        -0.13082166,
        -0.108001865,
        -0.10029355,
        -0.07990259,
        0.022863636,
        0.2241634,
        0.09623411,
        0.027676452,
        -0.14904146,
        0.104988344,
        0.07382519,
        -0.23399816,
        -0.024712473,
        -0.12976824,
        0.084915146,
        0.0022215897,
        -0.14963795,
        0.051202465,
        0.22021502,
        0.18063496,
        0.05098788,
        0.0625256,
        -0.07649238,
        0.019872736,
        -0.016341774,
        0.17063963,
        0.096446134,
        0.09489758,
        -0.035502672,
        -0.14662485,
        0.17265272,
        -0.07326317,
        -0.27111983,
        -0.16048925,
        -0.048675098,
        -0.045784757,
        0.19796422,
        -0.08175945,
        0.06526871,
        -0.4501089,
        -0.017831977,
        -0.11356465,
        0.11597354,
        -0.3707104,
        0.027098889,
        -0.037465487,
        0.21974291,
        0.093250945,
        -0.12819365,
        -0.33687603,
        0.284385,
        0.06763675,
        0.12425345,
        0.22313043,
        0.09011116,
        -0.0011478681,
        0.10525259,
        0.03281549,
        -0.06450379,
        -0.16658731,
        -0.0347955,
        -0.035569984,
        0.106060594,
        -0.0045235506,
        -0.05623348,
        0.13926369,
        0.15970835,
        -0.16840266,
        0.16603789,
        0.25458923,
        0.14448284,
        0.05873371,
        0.354187,
        -0.07532595,
        -0.027087288,
        -0.17647322,
        -0.26447707,
        0.03724221,
        -0.07913138,
        -0.09934935,
        -0.45137197,
        0.2085,
        0.14875236,
        -0.32961565,
        0.013305202,
        0.19618268,
        -0.13039571,
        -0.059415493,
        -0.20824747,
        0.08848417,
        -0.2864498,
        0.13892171,
        0.046242394,
        -0.11514571,
        0.26852697,
        -0.14022541,
        0.09518773,
        0.028173223,
        0.3397937,
        -0.07439593,
        0.092129655,
        -0.14526966,
        0.22980765,
        0.11722402,
        0.14297205,
        -0.043056265,
        0.03283611,
        -0.02380434,
        -0.072716326,
        -0.35606,
        -0.16290937,
        0.1180478,
        0.11729919,
        -0.27638164,
        -0.07417741,
        0.19989489,
        0.07696005,
        0.20329398,
        0.13809985,
        0.13284352,
        -0.045003902,
        0.28558946,
        0.12336656,
        -0.24871722,
        -0.2059022,
        0.23124182,
        0.10105714,
        0.22387612,
        0.09374716,
        -0.18580513,
        -0.04374954,
        0.03171264,
        -0.13933976,
        -0.0073881475,
        -0.121566236,
        -0.37812537,
        0.14999422,
        0.32389867,
        0.21181113,
        -0.21437615,
        0.03879174,
        -0.05043131,
        0.1482812,
        0.27049822,
        0.5177744,
        0.040196292,
        -0.13444857,
        -0.19285566,
        0.10455802,
        -0.05423497,
        0.26919225,
        -0.13798372,
        0.43385303,
        -0.08197311,
        -0.24753506,
        -0.009678091,
        0.05703075,
        -0.037344944,
        0.0052274987,
        -0.21407501,
        -0.14882317,
        -0.08310469,
        -0.20749617,
        -0.26287195,
        0.1187999,
        0.033024397,
        -0.0054073795,
        -0.06180655,
        -0.10363865,
        -0.014934175,
        -0.17984465,
        -0.28322378,
        -0.0017897616,
        0.08179769,
        -0.24175453,
        -0.21146448,
        -0.21803518,
        0.09629892,
        0.09332622,
        0.111519486,
        0.17824037,
        0.24213837,
        0.3334851,
        -0.06875056,
        0.042714484,
        0.18326433,
        0.08058887,
        0.23332357,
        -0.005242254,
        0.02464173,
        -0.10704263,
        0.052573487,
        0.12080269,
        0.11166462,
        -0.051917944,
        -0.09552538,
        0.30022773,
        0.14842626,
        0.25019807,
        -0.10544361,
        0.13523902,
        -0.05681842,
        0.06262031,
        -0.1416103,
        -0.0534209,
        -0.07593409,
        -0.056279287,
        -0.040150095,
        -0.079525344,
        -0.14139071,
        -0.20611145,
        -0.038838577,
        0.102050744,
        0.043564267,
        0.105694,
        -0.27390265,
        0.037829787,
        0.023522878,
        0.2978308,
        -0.048297305,
        -0.23023926,
        0.09262952,
        0.12804598,
        0.11191751,
        0.031670783,
        -0.0912085,
        -0.039421838,
        -0.19626814,
        0.11063129,
        0.1345761,
        -0.15938348,
        0.14127393,
        -0.034155443,
        0.018067403,
        0.058755726,
        0.1387873,
        0.052820433,
        -0.09451171,
        0.060717035,
        -0.053249177,
        0.18589106,
        -0.03572769,
        -0.24006961,
        0.2596003,
        -0.041761793,
        0.13112672,
        0.02321178,
        0.07630658,
        0.17820235,
        0.0069096037,
        0.067172214,
        -0.27668098,
        0.1247692,
        0.1788136,
        -0.13178931,
        -0.23153254,
        -0.1770768,
        -0.18191788,
        0.147709,
        0.15409662,
        0.24620715,
        0.1328677,
        -0.045322724,
        0.08236288,
        -0.117986135,
        0.023609623,
        -0.11588433,
        -0.117945164,
        0.12941334,
        -0.1805312,
        -0.06466631,
        -0.1594464,
        0.14096348,
        -0.26714778,
        0.11622249,
        0.23127191,
        -0.13106823,
        -0.041440215,
        -0.12794237,
        0.09108649,
        0.057743583,
        -0.023505423,
        0.38843235,
        -0.29101524,
        -0.05342189,
        -0.0062235347,
        -0.014940898,
        -0.122002505,
        -0.070284605,
        -0.025567826,
        0.14071235,
        -0.05768331,
        -0.008552202,
        -0.12973042,
        0.008423927,
        0.26846534,
        0.0037580223,
        -0.20855345,
        -0.03397177,
        0.17440242,
        0.07870914,
        -0.14714445,
        -0.008407032,
        -0.12325551,
        0.03172333,
        -0.41549188,
        0.04122669,
        -0.030710978,
        -0.028994316,
        0.28256857,
        -0.06038813,
        0.05976816,
        0.43555912,
        -0.1535844,
        -0.15639566,
        -0.060862776,
        -0.002533372,
        0.1726925,
        0.061149307,
        -0.1122444,
        0.09926599,
        -0.0031352432,
        0.11482429,
        -0.07502923,
        -0.12745582,
        -0.11758386,
        0.06203941,
        0.018718446,
        -0.03999925,
        0.058377303,
        0.2619483,
        0.010870119,
        0.10420229,
        0.041864295,
        -0.05346201,
        0.20670043,
        0.16724926,
        0.009164474,
        -0.009248678,
        0.2314751,
        -0.025612928,
        -0.11336234,
        0.043005086,
        0.18911812,
        0.03933269,
        -0.10074998,
        0.07330793,
        -0.1210679,
        0.015903343,
        0.21355852,
        0.076919295,
        0.10006281,
        -0.05253322,
        0.09767877,
        0.011261955,
        -0.17425899,
        0.10874088,
        0.07825674,
        -0.050883755,
        -0.23494871,
        -0.063330896,
        -0.23592143,
        0.055320825,
        0.14738297,
        0.07962294,
        -0.15829182,
        0.27845648,
        -0.24058677,
        0.15053006,
        0.058296744,
        0.1653361,
        0.1263545,
        -0.013360939,
        0.24508706,
        0.044956863,
        -0.2871689,
        -0.20557623,
        -0.25528482,
        0.12203603,
        -0.31157652,
        0.015493097,
        -0.15515137,
        0.04624975,
        0.018417612,
        0.18645708,
        -0.0041950033,
        0.050533958,
        0.074209064,
        -0.14209048,
        0.14980717,
        0.23894621,
        -0.069959044,
        -0.024225507,
        0.047579076,
        -0.25444868,
        -0.14685942,
        -0.04741426,
        -0.12636343,
        -0.19603884,
        -0.2991728,
        0.09969463,
        0.07109945,
        -0.14706053,
        -0.11938902,
        -0.028653525,
        0.029483497,
        0.14092693,
        0.057924937,
        -0.113676384,
        0.1588621,
        0.1215208,
        0.22041504,
        0.13929883,
        -0.07361213,
        -0.12818201,
        -0.101902895,
        -0.029205754,
        0.05216421,
        -0.15180267,
        0.3040764,
        -0.029915445,
        -0.11159971,
        0.05248037,
        0.13803369,
        -0.15223576,
        -0.24426197,
        0.16596177,
        0.0031580674,
        -0.21235836,
        -0.04054721,
        0.01780048,
        -0.13504197,
        0.045269873,
        0.1282366,
        0.06620272,
        -0.1533454,
        0.1663688,
        0.10754991,
        -0.09897879,
        -0.23116995,
        -0.21806926,
        0.21751116,
        0.010208451,
        -0.14118528,
        0.015260952,
        -0.12272957,
        0.045995086,
        0.089675575,
        0.10835435,
        0.24572541,
        0.22006579,
        -0.05590199,
        -0.13407211,
        0.18253829,
        -0.33114445,
        0.083763495,
        0.035843562,
        0.17928465,
        0.104509845,
        -0.013419273,
        0.09672684,
        -0.2714286,
        0.044906925,
        -0.20680074,
        -0.2664423,
        0.26933983,
        0.1730175,
        0.032328714,
        0.078779064,
        -0.07489281,
        -0.28003386,
        -0.018031297,
        -0.1656772,
        0.13062215,
        0.05795977,
        -0.013078522,
        0.026147693,
        0.20964119,
        -0.11616432,
        -0.1155581,
        0.13413519,
        -0.1570154,
        -0.037345666,
        -0.13064642,
        0.06381181,
        0.32317984,
        0.1627683,
        -0.25131708,
        0.19616307,
        -0.002660334,
        0.1272606,
        0.03179479,
        0.23652816,
        -0.00010267372,
        -0.07160625,
        -0.08875725,
        -0.010239023,
        0.3091344,
        0.10011715,
        -0.018111398,
        0.04904404,
        0.023272734,
        -0.06815342,
        -0.05905661,
        0.03574915,
        0.021995196,
        -0.21696305,
        -0.19487748,
        0.024560628,
        -0.12521635,
        -0.05558709,
        0.096923456,
        -0.040036842,
        -0.20845695,
        -0.009688834,
        0.20912758,
        -0.3658406,
        0.0919259,
        0.13596956,
        0.052404508,
        0.107233904,
        0.27658582,
        0.2867133,
        0.25936025,
        0.32081172,
        0.20038934,
        0.017231088,
        -0.21713352,
        0.2202801,
        0.02639371,
        -0.043704,
        -0.2444321,
        0.019290121,
        -0.007584819,
        0.22820102,
        0.034181107,
        0.18608865,
        0.02480744,
        -0.30068612,
        0.046940383,
        -0.14371544,
        0.0035405385,
        0.049168468,
        -0.08686032,
        -0.12362147,
        -0.37562406,
        -0.07174133,
        0.10402181,
        -0.050614767,
        0.035536677,
        -0.14654896,
        0.18852478,
        0.07496568,
        -0.14655301,
        -0.2027386,
        0.090678796,
        -0.1250124,
        0.099533245,
        -0.023765264,
        -0.022320796,
        -0.27129495,
        -0.4068283,
        0.21516104,
        -0.18177879,
        0.19392593,
        -0.014290505,
        0.31502217,
        0.35014376,
        -0.020711957,
        -0.03092778,
        0.057562325,
        0.12232536,
        0.1941531,
        -0.12370724,
        0.123473614,
        0.07261494,
        -0.0737652,
        -0.106538855,
        0.08342711,
        -0.32123327,
        -0.07872006,
        -0.015261509,
        -0.09123587,
        -0.040120058,
        -0.10359173,
        0.110176854,
        0.12160439,
        -0.12586781,
        -0.080159016,
        0.3608397,
        0.12370944,
        -0.13703492,
        0.25619844,
        -0.033104967,
        -0.04209416,
        0.44651657,
        -0.11211401,
        0.08428072,
        -0.1906507,
        -0.09001536,
        0.24990599,
        0.14175425,
        -0.06455185,
        0.087329164,
        -0.1025721,
        0.14739154,
        -0.041285764,
        -0.13508448,
        0.12050712,
        -0.059601724,
        0.061650917,
        -0.022279521,
        -0.22333187,
        -0.18557934,
        -0.13908246,
        0.3065938,
        0.25149944,
        0.17973,
        0.11658527,
        -0.14368568,
        0.12019679,
        -0.0033207496,
        0.086029045,
        -0.10218832,
        0.316126,
        0.20454554,
        -0.008326576,
        -0.1611012,
        -0.028285865,
        -0.10680773,
        -0.15006235,
        0.14649272,
        -0.11603866,
        -0.05268825,
        -0.42612806,
        0.16317551,
        -0.26511815,
        -0.04368643,
        0.14492898,
        0.06553748,
        -0.09242945,
        -0.21247943,
        0.023221923,
        0.045349587,
        -0.043395374,
        -0.14493872,
        0.19102784,
        0.17346427,
        0.07474076,
        -0.21597654,
        -0.17286086,
        0.004947878,
        -0.18966933,
        0.21647397,
        0.14908487,
        0.17424555,
        -0.25027364,
        0.32613865,
        -0.03905823,
        0.021185096,
        -0.26284745,
        0.10865315,
        -0.056535035,
        -0.014693829,
        -0.14554657,
        -0.1702472,
        -0.08048809,
        0.11877744,
        -0.12750578,
        0.09551645,
        -0.13919629,
        0.037540056,
        0.011922115,
        0.079656236,
        0.21758342,
        0.16138722,
        -0.11575467,
        -0.18013425,
        0.30642134,
        0.22219484,
        0.032052014,
        -0.051384192,
        -0.19832891,
        0.16265656,
        0.12897944,
        0.040221278,
        0.08596616,
        0.08263861,
        0.32034567,
        0.14316644,
        -0.054303184,
        0.05619319,
        -0.30837286,
        -0.0018360829,
        0.11587954,
        0.12012781,
        -0.14424758,
        -0.07241776,
        0.36928338,
        0.09658732,
        0.0818842,
        -0.022312302,
        0.3048187,
        0.08440635,
        0.097862855,
        0.15518284,
        -0.09260501,
        -0.03797361,
        0.13887219,
        0.0038484463,
        -0.43871638,
        0.06882802,
        -0.047253974,
        0.20450653,
        0.072368145,
        -0.10460431,
        0.077163704,
        0.091229945,
        0.16739175,
        -0.11068902,
        -0.0073145363,
        -0.07245644,
        -0.036982667,
        -0.022011207,
        0.2951374,
        0.10254504,
        0.153445,
        0.0885117,
        0.060660657,
        -0.03786798,
        -0.05168869,
        -0.21451053,
        0.1131239,
        -0.09252064,
        0.15639357,
        -0.10574999,
        0.29276696,
        -0.039775953,
        -0.31528318,
        -0.08899862,
        -0.17282979,
        0.09867268,
        0.066389255,
        0.011232168,
        -0.049852908,
        0.24799727,
        -0.21136312,
        -0.08208049,
        0.11129299,
        0.107428305,
        -0.039046463,
        0.0044134073,
        -0.22210227,
        0.11493369,
        -0.042322755,
        -0.19217022,
        0.069352396,
        -0.16329253,
        0.13634124,
        -0.17898846,
        -0.4472505,
        0.21361847,
        -0.017752314,
        0.05194722,
        0.026470976,
        0.2617533,
        0.006844902,
        0.15547967,
        -0.29998747,
        0.02600096,
        -0.06992222,
        0.008454285,
        0.09972453,
        -0.007375101,
        0.105687,
        -0.0071998676,
        -0.1621942,
        0.08679142,
        -0.16464515,
        0.10404251,
        0.03735425,
        -0.08697866,
        0.07221634,
        0.058944184,
        -0.1717561,
        -0.16126509,
        0.18009494,
        0.41524392,
        0.027892398,
        -0.29792094,
        -0.12605621,
        0.10833802,
        -0.055217143,
        -0.041135762,
        -0.10377772,
        0.25659347,
        -0.22533886,
        -0.23758979,
        -0.09278182,
        0.3448932,
        0.10950645,
        -0.21637431,
        -0.15715486,
        0.07673204,
        0.033226773,
        -0.17490008,
        -0.20639011,
        -0.059578184,
        -0.04256293,
        -0.16245079,
        -0.19935893,
        0.029012248,
        -0.19429885,
        0.054364022,
        0.006481122,
        0.0020207795,
        -0.24982078,
        -0.010651587,
        0.044599272,
        0.015677905,
        0.107523076,
        0.1328783,
        -0.15398158,
        -0.2358571,
        -0.06772167,
        -0.07467984,
        -0.061328538,
        0.0019764823,
        -0.064533606,
        0.10072308,
        -0.23787902,
        -0.0900588,
        0.06166673,
        0.023902323,
        0.086631715,
        -0.052432477,
        0.10160026,
        0.13717642,
        -0.12892899,
        0.17832391,
        0.070306465,
        -0.095116,
        -0.029748289,
        -0.025729287,
        0.19984221,
        -0.02133554,
        -0.20689034,
        0.27032864,
        -0.026775347,
        0.17592919,
        0.05167178,
        -0.3572113,
        -0.28758273,
        0.1518599,
        0.16883169,
        0.09387028,
        -0.03902923,
        0.1747223,
        0.020707881,
        -0.12879008,
        0.084347,
        -0.26041412,
        0.028571222,
        -0.044592086,
        -0.17631319,
        0.33867362,
        0.114150554,
        0.41789496,
        -0.2110182,
        -0.05142717,
        0.13794522,
        0.22819836,
        0.052238528,
        -0.19251989,
        -0.29805228,
        -0.032174222,
        -0.16525283,
        0.04292853,
        -0.21542825,
        0.064612076,
        0.10991918,
        0.044512626,
        -0.10208565,
        0.20378388,
        -0.08957319,
        0.23630124,
        0.2729146,
        -0.05390235,
        0.047655005,
        0.18775979,
        0.11862652,
        0.029151723,
        -0.1564743,
        0.24904957,
        -0.10228905,
        -0.101811886,
        -0.09675618,
        -0.1888464,
        -0.098436035,
        -0.06429764,
        0.001630974,
        -0.03978821,
        -0.23210008,
        -0.010838994,
        -0.2325255,
        -0.29347846,
        -0.15133508,
        0.10223921,
        0.2781093,
        0.062019896,
        -0.099424236,
        -0.26512265,
        0.19971259,
        0.028010473,
        -0.10028936,
        -0.16771549,
        0.05107245,
        0.35260242,
        -0.27421293,
        -0.25712097,
        0.04244048,
        -0.44908533,
        0.15015984,
        -0.074104466,
        0.10697362,
        0.27696094,
        0.23346028,
        0.0056378674,
        0.09468989,
        -0.04984486,
        0.10548728,
        -0.1109558,
        -0.02659629,
        0.12708989,
        0.23235615,
        -0.299085,
        -0.14029631,
        -0.10421063,
        0.100908674,
        -0.12691553,
        -0.05382503,
        0.19193351,
        0.07587118,
        -0.03504862,
        0.11283615,
        0.09810144,
        -0.056028873,
        -0.23525614,
        0.18602778,
        0.10391165,
        0.0075490535,
        0.20815769,
        -0.14111409,
        -0.05305911,
        0.028175864,
        -0.045564003,
        0.13411166,
        0.066232465,
        0.23792681,
        -0.07008841,
        0.051075388,
        0.39591143,
        0.1798973,
        0.08729906,
        0.096419945,
        -0.0019529936,
        0.17564563,
        0.06898184,
        0.2404475,
        0.33812943,
        0.25466606,
        0.086990654,
        0.1012277,
        0.2051423,
        0.1126829,
        0.10569273,
        -0.026449507,
        -0.011066363,
        0.071802236,
        0.36713192,
        -0.19936073,
        0.046194606,
        0.029490754,
        -0.28553975,
        -0.06938455,
        0.19049653,
        0.1560597,
        0.119726345,
        -0.06430762,
        0.044178717,
        -0.10204874,
        -0.08925028,
        0.1955809,
        -0.12317709,
        -0.036755905,
        0.06522904,
        0.15772077,
        0.06833955,
        -0.14101051,
        -0.09842653,
        0.08581836,
        -0.12473331,
        0.035981085,
        0.104133815,
        -0.12932324,
        -0.12335065,
        -0.4554674,
        0.1756481,
        -0.10893592,
        0.1665067,
        -0.15062001,
        0.07854648,
        0.2530958,
        0.18960378,
        0.14234522,
        0.23180969,
        -0.00046087176,
        0.1121508,
        -0.45754442,
        0.020798357,
        -0.060062967,
        -0.003460663,
        -0.15670851,
        0.08153767,
        0.27207246,
        -0.060237665,
        -0.4232659,
        0.36152476,
        0.053742077,
        0.034321472,
        0.032796416,
        -0.22100744,
        -0.06533203,
        0.06827408,
        0.046773702,
        -0.017832784,
        -0.014239761,
        0.1309927,
        0.23585747,
        0.29796505,
        -0.12176272,
        -0.1110287,
        -0.08949179,
        0.09949062,
        0.299921,
        0.17363141,
        0.019793585,
        0.055631038,
        -0.21760765,
        0.27128452,
        0.11037426,
        0.070455246,
        0.074784204,
        -0.10734278,
        -0.28505144,
        -0.11550633,
        0.1634897,
        -0.029188896,
        0.050764043,
        0.34118804,
        -0.1898106,
        -0.0109929405,
        0.5214292,
        0.0013035561,
        -0.077037424,
        -0.044551324,
        0.31714135,
        -0.10421015,
        0.021327138,
        0.05848796,
        -0.06901579,
        -0.13468057,
        0.00018857852,
        0.18547077,
        0.257649,
        0.15652598,
        -0.05843065,
        0.22278008,
        0.0148047395,
        -0.124791324,
        0.31824648,
        -0.007850123,
        0.14162914,
        -0.016610226,
        0.32013625,
        0.1008885,
        0.039301466,
        0.1306465,
        0.020547159,
        -0.073329896,
        -0.06688303,
        -0.17905058,
        0.074022755,
        0.0066093034,
        0.17939043,
        -0.10019509,
        -0.28225905,
        0.25826156,
        0.12909235,
        0.20790918,
        -0.2445495,
        0.01672095,
        0.13668054,
        0.20115873,
        -0.16190155,
        -0.30424967,
        -0.043443818,
        -0.075050466,
        0.12376148,
        0.017422274,
        -0.13948417,
        -0.24441521,
        -0.0046794005,
        0.034714088,
        -0.14000303,
        -0.08186929,
        0.033798028,
        -0.18665864,
        0.27312496,
        -0.18617441,
        -0.043734513,
        0.04382449,
        -0.0083428575,
        -0.08138765,
        -0.055171847,
        0.15966265,
        -0.0045179846,
        0.020324957,
        -0.09617924,
        0.1541433,
        0.0030678036,
        -0.086955175,
        -0.07068376,
        0.086321734,
        0.22583905,
        0.098206334,
        -0.05102251,
        -0.105156936,
        -0.24435736,
        -0.28174832,
        0.0037160905,
        -0.14472166,
        0.24977338,
        0.24276784,
        -0.031378627,
        0.044942938,
        -0.037177905,
        -0.19325282,
        0.0015131274,
        0.03342778,
        -0.047840025,
        0.14272085,
        -0.022586472,
        -0.120764114,
        0.1658746,
        -0.11470372,
        0.2576172,
        0.0033205422,
        0.316641,
        0.25479865,
        -0.023785865,
        0.20178129,
        -0.14241673,
        0.08132424,
        0.1563201,
        -0.27297056,
        -0.13242328,
        -0.046606638,
        0.015739506,
        -0.03470249,
        -0.07766809,
        0.1221485,
        -0.039790872,
        0.104651205,
        0.006328077,
        0.2202985,
        -0.071982004,
        0.1790205,
        -0.19632764,
        -0.22362296,
        -0.05795321,
        -0.08994287,
        0.11841859,
        0.18724091,
        -0.05486479,
        -0.1440265,
        0.058104377,
        0.23085274,
        0.18419082,
        -0.17648956,
        -0.15748146,
        -0.10260203,
        -0.028492805,
        -0.04084083,
        -0.18676351,
        0.08670077,
        -0.12782526,
        0.10468627,
        -0.29358238,
        -0.15657537,
        -0.38054618,
        -0.0142259365,
        0.2503782,
        -0.14016734,
        0.19620143,
        0.11707678,
        -0.0122480225,
        0.3855276,
        -0.051566828,
        -0.22901474,
        0.104296766,
        0.33911955,
        -0.026169669,
        -0.047092453,
        -0.03887961,
        0.09288375,
        -0.32644594,
        0.2116118,
        0.16683853,
        -0.2171801,
        0.080758825,
        -0.10265735,
        -0.15682593,
        -0.1717077,
        -0.01564917,
        -0.13284817,
        0.17106014,
        0.18718234,
        -0.16444601,
        -0.028383235,
        -0.077823244,
        0.21498704,
        0.22581956,
        -0.13433638,
        -0.100860044,
        0.04087422,
        0.07622034,
        -0.022412036,
        0.075143926,
        0.079563804,
        -0.14282022,
        -0.12612881,
        -0.14928839,
        0.060282577,
        0.05048823,
        -0.4403299,
        0.23491737,
        0.07059814,
        0.2839896,
        0.008411635,
        0.0722875,
        -0.07179627,
        0.32119125,
        0.06143535,
        0.03201756,
        -0.010243429,
        0.10935758,
        -0.1493098,
        -0.23393711,
        0.12558219,
        -0.059311446,
        -0.075992145,
        -0.08324906,
        -0.057574473,
        -0.0018458541,
        -0.15696838,
        0.11377391,
        0.057428475,
        0.19842084,
        0.2022941,
        -0.07146587,
        -0.16819462,
        -0.1921903,
        0.21134795,
        -0.026487028,
        0.14130363,
        0.10474118,
        0.029651448,
        -0.30168852,
        -0.06099121,
        0.025970703,
        0.0007157626,
        -0.0007835269,
        0.07350349,
        -0.23166445,
        0.044764254,
        -0.063440494,
        -0.064750396,
        0.09052058,
        -0.07317008,
        -0.26839986,
        0.029431108,
        -0.29220486,
        -0.11468837,
        -0.073931046,
        0.05463554,
        -0.025970057,
        0.04219011,
        -0.16257682,
        0.044431254,
        0.08749467,
        -0.23365165,
        -0.05687533,
        0.16212134,
        0.22849736,
        0.29148772,
        -0.08480294,
        -0.22416897,
        0.14663783,
        -0.09569971,
        -0.006527437,
        0.13904095,
        -0.13223705,
        -0.012847013,
        0.009170342,
        -0.07494915,
        0.056871474,
        -0.1946552,
        -0.034030747,
        0.01632333,
        0.4464325,
        -0.34092563,
        -0.12426464,
        0.12722939,
        0.16408214,
        0.14906128,
        -0.27339816,
        -0.1224937,
        0.00010946749,
        0.046240244,
        -0.15409112,
        0.2210989,
        0.19120955,
        0.0044854637,
        -0.031528186,
        -0.037522055,
        -0.0073932116,
        -0.10324204,
        -0.0673688,
        -0.06743467,
        0.08488802,
        0.056032043,
        -0.20528392,
        -0.059489127,
        -0.022205763,
        -0.26583362,
        -0.081086196,
        -0.042657338,
        0.41531283,
        -0.0830344,
        -0.04883056,
        0.19403124,
        -0.1486595,
        0.22794095,
        0.25469455,
        -0.24122646,
        0.31484324,
        0.031793162,
        0.30423126,
        0.18033323,
        -0.36968172,
        -0.079766,
        -0.13945572,
        -0.11739148,
        -0.43640512,
        0.0859562,
        0.0532796,
        -0.17087232,
        -0.09252908,
        0.20224926,
        -0.2248687,
        -0.10999628,
        -0.22205113,
        -0.21385558,
        0.13880497,
        0.122560374,
        0.06900652,
        -0.080042854,
        -0.07630673,
        0.0693931,
        -0.060662303,
        -0.20996852,
        -0.12586366,
        0.060744103,
        -0.16065735,
        -0.26031032,
        0.23515345,
        -0.29124415,
        -0.034217957,
        -0.24208276,
        -0.3307787,
        0.1544743,
        0.11434195,
        0.14679375,
        -0.35723072,
        -0.2101108,
        0.0953404,
        -0.13419163,
        0.17132308,
        0.11951463,
        0.08536057,
        0.03773849,
        0.15913521,
        0.3646747,
        -0.21797161,
        -0.081519864,
        -0.11026975,
        0.07727743,
        -0.21771358,
        0.0050172554,
        -0.0024079983,
        0.14300126,
        0.07512351,
        -0.020674441,
        0.051564895,
        0.24608661,
        0.22350925,
        0.036803395,
        0.26319796,
        -0.094106615,
        0.01240336,
        -0.3583549,
        -0.04800572,
        0.04293145,
        0.12428452,
        -0.18505462,
        0.068697795,
        -0.019027373,
        0.17015941,
        0.01648475,
        0.21698406,
        -0.15880777,
        0.22285132,
        0.08482169,
        0.09410269,
        0.03337326,
        0.092382215,
        -0.2330124,
        0.37610078,
        0.16768698,
        0.22243342,
        0.03630417,
        0.0520195,
        -0.254533,
        -0.027249772,
        -0.031472348,
        0.020590851,
        -0.25019175,
        -0.18185246,
        0.11175491,
        0.15996133,
        0.07938208,
        0.18648876,
        0.011278696,
        0.104821764,
        -0.095226824,
        0.18433759,
        -0.08589689,
        -0.021671897,
        -0.09693758,
        0.058070835,
        0.17435978,
        0.07113833,
        -0.077313825,
        0.004134093,
        0.0484963,
        -0.14076763,
        0.01567939,
        0.045689497,
        -0.29079482,
        -0.19918698,
        -0.07178178,
        0.23250747,
        0.07026503,
        -0.00011098803,
        0.061161757,
        -0.01646261,
        0.18017194,
        -0.14618064,
        0.1707768,
        -0.15835822,
        0.38114005,
        -0.40423566,
        0.35255906,
        0.105307795,
        0.36055252,
        0.26859328,
        -0.017965678,
        0.06951836,
        0.055321973,
        0.43221572,
        0.18854211,
        -0.04267087,
        -0.120361194,
        -0.06551656,
        0.21306796,
        0.06342953,
        -0.18720119,
        -0.17108668,
        -0.007284657,
        0.08458822,
        0.047020476,
        -0.08272256,
        0.027601404,
        -0.22216977,
        -0.006164435,
        0.11708859,
        -0.02245264,
        0.1662219,
        -0.115578756,
        -0.25296843,
        0.29497248,
        0.3664044,
        0.19828293,
        -0.1911417,
        -0.008052124,
        0.14899072,
        -0.1405616,
        -0.10493158,
        -0.15046579,
        0.057934437,
        -0.19580588,
        -0.0032074528,
        0.047284156,
        -0.16050464,
        -0.038893804,
        0.11178863,
        -0.2747596,
        0.07324854,
        0.094175935,
        0.15956366,
        -0.10218429,
        0.18124619,
        -0.15766756,
        0.14254957,
        0.18082432,
        -0.22752146,
        -0.073640704,
        0.16494612,
        -0.068177916,
        0.013984795,
        -0.16250934,
        0.0012879347,
        -0.15914756,
        0.04008803,
        -0.09699605,
        -0.16699891,
        -0.038527403,
        -0.052311115,
        0.167201,
        -0.08843798,
        0.03136378,
        0.071255274,
        0.024293153,
        -0.19538857,
        0.012866547,
        -0.18126069,
        0.043071393,
        -0.02686878,
        -0.038221635,
        -0.055620905,
        0.118474156,
        0.24994427,
        -0.12037827,
        0.029101228,
        -0.061450068,
        0.003560191,
        -0.12954044,
        0.0542022,
        0.3600396,
        -0.1885807,
        -0.23469707,
        -0.028222768,
        0.088768296,
        -0.0012638906,
        -0.16460666,
        0.13821276,
        0.14980511,
        -0.1158908,
        0.077816,
        -0.3164828,
        0.15943125,
        -0.14081314,
        0.1994384,
        -0.075198956,
        -0.0040784907,
        -0.21979493,
        0.34016615,
        0.16616838,
        0.091572344,
        0.07568714,
        -0.067061044,
        -0.030854946,
        0.1331803,
        0.14849432,
        0.13409014,
        -0.07242265,
        0.15568723,
        -0.033670396,
        -0.1193517,
        -0.03454465,
        -0.07232585,
        -0.24048226,
        0.03822538,
        -0.16282757,
        0.061220817,
        -0.17717573,
        -0.19164187,
        -0.30511108,
        0.037910048,
        -0.08054137,
        -0.146531,
        -0.21943294,
        0.23496053,
        0.19066909,
        -0.16211055,
        0.1967874,
        -0.124051385,
        0.017564101,
        0.1631002,
        0.1507494,
        0.10489422,
        -0.1438584,
        0.10705276,
        0.015908027,
        0.17078902,
        0.066263326,
        0.16954991,
        -0.11562131,
        -0.31019673,
        0.046608113,
        -0.09496474,
        0.025644727,
        0.16578762,
        -0.124012284,
        0.089877605,
        0.034628075,
        0.21701646,
        0.36341178,
        0.008221419,
        0.038846165,
        0.10616342,
        0.04474299,
        0.015388146,
        0.23578225,
        -0.1742244,
        0.14815807,
        -0.11242016,
        0.020622801,
        0.12152331,
        -0.13191037,
        -0.18697909,
        0.16498677,
        -0.046842657,
        0.10448136,
        0.20684147,
        -0.11828163,
        -0.027372032,
        -0.015495428,
        -0.18256815,
        0.14510758,
        0.26699042,
        -0.19590405,
        -0.21181025,
        0.03760971,
        0.027186623,
        0.055239566,
        0.14943618,
        0.0053254226,
        -0.13019627,
        -0.0041900342,
        0.09075107,
        -0.22675408,
        0.1580672,
        0.29938486,
        -0.112372406,
        -0.031472187,
        0.07961156,
        -0.035228398,
        -0.21995671,
        -0.0014374148,
        0.15691298,
        0.2407461,
        0.22044541,
        -0.07442864,
        0.030562256,
        -0.09146507,
        0.14665015,
        -0.010253268,
        -0.21498483,
        0.15381716,
        0.21904625,
        0.060793467,
        0.044171385,
        0.15379198,
        -0.026827995,
        -0.065811835,
        -0.2696644,
        0.18014948,
        -0.13632579,
        0.20487456,
        0.03416637,
        -0.18737675,
        -0.22714354,
        -0.05709818,
        -0.019712372,
        -0.0733679,
        0.07615765,
        0.0737343,
        0.010852027,
        -0.20901594,
        -0.19819838,
        0.005993422,
        0.26601952,
        -0.071125254,
        0.11006746,
        0.050605014,
        -0.21528283,
        0.207571,
        0.037542094,
        0.18125662,
        -0.025582373,
        -0.37750703,
        0.15127742,
        0.20320764,
        0.006740555,
        0.09358416,
        0.03605667,
        0.053323593,
        0.11702122,
        -0.2831211,
        0.08652684,
        0.17915468,
        0.2500047,
        -0.30736896,
        -0.02683367,
        -0.20621565,
        -0.20735489,
        -0.35710934,
        0.11814296,
        0.061720137,
        -0.01608793,
        0.113023594,
        0.091640554,
        -0.002110965,
        -0.024355859,
        -0.048904452,
        -0.2001551,
        0.098599896,
        -0.03989188,
        -0.24874501,
        0.30988827,
        -0.1728869,
        -0.20491734,
        -0.14440013,
        -0.026550874,
        0.021567987,
        0.18593736,
        -0.044730306,
        -0.20182137,
        0.0013813993,
        0.034921877,
        0.03846001,
        0.1175507,
        0.3385499,
        0.045020387,
        -0.07373827,
        -0.12075967,
        -0.11948473,
        -0.06283434,
        -0.01758512,
        -0.2037013,
        0.12345828,
        0.0004638754,
        0.061323885,
        0.061458822,
        -0.2655835,
        -0.114913516,
        0.031992678,
        -0.28596577,
        0.1538579,
        -0.09659836,
        0.23536855,
        0.21327408,
        -0.24711414,
        0.17880772,
        0.07202041,
        0.2535149,
        0.093819186,
        0.020799197,
        0.1928291,
        -0.29006875,
        0.00018840835,
        -0.17816932,
        -0.084087014,
        -0.070585385,
        0.12304573,
        0.11020699,
        0.056685492,
        -0.030750288,
        -0.010485846,
        0.086666875,
        0.13517173,
        -0.101061516,
        -0.30515087,
        -0.17056811,
        0.015737277,
        -0.037628416,
        0.0081408955,
        0.13023047,
        0.1660978,
        0.23665051,
        0.32145315,
        -0.11243199,
        0.21514156,
        -0.17567341,
        -0.008529011,
        0.014684726,
        -0.1275884,
        -0.11854532,
        0.07496545,
        -0.026001865,
        -0.23793928,
        0.16942875,
        0.07233161,
        -0.005579905,
        0.1035458,
        0.22235115,
        0.04694414,
        -0.08569588,
        -0.18390608,
        -0.14065985,
        -0.13652825,
        -0.15534985,
        0.009964755,
        0.044175103,
        0.20312764,
        0.17954808,
        -0.025820563,
        -0.10387512,
        0.06390929,
        0.10507633,
        0.034620054,
        -0.16442151,
        0.007664372,
        0.033916954,
        -0.015998073,
        -0.06738131,
        -0.042075593,
        -0.079139106,
        0.12833624,
        0.20125951,
        0.037018392,
        -0.014943196,
        0.0030064704,
        0.063455194,
        -0.08037012,
        0.2771097,
        0.09394889,
        0.21129957,
        -0.05299253,
        0.12212475,
        -0.1350265,
        0.23673514,
        0.040095083,
        0.11466362,
        -0.24515565,
        -0.20936435,
        -0.08874908,
        0.13356572,
        -0.011148788,
        0.15738961,
        0.08273469,
        0.13978352,
        -0.17178318,
        -0.059129436,
        0.064097434,
        -0.25641418,
        0.3176833,
        0.023969376,
        -0.19684921,
        -0.0150392605,
        0.15071458,
        0.03378277,
        0.29410887,
        0.20529181,
        -0.0054795686,
        0.15932916,
        -0.26207823,
        -0.32755807,
        -0.04864342,
        0.042662363,
        0.1196759,
        0.038296163,
        -0.20345491,
        -0.007540529,
        0.27789873,
        0.20291394,
        -0.14064813,
        0.018305352,
        0.044378106,
        0.22975941,
        -0.026717193,
        0.098564014,
        0.04248461,
        0.07211328,
        -0.17053711,
        0.17005874,
        0.17741849,
        0.20910126,
        0.2046057,
        0.05052613,
        -0.109244294,
        -0.07230499,
        0.19125354,
        0.057216547,
        -0.17028326,
        -0.15214558,
        0.14343537,
        -0.0508285,
        -0.0667813,
        -0.21640657,
        0.085221834,
        0.21084642,
        -0.013206006,
        0.12193746,
        -0.22929603,
        0.10734093,
        -0.08713326,
        0.0759074,
        0.14483726,
        -0.15252465,
        0.11463756,
        -0.17457385,
        -0.10394229,
        -0.00622335,
        0.15733589,
        -0.032415967,
        -0.3994168,
        0.032945577,
        0.014401792,
        0.16770878,
        -0.011270781,
        0.08231234,
        0.14322224,
        0.07896034,
        -0.010533675,
        0.18976817,
        -0.2209428,
        0.07648701,
        -0.06626952,
        -0.016636329,
        0.033841625,
        0.116378404,
        -0.053325694,
        0.12983178,
        -0.076327376,
        0.12024755,
        -0.10214945,
        0.05954736,
        -0.26922658,
        0.24891861,
        -0.04587292,
        -0.097002864,
        0.054568615,
        0.04983582,
        0.38554618,
        0.22965798,
        0.14106919,
        -0.032749526,
        -0.08312144,
        0.02070737,
        -0.008190587,
        -0.23322701,
        0.06270125,
        -0.08424429,
        0.15055446,
        0.13375404,
        -0.0019332911,
        -0.016856749,
        -0.2341829,
        0.0655501,
        -0.003997222,
        -0.058694612,
        -0.17371485,
        -0.07194619,
        -0.20472828,
        0.22316276,
        0.13709383,
        -0.12505236,
        0.08355498,
        -0.05356022,
        0.24867928,
        -0.27624565,
        0.14141497,
        0.16833487,
        -0.009602873,
        0.049360026,
        -0.015979037,
        0.22529182,
        -0.12471815,
        0.12888461,
        -0.3859385,
        0.08060726,
        -0.015894199,
        0.124435894,
        -0.28786308,
        -0.19252335,
        0.057941653,
        -0.31240973,
        -0.17948824,
        0.006394318,
        -0.29381037,
        0.22319594,
        -0.030528711,
        0.15098748,
        -0.1489904,
        0.18870717,
        0.04458411,
        0.03895794,
        0.021045366,
        -0.1851874,
        -0.06279703,
        0.061820116,
        -0.1639708,
        0.11295026,
        -0.04036265,
        0.10123768,
        -0.10377654,
        0.059880037,
        0.11132347,
        0.10281746,
        0.21791856,
        -0.24378175,
        0.07624571,
        -0.25636357,
        0.0029342154,
        -0.050928306,
        -0.10705767,
        -0.324363,
        -0.09741416,
        0.23957278,
        -0.044403348,
        0.29841402,
        -0.1089133,
        0.18608865,
        0.055451114,
        0.1448223,
        0.30977648,
        -0.03512498,
        -0.064897515,
        -0.045831494,
        0.025016548,
        -0.29793036,
        -0.085673645,
        -0.034206346,
        0.043626968,
        0.0199581,
        -0.21161917,
        -0.13063876,
        -0.11096493,
        0.0664665,
        0.10225959,
        0.30410963,
        0.15850987,
        0.08547614,
        -0.20677233,
        0.18973467,
        0.046577286,
        0.09646381,
        -0.1663622,
        0.19249636,
        -0.2501762,
        -0.087794304,
        -0.13926823,
        -0.13561271,
        -0.21030936,
        0.07049929,
        -0.05805284,
        -0.14202094,
        -0.03906961,
        0.019918624,
        -0.11780013,
        0.015235617,
        -0.02422645,
        -0.016529432,
        -0.09961744,
        -0.1770979,
        0.01273713,
        -0.07372843,
        -0.24003759,
        -0.50284,
        -0.122160725,
        -0.32425427,
        -0.14987208,
        0.11113781,
        -0.22472976,
        0.019409211,
        0.031429615,
        0.010761476,
        0.21448743,
        -0.06362531,
        0.13058822,
        0.08812749,
        0.16033016,
        0.0050045825,
        -0.032041177,
        0.028070018,
        -0.108806975,
        -0.019656133,
        0.3670903,
        -0.19374627,
        0.16945189,
        -0.23407002,
        0.1551375,
        0.34991792,
        0.34554848,
        0.1985642,
        0.015260504,
        -0.089392856,
        0.112789564,
        -0.0128163565,
        -0.3011859,
        0.029124277,
        0.27813706,
        -0.044678707,
        0.053771634,
        0.22887702,
        -0.2985857,
        -0.046491485,
        0.12942283,
        -0.018565217,
        -0.054050922,
        0.071598954,
        0.08213191,
        -0.24273448,
        -0.2149111,
        0.027222594,
        -0.33150193,
        -0.122302,
        0.35616326,
        0.08190314,
        -0.011909868,
        0.024914328,
        -0.22935034,
        0.023246903,
        -0.14477353,
        0.28132147,
        -0.36553484,
        0.034521107,
        -0.40252778,
        0.012646595,
        -0.28941527,
        0.069178015,
        0.11508777,
        0.010666287,
        -0.11292503,
        -0.061661173,
        -0.07256825,
        -0.18186945,
        -0.006027611,
        -0.06723602,
        -0.054173,
        -0.009735646,
        0.3156628,
        0.0633054,
        -0.20947652,
        -0.26894215,
        0.024990356,
        -0.1697276,
        0.17040639,
        -0.036285445,
        0.09650604,
        0.12157207,
        -0.08316798,
        -0.17313653,
        0.25822994,
        -0.054686844,
        0.028116314,
        0.57417536,
        0.03510456,
        0.20283878,
        -0.31927297,
        -0.12607978,
        0.20552945,
        0.13578883,
        0.053189624,
        0.04705304,
        0.24971412,
        0.017269595,
        0.1180706,
        0.079766124,
        -0.07949473,
        -0.20794024,
        -0.239592,
        -0.34581843,
        0.1346402,
        -0.06014778,
        -0.052291624,
        0.1040571,
        -0.086124524,
        -0.097246,
        -0.2178497,
        -0.35063103,
        -0.05767524,
        -0.04103666,
        0.15708588,
        -0.112774216,
        0.44989058,
        -0.12093617,
        -0.19316699,
        -0.28269777,
        -0.23892629,
        -0.2699995,
        0.26098266,
        -0.20298873,
        0.38597524,
        -0.06822996,
        -0.335573,
        0.4719044,
        0.056573343,
        0.098534614,
        -0.13618678,
        -0.13274404,
        0.0012857404,
        -0.1485699,
        0.104946025,
        0.01985961,
        -0.3217835,
        -0.044942558,
        -0.13049777,
        0.16258883,
        -0.10340425,
        -0.05048259,
        -0.13081668,
        0.21748455,
        0.40001303,
        -0.16910231,
        0.38623145,
        0.037784535,
        -0.16264676,
        0.34410527,
        0.25921574,
        -0.19860624,
        -0.38141927,
        0.5097459,
        -0.25732726,
        0.07161732,
        -0.11197247,
        -0.059009675,
        0.031483877,
        -0.3156283,
        0.0013093661,
        0.27086893,
        0.3648418,
        -0.20284751,
        0.005276429,
        -0.18577851,
        0.35275108,
        0.06606899,
        0.03027628,
        0.09001014,
        -0.05248076,
        -0.0070579844,
        0.19966036,
        0.01175231,
        -0.26066008,
        -0.13995269,
        -0.06127238,
        -0.13224176,
        0.2588731,
        -0.03963966,
        0.09558105,
        -0.1451885,
        0.06915228,
        0.12816077,
        0.20716022,
        0.16426983,
        -0.14952509,
        0.097211935,
        0.25487933,
        0.29629984,
        0.2940079,
        0.08273949,
        0.31174532,
        -0.064440124,
        -0.23227777,
        0.09926255,
        0.11385734,
        0.37948352,
        0.009704952,
        0.080262505,
        0.028698763,
        0.15956782,
        -0.13808577,
        -0.16904825,
        -0.11203305,
        -0.06549784,
        0.061350737,
        -0.15691896,
        0.045288917,
        0.13565534,
        0.004502177,
        0.17404282,
        -0.13894379,
        -0.118897274,
        -0.072539754,
        -0.076932795,
        -0.14769484,
        0.1075105,
        0.045159355,
        -0.0038659016,
        0.023045503,
        0.22521661,
        -0.1526373,
        -0.111517295,
        -0.11599991,
        0.29552412,
        0.2008128,
        0.066563524,
        0.12178384,
        -0.16666406,
        0.13037772,
        0.14538863,
        -0.045296606,
        -0.26145235,
        0.058544468,
        -0.17676222,
        0.13884032,
        0.20193951,
        -0.27029058,
        0.023792304,
        0.17059714,
        0.07391289,
        0.31532022,
        -0.08072903,
        -0.013114875,
        -0.06900936,
        -0.32117406,
        0.10885844,
        -0.25370017,
        0.07087126,
        0.16710028,
        0.21800362,
        -0.07909475,
        0.15677652,
        0.05757415,
        0.12714432,
        -0.090934865,
        0.14228515,
        0.12594539,
        0.22722666,
        0.14636326,
        0.32189277,
        0.07801602,
        -0.204889,
        -0.15791057,
        0.094082706,
        -0.0971003,
        0.15422992,
        0.1433918,
        -0.0010512638,
        -0.116793066,
        0.05154985,
        -0.092541605,
        0.16673028,
        0.15815127,
        -0.105992235,
        0.23720908,
        0.063908786,
        0.06033295,
        -0.012490441,
        -0.25010014,
        -0.3580525,
        -0.046868805,
        0.41033155,
        -0.12493444,
        0.08621466,
        -0.10336032,
        0.0275872,
        0.23128724,
        0.016174318,
        0.001195965,
        0.00090387795,
        0.0031609994,
        0.16356683,
        -0.11264657,
        -0.091200784,
        0.152551,
        0.2042662,
        0.1678575,
        0.04224887,
        -0.24560171,
        -0.19021063,
        -0.16769376,
        0.24532473,
        -0.04736495,
        0.007355709,
        -0.30225828,
        0.032077923,
        -0.1603227,
        -0.25410277,
        -0.135739,
        0.062266108,
        0.031089896,
        -0.040505864,
        0.066297315,
        0.10661251,
        0.02086152,
        -0.13954802,
        0.036837865,
        0.13816135,
        0.085678786,
        0.09082357,
        -0.15478994,
        0.11196855,
        0.25190148,
        -0.11820665,
        -0.19523388,
        -0.0044933725,
        0.37266874,
        -0.035723392,
        0.1530522,
        -0.09773002,
        -0.016354421,
        -0.015030002,
        0.085374765,
        0.27838865,
        0.097117536,
        0.026825193,
        0.3605386,
        0.12755547,
        -0.13835514,
        0.07359384,
        -0.076195545,
        -0.09663202,
        0.11845336,
        -0.11181008,
        -0.21524681,
        0.104400516,
        0.08741258,
        0.12021318,
        0.26179197,
        0.08405049,
        0.1545048,
        0.0521453,
        -0.056283593,
        0.56953114,
        -0.16353121,
        -0.06241836,
        0.04280759,
        0.07595081,
        0.08588765,
        -0.20916998,
        -0.047455035,
        0.0011217712,
        0.1515945,
        -0.015178584,
        -0.046821214,
        0.29923448,
        -0.34700647,
        -0.17176133,
        0.19604751,
        0.20844553,
        -0.23364192,
        0.04350459,
        0.3248732,
        0.031813636,
        0.0006106634,
        -0.04890764,
        0.098164536,
        -0.12759338,
        0.47172302,
        -0.006622377,
        -0.03161151,
        0.04499274,
        0.121425904,
        0.18156695,
        -0.21500106,
        -0.0040401286,
        -0.111373976,
        -0.0041957456,
        -0.31359863,
        -0.021778455,
        -0.008332035,
        -0.12179769,
        -0.24530637,
        0.17599931,
        -0.05648922,
        -0.030611414,
        0.011891418,
        0.0712082,
        -0.034965463,
        0.031877432,
        0.0305958,
        0.22852029,
        -0.0779692,
        -0.008156033,
        0.11665829,
        -0.09822981,
        0.11011755,
        0.08283893,
        0.05990837,
        0.04229582,
        -0.21624455,
        -0.087350465,
        -0.15959348,
        0.020687299,
        0.110946015,
        -0.0704855,
        0.20874652,
        -0.025982436,
        -0.05023663,
        0.015466736,
        0.3151314,
        -0.1962653,
        -0.07074012,
        -0.08648247,
        -0.25432128,
        -0.05402673,
        0.047552954,
        0.15754285,
        0.08890155,
        0.19414401,
        -0.12493271,
        -0.08955591,
        -0.22865403,
        -0.02835895,
        0.25713268,
        0.06706486,
        0.22700065,
        0.17207967,
        0.08800933,
        -0.36963665,
        -0.06610459,
        -0.2761179,
        -0.09589965,
        -0.032490943,
        -0.0057809274,
        -0.20909175,
        0.13711864,
        -0.049572706,
        -0.043625224,
        -0.118689865,
        -0.061473,
        0.094320096,
        -0.040752865,
        0.33183083,
        0.044975422,
        -0.04376832,
        -0.1111812,
        -0.23361322,
        0.14986676,
        -0.03527897,
        -0.06446772,
        0.12583461,
        -0.02742961,
        0.14032102,
        0.11633544,
        -0.079576634,
        0.07267619,
        0.20308863,
        -0.1770585,
        0.007954841,
        0.16959643,
        -0.0972879,
        0.09445842,
        0.10115928,
        -0.13881494,
        -0.10446014,
        0.16765974,
        -0.086744495,
        -0.004653994,
        -0.100688845,
        0.1475757,
        -0.27997646,
        0.042268414,
        0.10332115,
        0.08951275,
        0.29256037,
        0.10139928,
        -0.32488036,
        0.3008868,
        0.13883606,
        0.019432852,
        0.16524853,
        -0.049748246,
        -0.069640845,
        -0.24606684,
        -0.22047743,
        0.059799936,
        -0.17738548,
        -0.086681984,
        0.17327593,
        -0.15479694,
        0.13208559,
        0.038993742,
        -0.02920335,
        -0.106151834,
        -0.0015118306,
        -0.080987856,
        0.2563018,
        -0.040187716,
        -0.047068525,
        -0.050487857,
        0.1411294,
        -0.013441087,
        0.039566964,
        0.3159474,
        0.23471868,
        0.055441286,
        0.31846827,
        0.022896724,
        0.038662456,
        -0.21758899,
        0.06582066,
        -0.11799229,
        -0.00773852,
        0.021108234,
        -0.12394701,
        0.061478034,
        0.13630532,
        -0.1493903,
        0.061970722,
        -0.43564308,
        -0.25299224,
        0.12882455,
        0.21509452,
        0.101565205,
        -0.0801726,
        -0.15053602,
        -0.20383418,
        -0.091912724,
        0.17565346,
        -0.14626403,
        0.47913575,
        0.09105725,
        0.33870482,
        0.17673141,
        0.15246002,
        -0.10218032,
        -0.20002215,
        -0.08537584,
        0.070982836,
        0.26326725,
        0.17080235,
        -0.16458224,
        -0.09892703,
        0.21245071,
        0.12699519,
        -0.065621234,
        -0.18787178,
        0.09519544,
        0.16114815,
        -0.034210134,
        -0.118784085,
        0.022349194,
        0.33144614,
        0.16127609,
        0.062138714,
        0.011453346,
        -0.27727038,
        0.12180621,
        0.36625543,
        0.111153565,
        0.090093516,
        0.15158589,
        -0.06781575,
        0.054987185,
        -0.12940589,
        0.25238907,
        0.16687687,
        0.32732308,
        0.011811741,
        0.15871316,
        0.15051773,
        -0.063805476,
        0.12538184,
        0.2166917,
        -0.11752173,
        -0.024422208,
        -0.1839414,
        -0.18824881,
        -0.1039347,
        -0.051142406,
        0.20781578,
        0.037333768,
        -0.068284266,
        -0.051161878,
        -0.023089794,
        -0.15979241,
        0.0151582705,
        0.03617301,
        0.23704866,
        0.04196263,
        0.10479967,
        -0.19326454,
        -0.035372037,
        0.055554826,
        -0.1753643,
        -0.024415856,
        0.040008795,
        0.26712662,
        0.09367252,
        -0.19261697,
        -0.0025573007,
        0.064165324,
        0.0769054,
        0.07238054,
        0.026722878,
        -0.043989114,
        -0.13484591,
        -0.057767004,
        -0.12056974,
        -0.019598138,
        -0.20634171,
        -0.032620445,
        0.12105945,
        -0.057308163,
        0.0047924733,
        -0.11778838,
        0.03656055,
        -0.189002,
        0.098863885,
        -0.020699859,
        -0.0677265,
        -0.013992414,
        -0.104953505,
        0.070651025,
        0.1329366,
        -0.05946373,
        -0.0151382545,
        0.071285486,
        0.16912287,
        0.16833755,
        -0.040619154,
        -0.14258495,
        -0.23702289,
        0.061883084,
        0.034866437,
        -0.034574054,
        0.095303394,
        -0.15406504,
        0.04386825,
        -0.18146437,
        -0.06735876,
        0.027392235,
        0.24365698,
        -0.1524764,
        0.0075491737,
        0.13287874,
        -0.019686336,
        0.1890108,
        0.15808621,
        -0.016386459,
        -0.12469309,
        0.34107447,
        -0.22451422,
        -0.052310675,
        0.14076826,
        0.18808036,
        0.319136,
        -0.01339962,
        0.19124344,
        -0.13840845,
        -0.06475735,
        0.14252667,
        0.043540183,
        -0.1649199,
        0.2364886,
        0.031726103,
        -0.13080372,
        -0.17142265,
        0.18933843,
        0.26753175,
        0.064806804,
        0.16817039,
        -0.1975058,
        0.001983455,
        -0.049956493,
        0.20165963,
        -0.012238401,
        0.12197136,
        -0.26280138,
        0.11693862,
        -0.18502171,
        -0.1902964,
        -0.17058696,
        0.054459423,
        -0.11849221,
        0.02457189,
        -0.025547843,
        -0.112038516,
        -0.014932777,
        0.008240407,
        0.28999215,
        0.039656878,
        -0.03056828,
        -0.09376255,
        0.002429229,
        -0.07883691,
        0.1350777,
        0.31561,
        0.043393984,
        -0.022167929,
        0.02971148,
        0.053190537,
        -0.08677441,
        -0.019741695,
        0.17012616,
        -0.027037544,
        0.048296057,
        -0.06432234,
        -0.0034100718,
        -0.117579296,
        0.026798356,
        -0.14211056,
        -0.13148116,
        0.002153458,
        0.11313186,
        0.40987602,
        0.035245016,
        -0.15114686,
        -0.1071268,
        -0.19553594,
        -0.02345813,
        -0.12152786,
        -0.0491404,
        -0.12800239,
        0.10323618,
        -0.18091556,
        0.1470564,
        0.013785737,
        -0.03940387,
        -0.030496856,
        0.0024049198,
        0.053441584,
        0.16113487,
        -0.12649673,
        0.26302907,
        0.2596973,
        -0.029263137,
        0.10953136,
        -0.07922629,
        -0.13403869,
        -0.2985214,
        0.44414654,
        -0.030594636,
        0.1771553,
        -0.034933176,
        -0.031399343,
        0.39619818,
        -0.03203909,
        0.040166814,
        -0.115692556,
        -0.3000613,
        -0.05816379,
        -0.27172396,
        -0.059646025,
        0.22714378,
        0.049642686,
        0.091722734,
        0.22097722,
        -0.00021430005,
        0.069611676,
        0.22344124,
        -0.13573731,
        0.09653839,
        -0.044972967,
        0.008143337,
        -0.18916404,
        0.06225292,
        0.31840903,
        -0.110507004,
        0.22242378,
        0.0786914,
        0.26820683,
        0.016775705,
        -0.13387778,
        0.05782013,
        0.000868743,
        0.008725902,
        -0.37242553,
        0.050282456,
        0.017768398,
        0.003007566,
        -0.21156223,
        -0.25498098,
        -0.116299815,
        0.08552996,
        0.06055531,
        0.059096456,
        0.23516886,
        -0.059854183,
        0.02020906,
        -0.10793733,
        -0.106283136,
        0.30844963,
        0.19858469,
        0.014513768,
        0.06520695,
        0.23307802,
        0.18448123,
        0.21882118,
        0.07768799,
        -0.13565697,
        0.19090335,
        -0.030236548,
        0.12913181,
        0.1210871,
        0.09523351,
        -0.16073903,
        -0.0712758,
        0.06144978,
        -0.10024223,
        0.08787645,
        0.22889884,
        0.02743306,
        -0.04055936,
        -0.024468122,
        0.33767286,
        0.3112407,
        -0.08193848,
        0.20141754,
        0.37275478,
        -0.1673626,
        0.3053482,
        0.19110385,
        0.17918172,
        0.08860368,
        -0.20822352,
        0.00067118387,
        -0.035587896,
        -0.15185902,
        -0.021983253,
        -0.08008536,
        0.012992887,
        -0.09963289,
        0.26229167,
        -0.20925593,
        0.03400682,
        -0.08110093,
        0.022247987,
        0.12790816,
        0.043726373,
        0.111648075,
        0.17844358,
        0.24256872,
        -0.15069857,
        0.035745118,
        0.015613251,
        0.17250344,
        -0.11644535,
        0.08341481,
        0.09334226,
        -0.117878616,
        0.15426116,
        0.06417416,
        -0.028433185,
        0.03316303,
        0.09356257,
        0.059854783,
        -0.29838738,
        0.1214908,
        0.14605385,
        0.16077691,
        0.048283365,
        -0.07746575,
        -0.1733518,
        -0.2235338,
        0.45970932,
        -0.18863033,
        0.086004324,
        -0.006885313,
        -0.25415826,
        -0.045273557,
        0.1579897,
        0.059436608,
        0.11966656,
        0.14374143,
        0.020606322,
        0.15020998,
        -0.13511689,
        -0.08191591,
        -0.08480219,
        0.1432191,
        -0.006177056,
        -0.094593875,
        0.04179985,
        0.37483793,
        -0.14399971,
        0.18532476,
        -0.28820923,
        0.20078695,
        -0.08742409,
        0.27158114,
        0.102024585,
        -0.058908798,
        0.15330943,
        0.10316061,
        -0.13443013,
        0.12350403,
        -0.080176085,
        0.11654086,
        0.2006907,
        0.22108021,
        -0.021218339,
        0.028558707,
        -0.007688524,
        0.31577986,
        0.063563645,
        -0.07751354,
        0.14946781,
        0.14821689,
        0.037134465,
        0.16388986,
        -0.35016334,
        0.037880953,
        0.041680325,
        -0.12964335,
        -0.06367242,
        -0.08793636,
        0.07185445,
        -0.026267085,
        0.14652799,
        0.075020045,
        0.043723267,
        -0.028458009,
        -0.48009118,
        -0.24759138,
        -0.015351924,
        0.18709245,
        -0.0042301835,
        0.25843558,
        -0.12992099,
        -0.24983943,
        0.029337497,
        0.112450495,
        -0.21191365,
        0.1152733,
        -0.12309421,
        -0.11926884,
        0.3976605,
        0.23783115,
        0.0064360467,
        -0.02362947,
        -0.052668914,
        -0.011030822,
        -0.00040673773,
        0.13997157,
        -0.15047608,
        -0.132513,
        0.040931154,
        0.05083159,
        0.19580138,
        0.018959463,
        -0.018658439,
        0.014654425,
        -0.026369207,
        0.55556464,
        -0.14332484,
        -0.059550676,
        -0.03692079,
        0.06634925,
        -0.13856572,
        -0.015647955,
        0.117167875,
        -0.10224409,
        0.17001145,
        0.017900893,
        0.11106711,
        -0.19712244,
        -0.55344903,
        -0.05671806,
        0.1831296,
        -0.02014061,
        0.024575567,
        0.02520667,
        -0.2028686,
        -0.025632786,
        -0.088296555,
        -0.17869514,
        -0.07978506,
        0.2467839,
        0.15337436,
        0.29090968,
        0.24586257,
        -0.20424584,
        0.14349611,
        -0.03824112,
        0.30808032,
        0.08194747,
        -0.2333389,
        -0.10669444,
        -0.16127698,
        0.12751481,
        -0.17973407,
        0.10504978,
        0.28894755,
        -0.13991621,
        -0.04533539,
        -0.14258784,
        -0.17916782,
        0.19714022,
        -0.01371191,
        -0.12744394,
        -0.26429072,
        -0.17734738,
        -0.0038995054,
        -0.099481665,
        -0.13019235,
        0.10554335,
        0.260225,
        -0.09617329,
        0.24898604,
        0.09507151,
        -0.2173955,
        -0.22332041,
        -0.05398333,
        0.21762496,
        -0.0797558,
        0.055067092,
        -0.17625912,
        0.15055987,
        0.026642026,
        -0.08213387,
        -0.26213178,
        0.19395828,
        0.011142853,
        0.050846424,
        0.06734727,
        -0.23649827,
        -0.08473545,
        0.08246344,
        0.05426094,
        -0.024183126,
        -0.07388869,
        0.10452904,
        0.18057074,
        -0.005138574,
        -0.05862191,
        0.14938864,
        0.008745632,
        -0.107169144,
        -0.0029392943,
        -0.054164585,
        -0.023675686,
        0.017069358,
        0.10744581,
        0.15461138,
        -0.0005945634,
        -0.37581006,
        0.049201004,
        0.11665699,
        0.12014745,
        -0.021083908,
        0.024902845,
        -0.033437617,
        0.011014479,
        0.02222599,
        0.0680713,
        0.3247963,
        0.35661763,
        -0.086696364,
        0.2887327,
        -0.0008938332,
        -0.018202906,
        0.20649812,
        -0.16190724,
        -0.06614116,
        -0.11713566,
        0.109148614,
        -0.036723103,
        0.15586133,
        -0.081606925,
        -0.32642356,
        0.049249407,
        -0.1157401,
        -0.20486034,
        0.16858764,
        -0.031037403,
        0.10335425,
        0.031687424,
        0.10963398,
        -0.13138388,
        -0.085377954,
        0.07358976,
        -0.13348243,
        -0.14694747,
        -0.124601476,
        0.13286331,
        -0.105575845,
        0.009155527,
        -0.12016201,
        0.15951954,
        0.0601065,
        0.16363214,
        0.34867215,
        0.15075094,
        0.014993052,
        0.22284234,
        0.16955219,
        0.101203255,
        0.25790244,
        0.080198124,
        0.2428002,
        0.2472291,
        -0.16159695,
        -0.1460083,
        0.26346737,
        -0.057465434,
        -0.24872005,
        -0.2481059,
        0.14312941,
        -0.14384888,
        0.25269884,
        -0.12712577,
        0.35228541,
        0.30601653,
        0.098640665,
        0.12981823,
        -0.23067102,
        0.14433736,
        0.08597833,
        -0.038422674,
        0.10829729,
        0.27746367,
        -0.059465792,
        0.212041,
        0.094017185,
        -0.13323174,
        -0.010245164,
        -0.019430535,
        0.31165892,
        -0.019670302,
        0.07060231,
        0.132853,
        0.02046107,
        0.1587954,
        -0.0689169,
        0.031961873,
        -0.07444684,
        0.011783779,
        0.08654314,
        0.03437201,
        -0.21193941,
        -0.09155292,
        0.136167,
        -0.030973751,
        0.16948909,
        0.24420227,
        0.10322789,
        -0.031149777,
        -0.33649695,
        -0.23953994,
        -0.09678382,
        -0.301705,
        0.14404449,
        0.048273437,
        -0.25112614,
        -0.13647196,
        0.12150094,
        0.24063198,
        -0.0063652713,
        -0.25681582,
        -0.14896137,
        -0.07111922,
        -0.1427819,
        0.17226157,
        0.11824657,
        -0.027071422,
        0.064112075,
        -0.26532403,
        -0.11151978,
        0.09491014,
        0.028516853,
        -0.25418615,
        -0.17307496,
        0.28078052,
        0.032906108,
        0.116378695,
        -0.15500551,
        -0.040258124,
        -0.24644178,
        0.019259665,
        -0.24671015,
        -0.07543609,
        -0.064673185,
        0.3692136,
        0.13182977,
        -0.0136480965,
        -0.12050338,
        -0.046032302,
        0.10974578,
        0.30412713,
        -0.18597583,
        -0.14209399,
        0.250631,
        -0.1447621,
        -0.043848332,
        0.12298088,
        -0.324785,
        -0.17578684,
        0.051847618,
        -0.25144428,
        0.23066448,
        -0.0645593,
        0.07648122,
        -0.1848509,
        -0.07914438,
        0.09665448,
        0.20540585,
        -0.052822687,
        -0.017120073,
        0.09207389,
        0.21964747,
        -0.09907489,
        0.17549407,
        0.06708161,
        -0.23152335,
        0.014688236,
        0.08815036,
        0.13512397,
        -0.31669652,
        -0.12076166,
        0.08795614,
        -0.12787613,
        0.13747181,
        0.12711443,
        -0.18763861,
        0.123496324,
        -0.009181178,
        0.035737827,
        0.0743356,
        0.17789073,
        0.20120414,
        0.21400447,
        0.025544023,
        0.06900635,
        -0.10170176,
        -0.054939345,
        0.2612687,
        -0.23322332,
        0.16688654,
        0.31997716,
        0.0065561505,
        0.0389691,
        0.053552818,
        -0.17785443,
        0.22970068,
        -0.15098196,
        0.112694494,
        0.04322884,
        0.17254505,
        0.38545153,
        -0.073322184,
        0.07133477,
        0.20603923,
        -0.3469911,
        0.08009934,
        0.26277977,
        -0.14470951,
        0.14090256,
        0.051872123,
        -0.17397146,
        -0.005126981,
        0.10604495,
        0.08650463,
        0.26451278,
        -0.12357481,
        -0.08552311,
        0.005454881,
        -0.09379378,
        -0.11504261,
        0.5354271,
        0.0034289125,
        0.072860524,
        0.035983514,
        0.057092227,
        0.0361399,
        -0.18364494,
        -0.15207009,
        -0.0006216782,
        0.067652166,
        -0.18502603,
        -0.30025285,
        0.32986426,
        0.08027139,
        -0.24844147,
        -0.08450261,
        0.077405155,
        -0.07056827,
        -0.09710088,
        0.010800782,
        -0.057765216,
        -0.17570843,
        -0.21307316,
        -0.051997054,
        0.2290564,
        0.17496863,
        0.0006783237,
        0.19128564,
        0.097571425,
        -0.06909868,
        -0.14761384,
        -0.007876015,
        0.14408302,
        0.07027478,
        0.06418116,
        -0.025928104,
        -0.22624153,
        -0.044300377,
        0.028292356,
        0.23527972,
        -0.04746685,
        0.062242825,
        -0.17407836,
        -0.027031155,
        -0.023538344,
        0.029685315,
        0.08568109,
        0.18391643,
        0.09062354,
        0.20285808,
        0.047431,
        0.03986808,
        -0.23145548,
        0.30801842,
        0.16137098,
        0.19634636,
        -0.018798146,
        -0.18775192,
        0.15180957,
        0.16035053,
        -0.09419015,
        -0.27864435,
        -0.13195443,
        0.063908845,
        -0.19202684,
        -0.31879544,
        -0.105694436,
        0.16289255,
        0.2602208,
        -0.33248693,
        -0.40284204,
        0.039056808,
        0.06934268,
        -0.15066427,
        0.0261368,
        -0.05050507,
        -0.017734854,
        -0.08079475,
        -0.0098296935,
        0.057258807,
        0.2677889,
        0.18489099,
        -0.10237468,
        -0.15128632,
        0.0036974885,
        0.19539703,
        -0.0063959477,
        0.08527496,
        -0.045325827,
        -0.14166887,
        -0.074904434,
        0.07168145,
        0.28070685,
        -0.059753045,
        0.13278425,
        -0.15627715,
        -0.08357422,
        -0.37079215,
        0.0036327483,
        -0.22102849,
        -0.04502586,
        0.10980015,
        -0.014731474,
        0.054381926,
        -0.22728437,
        -0.172669,
        0.014961322,
        -0.25207865,
        -0.111183055,
        -0.16843186,
        0.16208395,
        -0.22293442,
        -0.18728106,
        -0.012784352,
        -0.10487278,
        0.054393962,
        -0.18147564,
        -0.31179368,
        -0.0517696,
        0.16589954,
        0.14776254,
        -0.03776061,
        -0.15061621,
        -0.22248732,
        -0.038215358,
        0.25548515,
        -0.14712636,
        -0.23528858,
        0.08694726,
        0.32194543,
        0.085892476,
        0.13400006,
        -0.009022805,
        0.13080515,
        0.25788444,
        -0.2137005,
        0.12503594,
        0.07792018,
        -0.04994679,
        0.31832173,
        0.148828,
        -0.11564154,
        -0.19844204,
        -0.13118978,
        0.026961114,
        -0.14049746,
        0.0864712,
        0.021011937,
        0.11678446,
        0.18444432,
        0.3121486,
        -0.013570274,
        -0.08116923,
        0.32733092,
        -0.087061055,
        0.23418032,
        0.1778628,
        -0.20286828,
        0.03352157,
        0.2624252,
        0.13506493,
        -0.12445491,
        0.03890299,
        0.15712522,
        0.18110774,
        0.2456491,
        0.18860932,
        0.08010182,
        0.047410056,
        -0.08927061,
        -0.008669591,
        -0.112624444,
        0.29796502,
        -0.34214315,
        -0.10973178,
        0.1373627,
        -0.029968645,
        -0.033954896,
        -0.22090009,
        -0.035614554,
        0.12091993,
        -0.2773784,
        0.029662045,
        0.012392522,
        0.23046295,
        -0.24624301,
        0.05717337,
        0.005183268,
        0.10710337,
        0.31485415,
        0.08995925,
        0.32839617,
        0.078763366,
        -0.04792844,
        0.24653433,
        0.023778157,
        -0.120284565,
        0.046815448,
        0.036073,
        0.18262368,
        0.05826506,
        0.18466513,
        -0.005485785,
        -0.12623806,
        -0.051177002,
        0.19779664,
        -0.22088559,
        -0.12306353,
        0.2918309,
        0.032183435,
        -0.14400811,
        -0.063174,
        0.141441,
        0.104378074,
        -0.038953204,
        0.008755427,
        0.15390341,
        0.010456363,
        0.023519238,
        -0.17235067,
        0.1138769,
        0.13692963,
        0.09361292,
        0.09521052,
        -0.33627293,
        -0.04362362,
        0.14276771,
        0.22743592,
        -0.079505,
        0.09502079,
        -0.16320807,
        -0.16942015,
        0.0011137694,
        0.10212381,
        -0.16462833,
        -0.05554553,
        0.047510803,
        -0.16278102,
        -0.17892651,
        0.15606557,
        -0.06766769,
        0.017648103,
        -0.03973734,
        0.14912161,
        -0.10860912,
        0.22486487,
        -0.057093717,
        0.039689522,
        -0.06146975,
        -0.12904838,
        0.17203279,
        0.199579,
        0.05698506,
        0.1640624,
        0.025677184,
        0.079632096,
        0.17495853,
        0.16608478,
        0.11840925,
        -0.10809561,
        0.19954863,
        0.13342917,
        -0.009108759,
        0.1278118,
        -0.13690075,
        0.16353352,
        0.10714132,
        0.12879288,
        -0.2361568,
        0.16705598,
        -0.027682668,
        0.13374642,
        0.3896124,
        0.31104332,
        0.26257533,
        -0.27866212,
        -0.13321626,
        0.027357945,
        -0.04602063,
        -0.0025558004,
        0.11666144,
        0.06347352,
        -0.29643542,
        0.10093631,
        -0.11339346,
        0.15144445,
        -0.09265002,
        0.12118787,
        0.27577922,
        -0.07361604,
        0.008850757,
        0.14443286,
        0.09552497,
        0.15426154,
        -0.09512025,
        0.2307725,
        0.40500125,
        -0.2968622,
        0.0049728006,
        0.032729942,
        0.059398197,
        0.14357442,
        0.06361578,
        -0.18887463,
        0.27652448,
        0.20337951,
        0.06881454,
        0.034776077,
        -0.1699281,
        0.057483166,
        0.17209351,
        0.13036057,
        0.07543165,
        -0.005672492,
        -0.12044507,
        -0.033058416,
        -0.079716384,
        0.02943309,
        0.46915606,
        0.089275226,
        -0.15599835,
        -0.03041288,
        -0.23315926,
        0.14326978,
        0.18949616,
        0.048685227,
        -0.1622864,
        0.18435794,
        0.08220763,
        -0.2952697,
        -0.084426835,
        -0.026283633,
        0.026707357,
        0.029169105,
        -0.0050892797,
        0.12276056,
        -0.4035185,
        0.2557128,
        -0.08261931,
        0.07617786,
        -0.13032785,
        0.39763856,
        -0.33008218,
        -0.06590119,
        -0.20198342,
        -0.1251425,
        -0.079626136,
        -0.014262004,
        0.102144755,
        0.17177105,
        -0.053522147,
        -0.08646279,
        -0.07374789,
        -0.015505449,
        0.2135459,
        0.10754259,
        -0.1329829,
        0.2933825,
        -0.012212801,
        0.07896136,
        -0.11123392,
        0.21763453,
        0.023853255,
        0.1528112,
        -0.15702891,
        -0.19366889,
        -0.2590686,
        0.040163126,
        -0.052321155,
        0.057370007,
        0.037900414,
        0.07001658,
        0.08563327,
        0.1993455,
        0.24309745,
        0.14115629,
        0.059760753,
        0.39437398,
        0.08195783,
        -0.014325026,
        -0.24157639,
        0.10591444,
        0.35102072,
        0.19719745,
        0.08239504,
        0.09114341,
        -0.21569595,
        0.18539184,
        -0.18974774,
        -0.017974691,
        0.22507532,
        0.023408385,
        0.21578772,
        0.04206174,
        -0.054094378,
        0.22882608,
        0.32999465,
        0.2786861,
        -0.15122043,
        -0.027599087,
        0.15833436,
        0.22150901,
        0.255018,
        0.30602303,
        0.13632546,
        0.071090095,
        0.069282934,
        0.2048173,
        -0.11150151,
        -0.20828572,
        0.0986278,
        0.25576484,
        0.15255831,
        -0.03645703,
        -0.17049515,
        -0.0857347,
        0.05109776,
        0.0716321,
        -0.025128867,
        0.15005812,
        -0.07370141,
        0.13997401,
        -0.008403254,
        -0.40608034,
        0.34248465,
        0.4095247,
        -0.05162714,
        0.13365841,
        0.16692197,
        0.13972245,
        0.27240175,
        0.17817762,
        -0.011684275,
        0.18737382,
        0.030617379,
        0.049411375,
        0.15743916,
        -0.107306615,
        0.090130314,
        0.10247309,
        0.31218386,
        0.16669974,
        0.02736638,
        -0.018627102,
        -0.10429735,
        0.18552014,
        -0.1113923,
        -0.15460283,
        0.063025236,
        -0.23009358,
        -0.14738464,
        0.04114112,
        -0.09134188,
        -0.051942218,
        -0.10343052,
        0.056467637,
        0.018387567,
        -0.2719696,
        0.32065487,
        -0.17767979,
        -0.08926605,
        -0.1532148,
        -0.13425308,
        0.11992835,
        -0.004997961,
        -0.3553772,
        -0.068824746,
        -0.010241573,
        -0.052612707,
        -0.0077870274,
        0.06552272,
        0.13233265,
        -0.063941576,
        0.020110471,
        0.115039304,
        0.16276203,
        0.026305571,
        0.35954508,
        0.06114581,
        -0.016668359,
        -0.12008161,
        0.27794245,
        -0.33276218,
        0.016649032,
        -0.06289059,
        0.13386318,
        -0.31513777,
        -0.093908615,
        -0.26766866,
        0.054670762,
        -0.063567065,
        0.19884978,
        -0.08331567,
        -0.12726611,
        -0.102672316,
        0.26275972,
        0.0062089344,
        -0.06018537,
        -0.1639191,
        -0.06684329,
        -0.19732346,
        -0.06100442,
        0.27042103,
        0.1593645,
        0.10421001,
        -0.06460385,
        0.04643744,
        -0.08758293,
        0.037342895,
        0.28390932,
        0.50622267,
        -0.29916823,
        0.015236323,
        0.21783017,
        0.13048047,
        -0.080218494,
        0.06368146,
        0.08790174,
        -0.091258846,
        -0.042715468,
        0.17790015,
        -0.17646714,
        -0.088503666,
        0.14322875,
        0.22909416,
        0.05894543,
        0.21042025,
        0.0036292889,
        0.0914731,
        -0.14276029,
        0.10412396,
        0.02667627,
        0.09495679,
        0.020114217,
        0.0033611124,
        -0.040173117,
        0.14528999,
        -0.00218162,
        -0.31267416,
        -0.063144475,
        -0.19797267,
        -0.12108699,
        0.12905584,
        -0.33214334,
        -0.21180807,
        0.1326705,
        -0.016054938,
        0.0735748,
        0.106263414,
        -0.02974396,
        -0.08778985,
        0.1430491,
        -0.09842517,
        -0.06897035,
        0.08986312,
        -0.16353883,
        0.2817058,
        -0.18366551,
        0.026320685,
        -0.06713424,
        -0.1448097,
        0.0731675,
        0.050483316,
        -0.084846005,
        0.136968,
        0.0034193345,
        0.091693945,
        -0.11185979,
        0.053850114,
        -0.04800145,
        0.14859502,
        0.14998871,
        0.009120188,
        0.16402109,
        0.1913911,
        -0.20462932,
        0.18641265,
        0.07846063,
        -0.23587748,
        0.111410946,
        0.22198184,
        -0.21304971,
        -0.08827147,
        0.22580521,
        0.1223596,
        -0.07333865,
        -0.14082457,
        -0.16881174,
        -0.12185551,
        0.28857595,
        -0.14894186,
        -0.5068981,
        0.21769515,
        -0.034139972,
        0.03579766,
        0.17336996,
        -0.01894561,
        0.23984791,
        -0.19944054,
        0.29562235,
        0.010012169,
        -0.19934426,
        -0.15007319,
        -0.035042305,
        0.051311154,
        -0.17978688,
        -0.0863442,
        -0.116988376,
        -0.035547014,
        -0.08728817,
        -0.18394765,
        -0.026581112,
        -0.08756807,
        -0.07470009,
        -0.30320477,
        0.056282632,
        -0.01940425,
        -0.06087883,
        -0.19108708,
        -0.03138758,
        -0.22015283,
        0.10402002,
        0.024769561,
        -0.101991534,
        -0.0071759056,
        0.10072675,
        -0.13820957,
        0.07197319,
        -0.14457217,
        -0.1767009,
        0.06420541,
        0.07283555,
        -0.18445405,
        0.07989369,
        0.09509659,
        0.26630184,
        -0.1482814,
        -0.11111744,
        0.31643242,
        0.0024866806,
        -0.0029735805,
        0.28755432,
        -0.16597301,
        0.2957563,
        -0.033018123,
        0.1829904,
        0.09506688,
        -0.3065427,
        0.16135058,
        -0.3178677,
        -0.010465929,
        0.53542894,
        -0.034609552,
        -0.08412366,
        -0.052038886,
        0.060357723,
        -0.013930375,
        -0.025921263,
        -0.12771933,
        -0.22527827,
        0.13263391,
        0.24018238,
        -0.05294136,
        -0.16115065,
        -0.04398815,
        -0.10668207,
        0.24351256,
        0.029891048,
        0.11698269,
        0.47658777,
        0.123719856,
        -0.00057530013,
        0.12795174,
        0.30343923,
        -0.021561185,
        0.11940779,
        -0.16366588,
        -0.00033576807,
        -0.024972683,
        0.3544434,
        0.058323313,
        0.17404582,
        -0.015794687,
        0.14968745,
        -0.14938228,
        -0.13578762,
        0.08875584,
        0.27084473,
        -0.3538,
        0.092318214,
        0.20697454,
        0.0068437275,
        -0.29289863,
        0.05098921,
        0.30108747,
        -0.05857629,
        0.18932863,
        -0.08117842,
        0.27766103,
        0.052558854,
        0.24999505,
        0.047635794,
        0.005458365,
        0.029610189,
        0.1962593,
        -0.0407388,
        -0.13152167,
        -0.089682475,
        0.13464549,
        0.19142194,
        -0.11841174,
        0.07987777,
        0.2287925,
        -0.0028752086,
        0.065024875,
        -0.010849403,
        -0.0070047975,
        -0.10828818,
        0.017170195,
        -0.044766527,
        0.103985794,
        -0.14739382,
        -0.23959473,
        -0.22943977,
        -0.19522977,
        -0.046983566,
        -0.17983687,
        -0.10922991,
        -0.041497376,
        -0.10011959,
        0.069469206,
        -0.28777865,
        0.084244736,
        0.05665335,
        0.13664244,
        0.32438278,
        -0.13609,
        0.12967525,
        0.24524619,
        0.13825129,
        -0.014218031,
        0.22158054,
        0.10003003,
        -0.11209704,
        0.13646765,
        0.15356576,
        0.20276679,
        0.038136333,
        0.5905002,
        -0.25234866,
        0.20278631,
        -0.026282743,
        0.12122044,
        -0.110032,
        0.082424976,
        0.19574945,
        0.16595645,
        -0.17845587,
        0.063187964,
        -0.042978972,
        0.036720596,
        -0.13371678,
        0.17737882,
        -0.066795364,
        0.09247925,
        -0.024800418,
        -0.031043446,
        0.019038973,
        -0.15524164,
        0.07287433,
        0.035650846,
        -0.13174911,
        0.18038614,
        0.26227263,
        0.11318457,
        -0.06200344,
        -0.27807018,
        0.040336385,
        0.123674676,
        0.05835585,
        0.014548626,
        0.030581372,
        0.0059960363,
        -0.28839222,
        0.046960738,
        -0.225773,
        0.2288473,
        -0.106454715,
        -0.17780015,
        -0.12627919,
        -0.24505681,
        0.011170116,
        -0.2942552,
        0.0064783446,
        0.18009655,
        0.00025224258,
        0.10842127,
        -0.015530238,
        -0.15551962,
        0.21568327,
        -0.017965829,
        -0.010598658,
        -0.01078406,
        0.25175345,
        -0.03364645,
        0.07544363,
        -0.17817256,
        -0.001605635,
        -0.098022915,
        -0.19194354,
        0.03464835,
        -0.068553224,
        -0.1546212,
        -0.006288683,
        -0.14826602,
        0.14272153,
        -0.20489311,
        0.16567554,
        -0.13608678,
        -0.033938836,
        -0.02691034,
        -0.33268583,
        0.09132123,
        -0.1123477,
        -0.17792638,
        0.0833578,
        0.041705206,
        0.37736514,
        -0.09970125,
        -0.01666797,
        -0.10899085,
        -0.06733911,
        0.15193112,
        0.037750624,
        -0.14332671,
        0.19829732,
        0.10917851,
        0.124001615,
        -0.024982143,
        0.28493664,
        0.17766517,
        0.14247088,
        -0.22515637,
        -0.14342985,
        -0.024653709,
        -0.13817437,
        -0.08635112,
        -0.18828122,
        0.16703054,
        -0.018725688,
        -0.11535436,
        0.099865854,
        -0.076103546,
        -0.25508583,
        0.22347149,
        0.10101665,
        -0.07811393,
        0.005877898,
        -0.023787588,
        -0.21527642,
        -0.024433574,
        0.2770671,
        -0.20189737,
        -0.17650695,
        0.020413179,
        0.03864632,
        0.095637515,
        0.10548566,
        0.053048886,
        0.20970641,
        -0.1299721,
        0.053231347,
        0.2617033,
        -0.07486328,
        0.10072417,
        -0.063036956,
        0.022779115,
        0.15720367,
        -0.0034320198,
        0.04657648,
        -0.047012426,
        0.03511036,
        0.089925475,
        0.064731896,
        -0.17698348,
        0.20096745,
        0.24701206,
        -0.15424052,
        -0.25168148,
        0.0059890985,
        -0.1021042,
        -0.13483383,
        0.08880454,
        -0.043195996,
        0.30177337,
        -0.08363915,
        0.0992252,
        0.011472297,
        0.22035496,
        0.25069582,
        -0.07882059,
        -0.16641271,
        -0.073254764,
        -0.0474166,
        -0.11800399,
        0.02960862,
        -0.06705422,
        0.13418983,
        -0.067268446,
        0.1288974,
        0.031200409,
        -0.23554426,
        0.21366589,
        -0.12928092,
        0.16177793,
        0.4296393,
        -0.16958322,
        0.16408177,
        0.12062637,
        -0.11998107,
        -0.15179813,
        -0.19050188,
        -0.2949941,
        0.10075175,
        0.10349888,
        -0.21926457,
        0.1010504,
        -0.21020639,
        -0.06279289,
        -0.17355812,
        0.004508976,
        0.16097607,
        0.19708398,
        -0.010305417,
        -0.0068957033,
        0.036032375,
        0.026993556,
        0.3175824,
        0.47215483,
        0.06943038,
        0.057999864,
        0.06318407,
        -0.1774442,
        -0.14602424,
        -0.275513,
        -0.15323906,
        0.2043845,
        0.13445735,
        0.09863559,
        0.038056575,
        -0.113340415,
        -0.21458723,
        0.17826572,
        -0.27033445,
        -0.033970296,
        -0.2914476,
        -0.07594118,
        0.030292861,
        0.013927016,
        0.13753057,
        0.16733287,
        0.061678216,
        0.09258398,
        0.2240194,
        0.018611362,
        -0.032102514,
        -0.30302215,
        0.07260392,
        -0.086762995,
        0.1349139,
        -0.05164351,
        -0.27424517,
        0.102005444,
        -0.06840299,
        -0.055757232,
        0.2644199,
        0.29516718,
        -0.091667995,
        -0.006403362,
        -0.07830576,
        0.0069007613,
        0.1747506,
        0.03436488,
        -0.16179605,
        -0.089543134,
        0.10996951,
        0.22772357,
        0.045526713,
        -0.004421064,
        0.14715964,
        0.09452672,
        0.031792443,
        0.24581222,
        0.05007011,
        0.043925144,
        -0.051706742,
        -0.012612888,
        -0.023875192,
        0.17012233,
        -0.2543195,
        -0.30251878,
        -0.16403471,
        -0.22245924,
        0.07111728,
        0.35483187,
        -0.38315332,
        -0.102941655,
        0.01567425,
        0.051486075,
        -0.12930895,
        0.18611299,
        -0.07530753,
        0.021127872,
        0.00016417871,
        -0.17874615,
        -0.066923074,
        -0.013653721,
        0.20100433,
        -0.010184111,
        0.46975005,
        0.017667124,
        0.2017392,
        0.23282085,
        0.13377677,
        -0.067163326,
        -0.09941676,
        -0.08656282,
        -0.25926214,
        0.02392172,
        0.24762087,
        -0.008496195,
        -0.028250005,
        -0.13228722,
        0.09013535,
        -0.30465943,
        -0.17030478,
        0.1835764,
        -0.048874933,
        0.042858906,
        0.11594449,
        0.05668179,
        0.1941751,
        0.15627141,
        0.19142917,
        -0.03738677,
        -0.025614817,
        -0.20556736,
        -0.09647201,
        -0.02921246,
        0.12749423,
        0.2020402,
        0.17675787,
        -0.12311312,
        0.21929073,
        -0.04061429,
        0.09028152,
        0.33727682,
        0.17290562,
        0.048834033,
        0.012598578,
        0.21515833,
        0.10063545,
        -0.32506973,
        -0.039655935,
        -0.13467972,
        -0.12217927,
        -0.1460513,
        0.021365255,
        0.3740873,
        -0.2943352,
        0.17615034,
        0.050825544,
        0.056152184,
        -0.11774249,
        0.082645155,
        -0.035298284,
        0.065865904,
        0.19526996,
        0.010494566,
        0.027215252,
        -0.26435485,
        -0.31897098,
        0.025358273,
        0.08103101,
        0.11899666,
        -0.19671334,
        0.078574,
        -0.2631589,
        0.10627518,
        0.21204782,
        0.022805804,
        0.31395334,
        -0.17465341,
        -0.037948955,
        -0.13902457,
        -0.05189232,
        0.06701153,
        0.039030567,
        0.050576314,
        0.1689724,
        -0.086398214,
        -0.07295129,
        0.39557886,
        0.23044112,
        0.0768864,
        0.14072037,
        0.23597485,
        -0.15508407,
        -0.1102213,
        0.22351308,
        -0.05610928,
        -0.16931471,
        -0.0045700315,
        -0.037385546,
        -0.3282952,
        0.13068298,
        0.38106567,
        -0.009304405,
        -0.05729182,
        0.14696716,
        0.02289168,
        -0.20051627,
        0.23982485,
        -0.15733817,
        0.21542129,
        0.10388984,
        0.08974398,
        0.00476396,
        -0.06570157,
        0.020928945,
        0.071343176,
        -0.13175924,
        -0.097573526,
        -0.057105985,
        -0.11507774,
        0.00076154777,
        -0.32339364,
        -0.1880026,
        0.10952585,
        -0.20376658,
        -0.05227135,
        -0.34311467,
        -0.14116487,
        0.0428796,
        0.263388,
        0.22529075,
        -0.06751042,
        0.10798483,
        0.0037440795,
        -0.06779993,
        0.16470921,
        -0.21177256,
        0.022441398,
        0.14928399,
        0.21234046,
        0.0005321092,
        0.3032425,
        0.10101874,
        -0.030395456,
        0.2487655,
        -0.078303576,
        0.048434578,
        -0.19668645,
        -0.01664251,
        0.0751312,
        0.02008846,
        0.21724029,
        -0.04533444,
        0.025977718,
        0.009289554,
        0.03461905,
        -0.054852974,
        0.110016674,
        -0.060567223,
        0.15594013,
        -0.009705819,
        0.21358882,
        0.014993665,
        0.23681091,
        -0.14728183,
        0.04709774,
        0.066050105,
        0.10843121,
        0.15514031,
        -0.1440791,
        -0.023025809,
        -0.00027273907,
        -0.06967229,
        0.07885916,
        0.043131623,
