{
  "name": "n-gram",
  "parameter_count": 52674,
  "layers": [
    {
      "layer_type": "Linear",
      "name": "Input",
      "index": 0,
      "weights": [
        -2.402806,
        -2.2531567,
        1.6503909,
        1.6632227,
        0.9409243,
        1.8669263,
        0.45681524,
        -0.97356105,
        -1.432622,
        -1.9127455,
        7.0048923,
        -2.1482415,
        -0.3072579,
        -1.5923774,
        10.258596,
        -4.015958,
        -1.7398938,
        4.757342,
        4.799754,
        -2.0762062,
        6.6906457,
        -7.028903,
        -6.7988367,
        -3.9292836,
        6.948931,
        -21.071667,
        8.931917,
        -1.8623033,
        8.726305,
        -1.0012331,
        4.1880364,
        2.2450323,
        18.513374,
        -5.2319875,
        -1.8727143,
        4.247397,
        -1.8418347,
        -2.1002834,
        3.745287,
        -1.8369513,
        -9.6844425,
        -4.287923,
        -1.7342063,
        5.0545225,
        3.3374472,
        -16.508568,
        -7.806716,
        6.1480155,
        -25.616625,
        -3.2534125,
        0.5676758,
        -3.829007,
        -1.5927682,
        -0.916182,
        -2.9436445,
        -13.790201,
        -11.619648,
        -0.72325325,
        -2.7633982,
        -3.6535614,
        -6.5860324,
        -1.0575798,
        -1.6675656,
        -5.5724072,
        -0.49085885,
        -0.36557528,
        -0.27561504,
        -2.6204762,
        -1.7817898,
        -0.13873725,
        -2.0014038,
        -1.5734705,
        -8.688898,
        0.5980203,
        -0.090979695,
        4.611061,
        -5.960731,
        -3.779893,
        -6.0891304,
        0.42211133,
        -7.280298,
        -2.424849,
        -6.598001,
        0.014135849,
        3.9283047,
        4.278444,
        -2.0304117,
        -4.359476,
        0.44593042,
        7.1624665,
        -4.3596773,
        1.8609078,
        1.1103616,
        -0.97708744,
        2.8830357,
        1.4258022,
        -6.196456,
        -4.7873974,
        2.354926,
        7.6129875,
        -0.37303197,
        -0.30246836,
        0.46406317,
        1.400522,
        0.57869637,
        3.5474498,
        -1.3311822,
        -1.0013533,
        0.52321166,
        0.27481088,
        -1.6046569,
        1.7802681,
        -1.535665,
        -1.4229661,
        -0.46136013,
        -0.71483546,
        -0.47071946,
        0.49585882,
        1.0126731,
        1.5583189,
        -1.0795667,
        -0.11126989,
        1.3927641,
        1.3085922,
        -1.2513244,
        -1.1292908,
        1.448459,
        1.3106184,
        0.9544747,
        -0.9738941,
        -0.24407245,
        1.4716194,
        -0.66441727,
        -0.12986922,
        -1.2794579,
        -0.67260885,
        -0.37896368,
        0.46610796,
        1.1640067,
        -1.9490157,
        0.10231453,
        -0.464289,
        0.6935215,
        -1.4434549,
        0.408269,
        -1.2969525,
        0.042465024,
        0.5896925,
        -2.0616765,
        -0.030541182,
        1.847059,
        0.5929125,
        1.6715834,
        -0.22333436,
        -0.750156,
        -1.6143607,
        0.49336278,
        2.2429726,
        -0.4233393,
        0.41313812,
        -1.8509849,
        -1.3772827,
        -0.5041112,
        -3.2082171,
        1.5456264,
        0.36588037,
        0.6218567,
        -0.2385763,
        0.48217565,
        -0.23371878,
        -1.2146637,
        -0.89142406,
        -1.1169372,
        1.723161,
        0.7929023,
        -0.5503198,
        -0.2208618,
        -1.4988389,
        -2.1043112,
        0.44970495,
        -1.0057279,
        1.2285666,
        1.1903005,
        2.1146336,
        -0.4973306,
        2.1860046,
        1.1165421,
        0.6723659,
        -0.3066322,
        0.79789114,
        -1.096309,
        0.31450686,
        1.0398853,
        0.3678637,
        0.27417782,
        0.7537171,
        -0.9995689,
        -0.5550882,
        0.78198135,
        -1.2774947,
        0.40158743,
        1.1581011,
        0.09868917,
        0.4074284,
        -1.0545939,
        0.5691245,
        0.039775714,
        0.23068544,
        0.4136512,
        0.35912263,
        2.290592,
        -0.013801187,
        -0.50006795,
        -0.23871486,
        -0.064595394,
        -0.26216403,
        -0.028081344,
        0.21719572,
        0.6994378,
        0.23181269,
        0.60761535,
        -0.8382999,
        -0.62305367,
        -0.5449522,
        0.69829065,
        -0.32919955,
        -0.40956175,
        -0.6577321,
        0.76225996,
        1.7446452,
        0.4101867,
        -0.065851174,
        -0.07150557,
        -1.9516046,
        0.32768622,
        -0.26633745,
        0.5120283,
        -0.41130215,
        -0.8220204,
        1.6704366,
        -0.80354196,
        1.0812018,
        0.14175689,
        0.93136555,
        1.8106682,
        0.3195532,
        -0.50942326,
        0.519422,
        -0.96692514,
        1.4172648,
        -0.90288615,
        -0.5622545,
        0.5847304,
        0.7846998,
        -0.54034317,
        -0.5998138,
        -0.052785903,
        -0.43501097,
        0.8253617,
        0.72729456,
        0.2915733,
        1.0767574,
        -1.026696,
        -0.0067896154,
        1.3111335,
        -0.74735564,
        -0.6151685,
        -0.38855338,
        2.724015,
        -1.6326145,
        -0.23280111,
        -1.1675383,
        0.27794608,
        -0.27171332,
        -0.90037405,
        0.7369817,
        1.2699052,
        -1.5744559,
        -0.64635086,
        0.65503883,
        -0.8285265,
        0.16022024,
        -0.5493311,
        -0.68766314,
        -0.44980195,
        0.37476555,
        -1.7570558,
        1.1248513,
        -0.23906517,
        -1.1683042,
        -1.5567136,
        1.3476578,
        -0.07337471,
        1.1423873,
        0.15764534,
        -0.41559225,
        -1.2766576,
        -0.3305443,
        0.72055095,
        0.30956525,
        -0.9916085,
        0.6206086,
        -0.4793113,
        -0.66648626,
        0.67282134,
        -0.7375922,
        -1.4592308,
        -0.19410278,
        0.5091099,
        0.46867064,
        0.7092454,
        -0.27740717,
        0.67971104,
        -1.4380773,
        1.3828557,
        0.07217769,
        0.65835583,
        0.002182506,
        0.22779515,
        -1.8275162,
        1.0713865,
        -1.4230388,
        0.93795437,
        -0.13574448,
        -0.063205816,
        0.654548,
        -1.6669736,
        0.4382165,
        1.7362295,
        -0.46645328,
        0.16864723,
        1.4929904,
        0.74167633,
        0.18770616,
        0.017180203,
        -0.85896075,
        -0.30963913,
        0.3904379,
        -0.88166803,
        -0.45436206,
        0.54524183,
        1.0704386,
        -1.7970163,
        1.2634907,
        -0.20840828,
        0.63778424,
        0.36718482,
        0.9393956,
        0.012914224,
        -0.45548952,
        0.35702786,
        -0.93897444,
        0.3755022,
        0.22977644,
        -1.6704609,
        1.5727564,
        0.6929519,
        -2.1595774,
        -0.8456364,
        0.020079756,
        1.4801786,
        0.72924745,
        1.4239655,
        -0.031890284,
        1.2501471,
        0.62668234,
        -1.4157764,
        -0.7122115,
        -1.092583,
        0.09046267,
        -0.35903803,
        -1.5737762,
        -0.4900116,
        -1.3312273,
        -0.21254928,
        0.57228124,
        -0.2459986,
        -0.3699456,
        -0.18773055,
        -0.65007186,
        0.57444227,
        -1.8632619,
        -0.6543698,
        1.6468912,
        1.6710414,
        1.2154294,
        -0.49715802,
        -2.1319518,
        -0.4761779,
        -0.97730714,
        0.22527812,
        -0.928495,
        -0.9140556,
        -0.7878044,
        0.4942681,
        -0.3514246,
        -2.5663545,
        -0.06624633,
        0.3074261,
        0.767824,
        -0.66424215,
        -0.5846727,
        -0.48788062,
        0.59903854,
        0.24360572,
        -0.3352586,
        1.1365052,
        -0.09929224,
        0.30258548,
        0.30582708,
        -0.93459463,
        -0.78138953,
        -0.19304335,
        -1.5091583,
        0.5595629,
        0.989691,
        -1.5940186,
        0.25950032,
        0.7053506,
        -1.6529005,
        0.31493002,
        -0.55176884,
        0.54909635,
        -0.7271858,
        0.5473253,
        -0.25691766,
        1.0020888,
        0.6079686,
        1.4220076,
        0.24152021,
        -0.61219025,
        -0.60712945,
        1.3475056,
        0.8065578,
        -1.0076789,
        0.6220587,
        1.3946085,
        -1.4835258,
        0.5116072,
        -0.7308114,
        1.5067184,
        0.5081719,
        -0.5460771,
        1.0120867,
        -0.7249025,
        -0.41743597,
        0.9588534,
        -0.84023637,
        -1.5892178,
        0.35462952,
        2.895274,
        1.0872821,
        -1.2556878,
        1.0846558,
        -0.8096107,
        -0.9752791,
        0.52037877,
        -0.8295619,
        -0.8359484,
        -0.6053853,
        -1.7615849,
        -0.35605118,
        -0.26568094,
        0.8372779,
        1.2573457,
        1.4298006,
        -0.5026432,
        0.66032314,
        0.51146156,
        1.2030431,
        -0.5953546,
        -0.50928944,
        1.1336403,
        1.5056108,
        -0.7534511,
        1.4126403,
        -1.100436,
        -0.64648587,
        -0.956251,
        -0.4028472,
        -1.0288694,
        -2.298422,
        1.9417311,
        1.384816,
        -0.8577323,
        -1.0431952,
        -1.5551343,
        0.64954793,
        -0.27341354,
        -1.7669187,
        -1.4166051,
        -1.0591625,
        -1.6980108,
        1.325991,
        -1.3263278,
        1.3709903,
        -0.25118902,
        -0.35634428,
        -0.7053508,
        0.90945256,
        -0.5602485,
        -0.77690643,
        -1.5025877,
        0.07598852,
        0.6723948,
        0.76856554,
        -0.70119727,
        0.76833874,
        -0.03657861,
        0.9864597,
        0.46627796,
        -0.7138576,
        0.33410555,
        -0.67191696,
        -0.3928538,
        -0.84515995,
        0.051782116,
        -0.55096036,
        0.18852337,
        -2.4412835,
        -0.42518774,
        0.6434907,
        0.45142066,
        -0.29766887,
        2.4703026,
        0.023729295,
        -1.530767,
        0.66346836,
        1.2691445,
        -1.0725511,
        0.57713443,
        1.2173668,
        0.6454426,
        0.3957912,
        0.040182933,
        -0.58350813,
        0.44101974,
        0.7842555,
        -0.67784476,
        0.5021362,
        1.3631171,
        1.4714389,
        1.0002694,
        0.2885288,
        1.0541996,
        -0.9632286,
        0.026362304,
        -0.6384083,
        -1.399908,
        1.4567051,
        1.113222,
        1.1565331,
        0.8138823,
        -0.45487633,
        0.47705603,
        -0.2600762,
        -1.6406252,
        -0.55942273,
        -0.41067263,
        -1.4277253,
        -0.81751966,
        0.38514882,
        0.9074025,
        -0.08323073,
        -0.76696736,
        1.7067021,
        0.6366737,
        -0.74628997,
        -1.375012,
        0.1555463,
        -0.733662,
        -0.3821589,
        -0.8650949,
        0.0944858,
        -1.3421546,
        -1.6223484,
        1.8351926,
        -0.68444705,
        -0.13026197,
        -0.7918359,
        0.69564205,
        -1.3777074,
        0.8751839,
        0.19986458,
        -0.18900868,
        -0.61364615,
        0.4136408,
        -0.860921,
        -0.103814825,
        -0.49818963,
        0.28340784,
        -1.0181367,
        -0.55119514,
        -1.2004085,
        1.7526852,
        1.2854655,
        0.017530568,
        0.52469,
        -0.9682626,
        -1.7461185,
        0.59028643,
        -1.1408141,
        0.00029165484,
        -1.3209158,
        -1.1872642,
        -0.7995293,
        0.6747649,
        -2.4002907,
        1.4088693,
        0.37221497,
        1.6079825,
        0.15029904,
        1.3513587,
        1.5395107,
        -1.6140196,
        -0.64789134,
        0.8079904,
        2.3764336,
        1.3208181,
        -0.32880074,
        0.41388294,
        -1.8457048,
        1.2725464,
        0.54940295,
        1.1564769,
        0.4139819,
        0.4578818,
        -0.45648614,
        -1.714237,
        -1.0000426,
        0.16998604,
        0.018192109,
        1.0025779,
        1.3616928,
        -0.5571023,
        -1.7585144,
        0.44643712,
        -1.066588,
        0.3645694,
        0.31453133,
        1.0516006,
        2.049519,
        -0.0062598037,
        -0.92403203,
        -0.5411072,
        -0.59075814,
        -0.9610075,
        0.5524235,
        0.20601934,
        -0.0038618573,
        -0.2632123,
        0.74853396,
        2.764674,
        -1.0380932,
        1.4271239,
        0.85135144,
        0.46382114,
        -0.51518357,
        0.098390944,
        -0.035344824,
        -1.6371351,
        -0.38373676,
        -1.3129845,
        -2.132828,
        -0.6342641,
        0.3599146,
        -0.02438449,
        0.21804552,
        0.81888133,
        0.48328447,
        1.4081129,
        1.9159169,
        -0.44041446,
        -0.80334103,
        0.012955217,
        0.14754528,
        -0.26332274,
        -0.48457685,
        -0.69638604,
        -0.68595207,
        1.3908545,
        -0.47747535,
        -0.2979888,
        -2.2141051,
        0.7903039,
        0.09817998,
        -0.93956906,
        2.4031942,
        -1.5592418,
        2.149949,
        0.9012268,
        1.2478147,
        1.3851542,
        -0.7089643,
        -0.7988254,
        0.5911951,
        -1.134471,
        0.68465585,
        0.5396811,
        -1.2031586,
        -1.3047267,
        0.1896395,
        0.16045713,
        -0.5315779,
        -0.48721856,
        -1.0976409,
        -0.5192232,
        -1.904341,
        -0.5700066,
        -0.8199732,
        2.20811,
        0.68146664,
        0.8894161,
        0.021912483,
        2.3416388,
        1.3995336,
        -0.6830048,
        0.5516056,
        -1.7677612,
        -0.64726037,
        -0.72042227,
        1.5556622,
        -0.8533894,
        1.263224,
        -0.4558426,
        0.17736907,
        -0.6029294,
        -0.7321155,
        -0.6467415,
        0.1221636,
        -0.2208257,
        -0.6649871,
        -0.17933609,
        0.9548203,
        -1.5019827,
        -1.7302934,
        1.1389624,
        1.0347593,
        -0.8749553,
        -1.2650132,
        -0.11444067,
        -0.648122,
        -1.087629,
        -1.3174173,
        -1.1930474,
        -0.21376732,
        -1.8597283,
        -1.3507928,
        -0.11869945,
        1.8659028,
        -1.222355,
        0.016643811,
        -1.0501887,
        -0.63871735,
        -1.8933765,
        1.624114,
        0.52450454,
        -0.6563479,
        0.80979055,
        0.41991204,
        0.008521916,
        -0.039816648,
        0.9260805,
        -0.2978379,
        0.71561867,
        0.55614185,
        0.92704296,
        0.6782942,
        0.02061936,
        0.38263574,
        -0.89685476,
        0.15892957,
        0.18988769,
        1.3638033,
        0.7232472,
        0.30753103,
        0.29201892,
        -0.7036181,
        -0.98977065,
        -0.06740071,
        -0.20579943,
        0.023529895,
        -0.91703373,
        -0.21415424,
        -0.8250683,
        2.6260536,
        -0.47255147,
        0.3034844,
        1.3014133,
        0.05147423,
        1.4504031,
        0.8404742,
        1.4794183,
        0.41112998,
        -2.452551,
        -0.6029424,
        0.03820403,
        -0.0035554022,
        -0.29727218,
        1.6095502,
        -1.8386128,
        -0.22640893,
        -0.34109366,
        -0.4602799,
        -0.7607014,
        -0.3516145,
        1.0060923,
        -1.1884569,
        -0.06151128,
        -0.6130596,
        -0.51718915,
        0.7653142,
        1.9078501,
        -0.11492999,
        0.6224934,
        0.76104677,
        -2.0041435,
        0.3242645,
        0.025852121,
        0.34256703,
        -0.55932456,
        0.0993897,
        0.9292281,
        0.26525605,
        1.1920843,
        -1.4929686,
        0.9172797,
        0.24214025,
        1.4598469,
        -1.1834929,
        0.31034088,
        0.63064986,
        0.37285623,
        0.11093089,
        0.81398535,
        1.8437755,
        -0.9868725,
        1.3992794,
        0.63869864,
        -0.12480739,
        2.3374634,
        0.78112125,
        0.0880758,
        -1.2385908,
        0.7294834,
        0.22796217,
        -1.3981425,
        1.3138632,
        0.60961896,
        0.155599,
        -0.8867228,
        0.8801801,
        -0.6775909,
        -0.68909633,
        -0.33929697,
        -0.26530188,
        -0.6767198,
        0.55286527,
        -0.6824883,
        -0.5080151,
        1.9490706,
        -0.20868084,
        0.4080681,
        -0.40627387,
        1.7627776,
        0.7912176,
        -0.7196469,
        1.1456292,
        -0.5234865,
        0.819214,
        -0.57224816,
        -0.19512513,
        -0.63792264,
        -0.13723081,
        0.14657867,
        -0.3552749,
        -0.14834368,
        -1.7468685,
        -0.80682373,
        -1.0191226,
        0.39450788,
        0.16794053,
        1.9931377,
        0.008166215,
        1.185149,
        -0.31996828,
        1.0802982,
        0.7163215,
        -1.0050794,
        0.40269774,
        1.1175469,
        0.43302363,
        -0.3717253,
        -1.065276,
        -0.35104507,
        -0.5578317,
        -1.6152405,
        -1.709712,
        -1.1071157,
        0.79519266,
        0.3031032,
        -0.3660791,
        0.05847034,
        -0.9699273,
        0.34444776,
        -0.23540244,
        0.9937219,
        -1.2985908,
        -0.57093257,
        -0.4022274,
        0.85522145,
        1.2415057,
        -0.033618383,
        0.2857479,
        1.1336353,
        0.24221997,
        -0.11302778,
        -0.5098597,
        -0.7073279,
        2.1680698,
        1.3698466,
        2.2221045,
        -1.864661,
        0.63542825,
        0.23551673,
        -0.40086478,
        -0.26355606,
        -1.1341648,
        0.4932397,
        1.3425157,
        0.18590665,
        -0.11891298,
        -0.47873694,
        0.2591983,
        1.4896238,
        -1.5992979,
        1.5527735,
        -0.2693418,
        0.087755695,
        -0.039914846,
        -1.2001746,
        2.0601184,
        -0.81362903,
        1.4195651,
        -0.3128065,
        -0.97403514,
        0.104612544,
        0.5874499,
        -1.0751318,
        0.67939353,
        0.6080502,
        0.40491802,
        1.4692935,
        0.6313617,
        -0.14575991,
        -0.20439036,
        -0.6111445,
        -1.750153,
        1.5520523,
        0.4064247,
        0.074848294,
        0.49121115,
        0.49454218,
        -0.265781,
        -0.5361092,
        -1.4493846,
        -1.1900481,
        0.29809502,
        -1.5999202,
        2.0179505,
        -0.6731293,
        -0.23882233,
        0.3393227,
        1.0354903,
        0.3812098,
        -0.505578,
        -1.5303562,
        -1.1748912,
        0.52257776,
        0.96518373,
        1.030656,
        1.0255426,
        -1.6015542,
        -1.6044871,
        -0.019300014,
        0.23004493,
        -1.8702018,
        -0.11396474,
        0.08333554,
        0.57160115,
        0.1639927,
        0.58126986,
        -0.45356053,
        -0.44441965,
        0.7655602,
        -0.057898737,
        0.24144231,
        1.1265304,
        -1.3832309,
        -1.2734901,
        0.51789117,
        -1.481941,
        -2.2298214,
        1.1272327,
        -0.65019286,
        -0.15442353,
        0.33715102,
        -2.0037727,
        0.51393086,
        -0.7776782,
        -0.19129416,
        -0.014801167,
        -0.040609457,
        0.9920316,
        0.4519217,
        0.26260066,
        -0.28556305,
        0.9375209,
        0.27212703,
        1.8776435,
        1.3515131,
        -0.3635507,
        0.18670136,
        -1.2928833,
        0.59373343,
        0.056327768,
        -0.25849882,
        0.46625608,
        -0.8725179,
        0.10631247,
        -0.13377629,
        0.55044377,
        -0.4785195,
        -1.0610294,
        -1.4365215,
        1.7515302,
        0.70584726,
        -0.02395494,
        -0.9217389,
        -0.5089211,
        0.04407571,
        -0.31292492,
        -0.947736,
        1.8784668,
        -0.45624888,
        0.696866,
        -0.6885938,
        1.7973404,
        -0.3835904,
        -0.20402339,
        0.6002636,
        1.37709,
        1.5811753,
        -0.501273,
        -0.35950938,
        0.4805437,
        0.4801031,
        -1.3588555,
        0.56596845,
        0.99358267,
        0.4050879,
        0.28146085,
        -0.7815857,
        -0.72269386,
        1.5960687,
        -1.2352214,
        1.4247785,
        -0.2027832,
        -1.3372586,
        -0.04963358,
        -0.2315719,
        0.5880333,
        -2.472962,
        0.8457158,
        0.26667905,
        0.61726123,
        1.4105744,
        0.084113345,
        -0.26575294,
        1.7890003,
        0.66040665,
        -0.54337436,
        0.64337677,
        0.82749784,
        -0.7035491,
        0.059250772,
        -0.3862497,
        1.2794112,
        0.62619984,
        0.03311878,
        0.74778634,
        0.8757074,
        0.48457575,
        -0.9251757,
        1.9353896,
        -0.92841077,
        0.19075848,
        0.5289338,
        1.6286358,
        0.6262821,
        -1.9401721,
        -0.6858495,
        -0.65233636,
        0.25687686,
        1.1492566,
        -0.24730954,
        1.3768846,
        0.24264488,
        -1.8763641,
        -0.04810205,
        1.055767,
        0.82269186,
        -0.14818446,
        1.0088958,
        0.077833354,
        -0.53622043,
        0.26978734,
        0.18583935,
        0.44687754,
        0.66115916,
        0.8994311,
        -0.489999,
        -1.5428982,
        0.16974792,
        -0.7701347,
        -1.7451099,
        0.4047457,
        0.9008337,
        0.36177215,
        -1.5861702,
        0.005684544,
        0.7488861,
        1.0694218,
        -0.54748005,
        -1.2193111,
        -0.6971183,
        0.5209982,
        0.7469316,
        0.5192394,
        1.5649207,
        -0.61511296,
        -1.0904409,
        -0.5714221,
        0.23632997,
        -0.35136828,
        -0.44438744,
        -0.610094,
        -0.63337356,
        1.7610021,
        -0.36023822,
        0.55155,
        0.5967739,
        -0.14603654,
        0.10667065,
        0.512451,
        1.0999508,
        0.27396658,
        -0.103760526,
        0.7058305,
        0.24369352,
        1.1544439,
        2.5238118,
        -0.20765214,
        0.49182305,
        -1.2367952,
        1.4292594,
        0.026854651,
        2.846178,
        0.6160743,
        1.0875555,
        -1.0876256,
        -1.0343693,
        -0.8963166,
        -1.04561,
        1.7112105,
        0.2754538,
        1.655483,
        -1.5707537,
        -1.6921691,
        -1.6587094,
        0.14709632,
        1.5469934,
        -1.4638959,
        1.2178401,
        0.7748503,
        -1.2728648,
        1.4758916,
        0.65694535,
        -0.07353197,
        0.2439705,
        -1.3361369,
        -1.5765916,
        -0.6719834,
        0.6613482,
        -0.20882905,
        0.42599452,
        0.98396474,
        0.24697584,
        1.1921803,
        -0.20425333,
        -0.5439848,
        -0.039033994,
        0.5352514,
        0.53577304,
        0.42648044,
        -0.6906686,
        0.28235993,
        0.37319028,
        0.22579849,
        0.372584,
        0.8459296,
        -1.1685584,
        -0.16875899,
        -0.9230151,
        1.0062944,
        0.77092844,
        -0.30083206,
        -1.0902646,
        -1.176842,
        1.8371089,
        1.3313262,
        1.1849514,
        1.0640299,
        0.3780315,
        -1.8458083,
        0.6179639,
        -1.3339164,
        -0.533079,
        0.17009208,
        1.4229039,
        0.6611188,
        1.0715629,
        -0.04205408,
        0.1755301,
        -0.760897,
        -0.5284235,
        -1.5275556,
        1.6721615,
        0.52677786,
        0.39405483,
        0.81619656,
        1.5810179,
        2.0632205,
        -0.6054447,
        -1.1260216,
        0.7246704,
        -0.5886307,
        1.1970898,
        -1.0654097,
        1.2905613,
        1.839316,
        -0.27269885,
        1.0322524,
        0.29679382,
        -0.32843864,
        -0.81582314,
        -0.89528793,
        1.4951833,
        -0.6560163,
        -0.6144612,
        0.54980814,
        -1.3898886,
        0.6055008,
        -0.14679065,
        0.5334085,
        -0.5335838,
        -0.2397975,
        0.49987492,
        -0.7086728,
        -1.2224563,
        -1.5079865,
        -1.6664902,
        -0.2349793,
        1.0297964,
        0.5713694,
        0.15274568,
        -0.024550788,
        -0.5174037,
        0.05748671,
        -1.2024087,
        1.134269,
        -0.8107877,
        -0.5927546,
        0.41841942,
        -0.3346823,
        -0.053338982,
        1.0005322,
        -0.22699311,
        -0.5032663,
        0.1892638,
        -1.2190392,
        1.0843831,
        -1.5651877,
        0.042858746,
        0.52755094,
        -0.14317231,
        -0.10478685,
        1.0396134,
        -0.40168425,
        1.2049785,
        -0.7616334,
        -0.202027,
        -1.1083465,
        0.60354656,
        0.08786155,
        0.3513449,
        0.6419204,
        -0.25517505,
        0.7935716,
        0.23623241,
        0.12342623,
        -2.322948,
        -0.40367192,
        -0.7331442,
        -0.41373834,
        0.53005755,
        -0.135887,
        -0.13587019,
        -0.6634079,
        -0.58435774,
        -0.13385436,
        1.6559227,
        -0.5453052,
        0.98156065,
        -1.0683337,
        -1.4995005,
        -1.889561,
        -0.4976053,
        1.8865671,
        1.2478036,
        1.9270344,
        -0.6825768,
        -2.075005,
        -0.44641003,
        -0.418616,
        -0.35263273,
        -0.53011215,
        -0.7386097,
        0.71159637,
        -0.18246754,
        -1.3871763,
        -0.23028189,
        1.1703149,
        1.6659294,
        -0.1237469,
        0.30264464,
        0.91958433,
        1.6575994,
        0.5441698,
        -2.830299,
        -1.0579358,
        -0.19295366,
        1.4476367,
        0.7925249,
        -0.9451909,
        -0.7412229,
        -0.5302433,
        -0.13133737,
        1.0364702,
        -0.091503724,
        -0.2991409,
        0.1614076,
        0.6994423,
        -1.4379761,
        -0.20114756,
        -0.82931113,
        -0.48025686,
        -0.9363433,
        -0.98524016,
        -0.23052946,
        -0.61163473,
        -1.668537,
        -1.6419098,
        0.3313572,
        0.6500507,
        -0.6466189,
        -0.17064346,
        -0.82192814,
        0.8572484,
        -1.7567562,
        0.350428,
        0.5018169,
        -1.1270208,
        -0.5232208,
        0.83548,
        -0.73337173,
        -0.62872815,
        1.9783496,
        1.4293796,
        0.0858518,
        1.4987476,
        0.073181204,
        -0.013403915,
        -0.27703008,
        -1.171529,
        1.5809094,
        -1.7767256,
        -1.0155716,
        1.7299838,
        -0.8561654,
        -0.5680203,
        -1.4231265,
        0.28215,
        2.5523212,
        -0.9185885,
        1.631682,
        2.8644753,
        -0.6826334,
        0.34492368,
        0.20988856,
        0.2261045,
        -1.325077,
        -0.24628745,
        -1.1684215,
        -0.4850347,
        0.013080515,
        -1.4325057,
        -0.80964607,
        0.13962571,
        1.2912786,
        0.7716286,
        -2.5047526,
        0.72858334,
        -0.53432685,
        0.13341007,
        0.119065225,
        0.9536316,
        0.5104188,
        -1.0559465,
        0.98994255,
        0.13261224,
        -0.6163447,
        0.46426478,
        -0.037016407,
        -1.3155528,
        1.3082905,
        0.054465495,
        0.058047332,
        -2.8343139,
        -0.5369294,
        0.44600508,
        -1.5111154,
        -0.05386225,
        -1.0687041,
        -0.07074471,
        -0.5530746,
        -0.6217218,
        0.6206485,
        -0.69576573,
        1.0410165,
        -1.0952482,
        -0.49416155,
        1.1368053,
        -0.14226677,
        -2.088973,
        0.09301579,
        1.1932284,
        -2.8136697,
        1.0315666,
        -1.7490778,
        -0.92513776,
        -2.5140553,
        1.8046932,
        -2.032112,
        -2.50052,
        0.61516494,
        -1.7609458,
        -1.341551,
        -0.11431554,
        -0.70659983,
        -1.3162162,
        0.0027844124,
        -1.0762949,
        0.00666219,
        -0.32880756,
        -1.7498392,
        -0.5334338,
        0.33795685,
        -1.0624999,
        0.8083111,
        -0.5236305,
        1.1858094,
        0.15825377,
        0.35412434,
        0.6801884,
        -0.4353723,
        -0.07765657,
        -0.5032647,
        -0.4798192,
        -0.2038702,
        0.11158975,
        0.99621624,
        1.0715249,
        -0.5371636,
        0.31797263,
        1.3521739,
        -0.65074694,
        -0.09707284,
        0.665207,
        -0.3350978,
        -1.6239868,
        0.8956238,
        -0.43407983,
        -1.071962,
        1.0319173,
        0.45773616,
        0.48525023,
        0.0009504929,
        -0.48399803,
        -0.39808616,
        -0.07792072,
        -0.29517138,
        1.722339,
        -0.030836493,
        0.21915448,
        0.22893824,
        -2.2371182,
        -1.6767018,
        0.62160915,
        0.43446964,
        -0.124025024,
        -2.2295485,
        1.0369744,
        -0.33982986,
        0.98229456,
        -0.26369032,
        2.1912107,
        0.976633,
        0.3655802,
        -1.1035733,
        1.6489639,
        0.9968398,
        -0.06768549,
        -0.00009539537,
        -1.1933696,
        -0.15122265,
        2.248429,
        -1.04433,
        -0.54222465,
        -1.1428266,
        0.9838888,
        -1.6017561,
        -0.17187762,
        -0.08637051,
        -0.07265849,
        -0.50473094,
        1.399028,
        -0.035203874,
        -2.285403,
        -1.4374833,
        -1.1451414,
        -1.5858046,
        1.6830224,
        -0.32601932,
        1.8158046,
        -0.61509097,
        2.0195453,
        0.6995219,
        -0.51596475,
        -1.697677,
        -0.67088044,
        -2.2745945,
        0.6259293,
        -0.140039,
        0.52367944,
        -0.63375354,
        0.92028135,
        -0.0134547055,
        -0.012277409,
        1.6990056,
        1.980437,
        0.8854541,
        0.065860465,
        0.18774039,
        -0.79622924,
        0.10595313,
        0.45963442,
        0.16997352,
        1.160712,
        -0.35633093,
        0.9218167,
        1.4979407,
        -0.42337662,
        0.41146204,
        0.7892901,
        0.8880821,
        0.255824,
        -0.8924526,
        -0.58865434,
        0.97016096,
        -0.062117334,
        -1.2445457,
        1.3193663,
        -1.545206,
        1.7658558,
        0.477163,
        0.28023872,
        1.4130657,
        -0.518074,
        0.358425,
        -0.8900393,
        1.5571682,
        0.10902404,
        0.11489089,
        1.1335392,
        0.8800011,
        -0.3483966,
        0.06821651,
        -0.1315933,
        0.9188312,
        -0.4416996,
        -0.4395472,
        1.1527021,
        -0.6769883,
        0.007226214,
        -0.018285684,
        -0.7423981,
        1.7523855,
        -0.40308207,
        0.29795492,
        -0.30098727,
        0.058089137,
        0.69382626,
        1.6048092,
        -0.026857153,
        -1.4436034,
        -0.0046582706,
        -1.6726602,
        0.15550554,
        0.33753973,
        2.2889793,
        -0.446501,
        -1.3631146,
        -0.191291,
        0.39949614,
        1.185122,
        0.4995075,
        1.0676672,
        0.7592037,
        -0.34112483,
        -0.918254,
        -0.46569997,
        0.8133523,
        -0.58388734,
        0.8990744,
        1.5150675,
        0.37972245,
        1.2204757,
        -1.219309,
        -0.22757173,
        -0.64233357,
        0.58107114,
        0.3632207,
        -2.0211182,
        1.0294591,
        -0.19923699,
        -0.37743726,
        1.1602093,
        0.2989285,
        -1.1912915,
        -0.021898001,
        -0.8577845,
        -0.5391013,
        1.4728415,
        1.8464844,
        0.5130828,
        0.46268618,
        0.66719854,
        -0.18848822,
        0.9043981,
        -1.8034917,
        -0.95335144,
        0.52554476,
        -0.17602785,
        0.25158074,
        0.1512635,
        -1.8509355,
        -0.11122558,
        -0.0072404817,
        0.47035238,
        -1.1768287,
        1.6489024,
        -1.7244256,
        -0.27190006,
        1.6982838,
        -0.5542357,
        -1.4244086,
        -0.40028915,
        -1.3837774,
        -0.9809721,
        0.21843877,
        -0.4829056,
        0.02080033,
        0.4890566,
        1.5614691,
        -0.15270092,
        -0.7661297,
        0.09274101,
        -1.665006,
        -1.7032716,
        -0.17287904,
        0.28469142,
        -0.044602588,
        -0.72000724,
        -0.5009156,
        0.17962715,
        -0.3422801,
        1.0540966,
        0.47908685,
        0.4176,
        -0.041125957,
        0.42003775,
        -0.91517276,
        -0.7031175,
        -1.6598387,
        -0.930312,
        -1.2383806,
        0.3018777,
        -0.6224905,
        -0.9442687,
        0.0040813875,
        1.0171746,
        0.2963136,
        1.3822653,
        -1.0874916,
        0.23857516,
        -0.31181026,
        0.14213526,
        -0.6435994,
        -0.67196447,
        -0.5291538,
        -0.044196207,
        0.43324083,
        0.9974959,
        0.14756137,
        1.0271009,
        -1.0583353,
        2.0821319,
        -0.60296816,
        -0.32821563,
        1.580477,
        0.9725618,
        -1.0535144,
        2.134162,
        0.411617,
        -0.92656004,
        0.6291597,
        -0.51371604,
        -1.9485526,
        2.6068106,
        -0.45387933,
        -0.08372676,
        1.4327694,
        -1.1947532,
        -0.6946225,
        -0.20686507,
        0.14646897,
        -0.4964339,
        -1.4249719,
        -0.28245395,
        -0.70276153,
        0.13298878,
        -1.1148466,
        1.9736892,
        0.32607064,
        0.41857204,
        0.48232138,
        -0.43927312,
        0.112529844,
        -0.26075658,
        -1.7300798,
        -1.0265642,
        1.2916014,
        0.12716874,
        -0.67980134,
        -0.4285869,
        -1.7001489,
        0.40218267,
        0.9235035,
        -2.2669568,
        0.43541834,
        0.906039,
        0.38266262,
        -1.009279,
        0.5071052,
        0.32659307,
        0.8124228,
        0.27522463,
        -0.79686207,
        -0.57429147,
        -0.38677388,
        -0.8219642,
        -1.2522722,
        1.1306852,
        -0.574436,
        0.121973775,
        -0.11574817,
        1.1127195,
        -0.4699068,
        1.2659414,
        -1.3367171,
        -0.8901433,
        0.024168372,
        2.182706,
        0.86957514,
        -0.71141386,
        0.7262307,
        1.1901193,
        -0.14818737,
        -0.4613999,
        0.5071539,
        0.51342356,
        -1.7621441,
        -0.2899826,
        1.3574243,
        -0.21996118,
        -0.57579184,
        -0.569303,
        -0.1797171,
        0.9498345,
        1.1283069,
        -0.88827,
        0.45305276,
        -1.6367762,
        0.4235118,
        -0.15393302,
        0.45412153,
        -1.4547135,
        1.2102965,
        0.09207761,
        1.218821,
        0.3391401,
        -0.90218663,
        -0.29542983,
        -1.0867108,
        0.8161179,
        0.1366189,
        0.5962486,
        0.015575051,
        -1.4444251,
        1.435544,
        0.76245666,
        0.47147012,
        0.14141202,
        -1.0047218,
        -1.3297381,
        -0.1152353,
        -0.15192838,
        -0.14698607,
        -0.93705535,
        1.1535473,
        0.88596755,
        -0.8855809,
        1.7651765,
        0.19645196,
        0.47126514,
        -0.9092996,
        0.9371413,
        -0.64740837,
        0.044120096,
        1.2824813,
        -0.16743162,
        -0.3628316,
        0.5043032,
        0.38380176,
        0.40129536,
        0.76082146,
        -2.102399,
        -0.8258002,
        -1.2663462,
        0.93837315,
        -0.035357006,
        -0.29017892,
        1.4488451,
        -1.7696095,
        0.6283982,
        -0.58120173,
        0.005007133,
        0.08364469,
        1.9531307,
        0.912894,
        -0.03159985,
        -0.11580294,
        1.80552,
        -1.1392338,
        -0.043338522,
        -0.041913405,
        -0.971787,
        -0.43272373,
        0.2019866,
        -0.38820538,
        0.18253903,
        0.6571843,
        2.1530027,
        -0.7579923,
        0.9823643,
        -0.2891532,
        -1.0752543,
        0.20992434,
        -0.28674555,
        -0.8626097,
        -3.7583401,
        -1.7465703,
        0.69354624,
        2.1658435,
        -0.4401204,
        -0.07295892,
        0.024089433,
        -1.248772,
        0.36865497,
        -1.2366713,
        0.5777779,
        -0.7513621,
        -0.3443368,
        1.7707814,
        -0.5858582,
        -0.54896235,
        -1.850666,
        0.18821625,
        0.20365468,
        0.5580566,
        0.5811455,
        -1.6654807,
        1.0646074,
        -0.12292181,
        -0.942194,
        0.7173304,
        -0.7536494,
        0.8235732,
        0.23442146,
        0.51641953,
        -0.14835188,
        0.024246097,
        1.4247345,
        -1.7603266,
        -0.89626133,
        -1.8661747,
        0.42898625,
        0.3222025,
        0.043095484,
        0.9963271,
        -0.34917486,
        1.6095976,
        0.3003959,
        0.085564636,
        -0.9997267,
        0.7541839,
        0.01866185,
        -0.6296993,
        -0.37672433,
        0.7203033,
        -0.35773963,
        -1.1732899,
        0.7614801,
        -0.22027619,
        0.12521961,
        -0.526755,
        -0.5291817,
        1.0310546,
        -0.6104608,
        -2.2122195,
        -0.53868127,
        -1.712043,
        0.27503294,
        -1.430382,
        1.2620279,
        1.1601765,
        -0.5662127,
        0.25591648,
        1.4364352,
        1.3791658,
        -2.2534595,
        0.33584183,
        -1.3529341,
        0.7960056,
        -2.1993496,
        0.6249291,
        0.5860324,
        -0.8473131,
        0.5136255,
        -1.7746722,
        0.53146064,
        0.6351716,
        0.70637465,
        0.45644373,
        0.19636461,
        0.7406601,
        0.3680165,
        -0.24495709,
        1.952735,
        -0.36977506,
        -0.1788853,
        -0.82160354,
        1.9440562,
        0.2599405,
        -0.6337793,
        -1.3012333,
        -0.42827633,
        1.9005978,
        -2.078433,
        -0.37201762,
        1.0457318,
        0.46838322,
        -1.5362108,
        0.8826566,
        0.28265303,
        0.38823313,
        0.063450456,
        -1.8773093,
        -0.118932314,
        0.49200207,
        0.11627059,
        -0.5066909,
        2.3235781,
        -1.0841178,
        0.33174783,
        -1.6535059,
        1.6261266,
        2.8350189,
        -0.8360273,
        -0.12396097,
        2.0459702,
        -0.5694567,
        -1.141171,
        0.36465317,
        0.8253285,
        -0.3472804,
        0.336244,
        -2.121689,
        -0.60814023,
        1.0502137,
        -1.6278639,
        -0.22335872,
        -0.017497456,
        -0.09850508,
        -2.0355525,
        0.8490558,
        0.5037134,
        0.20338836,
        -0.08423339,
        -1.5600545,
        -0.55631465,
        -0.34274432,
        0.45476094,
        0.71180564,
        -1.1204178,
        -1.1597972,
        0.5966224,
        0.7504472,
        -0.5090679,
        -0.44576418,
        -1.4416704,
        0.890732,
        1.0958309,
        -0.066980556,
        0.045330785,
        0.26533318,
        0.35566288,
        1.3236837,
        -1.8464831,
        1.4787668,
        -0.8735246,
        -0.0209828,
        -0.046067998,
        -0.34787342,
        0.53852427,
        0.82475466,
        -0.8691522,
        0.43017152,
        -1.24569,
        -0.2910764,
        -1.1533618,
        0.5719998,
        -0.54568505,
        0.5218496,
        0.2794441,
        -0.034543104,
        -0.70399976,
        -1.1181045,
        1.1335437,
        1.7763184,
        1.3247195,
        0.0065867826,
        0.128822,
        -1.0057714,
        -0.69243896,
        -1.2618312,
        -0.52869195,
        1.0456097,
        1.1806539,
        -1.0798752,
        1.1997662,
        -0.34580678,
        -0.4453232,
        -0.2444315,
        -1.4242648,
        -0.57984126,
        -0.20751834,
        1.1553046,
        0.22873974,
        -2.0811887,
        1.213685,
        1.5424619,
        0.43054318,
        1.1150614,
        1.1154485,
        -0.64080065,
        0.70449156,
        -0.21801755,
        2.5508516,
        1.3677114,
        0.5031915,
        1.5061164,
        0.16066206,
        -0.9047071,
        -1.3681976,
        -2.5052958,
        -0.26303902,
        0.47014326,
        -0.50930774,
        0.308358,
        -2.673546,
        0.0077815503,
        1.8708458,
        0.646191,
        -0.11667636,
        0.28765732,
        -0.009272413,
        0.8439167,
        0.104607485,
        1.026487,
        -0.48592585,
        1.2356731,
        1.88032,
        0.039643884,
        1.0892482,
        0.81730616,
        0.49216828,
        0.098766066,
        -1.0601194,
        2.3467605,
        0.056360114,
        -0.61383945,
        1.2115535,
        -0.9076697,
        1.9265878,
        -0.7047094,
        -0.63778317,
        0.95752823,
        1.7000787,
        0.0008742362,
        -0.49853683,
        0.3754748,
        1.318948,
        1.1556339,
        1.1292875,
        1.009589,
        -0.92664844,
        1.8510761,
        -0.6962869,
        -0.23142618,
        0.8974099,
        -1.3356128,
        -0.10941696,
        0.1289631,
        -1.4729763,
        0.13586082,
        -2.1038198,
        -0.15067765,
        1.9008393,
        -0.7037867,
        -0.33530778,
        0.38428026,
        0.32601285,
        2.8341727,
        -0.5206282,
        2.1321404,
        1.2658315,
        -1.0591995,
        0.36705592,
        -0.30971825,
        0.33728597,
        1.5124208,
        -1.0040314,
        0.12107149,
        -0.1509038,
        0.49880746,
        -2.1824193,
        -0.005852297,
        -2.4540403,
        -1.7324783,
        -0.021647617,
        0.9925402,
        0.9733534,
        0.78795946,
        -0.24375159,
        0.5227692,
        -0.3133455,
        0.40655553,
        -0.32027718,
        -1.2564205,
        -0.7441274,
        -0.61986923,
        1.2649095,
        -0.62996984,
        -0.34252363,
        1.2832192,
        -0.34513783,
        1.2641724,
        0.37336516,
        -0.55109054,
        -0.15090992,
        -1.4708859,
        0.20882738,
        -0.70832217,
        -1.9202847,
        0.07778031,
        -1.1401987,
        -0.73618865,
        -1.3992181,
        -0.24274753,
        -0.033789974,
        0.33062905,
        -0.8128716,
        2.792713,
        0.71360683,
        0.48842597,
        -0.22333892,
        1.0691553,
        0.20628914,
        0.76554626,
        -0.8272756,
        0.06702578,
        0.00040742382,
        0.23809758,
        -0.39432478,
        -1.1340427,
        2.52026,
        -0.9615617,
        -1.4589741,
        1.2672062,
        0.2728607,
        0.831879,
        0.74956244,
        0.07872534,
        0.08067275,
        -0.37980363,
        0.14329122,
        1.2949089,
        -0.8522917,
        -0.79101884,
        1.0500288,
        -0.06716346,
        -0.6387745,
        0.060823333,
        -0.522069,
        0.49881378,
        -0.5912174,
        1.1751914,
        0.30409816,
        0.48415893,
        0.6591608,
        -1.8807077,
        0.9464787,
        0.63329256,
        -1.3743255,
        0.9779033,
        -0.56311214,
        0.4891837,
        -0.7115745,
        0.7047597,
        -0.7498417,
        -0.35881063,
        1.4246377,
        -1.4258372,
        -0.37775362,
        0.30602407,
        0.046114005,
        1.1194979,
        -2.17149,
        -1.0085306,
        -0.22948892,
        0.44800168,
        0.75869566,
        -0.5630372,
        -0.5624675,
        0.38391915,
        0.22079352,
        -1.5646347,
        0.08160529,
        -0.7787004,
        0.17026122,
        1.5859627,
        1.7618797,
        1.1220767,
        -0.92874074,
        -1.2828053,
        -0.3440552,
        -0.53709763,
        -2.6572595,
        -1.1792753,
        -0.63293546,
        1.3231701,
        -1.3208501,
        0.36910865,
        0.09060219,
        0.8752324,
        -1.125812,
        -0.6722401,
        0.035088614,
        -1.6752142,
        -0.78571486,
        -0.94533044,
        0.15863955,
        0.52821285,
        -0.61188287,
        0.8436774,
        -0.17540176,
        -0.034835182,
        -0.074815415,
        0.5228798,
        -0.88047355,
        0.48701677,
        -0.0339432,
        -0.9203584,
        -1.4129902,
        -1.7597952,
        -0.42472422,
        -0.52457654,
        -0.015667245,
        -1.2861606,
        -0.28553376,
        0.45823318,
        0.41136393,
        -0.30363187,
        0.00932612,
        -0.9724891,
        -0.20002438,
        -1.0397651,
        0.61392367,
        -0.47737536,
        0.49104145,
        -0.45036486,
        1.3772497,
        -0.41805333,
        -0.4113751,
        -1.5577328,
        -0.4536909,
        1.9838905,
        1.4631208,
        0.18635058,
        -0.09483395,
        1.2885332,
        -1.5230063,
        -0.94500536,
        1.7737321,
        -0.033128433,
        0.26260987,
        1.43497,
        -1.2212507,
        -0.5025243,
        -2.1504002,
        0.21639128,
        -0.63401526,
        1.8417822,
        -0.808895,
        0.8839746,
        -1.2092062,
        -0.4010438,
        -0.44173345,
        0.77975446,
        -1.0474749,
        -0.10493726,
        -0.7143785,
        0.3094625,
        1.4099866,
        -0.04343888,
        -0.083333015,
        -0.32690758,
        0.07736634,
        -0.042885765,
        1.3069422,
        0.55088985,
        -0.018727895,
        0.5939948,
        0.33937556,
        0.010214709,
        -1.7895733,
        0.7205067,
        0.47017372,
        0.32791033,
        1.0187043,
        -0.94080096,
        -2.2001657,
        -1.1826217,
        0.91391075,
        0.66383505,
        0.06433998,
        0.9083523,
        0.05990123,
        -0.3788372,
        1.0664134,
        -0.6351951,
        0.4487538,
        0.14189953,
        -0.29627153,
        -1.1629019,
        -0.101101615,
        0.44185957,
        -0.489559,
        0.80270904,
        -0.35664657,
        0.089458175,
        1.5294302,
        1.5465349,
        -0.63038737,
        1.9932263,
        0.15236017,
        -1.8232151,
        -0.64314073,
        0.79917926,
        -1.1304765,
        -0.7662256,
        -0.531334,
        -0.6083479,
        1.9204087,
        0.3948088,
        1.2690097,
        0.7425954,
        0.28955692,
        0.05062251,
        -1.0484256,
        -0.23775214,
        -0.7028882,
        0.8306849,
        -0.3564932,
        -1.3301116,
        -0.014195088,
        1.9994771,
        0.7936625,
        -1.0475386,
        0.05158119,
        0.14978105,
        -0.7831894,
        2.507644,
        -0.060549833,
        0.26842335,
        -0.7863898,
        0.5257401,
        -2.4858184,
        -0.35828647,
        1.2795264,
        0.43904892,
        0.73896444,
        -1.1551563,
        -1.6565169,
        -0.58996683,
        -1.4438827,
        1.0037456,
        -1.1945453,
        1.06626,
        0.46118277,
        0.4983219,
        -0.22697257,
        1.5338842,
        0.3649606,
        1.6181109,
        0.83658326,
        0.014391871,
        0.1389168,
        -0.68529963,
        -0.6076937,
        -0.30572972,
        0.54051024,
        0.0490715,
        2.0500135,
        0.6199188,
        -0.1526336,
        1.0833284,
        -0.29665735,
        -1.2709038,
        -0.81119317,
        0.7612911,
        1.0379089,
        -1.3027737,
        0.57234913,
        1.609596,
        -1.3426646,
        0.120747484,
        0.35133034,
        -0.47061747,
        1.4086155,
        0.76865596,
        1.6824296,
        0.40673086,
        1.1563891,
        -0.27617455,
        -0.99099505,
        0.2035751,
        1.0959407,
        -0.9636751,
        0.12358541,
        0.57690895,
        -0.54202497,
        -0.5103193,
        -0.5194685,
        0.6674274,
        0.2482259,
        0.8975098,
        -0.1557942,
        -1.4366403,
        0.17791581,
        0.52536374,
        0.77861845,
        0.21181548,
        -1.0911489,
        0.029056266,
        0.18436854,
        -0.48330852,
        -0.22254115,
        -0.2053927,
        0.3776062,
        -1.4659345,
        -0.13132364,
        0.30237904,
        -1.4499229,
        -1.3289974,
        -0.54587966,
        -0.6401451,
        1.4034371,
        2.1814787,
        -0.49723527,
        1.0152711,
        -0.7892409,
        1.1215148,
        -1.033596,
        0.9413363,
        0.7282857,
        -0.25349262,
        -1.009034,
        -0.98906976,
        1.5524129,
        0.47445664,
        1.3243556,
        -1.4919808,
        -0.0030750483,
        -1.1725882,
        -0.5296718,
        -1.5377452,
        -1.2968394,
        -1.4849372,
        0.35986054,
        -1.7459463,
        1.2463158,
        0.5005541,
        -1.581513,
        -0.9058968,
        -1.2816265,
        -0.8736343,
        -1.7429134,
        -0.7126214,
        1.9942633,
        -0.32541168,
        2.2455323,
        0.8886075,
        0.6782101,
        2.0976455,
        -0.97742134,
        -0.4558774,
        -0.56091005,
        0.34977034,
        1.937528,
        -1.9358553,
        0.29753014,
        1.7314483,
        0.5036226,
        0.39450583,
        0.37651944,
        0.46236458,
        0.3952821,
        -0.5643273,
        0.047624305,
        -0.7953065,
        1.1947138,
        -0.13556078,
        0.70372504,
        -0.8655168,
        0.044341892,
        -2.608747,
        2.4536781,
        -0.37903285,
        1.2330489,
        -0.10699747,
        1.5433582,
        1.1854087,
        -0.8271192,
        0.90539885,
        0.8909145,
        0.87162143,
        -0.23697506,
        1.0519106,
        2.4974225,
        0.5442583,
        0.5661247,
        1.2422135,
        -0.080985256,
        0.6215213,
        -0.78320754,
        0.5022418,
        -0.6974625,
        0.8498826,
        0.5495995,
        -0.4655626,
        0.41804004,
        0.8147824,
        0.29737198,
        -0.8752349,
        0.10375651,
        -0.024580946,
        -0.094631046,
        0.53224653,
        -0.43301407,
        -0.80000454,
        -1.0235305,
        0.90548116,
        0.6542282,
        -1.0692549,
        -0.88356763,
        -0.79879993,
        1.1291255,
        -1.0036026,
        -0.19163264,
        0.5390316,
        0.72187924,
        -1.3302861,
        0.18758312,
        0.61825895,
        0.40261826,
        0.5603146,
        1.3707381,
        -0.6634812,
        -0.60948694,
        -1.7886276,
        -0.29121318,
        -1.9265805,
        0.34663907,
        0.043885987,
        -1.4488337,
        -0.15182279,
        0.13914403,
        1.766745,
        0.050633334,
        -0.83508366,
        -0.70932823,
        -0.11561783,
        0.5885596,
        0.3992883,
        0.2659845,
        -0.7458435,
        0.20182702,
        0.3841404,
        -0.109473854,
        0.1643182,
        0.068320595,
        -0.26223353,
        -0.07974928,
        -0.5620273,
        -0.687854,
        -0.015096892,
        0.54225445,
        -2.8275998,
        -1.0496471,
        -0.7367661,
        0.60167664,
        -1.1184733,
        0.26488996,
        -0.7346197,
        0.478389,
        -0.040092114,
        -1.4383609,
        -0.6901281,
        -1.5556064,
        -0.71348417,
        -1.2784575,
        -1.122105,
        0.072451234,
        1.7487817,
        0.4699819,
        -0.044033766,
        0.553897,
        1.6497579,
        -0.8885847,
        0.8880628,
        1.1631663,
        -0.7769419,
        0.10616872,
        -0.9749559,
        -1.167407,
        1.5791569,
        -0.091215864,
        -0.57781374,
        -1.3974316,
        2.0287912,
        0.402623,
        1.1462202,
        -0.7734672,
        2.8095837,
        1.7298411,
        -0.013594031,
        -2.375352,
        6.118298,
        0.81992835,
        -2.5080397,
        -2.066185,
        6.8813915,
        -5.910523,
        -1.6100225,
        3.7412932,
        2.547317,
        -1.162446,
        5.832873,
        -4.586453,
        -6.5161266,
        -4.147753,
        5.049511,
        -18.183546,
        7.0994005,
        -0.39905038,
        5.452276,
        0.7081214,
        2.9850934,
        1.2487956,
        18.701628,
        -6.7634153,
        2.0528839,
        0.5715805,
        -1.1697004,
        -4.328593,
        3.4089572,
        -2.4619217,
        -8.831661,
        -3.94382,
        -0.69406533,
        5.464905,
        0.8778059,
        -16.893244,
        -6.60058,
        5.2525797,
        -23.819685,
        -0.9532066,
        1.8289913,
        -2.3031452,
        -1.0483629,
        -1.8245344,
        -2.806467,
        -10.840271,
        -11.72219,
        -1.2511652,
        -3.910797,
        -2.6392665,
        -6.0335956,
        -0.6316508,
        -0.42489845,
        -5.149409,
        0.671753,
        0.30813953,
        0.09660739,
        -0.7047922,
        -1.8328167,
        -2.1676943,
        -1.8026261,
        0.1915093,
        -8.561386,
        0.8218585,
        0.7508514,
        7.5337524,
        -5.920438,
        -4.0979304,
        -3.086226,
        -0.9871428,
        -5.9121857,
        0.14745061,
        -8.583838,
        -0.40834436,
        3.5068886,
        6.5167685,
        -2.1919842,
        -7.3675547,
        -0.19183788,
        4.913878,
        -6.7264285,
        1.3067598,
        1.186169,
        -0.051458478,
        1.6955435,
        1.1152365,
        -4.1184893,
        -3.753142,
        1.5830184,
        9.9994755,
        -0.51531863,
        -0.95964736,
        -0.4145249,
        0.6787697,
        3.1191423,
        1.1472296,
        -1.2030063,
        1.4340281,
        -0.5456591,
        -0.10927278,
        0.83358985,
        0.041487765,
        -1.0230037,
        -1.0937331,
        1.6723195,
        1.9049656,
        -0.48214954,
        4.081803,
        0.8859597,
        0.6428111,
        2.655376,
        -1.4026008,
        -1.2572318,
        0.99339926,
        -0.59548295,
        -1.1629171,
        -0.62623537,
        -1.6719141,
        1.6429003,
        -1.5198343,
        -0.7619608,
        -1.0167994,
        -0.5592859,
        -1.124457,
        -0.5552579,
        -0.34957922,
        -1.6826233,
        1.0780581,
        0.20835936,
        -1.3599839,
        -0.7327512,
        -0.47776806,
        -0.7015827,
        -0.9623028,
        -0.38864383,
        -0.5102421,
        0.27060664,
        -0.45113844,
        -2.8691413,
        -1.1495329,
        -0.0025989413,
        -1.8959899,
        0.95917,
        -0.63695407,
        -0.54363036,
        -0.45610395,
        0.22367251,
        -0.34568068,
        -0.1256926,
        -0.44806945,
        0.5195066,
        -1.165126,
        0.3239424,
        -0.17548537,
        0.22077364,
        1.1026464,
        -1.2038554,
        -1.3561674,
        -0.70823556,
        -0.5904255,
        -2.2384176,
        -1.0542878,
        -1.4582832,
        1.0398554,
        0.3375714,
        -1.4046569,
        1.8446904,
        0.6837161,
        -0.08479074,
        -0.0070383847,
        -0.42198294,
        0.712282,
        1.3191752,
        1.663808,
        0.63399875,
        -0.7500381,
        -0.090339184,
        -0.6873222,
        1.06635,
        3.1394615,
        -0.61223245,
        -1.0713552,
        0.29391164,
        -1.9785098,
        1.7130303,
        0.6182593,
        -0.92458594,
        -1.4354173,
        -0.07333128,
        -1.1530371,
        0.2744512,
        -0.7691536,
        -0.31213394,
        1.4081265,
        1.9141841,
        -0.3482027,
        1.2007049,
        0.23041457,
        -1.3048892,
        -0.22969407,
        -0.01331839,
        1.2771503,
        0.45604473,
        0.79463834,
        2.1437054,
        -0.59998107,
        -1.5959421,
        -0.022997754,
        0.8738299,
        0.8871244,
        1.6287557,
        0.23774678,
        -0.45218754,
        1.0311241,
        0.2662586,
        0.09409878,
        0.69609797,
        -0.008867681,
        -0.40254477,
        0.3907161,
        0.6559359,
        -0.14222589,
        1.3167392,
        0.34390175,
        0.44718456,
        1.9265501,
        -0.39578655,
        -1.6776962,
        0.12590714,
        -1.1768066,
        0.046811298,
        -0.3748664,
        -1.9395248,
        -1.5743651,
        -0.92820394,
        -0.8202115,
        0.4574926,
        0.015086342,
        -0.097318664,
        -1.0671514,
        -0.43277434,
        -1.4978608,
        0.8202375,
        -0.5859751,
        0.5274725,
        -1.0507058,
        -0.98166233,
        -1.1407255,
        0.5153406,
        0.68433666,
        0.7055596,
        0.93713003,
        -0.3961991,
        0.50493276,
        0.58080834,
        -1.8199848,
        -0.25833234,
        0.9409839,
        0.3201855,
        0.3821833,
        -2.411095,
        2.2785482,
        0.21925381,
        1.1026101,
        -0.8325935,
        1.3513447,
        1.1045442,
        0.044498004,
        0.5168425,
        -1.7184546,
        -1.2975227,
        -1.2007734,
        -0.76328605,
        -1.3768207,
        0.8063756,
        -0.64633167,
        -0.8485956,
        -1.0621625,
        1.0466722,
        0.4318707,
        -0.4360819,
        -0.44391128,
        1.2170174,
        -1.705031,
        -0.63997495,
        0.3273392,
        0.08059083,
        -0.41141602,
        -1.5404133,
        0.106180534,
        0.18036835,
        -1.1385592,
        -0.89460206,
        0.014851963,
        -0.9254735,
        0.16802998,
        0.11819682,
        1.699092,
        1.4398264,
        1.421428,
        -0.6702883,
        0.97762626,
        0.41100487,
        -1.1119801,
        0.9112513,
        -0.281218,
        0.7146453,
        -0.19698125,
        0.4415991,
        1.6959027,
        0.4984437,
        1.0714163,
        0.21035904,
        1.4796159,
        -0.57253134,
        1.0471317,
        1.0409011,
        1.0482966,
        -0.61623114,
        -0.042820215,
        -0.37946045,
        -0.57299984,
        -0.66031337,
        -0.25451976,
        -0.4416492,
        0.4366012,
        3.2158253,
        -1.3623662,
        0.2580826,
        0.6183828,
        -0.13013098,
        0.7858342,
        0.29807797,
        -0.26947466,
        -0.29150748,
        -0.50151104,
        1.3493537,
        0.950256,
        -0.87217784,
        -0.5514589,
        0.7808015,
        -0.25433034,
        -1.1905894,
        -2.1121402,
        0.41820914,
        -1.4570522,
        -1.6567487,
        -0.6174299,
        -0.15572862,
        0.8058665,
        1.7931662,
        0.8294486,
        0.9915965,
        -0.6511798,
        1.4355731,
        -1.0074854,
        -0.5359697,
        1.2572677,
        -0.57312936,
        0.40083152,
        0.08928986,
        0.6640439,
        0.78210807,
        -0.8394643,
        1.5220661,
        1.1809341,
        1.2983024,
        -1.8440669,
        -0.4413674,
        0.5638429,
        0.24303702,
        -0.73270845,
        -1.0420794,
        1.5641109,
        0.18607607,
        0.647995,
        1.2303619,
        -0.25982568,
        0.38344803,
        -1.0454667,
        0.5725057,
        0.5014928,
        0.3964425,
        0.20832457,
        -0.23279645,
        -2.96723,
        -0.18305486,
        0.93483174,
        0.28555876,
        0.07940835,
        0.93607795,
        -1.193884,
        -0.43880713,
        -1.0106068,
        -0.72112674,
        -0.7980255,
        -0.21836339,
        -0.7645378,
        -1.4378424,
        -0.9536327,
        0.1955669,
        -1.5592959,
        2.8834798,
        -1.0813808,
        -0.9115521,
        -1.3905743,
        -2.0074077,
        -1.8739231,
        0.87983567,
        -0.6494611,
        -1.2921298,
        1.4293613,
        -0.14800037,
        0.8511392,
        1.4462726,
        -0.38012516,
        -0.17883345,
        1.3161871,
        -1.322643,
        -0.82231784,
        0.69814384,
        -0.23166296,
        -0.6388904,
        0.27547604,
        0.039585814,
        0.04808356,
        -0.9528155,
        -1.65721,
        1.9553367,
        -1.747378,
        -0.4464214,
        0.029913828,
        -0.22731286,
        0.17416899,
        1.6289109,
        -0.22780363,
        1.6437975,
        -0.9453327,
        -1.0340066,
        0.47108543,
        -0.41310185,
        -0.08230209,
        0.53767973,
        0.26121497,
        -1.0270398,
        0.33840454,
        0.41255873,
        0.45641664,
        0.639184,
        -0.50429094,
        0.36173862,
        -0.20831181,
        -1.5955269,
        -0.32683313,
        0.24161467,
        -0.1961922,
        2.1505518,
        -0.5553858,
        -0.35632762,
        0.23990674,
        0.6563747,
        2.641463,
        -0.67397815,
        -0.13177879,
        1.3291491,
        -1.0499158,
        0.38534173,
        -0.53193086,
        0.2581051,
        0.05228865,
        0.687859,
        0.90663195,
        0.033703774,
        0.84148604,
        0.09208605,
        -0.9582702,
        -0.46638423,
        0.39538804,
        -1.4946696,
        -1.321161,
        0.119138315,
        0.2223309,
        0.4476773,
        0.4296514,
        -0.722774,
        0.30117112,
        0.04293654,
        -0.19517146,
        1.5272309,
        -1.2850866,
        0.113351405,
        1.961912,
        -0.4862259,
        0.65775466,
        0.6746133,
        1.1822585,
        -1.1895286,
        -0.28627416,
        0.2559367,
        0.9779792,
        -0.63191104,
        0.36904034,
        -1.0697999,
        -2.9691548,
        -0.60034454,
        0.9271623,
        0.2946337,
        0.5946,
        0.45861667,
        -0.6231382,
        -1.3837422,
        -0.18665972,
        0.52854115,
        1.2304899,
        -0.14204118,
        -0.6812007,
        1.7781093,
        0.72504085,
        0.7319528,
        1.7969666,
        0.22258887,
        -0.15216805,
        -0.17997617,
        1.0603027,
        -1.3913094,
        0.6962602,
        -0.5992036,
        0.07628179,
        -1.1074446,
        0.33965945,
        0.46997517,
        -1.1237161,
        1.3022836,
        1.1133466,
        -0.74407923,
        -1.8367877,
        1.268747,
        0.33595848,
        -1.3155758,
        -0.1273499,
        0.10464488,
        1.2505387,
        -0.93810844,
        1.1842331,
        0.38180482,
        1.7713104,
        -0.07565777,
        -0.43343076,
        0.7441119,
        1.1936557,
        1.046628,
        -0.72714853,
        -1.2139375,
        0.94732094,
        -1.1155527,
        -0.8097341,
        -0.1989338,
        -3.427302,
        -0.91544145,
        -0.50358504,
        -0.079411626,
        -0.13274392,
        -0.3680383,
        0.7562134,
        -0.6554941,
        0.29068342,
        -0.39187032,
        -0.5387102,
        -1.2669698,
        1.3736086,
        -0.7553862,
        0.5152171,
        1.7596164,
        -1.5258068,
        1.7587473,
        -1.045067,
        0.8680638,
        1.5511225,
        -0.79123354,
        -0.62083507,
        -2.5385768,
        0.6229904,
        1.3756684,
        0.5817491,
        -0.49046537,
        -1.0031077,
        -0.4261626,
        -0.10177465,
        0.4934523,
        -0.28129217,
        0.1479317,
        1.3515207,
        -0.6590105,
        0.10205304,
        0.62692565,
        0.33292323,
        -0.20824419,
        0.905626,
        -0.64382714,
        0.8498451,
        -2.379319,
        -0.37112764,
        1.1443713,
        1.2042365,
        0.04449143,
        0.39864394,
        0.35687464,
        -1.330697,
        -0.07505103,
        1.669459,
        1.0131167,
        -0.32849303,
        -0.021713385,
        0.56762886,
        0.87459284,
        0.7384805,
        -0.5671951,
        -1.5037788,
        -1.6956433,
        -1.1038262,
        -0.64429337,
        -0.045930672,
        0.6968841,
        1.5562954,
        -0.65012586,
        0.50991035,
        0.6504619,
        0.18512523,
        -0.59401554,
        -0.32049593,
        -0.124366865,
        -1.6045308,
        0.4099308,
        -0.35248247,
        0.050324086,
        -0.3526424,
        0.20882158,
        -0.16521779,
        0.010386404,
        0.01657821,
        -0.26460987,
        -0.30080703,
        0.8697102,
        -1.3561622,
        -0.34237427,
        0.5863205,
        -0.38699305,
        0.10319373,
        -0.37732047,
        0.07832204,
        -1.0184009,
        0.5153193,
        0.18727419,
        0.005990432,
        -1.520652,
        -0.85822684,
        0.09907731,
        -1.7269286,
        -0.76367146,
        -1.3602554,
        -0.24551485,
        2.5201252,
        -0.5586712,
        -1.5971477,
        0.8927567,
        -0.3213013,
        -0.9138783,
        1.285794,
        -0.8277943,
        -0.045243688,
        -1.8593273,
        -0.3766813,
        -0.49090183,
        1.0479046,
        0.20581885,
        1.0031997,
        -0.33176255,
        0.523934,
        0.27885386,
        1.8915992,
        1.7349005,
        -1.4365668,
        0.3821938,
        1.3642303,
        0.18667836,
        -0.57538277,
        1.4332474,
        -0.16539508,
        0.8841495,
        0.460043,
        -0.37025282,
        -1.3334754,
        0.52691936,
        0.15989627,
        0.29484543,
        -1.2568164,
        -0.037037432,
        0.33419567,
        -1.4256325,
        -1.4329683,
        2.2739334,
        -0.5790488,
        0.5364993,
        -1.3641796,
        0.9526468,
        -0.13041127,
        -0.5806822,
        -0.35096222,
        0.5269431,
        -0.4124996,
        -0.15569387,
        -0.51304823,
        0.9270637,
        -1.6641488,
        -1.482872,
        0.5314933,
        0.14168262,
        1.480772,
        0.14215153,
        -1.1905292,
        -2.7147121,
        0.7447737,
        0.86244327,
        -0.56298953,
        -1.770036,
        -0.67218685,
        1.3875932,
        1.5151412,
        -0.2813772,
        0.26028576,
        -0.96248704,
        -0.83566827,
        -0.20241679,
        0.31850338,
        -0.6775638,
        0.11867461,
        -1.9842108,
        1.1776676,
        0.7767137,
        0.7966068,
        1.060322,
        -0.673678,
        -0.2897183,
        0.3924855,
        0.033871956,
        -0.09437666,
        -0.26124677,
        0.37833658,
        -0.24583079,
        -0.50968665,
        -0.79093105,
        1.1840235,
        0.3817175,
        0.061962485,
        0.060991563,
        0.8712577,
        1.814906,
        -0.6128879,
        -0.39164856,
        -0.6386349,
        1.0581964,
        1.1694332,
        1.7305729,
        -1.6085966,
        -0.039711557,
        -0.1700665,
        -1.5513608,
        0.11817696,
        -0.8823297,
        -1.3929884,
        -0.04113649,
        -1.3034741,
        2.6719668,
        0.6154059,
        0.18392508,
        1.3063672,
        0.69811916,
        -0.07834967,
        0.78978676,
        0.81433785,
        -0.74333185,
        -2.0928268,
        0.3857624,
        -0.89147085,
        1.062002,
        -1.2950648,
        0.7254404,
        0.47042376,
        0.23091277,
        -0.8046674,
        0.4198359,
        -1.1355721,
        0.8024101,
        0.10268593,
        0.8532697,
        -0.8303918,
        -0.93636376,
        -2.8835816,
        0.18613435,
        2.5479565,
        -0.04850608,
        -1.5298831,
        -0.9191043,
        -0.40435487,
        1.3181101,
        -0.3827287,
        -0.4621534,
        0.72110564,
        -0.98505807,
        1.2455654,
        -0.40420002,
        -0.26609743,
        0.1739263,
        0.037022322,
        0.6350475,
        -0.44987255,
        0.41168392,
        0.25905192,
        1.7720045,
        -0.5142732,
        0.42366418,
        -0.40092456,
        0.54099,
        -0.339862,
        0.5886212,
        2.6854734,
        0.096540466,
        0.95781887,
        -0.83410764,
        -0.6315074,
        0.55764675,
        -0.07399468,
        0.18355037,
        -0.87150276,
        -0.46481797,
        -2.9257615,
        1.1227411,
        -1.5937371,
        -0.33827952,
        -0.8454735,
        0.88595444,
        0.5976033,
        -1.3832189,
        -0.10912022,
        0.07692379,
        -0.41462797,
        -1.4492958,
        1.184459,
        -0.4075393,
        -1.0015112,
        -0.30010873,
        0.5058113,
        -0.8116643,
        -1.2376726,
        -1.074765,
        2.6111932,
        1.6590242,
        -0.5522303,
        0.36456278,
        0.060070634,
        0.62399846,
        0.8466143,
        -1.0722862,
        0.040621806,
        0.21567482,
        0.34264183,
        -1.1377957,
        -0.8844095,
        0.31070858,
        0.195511,
        -0.51390225,
        0.076330915,
        0.94112766,
        -0.015293837,
        -0.8882537,
        -1.0038003,
        -0.12250808,
        -0.061660618,
        0.5996812,
        0.59784544,
        -1.113233,
        -0.8941897,
        1.4066502,
        0.14782205,
        2.8959908,
        -0.7859133,
        1.376046,
        1.389655,
        -0.019191086,
        0.31226066,
        -0.24157077,
        0.014927968,
        0.59145904,
        -0.15565923,
        1.0004028,
        -0.5768314,
        -0.5070953,
        1.3966321,
        -2.4680018,
        -0.80491054,
        0.06533751,
        -0.16673388,
        0.6444994,
        -1.0611417,
        -0.042957954,
        -0.45973653,
        2.0648582,
        1.1237322,
        -1.4847215,
        -1.186922,
        0.6345246,
        0.5125392,
        -0.992797,
        -0.3273729,
        1.3544623,
        -2.0512395,
        -1.7306256,
        -0.6933746,
        1.3600817,
        -0.058059067,
        -1.0449669,
        -0.007957213,
        0.880442,
        -0.6043318,
        0.74935246,
        -0.7013831,
        -0.35631022,
        1.3856717,
        1.1520452,
        0.8030921,
        -0.4172259,
        0.27076238,
        -0.1619108,
        0.0041181445,
        -0.8777381,
        2.376082,
        -1.0281343,
        -0.44702658,
        -1.4349262,
        1.4571465,
        1.3182988,
        -0.18419418,
        -1.7315757,
        0.44302112,
        -0.61615586,
        0.3178025,
        0.18448132,
        -2.0391018,
        0.7860293,
        -0.7924475,
        -0.74872977,
        -1.3115805,
        -0.5960954,
        -0.0005339682,
        0.92677784,
        -0.8335744,
        -0.8006556,
        -0.94172394,
        -1.0691102,
        0.9974766,
        -0.5235797,
        -0.8408587,
        -1.5590467,
        -0.3977262,
        1.5292788,
        2.4094017,
        0.5515711,
        0.3975826,
        0.5528724,
        -0.4863382,
        -2.2352319,
        -0.56014484,
        2.705458,
        -0.92797256,
        0.14630315,
        0.15001762,
        0.039032266,
        0.32192117,
        0.25166804,
        0.2822679,
        -0.84586847,
        -0.123563394,
        0.3655753,
        -0.44049639,
        0.3995652,
        0.083090305,
        -0.522182,
        -2.0638025,
        -0.7323044,
        0.3034291,
        -0.8526909,
        -1.890488,
        -0.1776221,
        -0.15384832,
        -0.5713081,
        -0.9763236,
        -0.25628504,
        1.0452967,
        0.9537356,
        0.2645276,
        1.2387148,
        0.88574,
        0.014655918,
        0.23970908,
        -0.3064012,
        -0.22484478,
        -0.50534433,
        -0.5542556,
        1.2119421,
        0.42377895,
        -0.5659085,
        2.5942101,
        1.2755289,
        0.5227705,
        -0.7767229,
        0.538443,
        0.18284392,
        0.66862524,
        0.28827292,
        1.5949425,
        0.9471877,
        1.1038991,
        -0.43706882,
        -1.0719529,
        -0.8266537,
        -1.8303703,
        0.22528842,
        2.1699739,
        0.46006387,
        -0.12784086,
        -0.56375134,
        -1.295576,
        -1.3879373,
        0.71228355,
        0.54574794,
        -1.038813,
        -0.5735448,
        -0.63467056,
        -0.81660175,
        -1.3544285,
        -0.83465135,
        -0.93773925,
        2.0796254,
        0.33382308,
        -0.6136506,
        0.45195895,
        0.99832416,
        1.5388839,
        -1.343822,
        1.0838653,
        -0.45616457,
        -0.1224148,
        0.45641962,
        -0.6672317,
        -0.0029585306,
        -0.30966994,
        0.0030117556,
        -0.31851622,
        -1.3187121,
        -0.6489364,
        -0.44314945,
        1.0487344,
        -0.50723267,
        0.50109565,
        -1.9900496,
        0.23051989,
        -0.3282141,
        0.12774086,
        0.57759875,
        -0.8285493,
        -1.9871837,
        -0.31459388,
        -0.16530588,
        -1.2839019,
        -1.9462667,
        0.09511702,
        0.11646849,
        -0.021661304,
        -0.905822,
        -0.6998236,
        0.36777234,
        -0.21570314,
        -0.93564564,
        1.0123322,
        1.5643086,
        -0.49300468,
        0.9035469,
        0.12389515,
        -0.1325407,
        0.36530447,
        -0.3760824,
        -0.8494691,
        1.5673904,
        -0.015620023,
        1.1389185,
        -0.4984569,
        0.21111882,
        -0.7796264,
        -0.479038,
        0.14350751,
        -1.080567,
        -1.8225166,
        -0.037366312,
        0.6875565,
        -0.040554095,
        -1.0655159,
        1.3676184,
        0.3162356,
        0.2615261,
        -1.176571,
        -0.6921954,
        -0.04537797,
        0.17412536,
        -1.0115541,
        0.4310996,
        -0.6746661,
        -0.9953533,
        -1.299081,
        -0.49983266,
        -0.0756985,
        -1.2418677,
        -0.8792556,
        -0.8505229,
        -1.12268,
        0.43834516,
        0.78313845,
        0.79497296,
        -1.0282813,
        -0.2550246,
        1.054768,
        1.361158,
        -0.9503716,
        -0.89674866,
        -0.24013904,
        0.29718053,
        0.63670754,
        -1.5281484,
        1.8452814,
        -0.78502095,
        0.5069978,
        -0.17112522,
        -2.8071833,
        0.3018094,
        1.1597252,
        -0.8215387,
        -0.81921655,
        -0.18307629,
        0.6779906,
        -0.08800039,
        -0.6603902,
        -0.5218022,
        -0.1413182,
        0.37606275,
        0.23783503,
        1.512211,
        -0.87265855,
        -0.12622988,
        0.16741782,
        0.98265284,
        -0.13019815,
        -1.0884402,
        -0.52193445,
        -0.5502533,
        1.7092595,
        0.008867141,
        -0.69732296,
        1.1935937,
        -0.6674502,
        -1.1392941,
        -0.43977794,
        -1.0422254,
        0.041738585,
        -0.6026283,
        -2.5013952,
        1.8549355,
        -1.2355049,
        -1.3886566,
        0.67492056,
        1.5494787,
        -0.07439165,
        -0.0010370165,
        -0.76675284,
        -0.040829062,
        2.361638,
        -1.0146734,
        -0.12656882,
        0.062320016,
        0.09084524,
        1.7371484,
        -0.285845,
        1.378322,
        -0.70356715,
        1.7684247,
        -1.9610264,
        1.1294817,
        -0.6931204,
        1.2639439,
        1.3436985,
        1.0369909,
        -0.45386034,
        -0.44334486,
        2.788644,
        -0.18746354,
        -0.3327116,
        0.39194775,
        -1.1332486,
        0.21343261,
        1.4467683,
        1.2913208,
        -0.48364803,
        -0.06380409,
        -0.82030654,
        0.23175767,
        -0.14408007,
        -1.0691864,
        -1.8850349,
        -0.2900746,
        0.48503244,
        0.009557173,
        -0.67748266,
        -0.032643534,
        0.47344622,
        1.4089915,
        0.54084325,
        -0.43039,
        0.5460417,
        0.2701411,
        0.8135929,
        0.8743259,
        -0.45358652,
        -0.3410338,
        -1.2895017,
        0.7666646,
        -0.9263614,
        1.0988522,
        -0.20706359,
        -0.7636084,
        -0.20653662,
        -1.2433528,
        -1.3873994,
        -0.8182029,
        -0.9355892,
        1.7685323,
        0.98704964,
        1.0280682,
        -0.14269234,
        0.31487978,
        -0.13352868,
        -0.53189695,
        1.9195659,
        -1.4024723,
        -0.9976759,
        0.7970757,
        -0.9850019,
        -2.0463276,
        0.902444,
        -0.10268074,
        0.8582793,
        -0.66094524,
        -0.8599979,
        -0.98911256,
        -2.4494596,
        -1.8700944,
        1.1267458,
        -0.6946553,
        -1.0311795,
        1.5666823,
        -0.3361948,
        0.08640487,
        -0.121900305,
        -0.6724792,
        0.66201735,
        -0.54954755,
        0.17198208,
        0.051590044,
        1.099517,
        -1.3554726,
        -2.1881063,
        -0.87938654,
        -1.4163374,
        1.0386184,
        -0.24705067,
        -0.13708173,
        0.5163097,
        0.7425193,
        0.19730519,
        -1.1683259,
        0.6977588,
        0.316635,
        -0.4937429,
        0.20086133,
        -1.0034602,
        -0.6203509,
        0.30978417,
        0.35549766,
        0.45905608,
        -1.4008133,
        -0.78798395,
        0.8420734,
        0.6508299,
        -0.03524524,
        -0.6083186,
        -0.24875489,
        0.7487161,
        -0.23834158,
        0.80923784,
        -0.3999538,
        -1.3045243,
        -0.24819988,
        -0.19637842,
        1.1186816,
        0.32850373,
        -0.043495268,
        -1.8891966,
        -0.493133,
        -2.119575,
        0.19080406,
        -1.8274611,
        1.2213769,
        0.6787037,
        0.56386656,
        1.9364412,
        1.1552266,
        0.27560377,
        1.273357,
        2.0872908,
        -0.35024923,
        -0.5022888,
        1.0199769,
        1.308636,
        -0.21230897,
        -0.45185688,
        -0.9567242,
        1.963393,
        1.3888878,
        0.4328429,
        -0.6984427,
        -0.03357321,
        -1.5271794,
        -0.57918173,
        -0.5037304,
        -1.5635724,
        -1.3920183,
        -0.91364473,
        0.3562043,
        0.114018485,
        -1.1491866,
        -1.0528113,
        -0.31715465,
        0.45255065,
        -0.04931128,
        1.1735061,
        0.32346153,
        -0.35596466,
        1.0372447,
        0.802982,
        -0.7928892,
        -0.2911493,
        -0.6342212,
        -0.21100935,
        -1.3649622,
        0.38994044,
        -0.4424985,
        1.012851,
        2.3112516,
        -0.86532146,
        0.1910208,
        -0.8307438,
        -1.3284569,
        0.7698133,
        -0.45441747,
        0.8149716,
        -1.0427939,
        -0.12378064,
        -1.5185051,
        -0.7138435,
        -0.76541936,
        0.7244894,
        0.82668966,
        0.8003311,
        0.78700304,
        -1.0797929,
        -1.4324816,
        -0.5806791,
        0.36148435,
        -0.52588475,
        -0.066410035,
        -1.0493324,
        1.003656,
        0.020574778,
        -1.5398371,
        -2.0275676,
        -0.2405175,
        0.6179215,
        1.0837046,
        0.81137383,
        -1.1793629,
        -0.79643,
        0.5936265,
        -1.4349521,
        1.1823735,
        0.2428727,
        -0.8151328,
        -1.8056463,
        0.1092605,
        -0.85298234,
        1.6240306,
        1.103981,
        0.3799587,
        -1.0350044,
        1.7145932,
        0.033733666,
        0.35540336,
        -0.9088862,
        -0.85921025,
        -1.4382432,
        0.25027645,
        -0.8137898,
        0.6355802,
        -0.24414158,
        -0.12040429,
        -1.7386774,
        0.6186222,
        0.16918233,
        -0.24535346,
        -0.33219412,
        -0.74043274,
        1.4982415,
        0.3656932,
        0.96659505,
        0.51798135,
        -1.6461183,
        1.1766617,
        0.31805077,
        0.3855142,
        -1.1976671,
        -0.92767566,
        0.7452712,
        -0.83531624,
        -1.5637414,
        2.4200037,
        0.14145538,
        0.0063770413,
        -0.41683072,
        -0.12073749,
        -1.5320731,
        -0.25233132,
        -0.48728675,
        -1.9797747,
        0.538352,
        0.015890777,
        0.12935773,
        -0.7734605,
        0.46128294,
        0.79935575,
        -0.2528641,
        -0.24665508,
        -1.1283554,
        -1.7623966,
        -0.29018182,
        0.95895493,
        -1.0187658,
        -0.43116337,
        1.6859689,
        -0.21489125,
        1.1199372,
        0.43511903,
        -0.008083284,
        0.7820945,
        -0.691296,
        -0.008609831,
        0.69884396,
        0.07131708,
        2.012093,
        0.15294662,
        -0.5634345,
        -1.2727003,
        0.95003855,
        1.7873119,
        0.71626306,
        -1.1717288,
        0.24913025,
        -1.3542663,
        1.4186118,
        -0.4336236,
        0.7169016,
        -1.012663,
        0.3333145,
        0.03150204,
        -2.2814984,
        -0.10855507,
        -0.5735403,
        -0.9170498,
        -0.8839439,
        1.2662991,
        0.74298394,
        -0.38603866,
        -0.38420674,
        -0.0395205,
        -1.5402608,
        -0.021512985,
        0.27112472,
        1.6280484,
        0.7380313,
        1.255868,
        1.0193336,
        1.062529,
        -0.78168154,
        1.0605685,
        0.9170207,
        -0.58638984,
        0.25597242,
        0.87615055,
        -0.8479219,
        1.1051266,
        -0.32272136,
        1.5373483,
        -0.37847143,
        0.19081037,
        -2.4753618,
        -1.3219142,
        -0.43573764,
        -0.5747168,
        1.2917429,
        -0.6144177,
        -1.1117507,
        -0.3568068,
        -0.67499334,
        1.6738511,
        0.64433205,
        0.633698,
        -1.0495745,
        -0.45423508,
        0.12325704,
        -0.7696848,
        -0.3215156,
        -0.15720735,
        0.6171454,
        0.5581511,
        -0.84461683,
        -0.19656193,
        0.62818325,
        0.7624555,
        0.005999692,
        0.32122743,
        -0.14660546,
        0.17920658,
        0.9989475,
        -0.03437057,
        -0.78378373,
        -1.5620618,
        1.1540058,
        -0.35643655,
        -0.70181745,
        -0.13070457,
        -0.1351111,
        -0.030810755,
        0.6962554,
        -1.2244227,
        -0.9072531,
        -0.4788154,
        -0.24491818,
        -1.2328708,
        1.5853872,
        -0.34642568,
        -0.82592344,
        1.8818759,
        0.19253625,
        2.259841,
        -0.42396683,
        0.5908023,
        0.32679188,
        -1.1124301,
        -0.45826212,
        -0.10377188,
        0.25173977,
        0.42155698,
        -0.72908926,
        -0.96111906,
        -1.6702234,
        -1.344928,
        0.80483884,
        0.7790106,
        -0.43312335,
        0.37186947,
        1.62256,
        0.5386845,
        0.39853597,
        0.631745,
        -1.2859288,
        1.3185982,
        -1.5862651,
        -0.32127473,
        -0.092381805,
        0.2164228,
        0.87864095,
        0.17843348,
        0.5889944,
        0.24869733,
        -0.73169476,
        0.62236744,
        -1.5124711,
        -0.40272453,
        -0.93747985,
        0.79635423,
        -0.9555767,
        -0.6861152,
        0.54257965,
        1.9369478,
        -0.47452644,
        1.0631934,
        -0.06649639,
        0.54371816,
        0.42240041,
        -0.33878165,
        -0.09097862,
        -0.075087756,
        -0.54760015,
        -1.374925,
        -1.7989197,
        -0.35703224,
        2.2908344,
        0.4108479,
        0.17986244,
        -1.5190567,
        2.1829114,
        -1.1657319,
        2.0597742,
        -1.5867314,
        0.28776062,
        -0.17933342,
        -0.46017918,
        -1.9161538,
        -2.4466267,
        1.5637151,
        0.29766795,
        1.6219611,
        -0.17299744,
        -1.1735454,
        0.49714795,
        -0.7102585,
        -1.9631495,
        -0.39219382,
        0.56495595,
        -0.31446257,
        0.7340974,
        1.0256269,
        -1.4903623,
        -0.5526582,
        0.15324011,
        -0.9336921,
        0.6431811,
        1.063545,
        0.6499671,
        1.0562918,
        -1.3983932,
        1.6516503,
        0.5101618,
        0.049143374,
        -1.4126434,
        -1.0292392,
        -0.7650014,
        -1.5265899,
        2.334462,
        -0.039097,
        -2.3108504,
        -0.59607065,
        1.1926448,
        -2.1893718,
        0.29824764,
        0.98689324,
        0.75885713,
        -0.89131784,
        0.2619617,
        2.0042887,
        -0.47615921,
        0.6501769,
        -1.4139763,
        0.56753564,
        0.9436635,
        0.8532498,
        -0.59931594,
        -0.39704585,
        -0.54836625,
        2.4257536,
        0.49901167,
        -0.084829785,
        -1.9589901,
        1.0636561,
        -0.30505705,
        2.2940125,
        0.05533754,
        -0.70110273,
        -1.349841,
        1.1146061,
        -0.6335971,
        1.0184792,
        0.8240195,
        -0.661995,
        -0.6504452,
        0.4423659,
        0.040977277,
        -0.2963,
        -0.47774854,
        0.6639591,
        -0.81599504,
        0.55728626,
        1.4185,
        -2.9036837,
        -0.31507182,
        -1.5950606,
        -0.9009904,
        -1.0610347,
        -0.5446014,
        -0.77797556,
        0.55005634,
        -0.21727145,
        1.3823926,
        -0.24954477,
        -0.70101243,
        -0.05051318,
        -0.81463385,
        -2.0698676,
        -0.15022995,
        -1.4113635,
        -2.1734836,
        0.4105133,
        -0.0052397256,
        0.16035108,
        0.1780741,
        1.6329762,
        0.041702908,
        -0.72058487,
        1.0663627,
        -1.3747085,
        -0.73336035,
        0.31286967,
        0.8991156,
        -1.6681491,
        0.5525522,
        -1.541854,
        -0.4168914,
        0.6266743,
        -0.49418244,
        -0.9702675,
        0.11300532,
        -1.2716894,
        -1.0574067,
        1.6188616,
        -0.5523015,
        0.81890357,
        -2.4380672,
        -1.4477787,
        -0.19654553,
        -0.2071571,
        -1.0949119,
        0.10548962,
        -0.30681324,
        0.5952845,
        -0.44408298,
        -0.69064564,
        -3.0380075,
        0.011754174,
        -0.04735433,
        0.62181365,
        -0.38467973,
        0.6507219,
        -0.5533191,
        -0.6584767,
        -0.14414653,
        -0.3268436,
        -1.2853786,
        -0.60916215,
        -0.7517325,
        -0.4410714,
        0.24132855,
        0.42031354,
        -0.64313143,
        -0.7645255,
        0.4316338,
        -1.2403821,
        -1.1570024,
        -0.9092051,
        -1.9494925,
        -0.80315834,
        1.5738887,
        -0.4788903,
        0.59750664,
        -1.010325,
        -0.09355451,
        0.28444147,
        -0.9541754,
        0.24305011,
        -0.26273575,
        2.0139053,
        -1.1965212,
        1.1657846,
        0.31802765,
        -0.12328039,
        -1.2316333,
        -0.14757304,
        -0.83266,
        -0.44275215,
        -0.14769676,
        1.1389817,
        -0.22269383,
        0.25828743,
        -2.253234,
        -1.3080927,
        -0.8702796,
        -2.4148362,
        -0.60500085,
        0.52959484,
        0.47274697,
        -1.5605963,
        0.27305698,
        -0.5901733,
        0.20652902,
        -0.18643686,
        1.6145533,
        -0.54080933,
        -1.4866766,
        1.4322689,
        0.0559246,
        -1.9510231,
        2.561141,
        0.35264367,
        -0.7608069,
        0.15632713,
        -1.0843309,
        0.059664607,
        -0.70193064,
        -0.29206103,
        0.33836597,
        -0.9408398,
        -0.48889711,
        0.6191673,
        0.6025076,
        -1.3127878,
        -1.0518727,
        0.6397736,
        -1.2692633,
        0.5311122,
        0.8585136,
        0.19809276,
        -1.3024688,
        -0.6113409,
        -1.2784169,
        0.7167102,
        -0.8404305,
        -1.491317,
        0.3044005,
        -1.2200567,
        -0.32669988,
        -1.0330997,
        -1.1051362,
        -0.33207652,
        -1.2602712,
        -0.6507343,
        -0.83505386,
        -1.6989412,
        -0.23931338,
        -0.72757804,
        -0.6203668,
        -0.104431905,
        -0.51943713,
        0.49163163,
        0.86081487,
        1.1094391,
        -0.5567701,
        0.944373,
        -0.071959324,
        0.5186291,
        -0.4299845,
        -1.5017385,
        -0.15198928,
        0.061307088,
        -1.5330286,
        0.52393603,
        2.4895177,
        -1.250761,
        -2.8827376,
        -0.093904264,
        0.6155192,
        -1.4655627,
        -1.6422089,
        -0.13404971,
        -0.5899404,
        0.37099072,
        -0.52939695,
        -1.1947762,
        -1.3413248,
        1.1003722,
        0.038901497,
        2.6543722,
        0.28435022,
        1.1083796,
        0.52777785,
        -1.0433578,
        0.95926857,
        0.14444852,
        -1.4340312,
        -1.6942862,
        -0.07950665,
        -0.11373438,
        1.1807854,
        -0.9473936,
        0.84333754,
        -0.5371429,
        0.9580415,
        -0.731395,
        0.045978904,
        0.49646267,
        -1.8594204,
        0.6427836,
        -1.1487292,
        -0.53769684,
        -0.13331074,
        -0.44019824,
        0.39710507,
        0.65171623,
        0.1958595,
        1.6020902,
        -1.0227553,
        0.42340285,
        1.2554547,
        0.5078076,
        1.057153,
        1.5131395,
        1.1389285,
        1.5002546,
        -0.14343373,
        -2.4946196,
        2.8352838,
        0.24798027,
        0.007908404,
        0.14834702,
        2.282002,
        -2.4166641,
        -1.1388354,
        0.6817417,
        -1.0968841,
        -1.5071024,
        1.4856561,
        -2.0583723,
        0.84281546,
        -1.2353308,
        1.7517667,
        0.2735842,
        -0.8943134,
        1.30558,
        1.4302603,
        -0.7576568,
        -0.69860816,
        -1.3524134,
        -1.4149173,
        -0.94407904,
        0.8595406,
        -0.8928898,
        -0.847268,
        -1.0673912,
        0.7831217,
        0.49556863,
        0.18808952,
        -0.4933915,
        -0.20980017,
        -0.5083901,
        -0.43684125,
        0.06998092,
        2.3011224,
        0.91957843,
        -1.0061407,
        2.6000915,
        -0.33799225,
        -0.43763915,
        -0.1632775,
        0.34593707,
        -1.1931841,
        0.6040033,
        1.1495953,
        -0.56792295,
        -0.594759,
        2.2953975,
        -2.7862632,
        -0.3774299,
        0.13686843,
        -0.40009832,
        0.13011432,
        -1.2686329,
        -1.1660302,
        0.07477994,
        -0.4705426,
        0.03927642,
        0.16477697,
        1.9649193,
        0.9313181,
        1.1645491,
        -0.2216646,
        1.0936658,
        -0.42297164,
        1.1297468,
        1.8722196,
        -0.9833486,
        -0.4788747,
        -1.418926,
        -0.29636684,
        -1.5627866,
        -0.60723966,
        -0.97369945,
        0.109507225,
        -0.110824674,
        -1.048548,
        -0.46336377,
        0.6203273,
        -0.31856573,
        0.10435891,
        0.11035577,
        -0.043037474,
        -0.56990314,
        -0.6656275,
        0.75077355,
        -0.7721729,
        -1.0575789,
        0.47165567,
        0.38839456,
        -0.029165953,
        -1.6381823,
        -1.090006,
        -0.43790713,
        0.056276638,
        1.7067096,
        -0.391765,
        -0.4953494,
        -1.3974252,
        -0.52619416,
        -1.8506285,
        0.6225096,
        -2.6273077,
        1.1097157,
        0.11758596,
        2.001934,
        -2.2679183,
        0.51331145,
        -1.0472677,
        2.4064074,
        -0.5602731,
        0.49206427,
        -0.7745236,
        0.64702326,
        -1.215589,
        0.6530589,
        -0.779455,
        0.7826125,
        -2.0434527,
        0.78006744,
        1.2844981,
        -1.5136584,
        -0.31455913,
        -1.4351002,
        0.7834576,
        -0.6453173,
        -0.15715104,
        0.4404249,
        1.1233945,
        0.9508451,
        -1.959019,
        -1.7273557,
        1.2911927,
        -0.71603954,
        0.24157633,
        1.5287466,
        -0.40807605,
        -0.040832564,
        -0.8967281,
        -0.34067392,
        -0.19162643,
        -0.1867292,
        1.7214816,
        -0.1671902,
        0.40931267,
        -1.9938483,
        -1.8803583,
        0.2839201,
        0.21108675,
        -0.8951186,
        -1.9543828,
        0.20448644,
        -0.58495694,
        0.19706298,
        0.19630285,
        -0.028646111,
        -0.5425528,
        0.65115595,
        1.6727655,
        0.727191,
        -0.5839712,
        0.9595144,
        0.24004418,
        -0.26223838,
        -1.363796,
        1.5173813,
        -0.9787278,
        0.59177125,
        -1.4713626,
        -0.5338778,
        0.45442545,
        0.22890067,
        -1.2433667,
        -0.51594263,
        0.26196232,
        -0.9138209,
        -0.6342453,
        -0.55996895,
        -0.9126432,
        1.5321801,
        0.69822603,
        1.3646009,
        0.8180317,
        0.8525261,
        -0.65868264,
        -1.9545466,
        -2.333299,
        0.14274064,
        -1.2102002,
        0.41434124,
        0.8308411,
        0.56537145,
        -0.25986528,
        -0.99952406,
        -1.9460014,
        1.1583918,
        -0.8334977,
        1.6093504,
        2.1242282,
        -0.11810653,
        -0.36575913,
        -0.15071149,
        -0.92816806,
        -0.47723728,
        -0.008830309,
        -0.18584496,
        -0.0727272,
        0.25374466,
        1.0867994,
        -1.561324,
        0.33894336,
        0.87674266,
        0.4055804,
        0.27864242,
        0.53062713,
        0.5549363,
        -0.056053035,
        -0.8046048,
        0.93347883,
        1.1067832,
        0.96514714,
        1.7257698,
        0.16032661,
        1.072346,
        -0.9094371,
        -1.5919935,
        1.2467921,
        0.33499828,
        0.47531503,
        1.8485883,
        0.5783931,
        0.39471263,
        -1.4964451,
        1.1434762,
        -1.6796136,
        0.28363866,
        0.6657847,
        -1.8666104,
        0.20999375,
        0.33386597,
        -0.20317954,
        1.0753757,
        -1.9493057,
        -0.43296486,
        1.0404862,
        1.0524474,
        1.2743386,
        0.08363003,
        0.2495639,
        -1.382706,
        -0.55613667,
        0.03815637,
        0.2589052,
        1.2416747,
        0.076381736,
        -0.0861743,
        -1.6328937,
        1.0365877,
        -1.2301046,
        0.6077331,
        0.20086233,
        0.39291233,
        0.29688588,
        -0.5892408,
        -1.6858724,
        0.33535925,
        0.5988564,
        1.0454435,
        0.18549663,
        -1.6906749,
        -0.66365236,
        1.8493574,
        -1.159882,
        -0.7698921,
        0.10715844,
        -0.16511615,
        -0.3654582,
        -0.73979396,
        -0.1321243,
        -0.36418116,
        0.50502443,
        0.921224,
        -0.7668933,
        0.95498115,
        1.6841123,
        -0.045974337,
        1.7581776,
        1.3268735,
        -0.47505876,
        0.1168679,
        -0.60202086,
        0.9214847,
        -2.0408247,
        -0.15976611,
        1.7711092,
        -0.62349135,
        -0.25643438,
        -0.38350114,
        0.8908857,
        -1.0613828,
        0.31464505,
        -4.045338,
        1.1206182,
        -0.9873537,
        -1.118231,
        -1.4164459,
        -0.36430794,
        -0.17910668,
        -0.26420674,
        0.3526359,
        0.06820157,
        0.73953885,
        0.54307544,
        -1.796765,
        0.1921756,
        -0.23994502,
        -1.383388,
        -0.43711942,
        -0.4621874,
        1.957341,
        0.047393475,
        -0.72392577,
        -0.3623467,
        0.6294857,
        -1.6663935,
        1.2315385,
        -0.0031510685,
        0.042153098,
        0.22743227,
        0.18805632,
        0.004670188,
        0.21714646,
        0.07125079,
        0.30507994,
        -1.2278868,
        1.2119327,
        0.37763885,
        0.9387043,
        0.12377066,
        1.1277945,
        -0.23822606,
        -1.1246283,
        0.49851355,
        -0.9628626,
        -2.668992,
        -0.32962346,
        0.015258635,
        1.328175,
        -0.21362016,
        0.42041075,
        0.30462107,
        0.8165184,
        0.47272474,
        0.2909732,
        0.18685886,
        0.4419637,
        0.14235339,
        0.13125487,
        -1.0383942,
        -0.37488717,
        0.3164757,
        -0.44321692,
        2.1878927,
        -0.419219,
        -1.3956921,
        -0.56310296,
        1.0806072,
        -0.81768394,
        -1.064727,
        1.537398,
        -0.095965765,
        1.0120054,
