{
  "name": "trigram",
  "parameter_count": 76250,
  "layers": [
    {
      "layer_type": "Linear",
      "name": "Input",
      "index": 0,
      "weights": [
        0.16335312,
        -0.112011366,
        0.015309852,
        -0.64303005,
        -0.11022869,
        -0.21913259,
        0.38811773,
        -0.047471486,
        -0.3170862,
        0.46450388,
        -0.40266594,
        -0.07733321,
        0.014772702,
        0.20654161,
        -0.027488252,
        -0.19912325,
        -0.82774895,
        0.21095604,
        -0.15977648,
        0.012678978,
        0.1198525,
        0.10376952,
        0.10644226,
        0.21424337,
        -0.23856147,
        0.36002955,
        -0.34126464,
        0.08280691,
        0.025618402,
        -0.58904123,
        -0.3087334,
        -0.21286139,
        0.1675738,
        -0.72269243,
        0.2443599,
        -0.331562,
        0.30365482,
        -0.12171979,
        -0.5346627,
        -0.005930529,
        0.10454364,
        -0.09969029,
        -0.14948098,
        0.15819941,
        0.1044506,
        -0.51225483,
        0.2689134,
        0.16446291,
        -0.1344588,
        -0.097523004,
        -0.37966785,
        -0.42128178,
        -0.17248738,
        -0.31753612,
        -0.30378848,
        -0.3606129,
        -0.16656174,
        -0.43499067,
        0.12385574,
        0.004471628,
        -0.22487313,
        0.27697954,
        0.08299711,
        -0.025868366,
        -0.06587751,
        0.1952828,
        0.02308698,
        -0.009211096,
        -0.55495316,
        -0.44800746,
        0.04213736,
        -0.18921532,
        -0.37895042,
        -0.12801641,
        -0.2794031,
        -0.65752804,
        0.1898232,
        0.24327224,
        -0.14826496,
        0.2097783,
        -0.15754777,
        -0.3479647,
        -0.28288403,
        -0.016740538,
        -0.25000107,
        0.005374307,
        -0.34225926,
        -0.005389717,
        -0.4697093,
        0.030333873,
        -0.16804741,
        0.41586757,
        -0.25992745,
        -0.26358712,
        0.092027724,
        0.2252563,
        -0.32002673,
        -0.21087414,
        -0.14018163,
        -0.087893724,
        0.011606802,
        -0.20479189,
        -0.04643778,
        -0.108862296,
        -0.4944313,
        -0.04337192,
        -0.2968966,
        -0.010910767,
        -0.21857862,
        -0.17808665,
        0.0057434505,
        -0.12420151,
        -0.060132094,
        -0.24939974,
        -0.03557607,
        -0.4842763,
        0.35476965,
        0.07818208,
        0.10753084,
        -0.08769223,
        0.27360782,
        -0.009092639,
        0.25771743,
        -0.25441203,
        -0.43124565,
        -0.36420864,
        -0.051732883,
        -0.09599727,
        0.08775479,
        -0.12020774,
        -0.4333528,
        0.44966263,
        -0.008362741,
        -0.52132475,
        0.12584846,
        0.15881048,
        0.08926254,
        0.073123656,
        -0.3713177,
        0.011154849,
        -0.11169731,
        0.43680984,
        0.043845315,
        -0.2891753,
        0.26060194,
        -0.35338825,
        0.10833945,
        0.012716594,
        0.20603994,
        0.09348449,
        -0.25417125,
        -0.1675304,
        0.07509975,
        0.105416335,
        0.08487245,
        -0.04002164,
        0.7697492,
        -0.46456406,
        -0.22567162,
        0.08262626,
        -0.08589896,
        -0.1047236,
        -0.03381849,
        -0.6604294,
        -0.3586848,
        -0.17572843,
        0.28819892,
        -0.6005243,
        -0.4383736,
        -0.006590883,
        -0.39302188,
        0.22543266,
        -0.07811177,
        -0.29881752,
        0.14662112,
        0.26875296,
        -0.29666173,
        -0.2454625,
        -0.2191532,
        -0.16214834,
        -0.049267117,
        -0.115062155,
        -0.23903565,
        0.08790293,
        0.27780256,
        -0.5359472,
        0.15374954,
        -0.008975458,
        -0.33391994,
        0.26814944,
        0.6402619,
        0.032767925,
        -0.5800499,
        0.13671763,
        -0.4611741,
        -0.12255337,
        0.20301978,
        0.2567911,
        -0.49354827,
        -0.2006701,
        0.31873086,
        -0.14875205,
        -0.24102437,
        -0.60889596,
        -0.50230956,
        0.02536947,
        -0.3429715,
        -0.032458287,
        -0.62128913,
        -0.047163397,
        -0.28396237,
        -0.24199581,
        -0.5678111,
        -0.17326902,
        0.10539205,
        -0.4409568,
        0.23263758,
        0.08349864,
        0.6599257,
        0.4109429,
        -0.53276,
        0.39223263,
        -0.09614119,
        -0.0531046,
        -0.18950115,
        0.18411593,
        0.053821187,
        0.10801589,
        0.054015473,
        -0.20444193,
        0.14393198,
        0.40033245,
        -0.22151299,
        -0.043822397,
        -0.5881319,
        -0.27498925,
        0.022062453,
        -0.007979727,
        -0.26973557,
        0.025671978,
        0.10074799,
        0.14614576,
        0.28867105,
        0.20151308,
        0.24174397,
        -0.291421,
        -0.21198033,
        -0.30661583,
        0.2617213,
        0.09208381,
        -0.23478404,
        -0.10546962,
        -0.2514317,
        0.100698665,
        0.022818748,
        0.21229783,
        0.41709265,
        -0.11489737,
        -0.07759768,
        -0.5186668,
        -0.056477368,
        -0.020136572,
        0.3819491,
        -0.49803385,
        -0.49155986,
        -0.1590456,
        0.027643088,
        -0.05613313,
        -0.0267101,
        0.30315128,
        0.25124875,
        -0.18728021,
        0.052980043,
        0.028174847,
        -0.32132807,
        0.28446487,
        -0.2678284,
        -0.019088242,
        0.6532963,
        0.4611357,
        -0.3619171,
        0.06445731,
        -0.2840542,
        -0.3781886,
        0.17491995,
        0.11903969,
        -0.08708114,
        0.15341263,
        0.08757817,
        -0.37741083,
        0.09731563,
        0.53403795,
        -0.3085318,
        0.4460361,
        -0.21037035,
        -0.08189785,
        -0.29395822,
        -0.19111475,
        0.23479296,
        0.389235,
        -0.103270315,
        0.31254828,
        0.23709814,
        -0.29951262,
        0.1546223,
        0.04654895,
        -0.060974974,
        0.06041243,
        -0.2509992,
        0.079901755,
        0.09805556,
        -0.16267797,
        0.16401683,
        0.07462965,
        -0.48841402,
        0.18061288,
        -0.24624605,
        -0.00058342953,
        0.1607132,
        0.27706292,
        -0.07146928,
        -0.13045317,
        -0.62228316,
        0.026628794,
        -0.21267709,
        -0.14628264,
        0.037206218,
        0.021757241,
        0.08660489,
        -0.07186482,
        -0.083982535,
        0.16082522,
        -0.32860002,
        -0.11854624,
        0.040152337,
        -0.2866126,
        0.10620035,
        0.50498176,
        -0.35922283,
        -0.008085128,
        -0.26910746,
        0.004023417,
        -0.44686595,
        0.013134954,
        -0.061502878,
        -0.78379476,
        -0.19865988,
        -0.13234901,
        0.16442841,
        -0.22398315,
        -0.15063319,
        0.0992745,
        0.1413453,
        -0.18780413,
        0.29447952,
        0.19209892,
        -0.44244274,
        0.17928213,
        -0.41393968,
        -0.15908712,
        0.10008851,
        0.17293231,
        -0.113880664,
        -0.009066639,
        0.07572665,
        0.18784973,
        -0.092740186,
        -0.21586922,
        -0.09821857,
        -0.05258414,
        -0.08921934,
        -0.12846425,
        -0.2477908,
        0.2916466,
        0.13052559,
        -0.11123118,
        -0.0136527,
        -0.15857315,
        -0.7367496,
        0.17410614,
        -0.11158367,
        0.15312293,
        0.008587617,
        0.5399341,
        -0.27930012,
        -0.5576513,
        0.1201706,
        -0.46632633,
        0.3891528,
        0.08728686,
        -0.49930248,
        -0.41270688,
        0.009441226,
        -0.0772802,
        -0.16116071,
        -0.2443997,
        -0.01331539,
        0.21049012,
        -0.513257,
        0.3636466,
        0.0067544216,
        0.32621834,
        -0.053914662,
        0.0523881,
        -0.37284186,
        -0.32584876,
        -0.2832915,
        0.15285572,
        0.15308024,
        -0.332449,
        0.34548724,
        -0.14231662,
        0.47974533,
        -0.272051,
        0.19613196,
        0.055582155,
        0.22249492,
        -0.1488206,
        -0.17262484,
        0.048749067,
        0.41778782,
        0.034839235,
        -0.10749137,
        -0.01247501,
        0.40185973,
        0.002574609,
        0.2907204,
        -0.21290801,
        0.04698588,
        0.09570953,
        0.014409611,
        0.22192523,
        0.111872576,
        0.42640176,
        0.064893834,
        0.20198673,
        -0.21669872,
        0.47292626,
        0.15678956,
        -0.012273813,
        0.14999825,
        0.38520804,
        -0.13129188,
        0.049710743,
        -0.27048358,
        0.09529495,
        -0.37244305,
        0.25299644,
        0.39417583,
        -0.032024216,
        0.15940082,
        -0.06100128,
        0.16360255,
        -0.0008981035,
        0.28598064,
        0.31987223,
        0.4279299,
        -0.054792225,
        -0.018782185,
        -0.096380726,
        0.22738004,
        0.19523533,
        0.01342436,
        0.07425803,
        -0.0324402,
        -0.026571106,
        -0.10920675,
        -0.3088184,
        0.34597307,
        0.21338807,
        0.23916931,
        -0.21616954,
        -0.043364,
        -0.10110823,
        -0.34894708,
        -0.3192874,
        0.006822895,
        0.00343102,
        -0.49849027,
        -0.10631286,
        0.096197434,
        0.03134285,
        0.32053265,
        0.192842,
        -0.1930583,
        0.15575825,
        -0.20773876,
        -0.124625035,
        0.036393233,
        0.1926857,
        0.022480898,
        -0.38742524,
        0.25007957,
        -0.20340717,
        -0.47396773,
        -0.046164453,
        -0.048221767,
        0.033552177,
        -0.055361442,
        -0.10798751,
        -0.13000177,
        0.32795355,
        -0.08831055,
        0.31294802,
        -0.04261093,
        0.043707956,
        0.15871921,
        0.14421901,
        0.2139953,
        -0.13812754,
        -0.3253208,
        0.0024617815,
        -0.022439513,
        -0.16241083,
        -0.33683527,
        0.19442765,
        0.15306774,
        0.16693173,
        -0.16630484,
        0.14651199,
        -0.06711696,
        -0.10479926,
        -0.35496405,
        0.22722515,
        0.15235068,
        -0.05810705,
        -0.12544884,
        -0.16586559,
        0.1378891,
        0.34970966,
        0.12610824,
        -0.26372558,
        0.3146451,
        -0.15157348,
        -0.18104972,
        0.30721152,
        -0.20012812,
        0.1506145,
        -0.2237529,
        -0.16643925,
        0.10757132,
        -0.0904603,
        -0.31436718,
        0.18279245,
        -0.061562233,
        0.25097033,
        0.3059043,
        0.005374349,
        -0.16057254,
        -0.0020546326,
        0.025060304,
        -0.28086245,
        -0.13312364,
        -0.14726703,
        -0.1638063,
        -0.07090852,
        0.18282554,
        -0.13356408,
        -0.08516486,
        -0.102194,
        -0.17024545,
        -0.47272387,
        0.049247857,
        0.27574527,
        0.1366497,
        0.1824685,
        -0.34926683,
        -0.49998862,
        0.07618668,
        -0.05152282,
        -0.02948028,
        -0.16901171,
        0.10969411,
        0.12203942,
        -0.1302335,
        0.2570233,
        0.029477185,
        -0.46594736,
        0.10879508,
        0.06726105,
        -0.11308914,
        0.11302337,
        -0.37829655,
        -0.20988584,
        0.09064877,
        0.19273438,
        -0.16636126,
        0.045782074,
        -0.10258105,
        -0.5286832,
        0.041784845,
        0.33626407,
        0.31660676,
        -0.065700695,
        -0.120638624,
        0.2125561,
        -0.26131833,
        -0.41666153,
        -0.20700333,
        0.30023044,
        0.03909235,
        -0.4402155,
        0.3125963,
        -0.0926691,
        -0.027876524,
        0.11738305,
        0.20565459,
        0.22328222,
        0.1648344,
        -0.15302455,
        0.27013978,
        -0.30858064,
        0.241577,
        0.042198572,
        -0.13911313,
        -0.4556512,
        -0.23427103,
        -0.22469066,
        0.18766424,
        -0.18383028,
        0.47990924,
        -0.019778417,
        -0.29294536,
        -0.3006111,
        -0.13814138,
        0.34296754,
        0.2976443,
        0.48625863,
        0.29698443,
        0.14866848,
        0.22629097,
        -0.018147722,
        -0.14771524,
        -0.05461197,
        0.04497635,
        0.582008,
        0.03553866,
        0.42970386,
        -0.34659505,
        0.38714588,
        -0.32301143,
        0.3754085,
        -0.18830197,
        0.29654965,
        -0.45457616,
        0.011391358,
        -0.31438145,
        -0.24373491,
        -0.2732302,
        0.33573666,
        0.40417206,
        0.3015235,
        -0.25012127,
        0.11907193,
        0.29919273,
        -0.4584773,
        0.15212452,
        -0.37335554,
        0.14914955,
        -0.107714795,
        -0.22020881,
        0.36091667,
        -0.43987328,
        -0.016052168,
        -0.546459,
        0.22698821,
        -0.0482447,
        0.12703216,
        -0.046188008,
        -0.057220466,
        0.18150042,
        0.01962409,
        0.14966492,
        0.14787854,
        0.41005346,
        -0.056887213,
        0.4071697,
        -0.29417148,
        -0.12512213,
        -0.32553896,
        0.03523552,
        -0.016801974,
        -0.15662396,
        -0.07238797,
        -0.15792091,
        0.008871497,
        0.15040272,
        -0.12640762,
        0.21925674,
        0.2556341,
        0.0871934,
        0.13703237,
        -0.0028341154,
        -0.06166325,
        -0.018015673,
        0.13563411,
        0.29847053,
        0.30670467,
        -0.18048568,
        0.29766503,
        -0.20851627,
        -0.15594693,
        -0.003776588,
        -0.006114812,
        0.12697385,
        0.22305045,
        0.20929381,
        -0.035130132,
        0.14542195,
        -0.007148793,
        0.11799373,
        0.17643823,
        0.15567107,
        0.057062097,
        -0.4339022,
        -0.03340046,
        0.04206279,
        -0.025562577,
        -0.049278732,
        -0.06997056,
        -0.065685324,
        -0.18559653,
        0.27773815,
        -0.16804445,
        0.10017713,
        0.28597647,
        0.09835841,
        -0.3184119,
        -0.11120333,
        -0.14609098,
        0.44148597,
        -0.4152537,
        0.07724666,
        -0.105324015,
        0.3485182,
        0.2713439,
        -0.30691886,
        -0.31043485,
        -0.049845356,
        -0.35841712,
        -0.18059605,
        0.46899024,
        -0.49085638,
        -0.017838014,
        0.5822463,
        0.40937066,
        -0.10994018,
        -0.16483094,
        -0.06023222,
        -0.018315444,
        0.12535417,
        0.089671366,
        0.24681726,
        0.07828935,
        0.16853239,
        -0.093000725,
        0.189392,
        -0.07268433,
        0.09888781,
        0.24392784,
        0.11136084,
        -0.4288057,
        -0.05012836,
        -0.31646064,
        0.049502417,
        0.21007167,
        0.07533164,
        0.39478797,
        0.23699313,
        -0.15201281,
        -0.23580097,
        -0.14010109,
        0.062618494,
        -0.026517138,
        0.64357364,
        0.07301444,
        -0.37490785,
        0.049525008,
        -0.17651258,
        -0.20957248,
        0.03605306,
        -0.34926993,
        0.30887818,
        0.16050404,
        0.2220824,
        0.082397,
        -0.024112688,
        -0.050067052,
        -0.43556136,
        0.31731546,
        0.047849644,
        -0.055874918,
        0.11890622,
        -0.41458422,
        0.12065187,
        -0.1375414,
        0.22281827,
        0.0019724614,
        0.44775116,
        0.19523624,
        0.20062551,
        0.03418293,
        -0.25789148,
        -0.105865605,
        0.17105605,
        -0.4221245,
        0.048657153,
        0.2982916,
        0.11515124,
        -0.20812497,
        0.7270884,
        0.05766401,
        0.024579966,
        -0.048376705,
        -0.17034754,
        -0.6321451,
        -0.3780817,
        0.25410265,
        -0.13632898,
        0.21942799,
        0.5352823,
        0.07885749,
        -0.8116302,
        -0.011008011,
        -0.21746932,
        -0.08721647,
        0.24981682,
        -0.084745124,
        -0.31074256,
        -0.32089484,
        0.17191654,
        0.04327873,
        0.27764252,
        0.047194075,
        0.42238322,
        -0.111224346,
        -0.12159842,
        -0.047912613,
        -0.09269737,
        0.37623212,
        -0.033831052,
        0.22391741,
        -0.005626237,
        -0.37892872,
        -0.5411635,
        0.38951287,
        0.29227725,
        0.5149055,
        -0.2704517,
        -0.09730622,
        -0.17977726,
        0.15379831,
        -0.10011594,
        0.029932812,
        -0.16048755,
        0.58534324,
        0.06732089,
        -0.48702332,
        -0.15854296,
        0.3732199,
        -0.5325021,
        0.31478095,
        -0.19190103,
        -0.32174036,
        -0.0994425,
        -0.09174101,
        0.3639356,
        -0.052887592,
        0.24517588,
        0.5073017,
        -0.023962447,
        -0.4095906,
        -0.18206672,
        0.64160573,
        0.12244697,
        -0.012558157,
        -0.27031055,
        0.162537,
        -0.050799314,
        -0.5279094,
        0.19270594,
        -0.5670862,
        0.16660002,
        0.5663036,
        0.1111244,
        0.08936358,
        -0.11835992,
        -0.019069977,
        -0.14553785,
        -0.035901703,
        -0.21493506,
        0.11930464,
        -0.2349598,
        -0.4600862,
        0.046347022,
        -0.21208073,
        -0.13154748,
        0.049679868,
        -0.18463661,
        -0.17054798,
        0.15144241,
        -0.038748924,
        -0.2381233,
        -0.27423167,
        0.22105782,
        -0.20401596,
        -0.18624291,
        0.38029945,
        -0.11235698,
        -0.6329446,
        -0.43012175,
        0.026471263,
        -0.3560962,
        0.29836285,
        0.104193285,
        -0.08771768,
        -0.17354505,
        -0.013102361,
        -0.4999333,
        -0.062458187,
        0.20620726,
        -0.0038169844,
        -0.3609581,
        0.27063116,
        0.05394345,
        -0.23004913,
        -0.36590773,
        0.1264466,
        0.23737627,
        0.03252419,
        0.1586516,
        0.048910245,
        -0.023069715,
        -0.35602668,
        -0.15382853,
        -0.20214216,
        -0.17569576,
        -0.22824094,
        0.67393804,
        -0.23661359,
        -0.12726772,
        -0.3011921,
        0.34508827,
        -0.083706714,
        -0.011686753,
        0.23140626,
        -0.19616202,
        0.06997436,
        -0.32596585,
        0.1786054,
        -0.061964855,
        -0.281121,
        0.5561265,
        -0.033783827,
        0.37493992,
        0.13425627,
        -0.23103996,
        -0.5027433,
        -0.108312435,
        -0.5118212,
        0.022151977,
        -0.02802429,
        -0.36735985,
        -0.10446936,
        0.27439228,
        -0.31884962,
        -0.27984658,
        0.06958267,
        0.116712116,
        -0.19421996,
        -0.19460408,
        0.20051968,
        -0.052040085,
        -0.047417793,
        -0.32020256,
        0.144076,
        0.110615775,
        -0.027348846,
        0.11900578,
        0.13335049,
        -0.03735725,
        -0.026071474,
        -0.31651086,
        -0.06959983,
        -0.23410034,
        0.64374846,
        -0.085894756,
        -0.36269358,
        0.21670268,
        -0.13788803,
        -0.6182459,
        0.17926167,
        -0.121654965,
        -0.14479598,
        0.04438054,
        0.44803193,
        -0.44634992,
        -0.3241773,
        0.23590618,
        0.08949798,
        0.119588695,
        0.10345492,
        0.19597697,
        0.29233465,
        0.14180423,
        -0.1368527,
        0.074000426,
        0.15468943,
        0.13627875,
        -0.27523178,
        -0.09917086,
        0.13097619,
        -0.0039662924,
        -0.113819785,
        -0.22518732,
        0.22369018,
        0.0017872948,
        -0.46174362,
        0.36465615,
        0.2020726,
        0.09156516,
        -0.2751308,
        -0.26213285,
        -0.08184015,
        -0.10749697,
        -0.10266171,
        0.0065828464,
        0.47473,
        -0.2336468,
        -0.2779121,
        -0.33135784,
        0.16088659,
        -0.14977418,
        -0.044516057,
        -0.024962379,
        -0.058094315,
        0.25410953,
        0.0867109,
        0.22034007,
        0.1875672,
        0.21394971,
        0.11426571,
        0.3522319,
        -0.014400398,
        -0.051649276,
        0.06866812,
        -0.35666925,
        -0.032609455,
        0.08113931,
        -0.49866864,
        0.22773857,
        -0.08367156,
        0.034374185,
        -0.19810343,
        -0.48048022,
        0.062156856,
        0.28581205,
        0.21987133,
        -0.3107849,
        -0.20813695,
        -0.06811263,
        0.08561159,
        0.15552273,
        0.37208742,
        0.2530406,
        0.13227107,
        -0.29183406,
        0.37263528,
        -0.54981285,
        -0.02350185,
        -0.4356089,
        -0.31849194,
        0.23404035,
        -0.2407421,
        -0.25215957,
        -0.1533217,
        0.123612516,
        -0.15543333,
        -0.057280775,
        0.68385136,
        0.24627657,
        0.07506459,
        0.23847707,
        -0.037409697,
        0.06878713,
        0.23126027,
        -0.0110553475,
        0.14864102,
        0.13976221,
        -0.3340276,
        0.07060093,
        0.09931623,
        0.3160833,
        0.10692994,
        0.14774886,
        -0.20154111,
        -0.56289697,
        -0.32158902,
        0.38002786,
        0.13869612,
        -0.20227526,
        -0.4889675,
        0.010076075,
        -0.41087568,
        -0.5096269,
        0.038586535,
        -0.10065619,
        0.2515522,
        0.004664863,
        0.07043825,
        0.026549356,
        -0.065279156,
        -0.2580369,
        0.121448226,
        -0.16011208,
        0.032269314,
        -0.2283261,
        0.22649568,
        0.2500713,
        0.037629507,
        -0.09577264,
        0.03252062,
        -0.07465868,
        0.42164314,
        0.07381073,
        0.18346953,
        -0.043219868,
        -0.018369796,
        -0.758897,
        0.13091539,
        0.010721496,
        0.46173778,
        0.78518057,
        0.2618833,
        0.013162517,
        0.024169331,
        0.029966922,
        0.1798962,
        -0.24453084,
        0.3374404,
        0.014304845,
        -0.064569764,
        0.36463648,
        -0.6527198,
        0.04763,
        -0.23535904,
        0.040951304,
        -0.30765653,
        -0.276523,
        0.4293379,
        0.06364813,
        0.19934188,
        0.3054965,
        -0.2905164,
        -0.19694622,
        0.23964326,
        0.11774436,
        0.33289176,
        0.09511476,
        -0.105639786,
        -0.16708359,
        -0.17625093,
        -0.22218102,
        -0.057485554,
        -0.02232576,
        0.09636121,
        -0.45696318,
        0.05590553,
        -0.49649334,
        0.06387418,
        0.5284907,
        0.26951364,
        0.04542424,
        0.6228245,
        0.25533158,
        -0.044775683,
        -0.037175275,
        0.07670192,
        0.21594892,
        -0.30304548,
        0.4043514,
        -0.008081013,
        0.061380766,
        -0.18806954,
        0.31046426,
        -0.04766028,
        -0.25696152,
        0.084901534,
        -0.106665686,
        -0.01947084,
        -0.30460402,
        -0.089516625,
        0.033207882,
        -0.16645387,
        -0.23357967,
        -0.20873706,
        0.29507747,
        0.036933858,
        -0.07628346,
        0.4020362,
        0.34315765,
        0.010604537,
        -0.18615104,
        -0.16853938,
        -0.22988611,
        -0.12280813,
        -0.19128327,
        -0.07204019,
        -0.0039524613,
        -0.15226963,
        -0.0039633005,
        -0.18909158,
        0.2514389,
        0.10166552,
        0.0031027412,
        -0.027672509,
        -0.31891507,
        0.084755525,
        -0.050705068,
        0.2524169,
        0.20033155,
        0.33901325,
        0.31538862,
        0.20688365,
        -0.4595132,
        0.2808338,
        -0.31202206,
        -0.17491373,
        0.2872076,
        0.28970483,
        -0.21910849,
        0.20299524,
        -0.17064896,
        0.1441521,
        0.28123656,
        0.14869435,
        0.057832226,
        -0.3266584,
        -0.22154592,
        0.037256137,
        0.3624539,
        0.06931633,
        -0.3598137,
        -0.24387914,
        0.39515534,
        -0.08662227,
        0.08539261,
        -0.123597786,
        -0.14992303,
        -0.16407008,
        -0.051322177,
        -0.35036132,
        -0.098754734,
        0.23878758,
        0.35202658,
        -0.36650434,
        0.016003491,
        0.33737096,
        0.115269855,
        0.28975156,
        0.06147979,
        -0.14082646,
        0.1453014,
        0.69061726,
        0.08558295,
        -0.12180215,
        0.013477318,
        -0.5897242,
        0.41159445,
        0.410043,
        -0.27818167,
        0.20159906,
        -0.22551748,
        -0.32838035,
        -0.12194183,
        0.2154491,
        0.37022603,
        -0.10046699,
        -0.18921055,
        -0.15806177,
        0.27693766,
        -0.22647831,
        -0.23312344,
        0.2128173,
        -0.23165412,
        -0.09975528,
        0.024972467,
        -0.115672946,
        0.60193473,
        0.17827927,
        0.5622768,
        -0.37716922,
        0.21354601,
        0.42076865,
        0.16618593,
        0.09683093,
        0.371566,
        -0.0260746,
        0.45625293,
        -0.22096924,
        0.12655203,
        0.23932955,
        -0.55580777,
        0.45528385,
        0.07071257,
        -0.137377,
        0.10424259,
        -0.22077198,
        0.058777586,
        -0.2129921,
        -0.12831336,
        -0.25659326,
        0.2609268,
        -0.34713286,
        -0.29041874,
        0.041044854,
        0.14916545,
        0.13204215,
        0.24467705,
        0.09168827,
        -0.18964419,
        -0.39279228,
        0.51102453,
        0.24668995,
        0.23136891,
        0.049992997,
        -0.4610551,
        -0.22419718,
        -0.07599499,
        -0.14330707,
        0.29759818,
        -0.4172068,
        -0.07374502,
        -0.017565936,
        0.28584635,
        0.1099323,
        -0.18165796,
        0.2559084,
        0.12612854,
        -0.26350898,
        0.35684612,
        -0.050632786,
        -0.11141277,
        0.11097242,
        -0.10437896,
        -0.24380471,
        0.051197607,
        -0.35641453,
        0.08137908,
        0.042122923,
        -0.003270555,
        0.57381684,
        -0.19951615,
        0.2867798,
        -0.3288473,
        -0.040172946,
        0.23702988,
        0.17041782,
        -0.19684699,
        -0.09234526,
        -0.11881071,
        -0.6031883,
        -0.43581414,
        0.354751,
        -0.24711685,
        -0.037825905,
        0.018571189,
        -0.124261335,
        0.5292202,
        0.30019754,
        0.3221189,
        0.20190296,
        0.49128407,
        0.25344375,
        -0.07341353,
        -0.2201764,
        0.264498,
        -0.23686449,
        -0.01558253,
        0.46714732,
        -0.027239937,
        -0.23243918,
        0.115833946,
        -0.14188279,
        0.45807698,
        0.029645393,
        0.5627194,
        0.24544267,
        0.23732646,
        0.11541215,
        -0.0960631,
        0.39883617,
        -0.54380065,
        0.053770304,
        -0.09029434,
        0.31078094,
        -0.06815693,
        -0.19550027,
        -0.07549389,
        -0.1756262,
        0.33092582,
        -0.35401773,
        -0.058766987,
        -0.16495873,
        -0.11414611,
        0.47613683,
        -0.23011532,
        -0.0853596,
        -0.027910547,
        -0.32372665,
        0.10440032,
        -0.05284986,
        -0.12514925,
        0.09772939,
        -0.36667064,
        0.35459387,
        0.111096345,
        0.14736387,
        0.08220963,
        -0.44880748,
        -0.1578215,
        0.13033839,
        -0.26833716,
        -0.019994307,
        -0.08737958,
        0.37259722,
        0.28084612,
        0.18695663,
        -0.2581504,
        -0.05033236,
        0.054419808,
        0.000041190284,
        -0.3348486,
        0.20556268,
        -0.30447528,
        -0.38908526,
        -0.34050438,
        0.15049784,
        0.12105445,
        -0.04645345,
        -0.17013146,
        0.14122975,
        0.20445491,
        -0.09669691,
        -0.09756422,
        0.34441042,
        -0.35201243,
        0.18469308,
        -0.39141294,
        -0.13438253,
        0.40051994,
        -0.23200358,
        -0.084525436,
        -0.14190152,
        0.21931425,
        0.3792822,
        -0.4483751,
        0.11530647,
        -0.46879083,
        -0.3289832,
        -0.29164714,
        -0.1253919,
        0.4715068,
        -0.27939624,
        -0.03735219,
        0.020511808,
        0.11255395,
        -0.09386556,
        -0.19874279,
        0.3080178,
        0.20229182,
        -0.15830536,
        -0.24705152,
        -0.09961605,
        0.031048654,
        -0.09078108,
        -0.09364273,
        -0.191266,
        -0.29565188,
        -0.37920064,
        -0.13138406,
        -0.44563907,
        -0.08857393,
        0.17440785,
        -0.042822603,
        -0.36895803,
        -0.14635363,
        -0.085026845,
        0.03141842,
        -0.3845222,
        -0.1307643,
        -0.043122258,
        0.14047404,
        -0.13302442,
        -0.12997483,
        -0.15680277,
        0.05987821,
        -0.009614187,
        0.23074105,
        -0.07911318,
        -0.23481292,
        -0.10015388,
        -0.06703953,
        -0.21740916,
        0.30359674,
        -0.04807445,
        -0.3047478,
        -0.09600629,
        -0.04259288,
        -0.20612343,
        -0.19968452,
        -0.050165027,
        -0.102835916,
        -0.1967164,
        0.5001286,
        -0.0030300808,
        -0.11589629,
        0.46297008,
        -0.028309785,
        -0.1476238,
        0.09418906,
        0.21109818,
        -0.020720046,
        -0.10711903,
        0.606662,
        0.1404107,
        0.22805561,
        -0.070478074,
        -0.06295754,
        -0.09944278,
        -0.50373924,
        -0.0639475,
        -0.16713476,
        0.5141035,
        -0.23613925,
        0.21304321,
        0.0583541,
        -0.13868712,
        0.46649542,
        -0.31127086,
        0.013792391,
        -0.009016484,
        -0.27713132,
        0.057839476,
        0.5783756,
        0.39687112,
        -0.3853745,
        0.29126388,
        -0.3478749,
        0.07643712,
        -0.34957254,
        0.24796443,
        -0.12394443,
        -0.0978092,
        -0.34732804,
        -0.020575961,
        0.3990548,
        -0.2613257,
        -0.31381613,
        0.15536976,
        -0.15379028,
        0.21632624,
        -0.564668,
        -0.034178626,
        -0.18194519,
        -0.017062027,
        0.26222917,
        -0.05929055,
        0.2427717,
        -0.062426385,
        -0.35293728,
        0.4684418,
        0.16161737,
        0.0014883206,
        0.27087975,
        -0.27308923,
        -0.23800932,
        0.44431484,
        0.039155703,
        -0.13589182,
        -0.2128137,
        -0.6992378,
        -0.41515207,
        -0.15393788,
        -0.006936933,
        0.3554478,
        0.10159196,
        -0.13230437,
        -0.16476883,
        -0.006877992,
        0.089351445,
        -0.058684614,
        -0.45354468,
        -0.5360971,
        0.04099753,
        -0.09128951,
        -0.09286797,
        0.049048256,
        0.08719187,
        -0.20218723,
        -0.25824636,
        -0.3200769,
        -0.7735476,
        0.1586452,
        -0.22803234,
        0.059020236,
        0.16381103,
        -0.0514148,
        -0.11852195,
        -0.43811688,
        0.005504515,
        -0.026396582,
        0.10417935,
        0.22195692,
        -0.5604817,
        0.03892873,
        -0.25797144,
        0.07025676,
        -0.14751191,
        -0.40478,
        0.053299725,
        0.0066895946,
        0.26876664,
        0.08017419,
        -0.1736347,
        0.04388796,
        -0.00529729,
        -0.67629194,
        -0.07396014,
        0.16201542,
        0.007979075,
        -0.13793215,
        0.19015089,
        0.39692453,
        -0.25144112,
        0.38861954,
        0.5247985,
        -0.028747754,
        -0.03547174,
        0.124014124,
        0.2556765,
        0.005503754,
        -0.08904264,
        0.035304163,
        0.14250666,
        0.009948403,
        -0.0046796026,
        -0.4511067,
        -0.15765217,
        -0.25538984,
        0.34242004,
        -0.24888805,
        -0.39586842,
        0.09790278,
        -0.16795975,
        0.16400017,
        -0.5159782,
        -0.2220314,
        -0.042943936,
        0.03874928,
        0.27870592,
        0.1350194,
        -0.1368978,
        -0.39768383,
        -0.1064025,
        0.052698903,
        -0.054760527,
        0.59458554,
        0.024095802,
        0.12306972,
        0.16336155,
        0.031568613,
        -0.11941325,
        -0.100630745,
        -0.30931407,
        -0.1966931,
        -0.19882011,
        0.152523,
        -0.09548736,
        -0.21607238,
        0.11767365,
        -0.15012965,
        -0.18526965,
        -0.117132716,
        -0.14666802,
        0.14396049,
        0.34987968,
        -0.05401719,
        -0.037912205,
        0.38974792,
        0.062157687,
        -0.0620951,
        -0.29194698,
        -0.35547012,
        -0.22347033,
        -0.084122874,
        0.05288375,
        -0.20458902,
        0.15325126,
        0.17708902,
        -0.36164021,
        -0.06722403,
        -0.37611708,
        0.18323362,
        0.2798052,
        0.1269925,
        0.16110565,
        0.46696723,
        -0.038377043,
        -0.099355176,
        -0.11489276,
        -0.06740366,
        0.276106,
        0.11398277,
        -0.20244108,
        -0.21679182,
        -0.1848848,
        -0.31483078,
        -0.5636957,
        0.2767163,
        0.3538552,
        -0.18878143,
        -0.30259454,
        -0.056796663,
        -0.056264177,
        -0.23265272,
        0.3781816,
        0.18576151,
        -0.054638825,
        0.18580213,
        0.12122933,
        0.074510135,
        0.0348407,
        -0.28579172,
        -0.009915345,
        0.054014616,
        -0.19144282,
        0.20285423,
        0.4037676,
        -0.15371083,
        0.2990804,
        0.18478519,
        -0.40949717,
        0.4214782,
        -0.13886775,
        0.11625319,
        -0.009055652,
        0.22284079,
        0.09998763,
        0.18482317,
        -0.315099,
        0.3897005,
        -0.07059735,
        -0.1220523,
        0.00634245,
        0.0422011,
        -0.04816639,
        -0.28145543,
        0.22575134,
        0.15793714,
        -0.22595522,
        0.07175975,
        0.33849123,
        -0.2825171,
        -0.13777721,
        -0.16083388,
        0.035480354,
        -0.39089173,
        -0.02172733,
        -0.01170038,
        -0.67286223,
        0.6493261,
        0.060918048,
        -0.014035912,
        -0.034059566,
        0.40481198,
        0.03939159,
        0.49806708,
        -0.2941883,
        0.060854003,
        -0.20005289,
        -0.049619686,
        -0.20552872,
        0.15668178,
        0.85445607,
        -0.12195212,
        0.048190467,
        0.03519285,
        -0.15875922,
        -0.29762784,
        -0.18982981,
        0.16882302,
        -0.20923924,
        -0.17051904,
        -0.3200022,
        0.39481866,
        0.054823272,
        -0.34892157,
        -0.17002277,
        -0.19306996,
        -0.08709439,
        0.36336103,
        0.21307783,
        -0.35982236,
        0.21340299,
        0.072268434,
        0.14497155,
        -0.021879423,
        -0.27445263,
        -0.38899797,
        0.32275322,
        0.23337689,
        0.084658526,
        -0.065640055,
        0.054189466,
        -0.08921482,
        -0.29032513,
        -0.38737026,
        -0.22445315,
        0.53702605,
        0.17120883,
        -0.27744114,
        0.054201446,
        0.19530882,
        0.16939944,
        0.11982744,
        -0.21344234,
        0.39789796,
        -0.3095324,
        -0.5071101,
        -0.06037258,
        0.16581209,
        -0.07931262,
        -0.1248391,
        0.051350184,
        0.032623928,
        0.15304716,
        0.10545266,
        0.049369577,
        0.21769886,
        -0.027970418,
        -0.10540391,
        -0.32053763,
        0.58139,
        -0.17346948,
        -0.23034815,
        -0.32502875,
        0.1345449,
        0.28569558,
        0.14886615,
        0.24996753,
        0.44463608,
        0.09127238,
        -0.27502406,
        -0.35026598,
        0.40928644,
        0.17856568,
        -0.17880617,
        0.35543442,
        -0.32016852,
        -0.17287414,
        -0.415035,
        -0.5668689,
        -0.1552066,
        0.057772733,
        -0.062695645,
        -0.100323565,
        0.4036488,
        -0.18589337,
        0.062562086,
        0.0532296,
        0.11025922,
        -0.17287377,
        0.35167927,
        0.052394804,
        0.4706336,
        -0.22468495,
        0.2441051,
        -0.016177485,
        -0.0768948,
        -0.16758378,
        -0.21297614,
        0.16173415,
        0.4380203,
        -0.47321665,
        -0.16366197,
        0.16773519,
        -0.09972741,
        0.27923238,
        -0.37936947,
        0.023416197,
        0.45179257,
        -0.11082902,
        0.1095927,
        0.68855965,
        0.011584853,
        0.1002879,
        0.0063500036,
        0.03591801,
        0.006112699,
        0.15705521,
        0.113431595,
        -0.052421253,
        -0.37188226,
        -0.1727863,
        0.1453493,
        -0.10078659,
        -0.14311236,
        -0.26002082,
        -0.026827047,
        -0.014877619,
        -0.18517604,
        -0.060588706,
        -0.116093434,
        0.018795181,
        -0.3870728,
        -0.7642125,
        -0.011785044,
        0.15089723,
        0.08402775,
        -0.31449595,
        -0.448277,
        0.08125626,
        -0.21442156,
        -0.1837228,
        -0.10572174,
        -0.08560454,
        0.14218605,
        0.01672735,
        -0.002816986,
        -0.29889888,
        0.052471332,
        -0.09382552,
        -0.33967558,
        -0.041719522,
        -0.19998828,
        0.2893852,
        0.39465654,
        -0.048113797,
        -0.28098857,
        -0.17097329,
        -0.026571473,
        0.1408233,
        -0.2460182,
        0.27875528,
        0.06286142,
        -0.14705369,
        0.59441626,
        0.04068584,
        0.27127767,
        0.29021043,
        0.08651583,
        0.47090125,
        0.43171462,
        -0.2638544,
        0.016566534,
        -0.047153693,
        0.4537249,
        0.16172554,
        -0.4472572,
        0.19377026,
        0.19854906,
        0.04877037,
        -0.3393157,
        0.4976395,
        -0.23444349,
        0.31067985,
        0.19497435,
        0.19035819,
        -0.07609881,
        0.43195626,
        0.19288822,
        -0.07576206,
        0.09585537,
        0.3339384,
        -0.43804926,
        -0.28567982,
        0.29306495,
        0.4950653,
        -0.069063775,
        -0.31105587,
        0.026878763,
        0.016211929,
        -0.28467688,
        -0.2205246,
        0.15888284,
        0.151662,
        0.43268526,
        0.4944178,
        -0.20273502,
        -0.23340334,
        -0.19768552,
        0.235809,
        -0.19970624,
        -0.043824248,
        0.012253446,
        0.023842016,
        -0.0063598724,
        0.09828206,
        0.095670804,
        -0.16393815,
        0.25883415,
        -0.41266337,
        0.06467286,
        -0.12137873,
        0.3324865,
        -0.12122755,
        -0.25847968,
        -0.09736863,
        -0.1818086,
        -0.6527636,
        -0.034209404,
        0.016117178,
        0.2616407,
        0.19520916,
        0.18734397,
        -0.037340816,
        0.28795585,
        0.4891025,
        -0.23594698,
        -0.056612927,
        0.1307523,
        0.0335721,
        0.29166698,
        -0.14532515,
        0.29411647,
        -0.17931944,
        0.13677548,
        -0.19521554,
        -0.032421015,
        0.0019763336,
        0.086634524,
        0.098535664,
        0.07287753,
        -0.35825512,
        0.2401125,
        -0.6872448,
        -0.34966272,
        0.17655185,
        -0.08298985,
        0.02934639,
        -0.0014981955,
        -0.010506932,
        -0.046036817,
        0.0066633387,
        -0.066645496,
        0.075058356,
        -0.110181786,
        0.08638475,
        0.3098779,
        -0.19983184,
        -0.24195829,
        -0.036945537,
        0.0518468,
        -0.12785305,
        -0.4230026,
        0.052520223,
        0.03545839,
        0.23473978,
        -0.19585565,
        0.30387163,
        0.27513468,
        0.15122193,
        0.21646605,
        -0.09522459,
        0.42537883,
        0.18273254,
        -0.4640678,
        -0.35587406,
        0.008983913,
        -0.36236432,
        0.055239446,
        0.21671097,
        0.12370465,
        -0.42137036,
        0.050827436,
        -0.42209047,
        -0.1485311,
        0.23902744,
        -0.109614275,
        0.15793113,
        -0.049718786,
        0.04671109,
        -0.41088495,
        0.46256292,
        0.3941058,
        -0.03463083,
        -0.07061583,
        0.17425685,
        -0.11374919,
        0.6106291,
        0.18427601,
        -0.3070242,
        0.12797649,
        0.4561033,
        -0.14183804,
        0.48013964,
        -0.22074716,
        0.32161,
        0.47085184,
        0.22204399,
        0.10444903,
        0.19651787,
        -0.6569059,
        -0.3323381,
        0.3377366,
        -0.10604016,
        -0.61241543,
        0.045263942,
        0.24835943,
        -0.26133943,
        -0.007137536,
        0.0071919146,
        -0.15815859,
        -0.04910721,
        -0.24967346,
        -0.4319213,
        -0.3856122,
        -0.18283188,
        -0.3275205,
        -0.10197883,
        -0.19907033,
        -0.021738045,
        -0.050694477,
        -0.011418012,
        0.004288324,
        0.21406257,
        0.32604474,
        -0.24319631,
        -0.26793867,
        -0.0068861805,
        -0.14677967,
        -0.28992504,
        0.15636459,
        0.039368056,
        -0.05956714,
        -0.16904736,
        0.66406274,
        0.08202783,
        0.36690784,
        -0.023271339,
        -0.15234233,
        0.39929217,
        0.31964228,
        0.098999925,
        -0.2269302,
        -0.25410816,
        0.19960237,
        0.18834105,
        0.38153917,
        0.47259715,
        -0.44848025,
        -0.039290696,
        -0.13239367,
        -0.373943,
        -0.625256,
        -0.10455057,
        0.30774134,
        -0.40732992,
        -0.04336843,
        0.4500363,
        -0.025841491,
        0.10779918,
        -0.24454157,
        0.045396473,
        -0.19552866,
        0.121810764,
        0.355641,
        -0.005790368,
        0.19012776,
        0.055092,
        -0.058929943,
        0.11233659,
        -0.54348594,
        -0.03521949,
        -0.21192087,
        -0.05827126,
        -0.2920432,
        -0.009326251,
        -0.21282181,
        -0.68420655,
        -0.120767206,
        0.0945503,
        -0.18372037,
        -0.37325785,
        -0.14510533,
        -0.27649477,
        0.004466324,
        0.48100385,
        0.36013407,
        -0.034441426,
        0.12768365,
        0.32825923,
        0.06264336,
        0.28869197,
        0.03868542,
        0.1103301,
        0.40539837,
        -0.2773597,
        -0.08800434,
        -0.095981754,
        0.24545677,
        0.7586086,
        -0.15199496,
        0.031924892,
        -0.25103527,
        -0.20869556,
        0.006811863,
        -0.44501585,
        -0.006536962,
        0.12983538,
        -0.3105891,
        0.08990369,
        0.14662006,
        0.018798105,
        0.24318498,
        -0.25402734,
        0.20821661,
        -0.13881448,
        -0.19896872,
        0.4850528,
        -0.035065364,
        0.066140085,
        0.20368911,
        -0.15365884,
        -0.29383826,
        -0.2232706,
        -0.05445667,
        -0.036397114,
        -0.019920284,
        -0.45083478,
        -0.17611599,
        0.11915519,
        -0.26444754,
        0.29162085,
        -0.024007013,
        -0.18559453,
        0.2589856,
        0.013883832,
        0.11458697,
        0.20599848,
        0.15724671,
        0.06118334,
        0.29698342,
        0.05830708,
        -0.2843635,
        -0.02613175,
        0.5750175,
        -0.06520123,
        -0.21096759,
        0.22440138,
        0.23133937,
        -0.12879121,
        -0.33850345,
        0.37293702,
        0.19644168,
        0.04053374,
        0.01090473,
        0.036428396,
        0.17895003,
        -0.14737915,
        -0.4188748,
        -0.17797293,
        -0.09235095,
        0.37212586,
        0.030383242,
        -0.47866037,
        -0.27906728,
        -0.37649226,
        -0.24608144,
        -0.051762413,
        -0.10479049,
        0.21683699,
        -0.2045185,
        -0.07778038,
        -0.072981246,
        0.20537147,
        -0.23056793,
        -0.30534667,
        0.12355091,
        0.17919092,
        0.53451097,
        0.5195308,
        -0.04595539,
        0.47894558,
        -0.17698519,
        0.09392697,
        0.19191642,
        0.2375831,
        -0.18526913,
        0.075350374,
        0.1645016,
        -0.20920888,
        -0.27039707,
        0.014064294,
        0.18813665,
        0.22212322,
        -0.4847381,
        0.19116081,
        -0.19662865,
        0.056770694,
        0.3469668,
        -0.13410224,
        -0.5031636,
        0.24227548,
        -0.33565438,
        -0.0641572,
        -0.26767027,
        0.026558006,
        -0.47702065,
        -0.36018237,
        0.0806876,
        -0.050166976,
        0.05088204,
        0.21763682,
        0.086344585,
        0.19719584,
        -0.02403584,
        0.06347278,
        0.27169523,
        -0.26782513,
        -0.04264797,
        0.12443198,
        0.08146256,
        0.0051647136,
        0.26513112,
        -0.020771751,
        0.42478928,
        0.24841271,
        0.016914409,
        0.39243808,
        0.23870648,
        -0.22037077,
        0.16848177,
        0.16451102,
        0.351352,
        -0.20614226,
        0.06877243,
        0.1426949,
        0.32259646,
        0.15748143,
        -0.1304308,
        0.4131143,
        0.09117292,
        0.027660646,
        -0.24637045,
        0.08208714,
        0.06250269,
        -0.062343422,
        0.20831981,
        -0.28603157,
        0.019988742,
        -0.022288041,
        -0.19630882,
        0.017597271,
        -0.19792664,
        -0.10324746,
        0.1331444,
        -0.010239765,
        -0.058610797,
        0.20832151,
        0.06175198,
        -0.036447503,
        0.3796259,
        0.20665248,
        0.15112184,
        -0.15584065,
        0.07927497,
        -0.17459416,
        0.11477361,
        0.14380921,
        -0.269844,
        0.16825247,
        -0.12803861,
        -0.07723519,
        0.19826272,
        -0.33791286,
        -0.12120579,
        -0.017157115,
        -0.0033162837,
        0.34007466,
        0.20492494,
        0.27932107,
        -0.1162387,
        0.35587272,
        -0.32789585,
        0.13923188,
        0.044646427,
        0.4339514,
        0.2983982,
        -0.030109005,
        -0.16760977,
        -0.11749397,
        0.06432532,
        0.19518891,
        0.35361093,
        -0.14588559,
        0.2455839,
        -0.22741704,
        -0.07805529,
        -0.38485095,
        0.32580265,
        -0.2099181,
        0.28048623,
        0.10703359,
        -0.39784238,
        0.1298325,
        0.15543853,
        0.09453831,
        0.035238974,
        0.88528925,
        -0.38045257,
        0.25871903,
        -0.1380985,
        -0.02802485,
        0.074937105,
        -0.20360689,
        0.09651981,
        0.0652131,
        -0.0143243065,
        0.19063377,
        -0.5499225,
        0.24891283,
        -0.1558063,
        0.0147966,
        -0.12053939,
        0.09004649,
        0.15753391,
        0.32108957,
        -0.105284125,
        -0.19399664,
        0.32839167,
        0.08877715,
        0.099634044,
        0.373047,
        -0.2898113,
        0.048503224,
        0.23478107,
        0.26078984,
        -0.1960585,
        0.47154316,
        -0.29903725,
        0.15015198,
        -0.11395754,
        -0.3187189,
        -0.21151772,
        -0.33634493,
        0.046522044,
        0.08248026,
        0.34920132,
        -0.07987364,
        0.26038283,
        0.1960157,
        -0.29980895,
        0.092489146,
        -0.23220521,
        -0.21337914,
        -0.27933127,
        0.22086534,
        0.29186705,
        0.08574112,
        0.1297104,
        -0.3856571,
        0.3438277,
        0.43280047,
        0.110900395,
        -0.27621552,
        0.054556567,
        -0.033697136,
        0.59736377,
        0.018940508,
        0.110573225,
        0.114522785,
        0.36263838,
        -0.40420943,
        -0.8410838,
        -0.13515083,
        -0.1520185,
        0.22046523,
        -0.113512225,
        0.01555037,
        0.11849995,
        0.42225218,
        -0.02555636,
        0.07833384,
        -0.15782194,
        -0.5300777,
        0.21197231,
        -0.015334107,
        -0.034448184,
        -0.025825975,
        -0.24337004,
        -0.20414343,
        0.37890333,
        0.019218925,
        -0.03997306,
        -0.043425992,
        0.121247865,
        0.37937272,
        0.0896147,
        0.21963343,
        -0.32743844,
        0.53890926,
        -0.61484647,
        -0.25639978,
        0.32859293,
        0.405929,
        -0.122788,
        0.006656783,
        0.34067422,
        -0.24730395,
        -0.26432398,
        0.030156419,
        0.18789542,
        0.102036454,
        -0.11076568,
        -0.15946992,
        0.085367985,
        -0.2002792,
        0.32650125,
        -0.06657383,
        0.32881844,
        0.12892523,
        0.0145384595,
        0.06095103,
        -0.26809993,
        0.042144332,
        0.009945749,
        -0.427043,
        -0.01936397,
        -0.027427528,
        -0.73582983,
        0.19985467,
        -0.2711344,
        -0.20959736,
        0.30801687,
        -0.052450188,
        0.31517637,
        -0.08225352,
        -0.09982747,
        -0.4142146,
        -0.3403126,
        0.05198746,
        0.1413102,
        -0.19561538,
        -0.13586077,
        0.006263422,
        -0.48654422,
        0.21729618,
        0.07239294,
        0.23409253,
        -0.3184749,
        0.64689004,
        -0.2639601,
        0.16289465,
        0.13198784,
        -0.6096787,
        0.14944538,
        -0.29706463,
        -0.05003821,
        0.18560514,
        -0.18707947,
        0.03201674,
        -0.45675713,
        0.19286387,
        0.34924516,
        0.44825718,
        -0.048610758,
        0.327142,
        -0.13889842,
        0.073094554,
        -0.108442806,
        0.009532481,
        0.2627158,
        -0.44517246,
        0.053928416,
        0.47296715,
        0.009087257,
        0.65630746,
        0.11517894,
        0.17354718,
        0.12739605,
        0.30097687,
        0.29128438,
        -0.39981437,
        0.18952462,
        -0.17568827,
        0.27842435,
        -0.14289747,
        -0.1419801,
        -0.3343504,
        0.23593043,
        0.5739134,
        0.040071256,
        0.18362425,
        -0.08292876,
        -0.4981989,
        -0.16146474,
        -0.5761526,
        0.40629634,
        -0.15733093,
        -0.029714597,
        -0.56677675,
        0.1336826,
        0.004434131,
        0.14433695,
        0.030864514,
        -0.38918144,
        0.40844014,
        -0.47702882,
        -0.17406322,
        0.12396824,
        0.18437402,
        0.10557709,
        0.6815062,
        0.022339575,
        -0.21911795,
        -0.24196824,
        -0.42873752,
        -0.19649905,
        -0.12560809,
        0.27628756,
        -0.03697678,
        0.26314202,
        -0.1528655,
        0.14487298,
        -0.12286773,
        -0.32893008,
        0.32841718,
        -0.32969138,
        -0.08603259,
        0.07418064,
        0.1681042,
        0.02771751,
        -0.2420905,
        -0.0173124,
        0.26360437,
        0.11571256,
        0.074251324,
        0.040825292,
        0.16635877,
        0.3681986,
        -0.2222551,
        -0.2338127,
        0.54533863,
        -0.17653546,
        -0.44305742,
        -0.23996983,
        -0.25229198,
        -0.094301075,
        0.27291584,
        -0.40672216,
        0.14955334,
        -0.1143179,
        -0.2718213,
        -0.0041885716,
        -0.45189795,
        0.029656857,
        0.025241882,
        0.17110857,
        0.12310971,
        0.3302595,
        -0.047161996,
        0.07300507,
        -0.14825241,
        -0.3133467,
        0.24395865,
        -0.26020524,
        -0.21803099,
        -0.541444,
        0.06342235,
        0.10774165,
        -0.05802509,
        0.021004427,
        -0.5929978,
        0.3195103,
        0.10527058,
        0.03433917,
        -0.07951594,
        0.055996664,
        -0.04393384,
        -0.15279636,
        -0.018677516,
        -0.31032747,
        -0.05463252,
        -0.0953402,
        -0.51851887,
        0.006991366,
        0.1420266,
        0.19227494,
        0.2056771,
        -0.37550497,
        -0.28690144,
        -0.28931928,
        -0.02086014,
        0.20115094,
        -0.050183736,
        -0.06823971,
        -0.21382259,
        -0.12691048,
        -0.35671458,
        -0.38817552,
        -0.06778847,
        0.15302601,
        -0.32198328,
        -0.27101517,
        -0.036357444,
        0.09016898,
        -0.29645437,
        -0.19374695,
        0.017076658,
        0.098006144,
        -0.1379147,
        0.1853387,
        0.41966137,
        0.39943114,
        0.011275525,
        -0.14481443,
        -0.06151574,
        -0.12048043,
        -0.21067306,
        0.32101256,
        -0.23180965,
        -0.24605857,
        -0.3354354,
        0.2994933,
        0.027037151,
        -0.2697633,
        -0.036645155,
        -0.30019835,
        0.11624701,
        -0.45073572,
        0.43874547,
        0.2231291,
        0.25452217,
        -0.27286062,
        0.2172358,
        0.17944917,
        -0.09424566,
        -0.052146118,
        0.02278722,
        0.1892963,
        0.24093688,
        0.044174653,
        -0.09099619,
        -0.1611171,
        0.11814515,
        0.087910905,
        0.06255985,
        0.21407458,
        -0.09285277,
        -0.05105988,
        0.21166627,
        -0.26442656,
        0.007475304,
        -0.2918003,
        -0.12474823,
        0.020541998,
        0.7519935,
        -0.014843572,
        0.017457707,
        0.030122237,
        0.1670716,
        0.47995916,
        0.15693143,
        -0.05558838,
        -0.41149414,
        -0.273193,
        0.024144363,
        0.072862305,
        0.113565765,
        0.11332995,
        0.0107096415,
        -0.24001402,
        0.380217,
        -0.24960425,
        0.0014163894,
        0.36734116,
        0.5310816,
        -0.15195586,
        -0.204871,
        0.09898688,
        0.092037,
        0.19250584,
        -0.17567529,
        -0.5644555,
        -0.13608396,
        0.7619359,
        -0.2875421,
        0.079214886,
        0.41171783,
        0.25731605,
        0.10979469,
        0.7228613,
        0.103069484,
        0.17095514,
        -0.14744204,
        0.14142017,
        0.25037557,
        -0.27223805,
        -0.123170376,
        -0.12830713,
        -0.30620876,
        -0.020747935,
        0.25449812,
        0.13555029,
        0.10163895,
        -0.6431078,
        -0.15756378,
        -0.25113443,
        0.15555753,
        0.6548905,
        -0.13121197,
        -0.3218552,
        -0.38271886,
        -0.0039829826,
        -0.21542017,
        -0.093063965,
        0.17726207,
        0.43961912,
        -0.22291197,
        0.115135655,
        -0.3736678,
        0.05657964,
        -0.20325951,
        -0.18761358,
        -0.2730471,
        -0.28592888,
        0.047082555,
        -0.011172091,
        -0.14431533,
        -0.31298912,
        -0.06635518,
        0.05733536,
        0.15777858,
        -0.5444511,
        0.25151876,
        0.33019435,
        -0.24716339,
        -0.06681071,
        -0.062675305,
        0.40529814,
        0.042242814,
        -0.36458817,
        0.009095973,
        0.039035905,
        0.38128874,
        -0.13303927,
        -0.31590965,
        0.2922153,
        0.053544216,
        -0.22535597,
        0.010381606,
        -0.17745839,
        -0.029479658,
        0.4102741,
        0.28619796,
        0.13357721,
        -0.061315916,
        0.030802425,
        0.15858574,
        -0.088736966,
        0.13421854,
        -0.10537777,
        -0.16332704,
        0.068105504,
        0.11371627,
        0.07703266,
        0.4675086,
        0.26970175,
        -0.26405874,
        -0.14623554,
        0.46217576,
        -0.106926,
        0.22156805,
        -0.1561898,
        -0.14415616,
        -0.31642687,
        0.10963509,
        -0.6134231,
        0.028016951,
        -0.11032786,
        -0.25943682,
        0.2510341,
        0.46583027,
        0.06729568,
        -0.028154831,
        -0.64468336,
        -0.22791138,
        -0.24412534,
        0.038864616,
        0.27577758,
        0.27869874,
        -0.34646547,
        -0.06693816,
        -0.06644604,
        0.20989816,
        0.26020163,
        -0.14169627,
        -0.034306042,
        0.24539785,
        0.32714185,
        0.044291575,
        0.32723954,
        -0.048574995,
        -0.21196629,
        -0.24291164,
        0.16079919,
        0.32558692,
        -0.547498,
        -0.43238762,
        0.19427396,
        -0.04367911,
        -0.27152997,
        -0.020856481,
        0.072642386,
        0.13666825,
        0.25642544,
        -0.51957315,
        -0.024192927,
        0.24598521,
        -0.11898441,
        -0.36434063,
        0.094513305,
        -0.09659552,
        0.16614306,
        -0.20122775,
        0.010285358,
        0.05702925,
        0.070952855,
        -0.23428851,
        -0.0049697873,
        -0.18662989,
        0.31982306,
        0.037852637,
        -0.02760332,
        0.57842994,
        -0.050823044,
        0.3338481,
        -0.17493767,
        0.12479377,
        0.0067207078,
        -0.50465167,
        0.18305397,
        -0.5023058,
        0.044661675,
        0.4235919,
        0.2847047,
        -0.5905017,
        -0.38587728,
        0.05167135,
        -0.05453115,
        -0.15049875,
        -0.043412738,
        0.27582398,
        0.2587276,
        0.10991955,
        0.2566675,
        -0.11107731,
        0.2536129,
        0.12988959,
        0.069415286,
        -0.34103808,
        0.31162277,
        -0.47194105,
        -0.32427529,
        0.11195046,
        -0.1925234,
        0.028719947,
        -0.17071204,
        -0.2799673,
        -0.039191425,
        -0.30553162,
        0.06283347,
        0.16180862,
        0.04505654,
        -0.31489933,
        0.012982422,
        -0.27027044,
        0.042637825,
        0.16309129,
        -0.04764633,
        -0.43849096,
        -0.16224405,
        -0.10397616,
        0.15957093,
        0.3045384,
        -0.45074767,
        0.17985742,
        0.07653366,
        0.122918956,
        -0.0027545285,
        -0.704095,
        0.058566596,
        0.19013974,
        0.00873749,
        -0.30539975,
        0.04930007,
        -0.9043948,
        0.17966957,
        0.07393963,
        -0.18718772,
        -0.34121588,
        0.45706728,
        -0.5502389,
        -0.06175694,
        -0.27640024,
        0.341734,
        -0.22775425,
        0.07887389,
        0.035252616,
        -0.25833562,
        -0.029853031,
        0.15802234,
        -0.15033478,
        0.079270996,
        0.22901623,
        -0.070969366,
        0.25464448,
        -0.359658,
        -0.32665738,
        -0.09487502,
        0.34252143,
        -0.049017258,
        -0.12141453,
        -0.15905076,
        -0.121513866,
        -0.02427473,
        -0.08835579,
        0.04040298,
        -0.29497257,
        -0.29478455,
        0.0484128,
        -0.54375917,
        0.17525037,
        -0.27101204,
        0.40674388,
        -0.10090344,
        -0.038080253,
        -0.39750162,
        -0.48026544,
        0.14114296,
        -0.32612872,
        -0.20896558,
        -0.01823298,
        -0.56052536,
        -0.04421094,
        -0.025008172,
        0.10371698,
        0.24486586,
        -0.47570357,
        -0.056071624,
        -0.18551669,
        -0.07921738,
        0.27131435,
        -0.7296844,
        -0.21746564,
        0.2370245,
        -0.02907641,
        -0.22030166,
        0.5695127,
        -0.03550807,
        -0.9049771,
        -0.40103248,
        -0.070306666,
        0.050834548,
        0.076418586,
        -0.11751244,
        -0.03862644,
        -0.062646165,
        0.5598805,
        -0.123843856,
        0.7619669,
        -0.19083396,
        -0.38859913,
        -0.34004575,
        -0.058813177,
        -0.21071218,
        0.09837543,
        0.62518644,
        -0.1405287,
        0.15791859,
        -0.45387983,
        -0.12396,
        -0.31888384,
        0.36574265,
        -0.37632677,
        0.0041346843,
        -0.028515043,
        0.3315285,
        -0.10490883,
        -0.18863373,
        -0.08028773,
        -0.07329318,
        -0.080661476,
        -0.16676486,
        -0.2473318,
        0.5996775,
        -0.054409742,
        0.16517837,
        0.046244904,
        -0.24647391,
        0.07012097,
        -0.34287706,
        0.13728546,
        0.48095673,
        -0.19758981,
        0.11935858,
        -0.30766097,
        0.6031989,
        0.26107624,
        -0.107404664,
        0.17101042,
        0.029455626,
        0.15355687,
        0.41578835,
        0.44476938,
        0.27159658,
        -0.36855438,
        -0.01403688,
        -0.26237488,
        -0.41888723,
        -0.10329079,
        -0.21574399,
        0.5652878,
        -0.07942,
        0.07895241,
        -0.41104856,
        -0.06782183,
        0.17601067,
        0.28556034,
        -0.1386248,
        0.09837103,
        0.05869292,
        0.3249197,
        0.08729669,
        0.14871822,
        0.26722535,
        -0.079122454,
        0.2819146,
        0.018951138,
        0.11178727,
        0.13504183,
        0.008737434,
        0.0019609781,
        -0.8728037,
        -0.035195947,
        0.09420716,
        -0.18139681,
        -0.012841502,
        -0.4014011,
        -0.17706212,
        0.13129996,
        -0.22765149,
        -0.19320737,
        0.23887686,
        0.12788938,
        -0.033609968,
        -0.08201835,
        0.056526624,
        0.046035778,
        -0.080371305,
        0.617313,
        -0.34848094,
        0.2493732,
        0.08167088,
        -0.22790702,
        -0.5566024,
        -0.112143345,
        0.073024355,
        0.2670437,
        -0.15780509,
        0.08291722,
        -0.0119115785,
        -0.24116477,
        0.3710296,
        -0.019544385,
        -0.16557072,
        -0.31140387,
        -0.2903088,
        -0.1341934,
        -0.3340925,
        -0.21589328,
        0.2674318,
        -0.030698031,
        -0.2451623,
        0.17226419,
        -0.047361746,
        -0.0746055,
        0.3511894,
        0.042423096,
        0.13265972,
        0.42204902,
        0.303047,
        -0.13112108,
        -0.29725486,
        -0.2729159,
        -0.013197606,
        0.06305913,
        0.43454966,
        -0.078585416,
        -0.5315083,
        -0.12306285,
        0.0060830526,
        -0.015952077,
        0.052863423,
        -0.010811785,
        0.23028581,
        0.0014541645,
        0.23429838,
        -0.16657242,
        0.60927683,
        0.15668613,
        0.1479502,
        0.07397236,
        0.44084576,
        -0.21719098,
        -0.18853189,
        0.3869223,
        0.308272,
        -0.032124583,
        -0.2694675,
        0.09820791,
        -0.34969708,
        -0.13033432,
        0.45681736,
        -0.38899606,
        -0.14838159,
        0.071123905,
        -0.15974098,
        0.040466048,
        0.011689679,
        0.4071732,
        -0.080897786,
        0.045934577,
        -0.08805119,
        0.16262217,
        0.18860927,
        0.3185169,
        -0.15590575,
        -0.01120219,
        0.03643359,
        0.1717685,
        0.19150364,
        0.27760556,
        -0.43720654,
        -0.021006174,
        0.41259062,
        0.37951675,
        0.13611118,
        -0.61547834,
        -0.16191831,
        -0.13281561,
        -0.13100748,
        -0.04484276,
        -0.16774645,
        -0.11644892,
        -0.15746017,
        -0.06812088,
        -0.12001489,
        0.25166124,
        0.11606748,
        0.12985727,
        0.11746514,
        0.26869926,
        -0.026506033,
        0.07002126,
        0.22022268,
        0.056904078,
        0.15780175,
        0.2903622,
        0.22828662,
        0.05167298,
        0.0118293,
        -0.25940302,
        -0.5342467,
        0.0016270466,
        0.4409519,
        -0.36772192,
        0.16024072,
        0.2295411,
        -0.2078958,
        -0.013878012,
        0.18936297,
        -0.053485982,
        0.11790344,
        -0.01289896,
        -0.16657531,
        0.045197763,
        -0.34576163,
        0.024096336,
        -0.18712483,
        -0.2574153,
        -0.42490527,
        -0.18869837,
        -0.072989285,
        0.22392687,
        -0.3145322,
        -0.5077091,
        0.01403533,
        -0.31222153,
        0.19581771,
        -0.09338299,
        0.3604278,
        -0.115335554,
        0.3205369,
        -0.2413739,
        0.24594444,
        -0.10480112,
        -0.37887713,
        -0.088375404,
        -0.1420053,
        -0.05804088,
        -0.30764848,
        -0.011176111,
        -0.20356342,
        0.37509274,
        -0.13618508,
        -0.17296223,
        -0.13021556,
        -0.4067474,
        0.042242054,
        0.14679629,
        0.04388724,
        0.09572902,
        0.36831534,
        -0.21170223,
        0.06549443,
        0.08307014,
        -0.49609205,
        0.23827435,
        0.42075473,
        -0.3935045,
        -0.00044858136,
        -0.039588347,
        0.3560773,
        0.08840697,
        -0.092534736,
        0.49377427,
        -0.4054204,
        0.4460125,
        0.18518572,
        -0.07154414,
        0.10100656,
        -0.24412997,
        -0.3369675,
        -0.03173012,
        -0.14344178,
        -0.3503138,
        0.046458818,
        -0.052177355,
        0.020976957,
        -0.11748132,
        0.19920802,
        -0.039231252,
        -0.1697207,
        0.022741487,
        -0.15208836,
        0.5131991,
        0.16954955,
        -0.24000728,
        0.2612302,
        -0.03654601,
        0.0701125,
        0.24751373,
        -0.34507957,
        0.03952843,
        0.12628643,
        0.053358685,
        -0.15805542,
        -0.15205339,
        0.08535708,
        0.2920455,
        -0.31468186,
        0.09717192,
        -0.18804158,
        -0.10515638,
        0.39963707,
        -0.3369196,
        -0.09959923,
        0.34959581,
        0.20722291,
        0.4479569,
        -0.28728458,
        -0.12081405,
        0.24361154,
        0.0065883277,
        0.029035574,
        -0.09114132,
        0.5562846,
        0.08905751,
        0.36998436,
        -0.04347249,
        -0.2295234,
        -0.17370036,
        0.24880819,
        -0.304638,
        -0.30944067,
        -0.1576076,
        -0.10661457,
        0.06579202,
        -0.45045462,
        0.048484948,
        -0.13103782,
        -0.095945746,
        0.1601608,
        -0.024846265,
        -0.34187353,
        0.6293668,
        -0.1950282,
        0.04740629,
        0.022025688,
        0.46607742,
        0.27784938,
        -0.2792468,
        0.032355595,
        0.08238033,
        -0.27069283,
        0.6084567,
        0.08147931,
        -0.006271633,
        -0.30489248,
        0.5732348,
        0.12098472,
        -0.26877776,
        0.054907735,
        -0.29642007,
        -0.038271923,
        0.4281779,
        0.035167947,
        0.28559893,
        -0.40607026,
        0.45754004,
        -0.15376876,
        0.24483085,
        -0.07325782,
        -0.019061584,
        0.08615327,
        0.6251911,
        0.17276825,
        0.05604239,
        0.060098562,
        -0.046293963,
        0.23628545,
        -0.021046905,
        -0.20799795,
        -0.17669117,
        0.030655459,
        0.14831305,
        -0.1018099,
        0.109778374,
        -0.32954097,
        -0.23200704,
        -0.28580534,
        -0.017451143,
        0.07664282,
        -0.24061054,
        0.17519026,
        -0.070318855,
        -0.30791587,
        -0.38018373,
        0.080247454,
        0.2677478,
        0.05684373,
        -0.3365234,
        0.29602337,
        0.07910507,
        0.21651722,
        0.41099167,
        -0.02437004,
        -0.12647362,
        -0.07106193,
        -0.406662,
        0.13082585,
        -0.50847644,
        -0.15601166,
        0.011632375,
        0.55721337,
        -0.16693054,
        0.2736409,
        -0.18865955,
        0.19182011,
        -0.15597604,
        -0.15182614,
        0.097535364,
        -0.049780022,
        0.4645611,
        0.35041556,
        -0.25715348,
        0.5446189,
        -0.35831577,
        -0.37172985,
        0.15708789,
        0.12644961,
        -0.13019207,
        0.17132513,
        0.11973583,
        -0.32104382,
        0.050067537,
        -0.3057427,
        0.16315977,
        -0.1870994,
        -0.36418387,
        0.49648637,
        -0.5899777,
        -0.14904791,
        0.1103888,
        0.1378105,
        -0.081221335,
        -0.21136712,
        0.29704762,
        -0.07542961,
        0.38270774,
        0.033023294,
        -0.56052655,
        -0.15499163,
        -0.026054936,
        0.061479773,
        0.30441734,
        0.16668782,
        -0.28431943,
        0.23095322,
        0.07711697,
        -0.064758375,
        0.10688537,
        -0.080214635,
        0.32832688,
        0.011406613,
        0.058232725,
        -0.24169691,
        0.11635144,
        -0.83503515,
        0.014296868,
        0.04403182,
        -0.2436588,
        0.24462545,
        -0.21935153,
        -0.33869195,
        0.12199697,
        0.42416012,
        -0.14432713,
        0.26953024,
        -0.4375937,
        -0.5553786,
        -0.037722554,
        0.22691208,
        0.44891757,
        -0.10789231,
        0.2551176,
        -0.124401435,
        0.07151134,
        -0.08526703,
        0.032652248,
        -0.16519739,
        0.33453226,
        -0.3146413,
        -0.091559745,
        -0.0806721,
        -0.058649287,
        -0.013993032,
        -0.34111103,
        -0.017538434,
        -0.17966768,
        0.06700372,
        -0.011984105,
        0.009646475,
        -0.26560616,
        0.18152279,
        0.7922927,
        0.616961,
        -0.2397968,
        -0.2429813,
        0.25092167,
        -0.13323835,
        -0.24123847,
        0.08519866,
        -0.12597807,
        0.085327476,
        0.15544344,
        -0.14173071,
        -0.0139206415,
        -0.11189305,
        -0.1623839,
        -0.115803204,
        0.14310476,
        0.17520227,
        -0.14778365,
        0.16075125,
        -0.46282908,
        -0.117648736,
        0.08027957,
        -0.1766025,
        -0.3013599,
        0.18590932,
        0.18001127,
        0.28758967,
        -0.27571538,
        -0.06559401,
        0.124198444,
        -0.11162854,
        -0.23980887,
        -0.75635934,
        0.16822703,
        0.19526444,
        0.20039974,
        -0.4629487,
        0.44930172,
        0.016376024,
        0.050503027,
        0.29005158,
        0.054872572,
        0.43940526,
        -0.16641691,
        0.23264195,
        -0.44855568,
        0.5146221,
        0.10967307,
        -0.41218522,
        -0.13352251,
        0.061425768,
        0.2600071,
        -0.041632757,
        -0.08599798,
        0.13903932,
        0.792876,
        0.00740202,
        0.327498,
        0.03033063,
        0.51125836,
        -0.6628444,
        0.7063064,
        0.12701891,
        -0.46111295,
        0.43158975,
        -0.58142537,
        0.047708325,
        -0.6724855,
        -0.2973397,
        -0.15911017,
        -0.021851681,
        -0.5915744,
        0.20879121,
        -0.2980811,
        -0.15362842,
        -0.35080808,
        -0.12679511,
        -0.37693402,
        0.096726246,
        -0.42898425,
        -0.13466877,
        -0.4566806,
        -0.06452894,
        -0.38788834,
        0.40620425,
        0.084322564,
        0.0033062778,
        -0.0749347,
        0.22231098,
        -0.2698279,
        0.09884056,
        -0.17052492,
        0.21046273,
        -0.9239345,
        0.05856324,
        -0.18070276,
        0.03689191,
        0.24857947,
        -0.0064775613,
        0.53355676,
        -0.017244967,
        0.35696542,
        0.7602445,
        -0.15810484,
        0.12200816,
        0.14108329,
        0.073803745,
        0.014469636,
        -0.018978901,
        0.05575477,
        -0.032649703,
        -0.025569841,
        -0.15951018,
        -0.1727658,
        -0.32185414,
        -0.26300493,
        0.32273522,
        0.29601395,
        -0.010879811,
        -0.27111685,
        -0.33897743,
        -0.3006016,
        -0.36565244,
        -0.2851798,
        -0.6881744,
        -0.1587324,
        -0.23136263,
        0.2423964,
        -0.16057421,
        -0.1839836,
        0.31856823,
        -0.24193594,
        0.04281609,
        -0.17685454,
        0.12700829,
        0.46887526,
        -0.1053283,
        0.3633481,
        -0.10757174,
        -0.098772064,
        0.3386227,
        -0.050265204,
        -0.10532185,
        0.07728289,
        0.14333194,
        -0.026596703,
        0.48643088,
        -0.19548354,
        -0.22872558,
        -0.4635921,
        -0.7073577,
        -0.24032548,
        0.13840632,
        -0.11538865,
        0.05271315,
        -0.060734324,
        -0.05172244,
        0.16549502,
        -0.8269283,
        0.0856955,
        0.30296496,
        0.29058796,
        -0.037929486,
        -0.017562306,
        -0.0031288625,
        0.56648517,
        -0.26513106,
        -0.09749519,
        -0.2207303,
        0.19256437,
        -0.30550438,
        -0.46056822,
        0.12285986,
        0.035296872,
        0.66753066,
        -0.11545332,
        0.06885479,
        -0.32874066,
        -0.08280188,
        -0.1515157,
        0.008669423,
        -0.14648525,
        -0.1737324,
        0.03058337,
        -0.4251396,
        -0.27853063,
        0.45834768,
        -0.0035737932,
        -0.3664228,
        0.15436111,
        0.122449525,
        -0.2569172,
        -0.40479887,
        0.38546485,
        0.5885883,
        0.037483256,
        -0.15719229,
        -0.21680951,
        -0.13194674,
        0.5360047,
        -0.33684716,
        0.0063350396,
        0.24052541,
        -0.014979829,
        -0.38756725,
        0.37023547,
        -0.10076593,
        -0.035062697,
        -0.13979746,
        -0.75917935,
        0.0074799447,
        -0.11036136,
        -0.36535603,
        0.13195868,
        0.0076461113,
        0.67396784,
        0.31149474,
        -0.13921951,
        0.13204768,
        -0.65428835,
        0.044261865,
        -0.47529364,
        0.3017017,
        0.10172759,
        0.2038027,
        0.26858237,
        -0.12355951,
        -0.8392844,
        0.693544,
        0.64009273,
        0.008933916,
        0.1779475,
        0.27757436,
        0.2056206,
        -0.32983652,
        0.21221006,
        -0.34303537,
        0.6858764,
        0.21522905,
        0.13094296,
        -0.053482506,
        0.3980736,
        -0.17291401,
        0.030689307,
        0.41880563,
        0.29932776,
        0.40393013,
        -0.21198182,
        -0.14687951,
        -0.21216413,
        0.074057564,
        -0.30217144,
        -0.08461489,
        -0.27840257,
        0.26792008,
        0.24306461,
        0.10224516,
        0.50462705,
        -0.11990043,
        0.031346325,
        0.06699689,
        -0.18877603,
        -0.008345927,
        0.04760195,
        0.38352385,
        -0.00859008,
        0.28702223,
        0.35425273,
        0.031100458,
        0.17531875,
        0.300627,
        0.20535122,
        -0.2501023,
        0.2157969,
        0.14158338,
        -0.105806254,
        0.16001095,
        -0.45999417,
        0.18486133,
        0.12327559,
        0.1835019,
        -0.06587759,
        0.5771705,
        -0.18414901,
        0.07431452,
        0.18074673,
        -0.27032062,
        0.3497681,
        0.19903383,
        -0.3078399,
        0.08834153,
        0.19871368,
        -0.019779634,
        -0.28765795,
        0.016463788,
        -0.20715185,
        -0.25992143,
        -0.22821002,
        0.002687563,
        0.20260823,
        0.23693596,
        0.22982502,
        0.016342815,
        0.070047274,
        -0.12424852,
        0.41799387,
        0.036911696,
        0.37568367,
        -0.007920779,
        0.45634034,
        -0.07416073,
        -0.313819,
        -0.41697076,
        0.27317795,
        0.3853225,
        -0.6965999,
        0.00026980255,
        -0.036286354,
        -0.014361699,
        0.18014054,
        -0.37831292,
        -0.1516362,
        -0.025103752,
        -0.14242354,
        0.07242947,
        0.087175965,
        0.2772531,
        -0.22611594,
        -0.32826552,
        -0.09793278,
        -0.10432964,
        -0.06067531,
        0.09890898,
        -0.28439286,
        -0.30735138,
        -0.20587914,
        -0.13933247,
        0.4561742,
        -0.2175071,
        -0.28997114,
        0.558225,
        -0.21517237,
        -0.053771444,
        0.41223034,
        0.1738014,
        -0.20355517,
        0.2269376,
        -0.49385157,
        -0.10580011,
        -0.056906976,
        0.14558466,
        0.30014575,
        0.42354017,
        0.18576783,
        0.09375319,
        -0.10727419,
        -0.054468956,
        -0.4372231,
        -0.14592896,
        -0.13133784,
        0.015054102,
        0.2782187,
        -0.12486464,
        0.38756937,
        -0.26171318,
        0.43989688,
        -0.17491372,
        -0.19152965,
        -0.22834171,
        0.6349623,
        -0.25282308,
        -0.14430133,
        -0.34464467,
        0.0873768,
        0.21474077,
        -0.09679904,
        0.46792084,
        -0.21085562,
        -0.1466316,
        0.24007237,
        0.3482015,
        -0.48895192,
        0.14999133,
        -0.052197877,
        0.228215,
        -0.18447205,
        0.5260896,
        0.2786325,
        0.4452851,
        0.37137154,
        -0.38208833,
        -0.20161706,
        0.2808004,
        0.06017711,
        0.46529326,
        0.10302446,
        0.06584007,
        -0.109302126,
        0.22017777,
        0.0036584786,
        -0.14742374,
        -0.20667484,
        -0.101909764,
        0.010841971,
        0.1651642,
        -0.2056536,
        0.24765934,
        0.04847993,
        0.21746412,
        0.44760346,
        -0.17603086,
        0.043434437,
        0.18972567,
        -0.17525662,
        0.35953376,
        0.47129488,
        0.2391675,
        0.20243925,
        0.31696826,
        -0.115324415,
        -0.3346904,
        0.14500871,
        -0.15161987,
        -0.23006201,
        0.10487528,
        0.23231849,
        0.17228079,
        -0.04098612,
        0.3326461,
        0.09197971,
        -0.25589782,
        -0.15148512,
        0.2286147,
        0.09747407,
        0.41918272,
        0.15895793,
        0.16701625,
        -0.04763471,
        -0.101498865,
        -0.0011637246,
        -0.19696277,
        -0.5340213,
        -0.20630597,
        0.10202144,
        0.14262468,
        -0.06682047,
        0.12692188,
        -0.16893338,
        -0.15982364,
        -0.24778135,
        -0.15902954,
        0.14915301,
        -0.10972626,
        0.004804661,
        -0.20927587,
        0.09512809,
        -0.3023288,
        -0.42482728,
        -0.7244555,
        -0.4194582,
        -0.17010568,
        -0.24747479,
        0.043229215,
        0.1905286,
        -0.12928538,
        -0.13148099,
        -0.43718877,
        -0.60681903,
        0.376335,
        -0.13430715,
        -0.17431699,
        -0.42829558,
        0.21942441,
        -0.1653758,
        -0.110838905,
        0.11417771,
        0.0051922644,
        0.052064095,
        -0.26907605,
        -0.33631113,
        -0.04949855,
        -0.18173501,
        -0.03391821,
        0.41572013,
        0.7025634,
        0.0488689,
        -0.2951537,
        0.30954206,
        0.40849403,
        0.28652,
        0.10492324,
        0.060620848,
        0.07667956,
        -0.07636338,
        0.0969206,
        -0.23918429,
        0.02635183,
        0.16575663,
        0.25885987,
        0.20915696,
        0.034892555,
        0.26044282,
        0.39438084,
        0.34535536,
        -0.06737583,
        0.4795865,
        0.44704127,
        -0.18106751,
        0.0028878334,
        0.12740777,
        0.099537514,
        -0.08769271,
        -0.14781728,
        0.08487912,
        -0.39587784,
        -0.3328404,
        0.048935466,
        0.03086415,
        -0.39153194,
        0.048953947,
        -0.12026645,
        0.28111985,
        -0.072744,
        -0.13102622,
        0.3890526,
        -0.13890427,
        -0.054542303,
        0.095107496,
        -0.053752042,
        -0.20005493,
        0.0043098414,
        -0.30320913,
        -0.34603786,
        0.081931494,
        -0.16206327,
        0.16482003,
        -0.2932995,
        0.16666533,
        0.2692802,
        -0.1651103,
        -0.084069714,
        -0.29157344,
        0.20401299,
        -0.3265135,
        0.050125934,
        0.012301275,
        0.29765326,
        0.45739278,
        -0.33820096,
        -0.11872684,
        -0.04678006,
        0.1294205,
        -0.052315008,
        0.21380885,
        -0.34357142,
        0.032320004,
        0.011295504,
        -0.22496858,
        -0.35756364,
        0.10857476,
        0.05742564,
        -0.066402406,
        -0.17802492,
        0.18325059,
        0.15164013,
        -0.14343855,
        -0.28378817,
        -0.11018988,
        -0.29245472,
        0.2919303,
        -0.33436587,
        0.28708377,
        0.001665044,
        0.10143096,
        0.24475418,
        -0.6217271,
        0.21168004,
        0.6614405,
        0.20356259,
        -0.60632294,
        0.16614817,
        -0.40680227,
        0.11486015,
        0.4004599,
        -0.08563949,
        -0.090715,
        -0.25647837,
        -0.114928335,
        0.01640952,
        0.10865395,
        0.116435625,
        0.3050592,
        0.07478626,
        0.36858296,
        0.2651475,
        0.0468329,
        -0.38789627,
        -0.10356694,
        0.36075246,
        -0.4379081,
        -0.20628671,
        -0.062631495,
        -0.7277061,
        -0.021685747,
        -0.5286868,
        0.07579131,
        0.5798442,
        0.0020266916,
        0.15273722,
        -0.14483388,
        -0.15549259,
        -0.49184188,
        0.015567605,
        0.25678518,
        -0.21786545,
        -0.32181373,
        0.22346695,
        0.10020757,
        -0.31021315,
        -0.52714896,
        -0.26076022,
        -0.308276,
        0.3772316,
        0.4042556,
        -0.051462658,
        -0.29347447,
        -0.18895935,
        -0.24768437,
        -0.25567538,
        0.21701598,
        -0.24071647,
        0.323864,
        0.4041324,
        0.25914112,
        -0.531777,
        -0.68458045,
        -0.06211511,
        -0.3383385,
        -0.14540988,
        0.006396005,
        -0.4352125,
        -0.22637887,
        0.030378338,
        -0.6971638,
        -0.5167877,
        -0.22890237,
        -0.007376942,
        -0.2471875,
        0.26253524,
        -0.18937244,
        0.0045667803,
        0.14911439,
        0.099188656,
        0.027117899,
        0.487634,
        0.12679264,
        0.020241236,
        0.19016464,
        -0.39295772,
        0.17056134,
        0.4370914,
        -0.16875967,
        0.40581304,
        -0.36937505,
        0.09980881,
        -0.015952582,
        -0.08065603,
        -0.067713164,
        -0.025609652,
        0.05533829,
        0.22206174,
        0.30935192,
        -0.3668966,
        -0.15145749,
        -0.21204711,
        0.57973766,
        0.46376702,
        0.03117758,
        -0.28884655,
        -0.21632475,
        -0.22165565,
        0.07387821,
        -0.31304288,
        -0.09985166,
        -0.2882185,
        -0.09779327,
        -0.06864583,
        -0.11187157,
        0.012578778,
        0.05483318,
        -0.04161098,
        -0.27802995,
        0.19898014,
        0.3039221,
        0.09431391,
        0.6340638,
        -0.12497838,
        -0.13277084,
        -0.3673841,
        -0.0013425212,
        0.116626576,
        -0.11495719,
        -0.11340772,
        0.17086364,
        0.28670904,
        -0.19840737,
        0.21428764,
        0.38069457,
        0.2452969,
        0.22411653,
        -0.13721019,
        -0.1279282,
        -0.22915162,
        0.2295708,
        0.027680764,
        -0.6284744,
        -0.18661521,
        -0.09226054,
        0.06562142,
        -0.098852225,
        0.038946845,
        -0.22002284,
        -0.060160488,
        0.32854125,
        -0.658941,
        0.10390714,
        0.50315803,
        -0.035601176,
        -0.15019463,
        0.65296215,
        -0.29741335,
        0.23395145,
        -0.20795761,
        0.16609411,
        -0.010042994,
        -0.08418778,
        -0.5180827,
        -0.182923,
        -0.30772197,
        0.2785743,
        -0.35650864,
        -0.44105253,
        -0.09896147,
        -0.27657756,
        -0.2873322,
        -0.38144708,
        0.22137292,
        -0.077253744,
        0.12019991,
        0.50150937,
        -0.15009469,
        0.4156279,
        0.08410649,
        0.24591638,
        0.31564006,
        -0.5597887,
        0.012914608,
        -0.42839074,
        0.17880929,
        -0.48023143,
        0.20970574,
        -0.32928932,
        -0.30947688,
        -0.23035848,
        0.50890994,
        0.051049635,
        0.24781734,
        0.13404198,
        -0.24825709,
        -0.0016186304,
        0.1584406,
        0.2476792,
        -0.43668383,
        0.37166348,
        0.19937612,
        -0.5604694,
        -0.20306133,
        -0.41178444,
        -0.00010442684,
        -0.1046595,
        0.13462868,
        0.09251909,
        0.49831733,
        -0.42067596,
        0.30345145,
        0.3063919,
        0.05961586,
        0.6166647,
        -0.24360336,
        -0.16373919,
        -0.024250261,
        -0.21416323,
        -0.27768892,
        -0.9452265,
        0.31372434,
        0.062464673,
        0.44467813,
        0.42772466,
        -0.19376124,
        -0.21219203,
        0.29892182,
        -0.2507898,
        0.13869727,
        0.07530789,
        0.15434082,
        0.20498025,
        -0.5123986,
        -0.15959641,
        -0.21126784,
        0.721469,
        0.031329654,
        0.02408745,
        0.0833402,
        0.019341806,
        -0.26389116,
        -0.18959422,
        0.1198234,
        0.016334005,
        -0.21062644,
        0.3011232,
        -0.06321589,
        -0.016801022,
        -0.01899051,
        -0.15653941,
        -0.06770049,
        -0.60057026,
        -0.13754901,
        0.13280775,
        -0.57656753,
        -0.031047821,
        -0.0013360648,
        0.39861256,
        -0.26639313,
        -0.11696498,
        0.22734267,
        -0.580556,
        0.34827304,
        -0.029795816,
        -0.025032178,
        -0.2795825,
        0.4670878,
        -0.42340016,
        0.5073884,
        -0.20461912,
        -0.33693397,
        -0.34132522,
        0.047446664,
        -0.12619615,
        0.30079117,
        -0.13249399,
        -0.10006309,
        0.14526121,
        0.08781988,
        0.04104569,
        0.10243292,
        -0.0460946,
        -0.21660252,
        0.5252017,
        -0.15172857,
        -0.17740381,
        0.25270382,
        0.1440902,
        -0.18622352,
        -0.25725967,
        -0.34705293,
        -0.2182404,
        0.18105958,
        -0.58742267,
        -0.20078254,
        0.4364272,
        -0.42604282,
        -0.35182178,
        0.1677688,
        -0.04607538,
        0.22939807,
        -0.031052062,
        -0.31069282,
        0.35520834,
        0.007468466,
        -0.23195466,
        -0.10366825,
        0.2841787,
        -0.23590301,
        0.2682736,
        0.5597257,
        0.33439392,
        -0.2514584,
        0.39859405,
        0.25507444,
        -0.080544986,
        -0.031121036,
        -0.23435737,
        -0.03362959,
        0.099427566,
        0.45984143,
        -0.5081817,
        0.3830979,
        0.19800578,
        -0.21827869,
        0.13011059,
        -0.02367073,
        -0.22470888,
        0.06827021,
        0.23425996,
        -0.29481018,
        -0.16301379,
        0.3536744,
        0.06468739,
        -0.36300606,
        -0.16300222,
        -0.04179373,
        0.15987387,
        0.14100991,
        -0.27938306,
        0.07009936,
        0.356033,
        -0.20539987,
        -0.02579295,
        -0.25928763,
        -0.061903577,
        0.023641737,
        0.28782,
        0.44249663,
        0.1978185,
        -0.09391365,
        0.25119793,
        -0.11214926,
        -0.20854694,
        0.09359731,
        0.08639921,
        0.9963621,
        0.05617802,
        -0.11356354,
        -0.15906316,
        0.06756256,
        0.29521504,
        -0.26668355,
        -0.35746872,
        -0.2652637,
        -0.28738993,
        0.11961875,
        -0.064098634,
        0.34108996,
        -0.18196826,
        -0.28376248,
        0.51213527,
        -0.080177315,
        -0.21942192,
        0.28309405,
        -0.1609594,
        -0.082096405,
        0.40994292,
        0.3039898,
        -0.3732617,
        0.13370275,
        0.21159191,
        0.004306344,
        0.63432074,
        -0.74955064,
        -0.36767456,
        -0.19546932,
        -0.19331719,
        0.30895334,
        0.10933192,
        -0.02212289,
        -0.06432255,
        0.033996753,
        0.04887009,
        -0.1360113,
        -0.29204637,
        0.11710192,
        0.29415232,
        -0.054329753,
        0.25032008,
        0.40078664,
        0.09628285,
        0.25152424,
        0.024519738,
        -0.048086863,
        -0.21192956,
        -0.17392172,
        -0.65367234,
        -0.14847748,
        -0.088100456,
        0.5876766,
        -0.37515134,
        -0.0095988475,
        -0.20605832,
        -0.23494723,
        -0.53529155,
        -0.0059634587,
        0.09254572,
        -0.20359091,
        -0.038042158,
        0.02274679,
        -0.23919088,
        0.27932867,
        -0.16551581,
        -0.3160911,
        0.20851323,
        0.13143633,
        0.31448454,
        0.09415155,
        -0.07185591,
        -0.28391913,
        -0.27041912,
        -0.38795704,
        -0.14751327,
        0.098079264,
        -0.0027819413,
        -0.0937024,
        -0.2116063,
        -0.14486964,
        0.3615515,
        -0.16735679,
        0.21380152,
        0.18454333,
        0.031747214,
        -0.33546132,
        -0.29737183,
        0.44978926,
        -0.75318223,
        0.31943876,
        0.3197865,
        0.19351107,
        0.08447856,
        -0.2896857,
        0.69108415,
        -0.2930817,
        -0.12035281,
        -0.019556867,
        0.62353325,
        -0.15304665,
        0.15685177,
        -0.15450571,
        0.12435303,
        -0.44106337,
        -0.48399007,
        0.21517476,
        0.13088913,
        0.07074909,
        0.05426283,
        0.2787697,
        -0.2123069,
        -0.17116453,
        -0.1265372,
        0.30364946,
        0.35227096,
        0.07070299,
        -0.040484447,
        0.11435087,
        0.11519901,
        0.40341255,
        0.2523577,
        0.07922287,
        -0.14308248,
        -0.21298659,
        0.21322252,
        -0.047832597,
        -0.055801746,
        -0.037201297,
        0.5694269,
        -0.063623846,
        -0.058072113,
        0.15229364,
        -0.04655085,
        0.11059746,
        0.14545885,
        -0.13796674,
        0.25290093,
        -0.13934283,
        -0.08312573,
        0.062750824,
        -0.049601182,
        0.24661876,
        0.12011759,
        -0.18737702,
        -0.16378991,
        0.1879892,
        -0.060341947,
        0.42291525,
        -0.11409695,
        0.3122588,
        0.3680279,
        -0.23234963,
        0.26897383,
        0.013088076,
        -0.15594304,
        0.5208749,
        -0.26766217,
        0.16748147,
        0.06757497,
        -0.30028298,
        0.16513593,
        0.38871816,
        0.24496333,
        0.1365794,
        0.124061815,
        0.26595017,
        -0.37110496,
        0.06970584,
        -0.021719242,
        0.050969277,
        -0.038841076,
        0.12797225,
        -0.28763613,
        0.40604025,
        0.016920345,
        0.26095304,
        -0.10031837,
        0.20620619,
        0.09840016,
        0.20988145,
        0.18365642,
        -0.087710634,
        -0.0572198,
        0.33856168,
        -0.13670473,
        0.30922943,
        -0.06966028,
        -0.48284242,
        0.10844431,
        0.23616247,
        -0.3532837,
        -0.009194069,
        -0.18958722,
        0.060076304,
        -0.3682896,
        -0.026527565,
        -0.14446194,
        -0.4621884,
        -0.16027498,
        0.4188168,
        -0.46397874,
        -0.0489977,
        -0.118775815,
        0.0072377217,
        -0.054206688,
        -0.3087024,
        0.16881211,
        0.033326346,
        -0.018529914,
        0.009991108,
        -0.26698643,
        0.29714715,
        -0.441895,
        -0.10426316,
        -0.066061564,
        0.07212973,
        -0.29269016,
        0.22018008,
        -0.076975234,
        0.05419803,
        0.09686746,
        0.32669994,
        0.34984198,
        0.034173295,
        0.03251801,
        -0.114100665,
        0.08159825,
        -0.556101,
        0.25998253,
        -0.15092188,
        0.30737546,
        0.29063913,
        0.32669815,
        0.60067576,
        0.2674477,
        -0.099255726,
        -0.5574474,
        0.03262634,
        0.004740264,
        -0.18761821,
        0.37170982,
        -0.29386237,
        -0.36018538,
        0.0015827294,
        0.24308158,
        -0.13668863,
        -0.25636584,
        0.34325692,
        -0.2710749,
        -0.050346665,
        -0.18852736,
        0.08661707,
        -0.28418767,
        0.5744391,
        0.032911085,
        0.3255999,
        -0.095555104,
        -0.49613807,
        -0.0026087246,
        -0.0891946,
        0.16861592,
        0.107091345,
        0.16493884,
        0.031520296,
        0.011571136,
        0.046051785,
        0.12535425,
        0.11084025,
        -0.029668353,
        0.051826045,
        0.5494385,
        0.1069724,
        0.21408999,
        0.009690862,
        -0.2316293,
        0.26367098,
        0.13324334,
        -0.0027458987,
        0.32827672,
        0.3226856,
        -0.14815205,
        0.1128086,
        0.03167008,
        -0.20619772,
        0.3898745,
        -0.035111643,
        0.21717285,
        0.722805,
        0.15091407,
        -0.29390192,
        0.010991928,
        0.0501584,
        0.16417478,
        0.5045506,
        0.27150434,
        0.24087487,
        -0.16100585,
        0.3042869,
        0.37067366,
        0.023064902,
        0.013537145,
        0.10158418,
        0.4622006,
        0.034510486,
        -0.12937786,
        0.084340155,
        -0.006489139,
        -0.011215967,
        0.6230635,
        -0.2434093,
        -0.027232619,
        0.10647326,
        0.35609907,
        0.51661426,
        0.122206755,
        0.024215147,
        0.5826812,
        -0.15447864,
        0.010310444,
        -0.009284198,
        -0.6939713,
        0.39735827,
        -0.4362295,
        -0.7053017,
        0.26184157,
        -0.17296502,
        0.16806561,
        0.12961844,
        -0.1564507,
        -0.42254063,
        -0.4179325,
        -0.11211658,
        -0.2643204,
        0.11684657,
        -0.24593574,
        0.44233942,
        -0.1444157,
        0.0042446572,
        -0.21470639,
        -0.06672407,
        0.19657235,
        0.38666344,
        -0.13558498,
        0.069499426,
        0.19992188,
        -0.67560804,
        0.08679773,
        0.17105196,
        0.25164744,
        0.38356912,
        0.0022043413,
        0.08145602,
        -0.030488113,
        -0.6147731,
        0.5189031,
        -0.4617256,
        0.143524,
        0.0072744573,
        -0.31063417,
        -0.46335953,
        0.17907204,
        -0.16896671,
        0.020859959,
