{
  "name": "model",
  "parameter_count": 14580,
  "layers": [
    {
      "layer_type": "Linear",
      "name": "Input",
      "index": 0,
      "weights": [
        0.052684385,
        -0.0026540668,
        -0.055622365,
        -0.100079514,
        -0.05765491,
        0.06990016,
        0.050658938,
        -0.08424873,
        -0.2338181,
        0.12985192,
        0.11913945,
        -0.10022304,
        0.30256805,
        0.14355092,
        0.08866435,
        0.19019979,
        -0.107520185,
        -0.07338007,
        -0.041499663,
        -0.026871616,
        -0.03030516,
        0.0030991242,
        -0.047917403,
        0.12895994,
        -0.116677344,
        0.14476241,
        0.09209676,
        -0.5071653,
        0.028185066,
        -0.11910122,
        -0.057084803,
        0.1496928,
        0.079720534,
        -0.17997772,
        0.20884554,
        0.03815559,
        0.04128581,
        -0.1794883,
        -0.08835032,
        0.20121658,
        0.08950501,
        -0.09980551,
        0.42578927,
        -0.31759197,
        0.16278447,
        0.06881383,
        -0.049115952,
        -0.15001467,
        0.07679266,
        -0.268376,
        0.18447545,
        0.07442781,
        0.18136708,
        0.10823644,
        -0.12366079,
        0.023042435,
        0.017058952,
        0.0054986905,
        0.14275928,
        0.16914098,
        -0.11468619,
        0.06677719,
        0.19155487,
        -0.2363711,
        0.14350931,
        0.045506656,
        0.25063667,
        -0.10744486,
        0.011933135,
        0.05769553,
        -0.21104074,
        0.32141134,
        -0.05085571,
        0.35715026,
        0.30898732,
        0.13806777,
        0.11043955,
        -0.11486837,
        -0.020487003,
        0.16243581,
        -0.12291985,
        0.14162667,
        0.25073853,
        0.21037202,
        -0.13075927,
        -0.24649973,
        -0.25816697,
        0.005118458,
        -0.37129727,
        -0.22262149,
        0.28057784,
        0.40430027,
        0.019492859,
        -0.029215032,
        0.30239096,
        -0.059852462,
        -0.059807196,
        0.26384887,
        0.3661568,
        0.18069395,
        0.34676978,
        0.20942418,
        0.07522246,
        0.14541042,
        0.14177486,
        -0.22960153,
        0.05362549,
        -0.14166805,
        0.0018355382,
        0.101082616,
        -0.32593378,
        -0.109256245,
        -0.2842426,
        -0.20436376,
        -0.1591395,
        -0.04585955,
        0.13328268,
        0.0018944805,
        -0.22562638,
        -0.08341392,
        -0.0038736097,
        0.2507337,
        0.25189683,
        -0.042119667,
        0.27560264,
        -0.065305606,
        0.15903021,
        0.00061985175,
        -0.014174307,
        -0.039800636,
        -0.09619466,
        0.057614654,
        -0.22710174,
        0.1465666,
        0.045809764,
        -0.081467666,
        -0.21607153,
        0.15216735,
        -0.042965557,
        -0.07151961,
        -0.07606027,
        0.09652442,
        -0.35983887,
        0.06319516,
        -0.08244491,
        0.088388905,
        -0.18126729,
        0.18853267,
        -0.12050819,
        0.14370745,
        0.03787089,
        0.06311056,
        0.13006005,
        0.1007063,
        -0.2520099,
        0.28658807,
        0.0103107765,
        -0.15202506,
        -0.12880173,
        0.05904499,
        0.115002915,
        -0.023351029,
        0.027290214,
        -0.0078416,
        -0.060007166,
        -0.026649002,
        -0.042549662,
        -0.16084597,
        0.10030106,
        0.066154726,
        -0.034186695,
        0.12000889,
        0.012931264,
        0.14357919,
        0.107827164,
        -0.0576499,
        -0.11316901,
        -0.058906496,
        0.10574995,
        0.0891015,
        0.049706172,
        0.0010399283,
        -0.114490055,
        0.11303444,
        -0.10327511,
        0.09316721,
        0.07026062,
        0.119234085,
        -0.17349444,
        0.11746306,
        0.11375829,
        0.036016632,
        0.075246766,
        -0.020891039,
        0.20009588,
        -0.054155808,
        0.07469801,
        -0.046254728,
        -0.19306988,
        -0.01459394,
        0.012123151,
        -0.05467132,
        0.12247073,
        -0.06614174,
        0.08235547,
        0.0073635494,
        0.023201885,
        -0.14488563,
        0.087098785,
        -0.13049787,
        0.033552565,
        0.010969234,
        0.18806681,
        0.11634766,
        -0.0710787,
        0.09341158,
        0.048303578,
        0.12198881,
        -0.043603506,
        -0.10078196,
        -0.13493457,
        -0.04637889,
        -0.028385077,
        -0.014780479,
        0.09343487,
        0.10491395,
        0.04507481,
        -0.09208756,
        0.26163173,
        -0.20283169,
        -0.08122573,
        0.0050209123,
        0.048563108,
        -0.13365775,
        0.03709598,
        0.10895191,
        0.017479403,
        -0.07270019,
        0.2054611,
        -0.05478269,
        -0.14953181,
        -0.015968302,
        0.06305535,
        0.070777066,
        0.04878279,
        0.013308367,
        0.028581709,
        -0.12058303,
        -0.019255172,
        0.09438462,
        0.057696655,
        -0.022699337,
        -0.1366306,
        -0.33598727,
        -0.10669803,
        -0.09216135,
        -0.004911116,
        -0.036560595,
        0.08000676,
        0.30878785,
        0.0412045,
        -0.013601922,
        -0.10152242,
        -0.007751507,
        -0.046078958,
        0.20830806,
        0.045081917,
        0.35086122,
        -0.13998188,
        0.07521645,
        0.11273397,
        -0.15649718,
        0.012510203,
        0.1798094,
        -0.011097955,
        -0.021156542,
        -0.10892098,
        0.01945522,
        -0.1995046,
        -0.06385004,
        0.016261948,
        0.20096967,
        -0.12768501,
        -0.08494201,
        0.17035513,
        -0.1497735,
        -0.010057924,
        -0.111209944,
        -0.07263415,
        -0.13482834,
        0.2628605,
        -0.30597684,
        -0.052700445,
        -0.20619912,
        0.05813169,
        -0.14659643,
        -0.07589895,
        -0.108626224,
        -0.03901616,
        -0.29242054,
        0.08226176,
        -0.12891552,
        0.17807451,
        0.00041010222,
        0.027471945,
        0.0036072016,
        0.22648829,
        0.03330935,
        0.26779574,
        -0.017383706,
        0.46482348,
        -0.1651478,
        -0.12454805,
        0.17765327,
        0.045004006,
        0.013946241,
        0.123100005,
        -0.15937018,
        -0.0029542248,
        0.124181345,
        0.067446284,
        0.04425397,
        -0.033925682,
        0.04265202,
        -0.12801917,
        -0.011769831,
        0.06446414,
        -0.25928587,
        0.16538645,
        -0.114998184,
        -0.054484412,
        0.37043306,
        -0.09742954,
        0.15599032,
        0.07948371,
        0.10393932,
        0.12871586,
        0.18820825,
        -0.022602202,
        0.07610788,
        -0.016737713,
        -0.108916566,
        0.22958797,
        -0.095107056,
        -0.048441246,
        0.070570454,
        -0.2029765,
        -0.008099595,
        -0.2296787,
        0.20757169,
        -0.04426242,
        0.1693673,
        0.10549815,
        0.12150534,
        0.15434556,
        0.09654093,
        0.13687883,
        -0.08385069,
        -0.22286324,
        0.060483556,
        -0.11515583,
        -0.0525451,
        0.14525421,
        0.21578974,
        -0.1411452,
        -0.21845052,
        -0.18257244,
        -0.18340442,
        0.12664577,
        0.047043413,
        -0.0025823168,
        0.083358034,
        -0.046708457,
        -0.28143653,
        0.048113164,
        -0.051436685,
        -0.17625389,
        -0.20036985,
        0.2099182,
        0.30843237,
        0.1744976,
        0.0026401044,
        -0.13639739,
        0.1707309,
        -0.30731654,
        -0.12871204,
        0.08217865,
        -0.13204356,
        0.08172942,
        -0.14479117,
        -0.19088799,
        0.28906175,
        -0.073284045,
        -0.15933062,
        -0.19756849,
        -0.09017556,
        0.15330605,
        -0.18143559,
        -0.21252093,
        0.09167554,
        -0.1524408,
        0.08301086,
        -0.19301568,
        0.10677394,
        0.24443702,
        -0.030480443,
        0.08914383,
        0.018342635,
        -0.102042764,
        -0.026680313,
        -0.40204716,
        0.011543559,
        -0.012204198,
        -0.009762869,
        -0.046912607,
        0.009967945,
        0.08973175,
        -0.14810877,
        0.094529934,
        0.18063393,
        -0.08871392,
        0.2589045,
        0.05555486,
        -0.30188358,
        0.015242407,
        -0.27855238,
        0.0025913499,
        -0.08832767,
        -0.027339777,
        -0.009985257,
        -0.02032485,
        -0.06053519,
        0.10741419,
        0.007872301,
        0.05497549,
        0.015193614,
        0.06761611,
        0.20909587,
        -0.06447791,
        0.20030506,
        0.11989465,
        -0.2550314,
        0.04865042,
        -0.22018354,
        -0.038612686,
        -0.24223678,
        -0.084879905,
        0.31622285,
        0.2094191,
        -0.25320143,
        -0.12550071,
        0.051241625,
        0.09706335,
        -0.021258162,
        -0.12035473,
        -0.014610317,
        0.39650354,
        0.3125059,
        -0.024621477,
        0.17033184,
        -0.006323938,
        -0.10111759,
        -0.22409938,
        0.08658998,
        0.02460329,
        0.065740965,
        -0.137879,
        -0.11786874,
        -0.010271578,
        0.106991865,
        -0.17477864,
        0.2101814,
        0.19951169,
        -0.22643861,
        -0.115662664,
        0.20412362,
        -0.04112793,
        -0.046984114,
        0.3000387,
        -0.13069746,
        0.031592973,
        0.06819118,
        -0.15669538,
        0.022137476,
        0.20262338,
        -0.05978613,
        0.16901805,
        0.08947627,
        0.037364613,
        0.058682553,
        -0.20324332,
        0.04215291,
        -0.1343666,
        0.025684308,
        0.11303056,
        -0.16227235,
        -0.0613336,
        -0.16493873,
        -0.4088337,
        -0.14962058,
        0.1996892,
        -0.116977446,
        0.18719408,
        -0.0688836,
        0.25973752,
        -0.0361196,
        0.27197048,
        0.20418239,
        -0.24020088,
        -0.07074553,
        0.0055999,
        0.12276918,
        0.08907755,
        0.27656537,
        -0.114692815,
        0.19971402,
        -0.21572322,
        -0.12222961,
        0.043447137,
        0.171606,
        0.12559845,
        -0.006217617,
        -0.10261878,
        -0.006461872,
        -0.10838816,
        0.1989042,
        0.07361053,
        0.060202878,
        0.04934506,
        0.105332114,
        -0.059553154,
        0.19822422,
        -0.015985793,
        -0.15194461,
        -0.32234457,
        -0.030204408,
        -0.118439496,
        -0.24011366,
        0.005290877,
        -0.058028966,
        -0.08115118,
        0.08856267,
        0.004786916,
        -0.0075819483,
        -0.106015295,
        -0.02963366,
        -0.091937795,
        0.06891425,
        -0.018075982,
        0.141086,
        -0.05991613,
        -0.14830822,
        -0.021854313,
        -0.13283972,
        -0.08735853,
        -0.03556071,
        -0.14448866,
        -0.092918806,
        -0.19348592,
        0.23378226,
        -0.02199026,
        -0.14394154,
        -0.10385586,
        0.18279752,
        -0.13448106,
        -0.08884578,
        -0.080250725,
        0.0029623494,
        -0.052606635,
        -0.007530592,
        0.051771652,
        -0.05442229,
        0.07396178,
        0.45844862,
        0.25863564,
        0.15591072,
        0.09632482,
        0.037734628,
        0.07782873,
        -0.0891222,
        0.11193782,
        0.100177035,
        0.23137575,
        0.13110603,
        -0.13535617,
        -0.14823496,
        0.011661201,
        0.115034856,
        -0.054790128,
        0.0425101,
        -0.10052897,
        0.21084915,
        0.11670316,
        -0.11208787,
        0.22072628,
        -0.005848774,
        -0.15573694,
        0.23845765,
        -0.2636481,
        0.1397682,
        -0.104340725,
        -0.18580927,
        0.11758206,
        0.018174667,
        -0.032271408,
        0.13719954,
        -0.03185056,
        -0.08860133,
        0.034530364,
        0.03420524,
        -0.09548848,
        -0.092640385,
        -0.34494612,
        0.02566435,
        -0.11274587,
        0.14109173,
        0.2806212,
        -0.1893412,
        0.19098614,
        -0.14929122,
        0.04140112,
        0.23473704,
        -0.079955004,
        -0.022660406,
        -0.16200092,
        0.13619353,
        0.08268366,
        0.30097207,
        0.15223473,
        0.2121413,
        0.10371109,
        -0.20815936,
        -0.067205384,
        0.33275717,
        -0.5001947,
        0.16594188,
        0.0050716037,
        -0.017343998,
        0.13614726,
        0.23089153,
        -0.19812863,
        -0.08923354,
        -0.051246624,
        -0.12549148,
        -0.08506549,
        -0.08439004,
        -0.14799324,
        0.2625819,
        -0.112033546,
        0.08607412,
        0.0023980453,
        -0.07679803,
        0.025716074,
        0.0016549485,
        0.326268,
        0.047652848,
        0.054015532,
        0.024547802,
        -0.01381872,
        0.01993103,
        0.0308162,
        0.23701791,
        0.012375299,
        0.12948957,
        -0.12580648,
        -0.21635585,
        -0.23836718,
        -0.19251792,
        -0.15032196,
        0.005123996,
        0.09761572,
        -0.026192991,
        -0.10117968,
        0.21858507,
        0.2697255,
        0.20344631,
        0.09326069,
        0.035772704,
        0.07916224,
        0.2295163,
        0.10596373,
        -0.0010453282,
        0.053395756,
        -0.1461203,
        0.07598542,
        -0.054997925,
        0.12871511,
        -0.0061855884,
        0.0021414356,
        0.11380506,
        0.043453384,
        0.19734527,
        0.16216606,
        -0.37124175,
        0.04033106,
        0.18681473,
        -0.08367744,
        -0.039622467,
        0.10537164,
        0.021482067,
        0.08259131,
        -0.15936457,
        -0.05884516,
        -0.117375515,
        0.15752965,
        0.102939114,
        0.04099961,
        0.03458899,
        0.061870016,
        -0.015626036,
        -0.027082454,
        0.07673995,
        0.1385544,
        -0.07306241,
        -0.038440377,
        -0.07383685,
        -0.24566163,
        -0.008810507,
        -0.009091246,
        0.067788176,
        0.15687735,
        -0.2502263,
        0.092168815,
        -0.07374963,
        0.14880443,
        -0.07200986,
        -0.03965169,
        -0.17531341,
        0.164295,
        0.18698572,
        0.07529946,
        0.0539745,
        0.019705769,
        -0.046016686,
        0.11176755,
        0.11563882,
        -0.15275909,
        0.10136754,
        -0.1932168,
        -0.2045608,
        -0.032980505,
        0.054043137,
        -0.16046266,
        0.11086534,
        -0.022072528,
        0.10238342,
        -0.06557321,
        -0.15767604,
        -0.15592867,
        0.16000259,
        -0.058613647,
        -0.041118633,
        0.08874138,
        -0.030716041,
        -0.004160757,
        -0.037624124,
        0.13165675,
        0.013047453,
        -0.1458334,
        0.039422717,
        -0.1304258,
        -0.14474207,
        -0.11521327,
        0.062266253,
        -0.078864254,
        0.100924574,
        -0.10806928,
        -0.04953046,
        -0.09015754,
        0.029495705,
        -0.07687665,
        0.00031823723,
        0.24261282,
        -0.00793032,
        -0.15277126,
        0.1284762,
        -0.119304165,
        -0.05513382,
        0.14535916,
        -0.021553734,
        -0.058422826,
        0.10705011,
        0.26629624,
        0.26674137,
        0.35289624,
        -0.07842636,
        0.061950173,
        0.21691896,
        -0.0498209,
        -0.14139298,
        0.08001244,
        0.30161816,
        -0.08325632,
        0.028075505,
        -0.2374465,
        -0.0443109,
        0.15337321,
        0.13981876,
        -0.022576407,
        -0.05100109,
        0.14913867,
        0.060541082,
        0.24729235,
        0.00451041,
        0.17096792,
        0.0029264176,
        0.13276902,
        0.04167081,
        0.022201853,
        -0.032397673,
        0.10703792,
        -0.061093736,
        0.21087036,
        0.062141273,
        -0.11504818,
        0.16922645,
        0.26518023,
        0.15960631,
        0.14696234,
        0.031251755,
        -0.02332791,
        0.09409354,
        -0.034148183,
        0.15355745,
        0.075250685,
        -0.08766764,
        -0.095265105,
        0.029010002,
        0.1383706,
        0.12833524,
        0.07311642,
        0.1731466,
        0.033884816,
        -0.06176613,
        -0.26883045,
        -0.031445388,
        0.09827453,
        0.033763707,
        -0.21116872,
        -0.08631387,
        0.04024622,
        0.19448818,
        0.46117327,
        0.040129248,
        -0.11958045,
        0.14124267,
        0.04670025,
        0.18604554,
        0.042430885,
        0.008114162,
        -0.25675702,
        0.04731099,
        -0.050425697,
        -0.048498105,
        0.04539305,
        0.28321344,
        -0.100829385,
        0.045015197,
        -0.032488544,
        0.0015857599,
        -0.09146882,
        0.26691762,
        0.036112107,
        -0.2535949,
        -0.038287833,
        0.014858966,
        -0.07852584,
        -0.20863804,
        -0.123013966,
        -0.05070696,
        0.061085146,
        0.052567307,
        -0.1528286,
        -0.1437456,
        -0.043653764,
        0.18654115,
        0.06649375,
        0.06966874,
        0.014662989,
        0.114430904,
        0.025654053,
        -0.064084455,
        -0.10976177,
        0.14240883,
        -0.2620249,
        0.1180205,
        -0.009680454,
        -0.093107894,
        0.11421531,
        -0.12478762,
        -0.044154983,
        -0.00096992985,
        -0.00850468,
        -0.026410745,
        -0.23880021,
        -0.07721865,
        -0.12765624,
        -0.13179125,
        -0.15739948,
        -0.02510411,
        0.09135637,
        0.22084396,
        -0.12800716,
        -0.149544,
        -0.095009185,
        -0.0017550405,
        -0.123368755,
        -0.082474165,
        -0.2279895,
        0.29992193,
        -0.092872195,
        -0.2640104,
        -0.3564643,
        0.16702381,
        -0.13080752,
        -0.05604193,
        -0.00086840027,
        -0.07438623,
        -0.10789487,
        -0.27533242,
        -0.22102393,
        -0.06901488,
        0.121609226,
        0.084735684,
        -0.050333574,
        0.09255596,
        -0.07361623,
        -0.066383,
        -0.048389185,
        0.11384697,
        -0.051962636,
        0.025395766,
        -0.21468733,
        0.24087535,
        -0.08135754,
        0.00094492815,
        0.05390121,
        0.15279973,
        0.4162853,
        -0.07278068,
        0.2855521,
        0.086493105,
        -0.095187224,
        -0.16745713,
        0.12828867,
        -0.018294785,
        -0.3743545,
        0.1993815,
        -0.15790811,
        0.07995616,
        0.2382982,
        0.1431202,
        0.21897948,
        0.030053087,
        -0.016404249,
        0.11956792,
        -0.034074083,
        0.020033866,
        -0.26462287,
        0.14001472,
        -0.0077831317,
        0.07741824,
        0.18548296,
        0.19194244,
        0.18179598,
        -0.05085917,
        -0.051162202,
        -0.12833178,
        0.31420225,
        -0.09340269,
        0.00176324,
        0.009000008,
        0.2214383,
        0.10559923,
        -0.10281848,
        -0.037537187,
        -0.22550249,
        0.16621187,
        0.000117953714,
        0.14232492,
        0.116529405,
        -0.21146974,
        -0.12432483,
        -0.09204277,
        0.1885256,
        0.09894394,
        0.21885683,
        -0.03839144,
        0.11816157,
        -0.15251377,
        -0.035977468,
        -0.018706936,
        0.29941648,
        -0.07154819,
        0.3667516,
        0.14872177,
        -0.0076782596,
        -0.00015103906,
        0.036542982,
        0.24980989,
        0.1035264,
        -0.106213935,
        -0.3009734,
        -0.028726855,
        0.14988007,
        0.19728112,
        0.09631123,
        -0.14819033,
        0.11695948,
        0.1934822,
        0.11446037,
        -0.02995905,
        -0.05349797,
        0.036562473,
        0.28209025,
        0.1665505,
        -0.24676114,
        0.07524337,
        -0.19979963,
        -0.028144041,
        0.0796255,
        -0.017799709,
        -0.103558965,
        0.08256019,
        0.3497179,
        0.034807783,
        0.06691773,
        -0.09414301,
        -0.073518425,
        0.1783414,
        -0.07831087,
        0.16911434,
        -0.20705618,
        -0.119415335,
        -0.017421002,
        -0.021113608,
        0.028897177,
        -0.011772385,
        0.17832571,
        -0.012412073,
        -0.23632602,
        0.22577359,
        -0.082971334,
        -0.16815925,
        0.14725982,
        0.24201062,
        -0.2237576,
        0.32112762,
        0.07306608,
        -0.08233007,
        -0.07174045,
        -0.24875654,
        -0.2440185,
        0.048334066,
        0.008379912,
        -0.06344821,
        -0.03878731,
        0.03941512,
        -0.093048155,
        0.16769114,
        -0.16364828,
        0.018110424,
        -0.07983415,
        0.18593706,
        0.21400605,
        -0.0597614,
        0.06594247,
        0.02350021,
        0.105904125,
        0.049489155,
        0.20139033,
        -0.20420285,
        -0.22437315,
        -0.20123817,
        0.12788953,
        -0.09731737,
        0.15161645,
        0.1568326,
        -0.13124105,
        0.034071032,
        -0.10042482,
        0.0032608104,
        0.07916235,
        -0.15447474,
        -0.035781227,
        -0.2166476,
        0.0024287715,
        0.1631956,
        0.15600188,
        -0.17613813,
        -0.15637815,
        -0.18075292,
        -0.28604484,
        -0.13097928,
        -0.06918743,
        0.17453037,
        0.049786035,
        -0.18349501,
        0.28130612,
        0.026764296,
        -0.13813762,
        -0.17015661,
        0.074246176,
        0.22667783,
        0.038410913,
        -0.12531129,
        0.1298587,
        -0.18351333,
        0.059709262,
        0.14481935,
        -0.07489607,
        0.074343674,
        -0.06069938,
        -0.07288711,
        0.06913028,
        -0.040102266,
        -0.015499724,
        -0.010929055,
        -0.10651026,
        -0.02574703,
        0.17774057,
        -0.30014995,
        -0.275335,
        0.11583672,
        -0.06199198,
        -0.04098571,
        -0.057838157,
        -0.18951996,
        -0.23446071,
        0.051344045,
        -0.02722241,
        -0.10490425,
        0.037061848,
        -0.0007879618,
        0.17149442,
        -0.18887725,
        -0.098156415,
        -0.09034279,
        0.11709711,
        0.16277407,
        0.15083711,
        -0.045626085,
        0.01730862,
        0.04987502,
        0.0041856007,
        0.06885955,
        -0.012751279,
        0.005613307,
        -0.17066796,
        -0.12073513,
        -0.22136758,
        -0.124771275,
        0.014372919,
        -0.047893416,
        -0.080768324,
        -0.0692428,
        0.16264829,
        -0.020535983,
        -0.12833719,
        -0.005252215,
        -0.12275025,
        -0.018277694,
        -0.023458486,
        -0.22237653,
        -0.26279902,
        -0.11166108,
        0.17389435,
        -0.144404,
        0.21302706,
        0.24004199,
        -0.4464331,
        -0.042323757,
        0.11256776,
        0.11533076,
        -0.008928819,
        -0.18025486,
        -0.35911298,
        -0.0027925128,
        -0.16020343,
        -0.22216296,
        0.012594863,
        -0.121263444,
        -0.05861394,
        0.008585886,
        0.034737006,
        0.204965,
        -0.02925568,
        -0.2751843,
        0.118075,
        0.1280371,
        0.08263034,
        -0.14767669,
        -0.27727884,
        0.14372465,
        0.120802045,
        -0.12982413,
        0.041013684,
        -0.08788956,
        0.069051355,
        -0.18239933,
        -0.079062946,
        0.2918393,
        -0.2096012,
        0.12381393,
        0.18530414,
        -0.019705616,
        0.07283075,
        -0.11008595,
        0.08507404,
        -0.2734735,
        -0.1956232,
        -0.28528014,
        0.04659075,
        -0.25763604,
        0.09934015,
        0.088326305,
        0.092481926,
        -0.15915672,
        -0.18117563,
        0.11562312,
        0.26636207,
        0.110408284,
        -0.008418116,
        0.11433838,
        -0.10867291,
        -0.054178976,
        0.26376128,
        0.26582485,
        -0.10514845,
        0.18308291,
        0.05091107,
        0.11762726,
        -0.14504717,
        -0.10166267,
        0.03909595,
        -0.02629149,
        0.16860145,
        0.029073894,
        0.09012734,
        0.07047483,
        -0.007865984,
        0.13534538,
        -0.07490089,
        -0.17801766,
        -0.16686703,
        -0.013251737,
        0.20249835,
        -0.021673469,
        -0.15264447,
        0.31326053,
        -0.05238801,
        -0.15709287,
        -0.19555494,
        -0.27352846,
        0.079073034,
        -0.03373362,
        -0.06998999,
        -0.013581304,
        0.19380428,
        -0.024943514,
        0.1169633,
        0.01817669,
        -0.13019699,
        0.17479278,
        0.06437182,
        -0.013206757,
        -0.06631035,
        0.23171091,
        0.2547137,
        -0.34166119,
        -0.18187313,
        0.22017953,
        -0.12713408,
        0.12608069,
        0.1723111,
        0.15878046,
        -0.16325928,
        0.25219703,
        -0.02963017,
        0.20664938,
        -0.1351479,
        -0.19464327,
        -0.009626495,
        -0.106580794,
        -0.52183473,
        0.06149004,
        0.09957332,
        -0.088732414,
        -0.041985482,
        0.018238,
        0.038638093,
        0.13889827,
        0.11267719,
        0.08613699,
        0.100093655,
        -0.14961423,
        0.060415976,
        0.30323532,
        0.0620403,
        -0.20611921,
        0.18284947,
        0.10881215,
        -0.26692873,
        0.011507118,
        0.008957646,
        0.015636878,
        0.06613254,
        0.1290154,
        -0.13269193,
        -0.14369418,
        0.22201438,
        0.018804703,
        0.07994429,
        0.009957244,
        -0.07132824,
        -0.0059662126,
        -0.17000192,
        -0.12392326,
        0.17497568,
        -0.18222016,
        -0.041625567,
        -0.036627885,
        0.22166348,
        0.13921896,
        0.020948948,
        -0.12251287,
        0.09995089,
        0.06724391,
        0.20103015,
        0.18912137,
        0.22879137,
        0.00035938076,
        -0.037230562,
        0.119618505,
        0.0044655805,
        -0.16383015,
        0.05244781,
        0.114121675,
        -0.061528806,
        0.080670394,
        0.09048719,
        -0.059921905,
        0.12346153,
        0.08379618,
        -0.003471128,
        0.12335446,
        0.12825006,
        -0.07629587,
        0.031037416,
        0.018535804,
        0.36555263,
        -0.018719817,
        -0.022114392,
        0.27764642,
        0.15021154,
        0.022369945,
        0.16421652,
        -0.21575615,
        0.028285565,
        0.18973358,
        0.11883304,
        -0.2530054,
        -0.053703252,
        -0.07108844,
        -0.00083570974,
        -0.1373132,
        0.015795931,
        -0.2913925,
        0.14630635,
        -0.2371731,
        0.037147995,
        0.16220102,
        0.1413953,
        -0.23716688,
        0.040743444,
        -0.24573766,
        0.05765173,
        -0.043909304,
        0.08672429,
        -0.048435763,
        -0.09534369,
        -0.0034767624,
        -0.038653612,
        0.103361756,
        0.22680281,
        0.06700371,
        -0.10742803,
        0.16191141,
        -0.07621366,
        -0.04530604,
        -0.16361588,
        0.04513756,
        -0.051127166,
        0.048119057,
        -0.13820049,
        0.40661582,
        -0.12504083,
        -0.123490274,
        0.112823464,
        -0.12260762,
        -0.16446151,
        0.17311372,
        -0.002146115,
        -0.051404435,
        0.09373928,
        -0.16075052,
        0.15165262,
        -0.2491181,
        -0.026731065,
        0.20216244,
        0.028179679,
        0.2635865,
        -0.08989307,
        -0.055922143,
        -0.036178164,
        0.06437965,
        -0.02359983,
        -0.14842606,
        -0.004684353,
        -0.16805854,
        -0.042584665,
        -0.3012156,
        -0.032313094,
        0.19110133,
        0.06487697,
        -0.10800533,
        -0.09650412,
        -0.067049906,
        -0.14253989,
        0.09716238,
        -0.020901823,
        0.116354875,
        -0.0971886,
        0.08734759,
        -0.100514844,
        0.048134506,
        0.12817901,
        0.105744466,
        -0.1469922,
        0.08713053,
        0.15925224,
        0.10918907,
        -0.048542976,
        0.088006765,
        -0.26706922,
        0.03682313,
        -0.1581478,
        0.158651,
        0.09370966,
        0.38208,
        -0.09710069,
        -0.12485457,
        -0.14079267,
        0.11923231,
        0.16298833,
        -0.10072629,
        0.02149282,
        -0.11118544,
        0.18249077,
        -0.22558574,
        0.06351624,
        -0.09733185,
        0.1200199,
        -0.17152321,
        0.03234822,
        -0.17803569,
        -0.25072852,
        0.26676613,
        -0.08694898,
        0.1758458,
        0.12099981,
        0.17009768,
        -0.110789955,
        -0.040434975,
        -0.060342558,
        0.18572196,
        -0.03864263,
        0.13996623,
        -0.2815394,
        -0.1800783,
        0.08929715,
        0.15805106,
        0.09662191,
        0.01320135,
        -0.092561215,
        0.14161102,
        0.19445127,
        0.297592,
        -0.071072474,
        -0.054236814,
        -0.2136112,
        -0.023450062,
        -0.23955168,
        -0.06559257,
        0.038441308,
        -0.077753104,
        0.11682897,
        -0.027197754,
        -0.05868807,
        -0.09261425,
        -0.059530515,
        -0.24829853,
        0.029555159,
        0.30233732,
        0.25132585,
        -0.26289004,
        -0.19853356,
        -0.16832323,
        0.11379668,
        -0.27005464,
        -0.11056586,
        -0.12240697,
        0.0017026856,
        0.007332816,
        -0.30793107,
        -0.004003163,
        -0.101482145,
        0.13700588,
        0.10466096,
        -0.050111994,
        0.2537195,
        -0.18955931,
        -0.17896989,
        0.18342295,
        -0.3194501,
        -0.074607715,
        -0.07376408,
        -0.06403278,
        -0.14335644,
        -0.05653354,
        -0.095470734,
        -0.047530282,
        0.16082023,
        -0.22862734,
        0.05503284,
        -0.17843315,
        -0.061055206,
        -0.07458762,
        -0.12151265,
        0.13958755,
        -0.1690086,
        0.15807573,
        -0.0026100173,
        -0.07334858,
        0.29434758,
        0.004375987,
        -0.0859069,
        -0.0047586886,
        0.17131837,
        -0.05488805,
        -0.07068856,
        0.23116043,
        -0.22631279,
        -0.021930208,
        0.12838028,
        0.2227958,
        -0.11265566,
        -0.08454558,
        -0.20100184,
        0.13422385,
        0.05111092,
        -0.033491317,
        0.32175162,
        0.27410266,
        -0.055762146,
        0.12504397,
        0.26667613,
        0.043900814,
        -0.37263563,
        0.13974324,
        0.07772525,
        0.061816737,
        0.10583173,
        0.13472302,
        -0.057839245,
        -0.091175675,
        -0.09687866,
        -0.171038,
        -0.13498887,
        0.0009189748,
        0.18875708,
        -0.2213187,
        0.19539817,
        -0.025724199,
        0.21305636,
        -0.13489358,
        0.19791245,
        -0.019076793,
        -0.010060368,
        0.1813926,
        -0.12379293,
        -0.08753269,
        -0.08974999,
        0.22842391,
        -0.060805436,
        -0.048558984,
        -0.0071935575,
        0.020189656,
        0.10409671,
        0.144195,
        0.31335333,
        -0.19768314,
        -0.06320497,
        0.19338119,
        -0.01701068,
        -0.12263099,
        -0.18465455,
        0.1517151,
        0.012790999,
        0.29479593,
        -0.031397518,
        -0.124387905,
        -0.1456167,
        -0.12652,
        -0.17469914,
        -0.1771258,
        0.21714804,
        0.18769525,
        -0.21772413,
        -0.20593898,
        0.28047234,
        0.04342225,
        0.052782517,
        0.013089969,
        0.12685673,
        -0.03843513,
        -0.17940725,
        -0.07487728,
        -0.1928418,
        -0.1290307,
        -0.03030673,
        -0.12917133,
        0.31637573,
        0.21147154,
        -0.13335934,
        -0.17533356,
        0.25924507,
        -0.062072042,
        0.11905696,
        -0.005964012,
        0.22334854,
        -0.114282995,
        0.18905291,
        -0.083129086,
        -0.13298123,
        -0.0061895153,
        0.01682358,
        0.16034564,
        0.01952752,
        0.12180182,
        -0.19811647,
        -0.18028034,
        -0.15971224,
        0.29858172,
        0.02007217,
        0.0032009308,
        0.13001756,
        -0.015019374,
        -0.084579825,
        0.08046197,
        -0.12582088,
        -0.1629261,
        0.08426737,
        -0.1802976,
        0.14254336,
        0.3720862,
        0.07893463,
        0.008741123,
        0.05355765,
        -0.14011574,
        -0.15933596,
        0.17622055,
        -0.07912577,
        0.008856473,
        0.1389924,
        0.4222943,
        -0.061472747,
        0.13150087,
        -0.023552166,
        -0.1557152,
        0.09753349,
        0.052527875,
        -0.11671534,
        0.13732979,
        0.028631238,
        -0.0647759,
        0.11146383,
        0.057071105,
        0.122217715,
        0.07489293,
        0.15861547,
        -0.010955188,
        0.085219234,
        -0.10466883,
        0.00401376,
        0.02691666,
        -0.036363993,
        -0.024619661,
        0.21866967,
        -0.17066234,
        0.0036866614,
        0.012945148,
        0.09709025,
        -0.10436637,
        0.13225773,
        0.29760423,
        0.1731955,
        -0.03049746,
        -0.29260635,
        -0.047566943,
        -0.14465785,
        0.0228586,
        0.18852939,
        -0.051325765,
        -0.15999234,
        0.17966178,
        0.09731579,
        0.078301616,
        0.063949145,
        0.25814942,
        -0.021582583,
        -0.10907481,
        -0.059060637,
        0.1816934,
        -0.014115442,
        0.11202574,
        -0.13188028,
        -0.08677957,
        -0.0059236893,
        -0.110400945,
        0.039390735,
        -0.14157456,
        0.1744674,
        0.19756003,
        0.046513554,
        0.0883787,
        -0.07323746,
        -0.047544844,
        0.011595399,
        -0.06511772,
        0.13414884,
        0.028958108,
        0.00018277265,
        0.084100336,
        0.1679456,
        0.02163787,
        0.020880368,
        0.23361109,
        0.22170271,
        0.3257633,
        0.015000655,
        -0.038347684,
        0.05643875,
        -0.033792607,
        0.10745192,
        -0.016969256,
        -0.11151411,
        -0.37428156,
        0.009014911,
        0.1346552,
        -0.15644301,
        -0.07829903,
        0.15835933,
        -0.025168704,
        -0.015126787,
        0.08523484,
        -0.001136522,
        0.29737607,
        -0.28002843,
        0.007282503,
        -0.020275926,
        -0.044613525,
        0.11434238,
        0.2903115,
        0.00649932,
        0.19751257,
        -0.1912753,
        -0.06403981,
        -0.15411943,
        0.1304525,
        0.048296254,
        0.06454887,
        0.27788338,
        0.13337556,
        0.13852824,
        0.2677095,
        -0.105102845,
        -0.28139868,
        0.04340847,
        -0.024614805,
        0.036979526,
        -0.15401718,
        -0.031653754,
        0.05640179,
        0.18394123,
        -0.06309892,
        0.15874013,
        -0.1538914,
        0.34252986,
        0.15668172,
        0.011931243,
        -0.080041476,
        0.0038117138,
        -0.06564125,
        0.04942021,
        0.04965363,
        -0.27901658,
        -0.0025075001,
        -0.16731896,
        0.054188054,
        0.03866,
        0.20904246,
        0.05207352,
        0.15107207,
        0.073905095,
        0.13033766,
        -0.01551179,
        -0.35447595,
        -0.29640552,
        -0.0579494,
        0.041854624,
        -0.05054448,
        -0.22124973,
        -0.05444673,
        -0.32210806,
        -0.064514235,
        0.054086648,
        0.123230346,
        -0.072339155,
        -0.1780743,
        0.14197443,
        0.27388003,
        -0.030646274,
        -0.2120271,
        -0.038453195,
        -0.10671278,
        -0.009410064,
        -0.09493316,
        -0.018743217,
        -0.024768367,
        -0.11783541,
        -0.13626921,
        -0.059140693,
        -0.056982826,
        0.08634382,
        0.010557732,
        0.12176741,
        0.15273875,
        -0.01478106,
        0.14676991,
        -0.019190349,
        -0.03593499,
        -0.11145991,
        -0.109747164,
        -0.06678705,
        -0.05819112,
        0.07019023,
        -0.29931858,
        -0.15459746,
        -0.029150773,
        -0.028074298,
        -0.07687283,
        -0.06664891,
        0.021903496,
        -0.0824562,
        -0.10783532,
        0.1414776,
        0.14408252,
        -0.018660842,
        -0.032672662,
        -0.06447107,
        -0.020264396,
        0.17242797,
        0.13239247,
        -0.061889466,
        -0.2168105,
        0.12800334,
        -0.011221107,
        -0.061738335,
        -0.11757563,
        -0.17287762,
        0.1401545,
        0.0077431193,
        0.03828462,
        -0.16935937,
        -0.010886526,
        -0.008816697,
        -0.14916198,
        -0.19962253,
        0.2816358,
        0.08657719,
        0.08675622,
        0.20898579,
        0.09559308,
        0.1596367,
        0.16554312,
        0.0042230254,
        -0.31105992,
        -0.04950258,
        -0.02468407,
        0.18851349,
        -0.022549963,
        -0.059299085,
        0.018388571,
        0.06124717,
        -0.10726059,
        -0.06693979,
        -0.12246347,
        0.16723263,
        0.001034953,
        0.0005657938,
        -0.029173264,
        0.06790829,
        0.19376288,
        0.15301663,
        -0.16019039,
        0.19826163,
        0.0013630141,
        -0.18728094,
        0.20954542,
        0.08914637,
        0.22162214,
        0.06052667,
        -0.24349919,
        -0.29592383,
        0.04774239,
        -0.08473658,
        -0.050564382,
        -0.28418055,
        0.20314348,
        -0.32819965,
        0.19836615,
        -0.1432463,
        -0.018514005,
        -0.21140265,
        -0.14172718,
        0.046134792,
        0.0026021402,
        0.27026027,
        0.023587368,
        0.081703745,
        0.024587328,
        0.03892834,
        0.11961587,
        -0.095128745,
        -0.015660658,
        -0.013435554,
        -0.04448518,
        -0.21663472,
        -0.16732015,
        -0.09036755,
        -0.10039881,
        -0.13071696,
        -0.22874434,
        0.23898011,
        -0.13342965,
        0.004060027,
        -0.03522247,
        -0.12831834,
        0.21578832,
        0.058075175,
        -0.16633195,
        0.08336879,
        -0.031796344,
        -0.022873659,
        0.024219086,
        -0.05841591,
        -0.061948795,
        -0.2672123,
        0.009564045,
        0.3114243,
        -0.026123002,
        0.13432054,
        -0.0006287918,
        -0.17060173,
        0.009902254,
        0.06989482,
        0.11474154,
        0.23640072,
        0.12021033,
        -0.369534,
        0.0053110532,
        -0.12522165,
        -0.030168926,
        -0.08303213,
        0.042670272,
        -0.097406276,
        0.04933464,
        0.113305055,
        0.028498363,
        -0.28487712,
        -0.1928247,
        0.18649848,
        -0.117218755,
        -0.21666057,
        0.065496676,
        0.03346276,
        -0.033780962,
        -0.34962103,
        0.026007624,
        -0.008564201,
        0.018333927,
        -0.06150916,
        -0.1780736,
        -0.16208698,
        0.11497754,
        -0.093663156,
        0.14100812,
        -0.0058071758,
        -0.031783815,
        0.4373379,
        -0.08923596,
        0.08121999,
        -0.16946296,
        0.040349863,
        0.027782112,
        -0.18494472,
        -0.005468728,
        0.07766174,
        -0.011474522,
        -0.19595456,
        0.0036732287,
        0.13986254,
        -0.042454593,
        -0.013354804,
        0.1445166,
        -0.10078172,
        0.09121122,
        -0.08070546,
        0.08987673,
        0.20757037,
        -0.111460775,
        0.03797967,
        -0.17763361,
        -0.025018552,
        -0.093150966,
        0.13818279,
        -0.047635566,
        -0.2655481,
        0.2102673,
        -0.12035954,
        0.04991125,
        -0.05068509,
        0.13182348,
        0.10072538,
        0.011286585,
        0.10541652,
        0.026232678,
        -0.20649154,
        -0.029928407,
        -0.16127074,
        0.14055619,
        0.06627397,
        -0.20049469,
        0.12467057,
        0.23420292,
        -0.30184734,
        0.083297454,
        -0.031222492,
        0.062249407,
        -0.006895141,
        0.15279801,
        0.043029763,
        -0.05384255,
        0.14426446,
        -0.13711149,
        0.06954087,
        -0.029781137,
        0.093511425,
        0.15695256,
        0.097498,
        0.24957937,
        0.07794305,
        0.14938964,
        -0.09048253,
        0.16344011,
        -0.13070458,
        -0.06629837,
        0.04039735,
        0.25484544,
        0.116336316,
        -0.038339928,
        -0.107847586,
        0.13675159,
        -0.11297898,
        -0.05993176,
        0.050731953,
        0.09615825,
        -0.026921818,
        -0.091099225,
        -0.022229545,
        0.13992059,
        -0.14418402,
        -0.21723102,
        -0.1483892,
        0.013871637,
        -0.19500811,
        0.10339988,
        -0.33045858,
        0.029937657,
        -0.03566256,
        0.027641853,
        -0.14621617,
        -0.23968528,
        0.27170312,
        0.3235781,
        -0.12707111,
        0.103413805,
        0.14759322,
        0.15819463,
        -0.13842857,
        -0.2123495,
        0.07287006,
        0.098839246,
        0.27577654,
        0.005151917,
        -0.02311192,
        -0.058399983,
        0.1300042,
        -0.024271382,
        0.13761233,
        -0.19110873,
        -0.21516493,
        -0.088355534,
        0.41317096,
        0.1273405,
        0.0629572,
        0.008744208,
        0.15830451,
        0.12324533,
        0.12154245,
        -0.14759308,
        -0.13170853,
        0.034314007,
        0.21767944,
        -0.15839472,
        -0.08910561,
        -0.118072584,
        0.14427729,
        -0.003610338,
        -0.21695258,
        0.10367952,
        0.1560141,
        0.1168285,
        -0.054918412,
        -0.15090764,
        0.21070333,
        0.051159706,
        0.0014049509,
        -0.033146657,
        0.10728214,
        -0.09237104,
        0.07396511,
        0.115857,
        -0.14014456,
        -0.13771828,
        0.027451588,
        -0.1136689,
        -0.082885146,
        -0.08476411,
        -0.011387714,
        0.24799423,
        -0.28355023,
        0.038226396,
        0.035515465,
        0.20641072,
        -0.24786675,
        -0.153697,
        0.18990251,
        -0.25237298,
        -0.13085718,
        0.09716491,
        -0.16157275,
        -0.19001485,
        0.14011447,
        -0.21878122,
        -0.17093341,
        -0.12183337,
        -0.049988795,
        -0.22776158,
        0.027436871,
        -0.29722133,
        -0.021844545,
        -0.02060675,
        -0.13741693,
        0.13789096,
        0.058222003,
        0.0018675199,
        -0.081722036,
        -0.10650735,
        -0.119510986,
        -0.17495205,
        0.2365601,
        0.0577584,
        -0.072569385,
        0.028253146,
        -0.17942148,
        -0.07537027,
        0.004666897,
        0.20038103,
        -0.19374433,
        -0.08004217,
        -0.02008838,
        -0.03227318,
        -0.13742492,
        -0.055535622,
        -0.014478431,
        -0.166457,
        -0.09830258,
        0.18640235,
        -0.0031025556,
        -0.019776177,
        0.15214057,
        0.14323303,
        0.10696404,
        -0.06369971,
        -0.08672406,
        -0.19637218,
        -0.21399905,
        -0.09863647,
        0.012455572,
        -0.028098555,
        -0.064778306,
        0.24419299,
        0.16811363,
        0.095533326,
        0.049932674,
        -0.11594451,
        0.01759,
        0.12226357,
        -0.29040533,
        -0.057239782,
        0.08468858,
        -0.06272121,
        0.22657606,
        0.1601402,
        0.019426335,
        -0.32090515,
        -0.09277973,
        0.059399195,
        0.24852477,
        0.058009584,
        -0.20799503,
        0.05169507,
        0.1569679,
        -0.14462575,
        0.044832435,
        -0.06316753,
        -0.0913866,
        0.044710368,
        -0.3578752,
        -0.06778342,
        0.014601826,
        0.13561025,
        -0.27944744,
        -0.00039488627,
        -0.01676687,
        -0.02729031,
        -0.06441441,
        0.18625082,
        -0.07341303,
        -0.13027483,
        0.048225705,
        0.09105123,
        0.06557607,
        0.015906258,
        -0.17295964,
        -0.0136872195,
        -0.11743156,
        0.18201718,
        0.21148343,
        -0.25028077,
        -0.13962407,
        0.15064934,
        -0.2789229,
        -0.038300678,
        0.111042365,
        -0.24064204,
        -0.1343771,
        -0.22220947,
        -0.045828506,
        -0.24925636,
        0.23307107,
        -0.055443093,
        0.17085832,
        0.09889886,
        -0.048816275,
        -0.084489085,
        -0.016466236,
        0.1384783,
        -0.2770836,
        -0.29144526,
        -0.15177903,
        0.20418994,
        0.084133185,
        -0.119494475,
        0.078514226,
        0.23764434,
        0.08907684,
        0.06707463,
        -0.015442141,
        0.29275727,
        -0.023558708,
        -0.09013685,
        -0.0026552177,
        0.18767773,
        0.03773249,
        -0.09042871,
        -0.20487362,
        -0.11412556,
        0.10575559,
        0.004441639,
        -0.000893243,
        -0.18535219,
        0.09252528,
        -0.055040568,
        -0.09434691,
        0.20367883,
        0.078780286,
        0.12627476,
        0.32893685,
        0.021535298,
        0.30069992,
        0.11692023,
        0.015688302,
        -0.12240535,
        0.08452734,
        0.19132273,
        -0.111875795,
        0.09105668,
        -0.13051032,
        -0.014453843,
        0.19030274,
        0.020580625,
        0.07573819,
        0.14553192,
        0.051795498,
        0.1392069,
        0.1770103,
        -0.01864751,
        0.054498564,
        -0.22934076,
        -0.13887575,
        0.43003148,
        -0.05142016,
        -0.04049328,
        -0.031175813,
        0.022788087,
        -0.09441754,
        -0.023756241,
        -0.008019624,
        -0.22377068,
        -0.07282579,
        -0.18818328,
        -0.21925059,
        0.021772275,
        -0.06928945,
        0.07010238,
        -0.122526504,
        0.16291676,
        0.10971826,
        -0.06704502,
        -0.1478389,
        -0.051551115,
        -0.1656757,
        -0.013613081,
        0.025474861,
        0.04477579,
        -0.14282598,
        0.024033567,
        -0.10271643,
        -0.09291922,
        0.045432005,
        0.26125154,
        0.10874101,
        0.092190586,
        -0.15684998,
        -0.21219131,
        -0.053489815,
        0.117889576,
        -0.21346435,
        -0.068097256,
        0.048443813,
        0.100305304,
        0.033453055,
        0.21709688,
        -0.12684466,
        -0.016136196,
        -0.08938687,
        -0.21581206,
        0.44988918,
        0.26670283,
        -0.056029305,
        -0.098612845,
        0.20089027,
        -0.0022078454,
        0.021209821,
        0.07177241,
        0.10506873,
        0.041320737,
        -0.22006227,
        -0.035340663,
        -0.10350112,
        0.09893074,
        0.1228909,
        -0.14323656,
        -0.07039756,
        -0.12141887,
        -0.05905652,
        -0.026315702,
        0.073586345,
        -0.007177239,
        -0.17247675,
        0.1857644,
        -0.03204814,
        0.07425596,
        -0.110168494,
        -0.069233924,
        0.22853386,
        0.06289187,
        0.054101445,
        0.04786416,
        0.06351322,
        -0.014588528,
        -0.18603796,
        -0.18827564,
        -0.29456374,
        0.040278,
        -0.009223514,
        -0.115631096,
        -0.03290887,
        -0.030177312,
        -0.19325878,
        0.13844144,
        0.11572519,
        -0.042077374,
        -0.2630534,
        0.17086872,
        0.0664667,
        -0.06298106,
        -0.02456898,
        -0.23019388,
        0.07564831,
        -0.0012785321,
        0.051651746,
        -0.40013534,
        -0.023996158,
        0.040525224,
        -0.14375664,
        -0.07195159,
        -0.002864417,
        -0.069013864,
        0.18527597,
        -0.022891378,
        -0.051047646,
        0.029665843,
        -0.31488547,
        -0.30652767,
        -0.20632672,
        0.07037679,
        -0.080615744,
        -0.17222124,
        0.3458143,
        -0.03066312,
        0.24150583,
        -0.043080643,
        -0.08424627,
        0.22657874,
        -0.19094867,
        -0.06058444,
        0.028344546,
        0.01627752,
        -0.07036398,
        -0.28048226,
        0.15346192,
        0.057513908,
        -0.062574156,
        -0.09769827,
        0.035245974,
        0.090267286,
        -0.04654712,
        -0.018983258,
        -0.11633619,
        0.12870543,
        -0.20372917,
        -0.3539443,
        -0.058409657,
        0.102778696,
        0.1488404,
        0.04218445,
        0.12577036,
        0.07615724,
        -0.12397048,
        0.030444073,
        0.10053695,
        -0.1660461,
        -0.0074209375,
        0.027845256,
        0.023963504,
        0.13970995,
        0.0119503895,
        0.106210515,
        -0.11457829,
        0.067082375,
        0.21680182,
        -0.05725825,
        -0.19488233,
        0.045444053,
        -0.13154699,
        -0.22393107,
        0.042193435,
        -0.065558836,
        0.06047495,
        -0.08784841,
        -0.07001797,
        0.04332084,
        0.1295813,
        0.11430418,
        0.14183329,
        -0.1326249,
        -0.010883835,
        -0.0002148799,
        0.026530152,
        0.036281228,
        -0.033058017,
        -0.19926336,
        -0.08379564,
        0.17297834,
        0.08339255,
        0.29308444,
        0.1564988,
        -0.18565159,
        -0.018347597,
        0.07559484,
        0.061718136,
        -0.09224737,
        -0.15669587,
        -0.15651311,
        0.04048643,
        0.008970734,
        0.12393241,
        0.07531005,
        -0.009246243,
        -0.09077103,
        -0.22774073,
        -0.08260096,
        -0.012023439,
        0.039817497,
        -0.10963531,
        0.101550445,
        -0.15874273,
        -0.072159186,
        0.23346879,
        -0.11807569,
        0.29324058,
        -0.016788198,
        -0.3873236,
        0.11570453,
        -0.056995016,
        0.0023813678,
        0.1642884,
        0.029801462,
        -0.14410028,
        -0.045883827,
        -0.123347335,
        -0.030976433,
        -0.09219562,
        -0.038954396,
        0.3787305,
        0.09291596,
        0.25195533,
        -0.015384314,
        -0.061653785,
        -0.14339106,
        -0.08043384,
        -0.05376803,
        0.18039636,
        -0.18332128,
        -0.17843209,
        0.057074655,
        -0.07005027,
        0.15535632,
        -0.00347684,
        0.05551773,
        0.03585153,
        -0.108318165,
        -0.01125636,
        0.15333338,
        0.37595087,
        0.016167238,
        0.086065695,
        -0.08979321,
        0.08175436,
        0.08871641,
        0.0022725924,
        0.16161798,
        0.1530941,
        0.0024298225,
        0.068443604,
        -0.17111988,
        0.019645806,
        -0.1448077,
        0.04454219,
        -0.111196436,
        0.17733963,
        -0.18244237,
        -0.038153823,
        0.26642814,
        0.3081476,
        0.03598899,
        0.004253609,
        0.10635323,
        0.020869436,
        0.09561637,
        -0.043658,
        -0.020749943,
        0.17794497,
        0.07830349,
        -0.044667725,
        0.04078589,
        -0.35650355,
        -0.12079028,
        0.1565905,
        0.061785895,
        0.13694657,
        -0.12077135,
        0.06509988,
        -0.05329496,
        -0.2069591,
        0.09173157,
        0.022625383,
        0.074723214,
        -0.078039855,
        0.31514177,
        0.16729353,
        -0.039460473,
        -0.0103628915,
        0.0960558,
        -0.11201492,
        0.06472408,
        -0.0197638,
        -0.0317043,
        -0.020660024,
        0.008906924,
        0.10383173,
        0.025769081,
        -0.10905699,
        -0.040126503,
        0.04495378,
        0.0029788113,
        -0.2703771,
        0.15958863,
        -0.059153497,
        -0.10758494,
        -0.003327498,
        0.25071838,
        -0.05351351,
        0.11860667,
        0.16286647,
        -0.09397504,
        -0.023637488,
        0.058828764,
        0.12479957,
        0.2649912,
        0.015441199,
        -0.07269099,
        0.083737396,
        0.035307117,
        0.102557324,
        -0.13661446,
        0.010709211,
        -0.08994713,
        -0.14050397,
        0.008327402,
        -0.06731739,
        0.02510992,
        -0.24512309,
        0.056509495,
        -0.1234828,
        0.00952514,
        -0.019359903,
        0.053736597,
        -0.04356628,
        0.05825329,
        0.018446187,
        0.08628577,
        -0.10760278,
        0.18132512,
        -0.0023175743,
        -0.08305833,
        -0.009760671,
        -0.30493546,
        0.042791855,
        -0.2651021,
        0.18162253,
        0.110636726,
        0.096862614,
        -0.06488035,
        -0.055820208,
        0.024457125,
        0.11270283,
        0.24933599,
        0.090554215,
        0.061415814,
        0.047606938,
        -0.22405417,
        -0.11389998,
        -0.21429521,
        -0.1912602,
        -0.021734063,
        0.0017566656,
        -0.17549177,
        -0.25218806,
        -0.15285665,
        -0.1146919,
        0.022350093,
        -0.16937584,
        -0.086021885,
        0.31840113,
        0.18554366,
        0.0515113,
        0.096085005,
        0.37201837,
        0.028895369,
        -0.050698403,
        0.13202372,
        -0.0275441,
        0.07401416,
        -0.1871907,
        -0.2985863,
        0.0010061607,
        -0.0241166,
        0.005995446,
        0.08280822,
        0.09758856,
        0.05320144,
        0.08025822,
        0.1741449,
        0.057753697,
        -0.0028861568,
        0.070131525,
        -0.23098412,
        -0.16544126,
        -0.023265064,
        -0.05031625,
        0.060721893,
        0.14872557,
        0.22108601,
        -0.15549006,
        -0.05629842,
        -0.16999847,
        0.053997748,
        0.17326048,
        0.027852202,
        0.3507045,
        0.20484194,
        -0.131092,
        0.0656789,
        -0.07633234,
        -0.027148237,
        -0.020952107,
        0.45782188,
        -0.28053382,
        0.37600586,
        -0.083447695,
        -0.28017718,
        0.013310797,
        -0.2372896,
        -0.16755165,
        0.078896105,
        -0.074584864,
        -0.013277842,
        0.22881767,
        0.06100248,
        -0.22331297,
        -0.047844324,
        -0.15021335,
        -0.06762015,
        -0.29228976,
        -0.1260413,
        -0.002238205,
        0.044475254,
        -0.15857382,
        0.13466987,
        -0.024745584,
        0.29011443,
        -0.06046329,
        -0.12389282,
        -0.13394085,
        0.2441411,
        -0.026104629,
        -0.09439166,
        0.23622523,
        0.011585393,
        0.025463447,
        -0.10704692,
        -0.0011825748,
        -0.0698191,
        -0.07825612,
        0.0010556055,
        0.09309854,
        -0.27439857,
        -0.12759094,
        -0.015719425,
        -0.066732176,
        0.33965638,
        -0.25535858,
        -0.0708624,
        0.008084553,
        -0.0077792774,
        0.20216937,
        0.1970318,
        -0.019020254,
        -0.17872345,
        -0.068298124,
        0.10536724,
        0.08897658,
        0.19452865,
        -0.0055288966,
        -0.20609646,
        -0.09446835,
        0.16672274,
        0.10098296,
        0.08405813,
        -0.1016497,
        0.26936582,
        0.2087928,
        0.05119705,
        0.13549717,
        0.16155322,
        0.10171138,
        -0.15799996,
        0.07862961,
        0.053912826,
        0.0500647,
        0.22924383,
        0.04876789,
        -0.026376786,
        0.063666455,
        -0.14595413,
        -0.037192374,
        -0.26598632,
        0.0626508,
        0.07060484,
        -0.14135672,
        -0.15202405,
        0.2026798,
        -0.16549556,
        -0.07425556,
        0.17751724,
        -0.033312608,
        0.08561161,
        -0.06823477,
        -0.28357616,
        -0.12504512,
        -0.0011793753,
        -0.23348524,
        0.287272,
        -0.06463794,
        -0.00040628362,
        0.14585318,
        0.043269712,
        0.07623132,
        0.074860305,
        0.0557968,
        -0.119270846,
        -0.073391676,
        0.14763418,
        -0.144306,
        -0.05214524,
        0.085431814,
        0.20622993,
        -0.1665909,
        0.17932104,
        0.09192291,
        0.036047213,
        -0.027437791,
        -0.014704002,
        0.24624121,
        0.14063437,
        0.013918053,
        0.10836663,
        -0.17064415,
        0.23942932,
        -0.04532929,
        -0.01293765,
        -0.16361795,
        0.061519057,
        -0.06535424,
        0.09659745,
        0.027986811,
        0.23888601,
        -0.017283905,
        0.0571034,
        -0.15771176,
        -0.09566455,
        0.15881719,
        0.23274852,
        -0.09117483,
        -0.2917685,
        -0.061962843,
        -0.1783336,
        0.046831913,
        -0.106306784,
        0.077161916,
        -0.011681598,
        -0.005132213,
        0.04251831,
        0.109918475,
        0.13712278,
        0.12473297,
        -0.0068234247,
        -0.2491465,
        0.13577671,
        -0.0821784,
        0.07350035,
        0.14657223,
        0.16126442,
        0.22642906,
        0.026680747,
        0.01912556,
        -0.1431606,
        -0.028243983,
        0.0039140284,
        -0.077357195,
        0.12134219,
        -0.122281946,
        0.1321211,
        0.29868856,
        0.24341281,
        0.25565702,
        0.14571731,
        -0.24520913,
        0.098713666,
        -0.20807028,
        0.2985753,
        -0.016722765,
        0.09308347,
        0.14987646,
        0.16460605,
        -0.019747825,
        -0.07914123,
        -0.08587737,
        -0.27028245,
        0.027418958,
        0.15156448,
        -0.13804528,
        0.102587976,
        -0.0747046,
        -0.09468634,
        0.11642536,
        0.044946022,
        -0.1240206,
        -0.11711131,
        -0.017821822,
        -0.02504927,
        -0.05935031,
        -0.21780461,
        -0.016345734,
        0.068175785,
        0.20267968,
        -0.06372572,
        -0.3430633,
        0.05964776,
        0.050927732,
        0.12677325,
        -0.11456737,
        -0.0591763,
        -0.0713849,
        0.24447174,
        0.13176753,
        -0.02711522,
        -0.24392006,
        0.11506592,
        -0.022886114,
        -0.048193924,
        0.1398714,
        -0.08184674,
        0.17834675,
        -0.07891926,
        -0.112428285,
        0.079287276,
        0.06993344,
        -0.047540203,
        -0.086666115,
        -0.045316532,
        0.040308613,
        0.09722376,
        0.09528864,
        -0.06098927,
        -0.01600894,
        -0.14938821,
        0.123220645,
        0.07760009,
        0.11404117,
        0.14403307,
        0.39417437,
        -0.19028486,
        -0.056541454,
        -0.2660349,
        -0.24784398,
        -0.03627545,
        0.09865568,
        -0.064547524,
        0.033096943,
        0.010637287,
        0.15944229,
        0.28033936,
        0.018680694,
        -0.011641778,
        0.03954044,
        0.18316562,
        -0.1862931,
        -0.26720858,
        -0.014881088,
        0.0706031,
        0.07632744,
        0.20858054,
        0.10182565,
        -0.057866663,
        0.12772785,
        -0.07854623,
        -0.14281872,
        -0.11106465,
        0.091145575,
        -0.040022995,
        -0.12213755,
        -0.14372244,
        -0.03376738,
        0.030442085,
        0.081296034,
        -0.027084492,
        -0.07132876,
        0.04881573,
        -0.10721031,
        -0.27039728,
        -0.08088891,
        0.19200467,
        -0.055530082,
        -0.017003946,
        -0.24204096,
        -0.1440133,
        -0.00339752,
        0.129475,
        -0.11994107,
        0.098327935,
        -0.029843424,
        -0.13300945,
        0.067681864,
        -0.26023445,
        0.123551354,
        -0.18689854,
        -0.013752379,
        -0.16147065,
        -0.076877415,
        -0.05811049,
        -0.112179086,
        0.08608766,
        -0.19014327,
        0.061056368,
        -0.4112655,
        0.23939306,
        0.0629681,
        0.06699017,
        -0.24992411,
        0.21024649,
        0.036441267,
        0.100461826,
        -0.20535873,
        -0.16052164,
        -0.45156756,
        0.11713299,
        -0.06215616,
        -0.06686971,
        -0.26507893,
        0.05560758,
        0.13739298,
        -0.134229,
        -0.005775692,
        0.4206107,
        -0.031238765,
        0.1321046,
        0.0033184397,
        -0.11362441,
        -0.093127765,
        -0.17437562,
        0.012728654,
        -0.2320245,
        0.17302321,
        -0.049712654,
        -0.16094048,
        0.0023123838,
        0.11394862,
        0.11001213,
        -0.5793955,
        -0.20509993,
        0.48926112,
        0.2661369,
        -0.1560415,
        -0.014343408,
        -0.09843931,
        0.082362436,
        -0.053801388,
        -0.06717232,
        0.06893237,
        0.23210332,
        -0.044251572,
        -0.07746525,
        0.14305872,
        0.109481074,
        -0.23379275,
        -0.20049302,
        0.045725927,
        0.25904617,
        0.12319391,
        -0.010597234,
        -0.020377254,
        -0.06255258,
        0.03366675,
        -0.06776277,
        -0.11348096,
        0.029070402,
        0.19592099,
        0.055098962,
        0.042064104,
        0.0129264295,
        0.022548174,
        -0.045095142,
        -0.17812718,
        0.029815612,
        -0.14765602,
        0.114277534,
        -0.12270024,
        0.015929429,
        0.24053156,
        -0.2845386,
        -0.033298276,
        -0.07597145,
        -0.15841061,
        0.059932414,
        0.07290759,
        -0.03667639,
        -0.294053,
        -0.24569504,
        0.23407207,
        0.2724557,
        0.062011868,
        -0.07553057,
        -0.07775134,
        0.044566188,
        0.06575912,
        -0.12666173,
        -0.060480095,
        0.114364766,
        0.013024242,
        -0.04886823,
        -0.005536955,
        -0.0976084,
        0.035076212,
        -0.0015390506,
        -0.082353234,
        -0.029646663,
        -0.009082693,
        0.16757105,
        -0.13180166,
        0.035823073,
        0.015522786,
        -0.11627788,
        0.06020808,
        -0.06347409,
        -0.090358846,
        0.10547455,
        -0.16093236,
        0.17900598,
        0.0026990473,
        -0.11906375,
        0.28062674,
        -0.11117503,
        0.068048954,
        0.10734133,
        0.029276429,
        -0.16383454,
        0.20330283,
        -0.029269978,
        0.075556144,
        0.06422786,
        -0.07070063,
        -0.002657007,
        0.04185658,
        -0.07144329,
        -0.0365795,
        -0.15892777,
        -0.3358409,
        0.06271197,
        0.08299587,
        0.16005723,
        -0.062176175,
        -0.18129848,
        0.014899956,
        -0.28492793,
        -0.05394703,
        -0.1502584,
        -0.23921672,
        0.097557425,
        -0.14769964,
        -0.22648887,
        0.115345456,
        0.0016693398,
        0.14151436,
        0.041628674,
        -0.28084826,
        0.041105855,
        0.20127523,
        -0.03861046,
        -0.29766947,
        -0.07069633,
        -0.11156796,
        0.07631565,
        0.07594056,
        0.29249784,
        -0.123459585,
        0.18883996,
        0.1266634,
        -0.08631386,
        0.17941979,
        -0.15933633,
        -0.2356084,
        0.022165604,
        0.1857579,
        0.11690488,
        -0.029961204,
        0.4404974,
        0.026736422,
        0.019048106,
        0.21809162,
        -0.23708385,
        0.03386873,
        0.24542043,
        0.16182233,
        -0.02143441,
        -0.15730503,
        0.020277923,
        -0.15256196,
        -0.2985315,
        -0.028679557,
        -0.006547352,
        -0.095305204,
        -0.14250937,
        -0.04243517,
        0.111032285,
        -0.13082469,
        0.05072918,
        -0.076720834,
        -0.01043032,
        -0.1667884,
        0.11987224,
        -0.3125804,
        -0.14975715,
        0.001030972,
        -0.041653927,
        0.1650071,
        -0.15022634,
        0.18130095,
        -0.018096386,
        -0.10257147,
        -0.22193787,
        0.024910707,
        -0.016218495,
        0.11140899,
        0.0819084,
        0.2184636,
        -0.018522847,
        0.060685188,
        -0.056489903,
        0.097097084,
        0.05179046,
        -0.15980498,
        0.17409356,
        0.06316366,
        0.0337959,
        -0.0006658396,
        -0.039199647,
        -0.1533645,
        0.07885139,
        0.14772497,
        -0.35260707,
        0.1854287,
        0.030352479,
        0.0760077,
        -0.252959,
        -0.32539245,
        0.05087638,
        0.02001897,
        -0.046919886,
        -0.021176843,
        0.21727611,
        0.014303399,
        0.2796491,
        0.104998894,
        -0.19215953,
        -0.036947027,
        0.11177192,
        0.27937,
        -0.1637485,
        0.25105137,
        -0.034230057,
        0.313921,
        -0.07036722,
        0.03721686,
        0.05293772,
        0.08610628,
        0.1670555,
        0.033341665,
        -0.30337358,
        -0.04016818,
        -0.16834877,
        0.10803834,
        0.12947108,
        0.08135161,
        -0.18152383,
        0.03149762,
        0.23998487,
        0.044708196,
        -0.018933233,
        -0.25544578,
        0.071148455,
        -0.010643514,
        -0.26844436,
        -0.037762202,
        -0.07439016,
        0.17359518,
        -0.010707357,
        0.08610627,
        0.24550797,
        0.06444252,
        -0.08941422,
        -0.012779995,
        -0.0678194,
        0.25003374,
        0.07841278,
        -0.13769202,
        -0.14677005,
        0.13411911,
        -0.17496565,
        -0.013982888,
        0.19349916,
        0.019081606,
        0.054240916,
        -0.05263197,
        0.041676313,
        -0.025711795,
        -0.23851869,
        -0.021293676,
        0.012118614,
        0.0007033166,
        -0.04804921,
        0.2395451,
        -0.117086664,
        -0.3170666,
        -0.01501612,
        0.0098736165,
        -0.12311277,
        0.054003585,
        -0.22339854,
        -0.32540733,
        -0.17065321,
        0.16703793,
        -0.09638305,
        -0.17860132,
        0.09476604,
        -0.16372038,
        0.102541454,
        -0.0023813704,
        -0.05261116,
        0.0064953486,
        -0.07049899,
        -0.03813276,
        -0.3556665,
        -0.030340357,
        -0.10430277,
        -0.07138648,
        -0.21410297,
        -0.3437,
        0.13504544,
        0.024606528,
        0.16180934,
        -0.19944802,
        0.0014356296,
        -0.31836945,
        -0.037728053,
        -0.18933167,
        -0.03475202,
        0.09427304,
        0.017021539,
        0.10690737,
        -0.10451067,
        0.04363867,
        -0.07374017,
        0.1152803,
        -0.09218194,
        -0.2809382,
        0.07549348,
        -0.05391255,
        -0.13909073,
        -0.2167347,
        0.20900454,
        0.16782981,
        -0.06378956,
        0.025952261,
        0.06048673,
        0.3335597,
        0.08393687,
        0.2635153,
        -0.031665012,
        -0.11611977,
        -0.06240046,
        0.14417721,
        -0.28372896,
        0.18474491,
        -0.100481234,
        -0.05676771,
        0.15326223,
        -0.42901066,
        -0.19706017,
        0.10938133,
        -0.1660114,
        -0.017103076,
        0.08920608,
        -0.0024005405,
        0.10665302,
        -0.062691614,
        0.24384376,
        0.00956675,
        0.13530664,
        -0.20831305,
        -0.072308734,
        0.079607435,
        0.13830905,
        -0.041629687,
        0.13104522,
        0.1997656,
        0.157548,
        0.11801326,
        -0.011461987,
        -0.031072918,
        0.18878646,
        0.030802194,
        0.030073537,
        -0.052896716,
        -0.094709724,
        -0.2523267,
        0.12387313,
        -0.14963369,
        0.17659877,
        0.13111953,
        -0.00035558167,
        0.049043205,
        0.16955586,
        -0.13844624,
        -0.07811832,
        -0.3905271,
        -0.15279117,
        -0.006153783,
        0.16806793,
        0.06079993,
        -0.15108036,
        -0.053793557,
        -0.23770365,
        0.010666321,
        -0.037437335,
        -0.079702914,
        -0.22436728,
        -0.02939533,
        0.009966321,
        -0.30180603,
        0.26022786,
        0.08416724,
        -0.03239515,
        0.017352518,
        -0.099865824,
        -0.00014669425,
        -0.13164243,
        0.13999717,
        0.13533019,
        -0.19585906,
        -0.072210774,
        0.1469323,
        0.19779494,
        -0.08250078,
        0.041734718,
        0.18109277,
        -0.21984988,
        -0.006096112,
        0.040846728,
        0.1778207,
        0.13345103,
        0.033402305,
        -0.035870466,
        -0.0009209762,
        -0.15283424,
        0.03434466,
        0.17558204,
        0.13492389,
        0.0743797,
        0.14406018,
        -0.17687532,
        -0.1669312,
        0.22993244,
        0.15868647,
        -0.048877947,
        0.10224571,
        0.06523553,
        -0.27839452,
        -0.061886154,
        0.09025475,
        0.078450605,
        0.13503945,
        0.023060154,
        0.089624316,
        0.22047551,
        0.08682421,
        -0.037786506,
        -0.13086003,
        0.1240699,
        -0.21709628,
        0.047446463,
        -0.02192291,
        0.019607995,
        -0.03392631,
        -0.014131279,
        -0.14889798,
        0.020260122,
        -0.07579078,
        0.029997757,
        -0.25185853,
        0.1503921,
        -0.13494332,
        0.084662676,
        0.009881909,
        0.15929796,
        -0.02148947,
        -0.012978688,
        0.12503287,
        -0.11742784,
        -0.105447695,
        0.069523074,
        -0.056159046,
        -0.10803293,
        -0.24169755,
        -0.08166598,
        -0.003831233,
        -0.027100436,
        0.030017605,
        0.10940312,
        0.001906845,
        0.2973565,
        -0.1520755,
        0.026539667,
        0.12159158,
        0.28816432,
        0.19931369,
        0.08752451,
        -0.35336378,
        -0.08740417,
        0.035136286,
        0.2385081,
        -0.06005144,
        0.12200026,
        -0.07502742,
        0.16615787,
        -0.097952805,
        0.023137465,
        -0.052640323,
        0.038375247,
        0.04836425,
        0.16589451,
        0.14115527,
        -0.08828708,
        0.10380781,
        0.038032558,
        0.13595995,
        -0.034766827,
        0.14344144,
        0.14515048,
        0.081200115,
        0.25144368,
        -0.016039222,
        0.08274635,
        0.06351777,
        -0.0121698845,
        0.12992567,
        0.19310881,
        0.020881386,
        0.14545254,
        0.11355374,
        -0.05640027,
        0.008741047,
        0.24799106,
        -0.39070928,
        -0.08124053,
        -0.01613103,
        -0.17574656,
        -0.14228952,
        -0.0054765227,
        -0.075465634,
        0.045631032,
        -0.018652111,
        -0.25613353,
        -0.20981686,
        -0.28972593,
        -0.045121666,
        0.27993786,
        0.10970601,
        0.06772557,
        0.20528886,
        -0.021063084,
        0.055280566,
        0.12377197,
        -0.29347226,
        0.03766888,
        0.1871394,
        -0.08729627,
        -0.01127552,
        -0.0026935383,
        0.034212574,
        0.09966971,
        0.075156465,
        0.116542794,
        -0.16148272,
        0.01855711,
        -0.15773574,
        0.033602484,
        0.20938618,
        0.18891157,
        0.015320122,
        0.109540254,
        0.12548469,
        0.09992905,
        -0.20123114,
        -0.025520833,
        -0.15346168,
        -0.23181492,
        -0.09203578,
        -0.074630044,
        0.1429855,
        0.26687205,
        0.09238902,
        -0.18097845,
        0.18753484,
        0.14243858,
        -0.049733013,
        0.10740332,
        0.014183312,
        0.011477785,
        -0.027170261,
        -0.16152051,
        -0.10910824,
        -0.054020863,
        0.04748124,
        0.04936624,
        0.24928847,
        0.037844066,
        0.06113065,
        -0.02882229,
        -0.19454914,
        -0.09698091,
        -0.072108105,
        -0.00012362652,
        0.3785336,
        0.022970593,
        -0.24404494,
        0.062375784,
        0.08886286,
        -0.08180402,
        -0.0135944,
        0.0851373,
        -0.018370746,
        -0.1727089,
        0.066173635,
        0.080198966,
        -0.057048567,
        0.14830174,
        0.099698514,
        -0.30267653,
        0.07253128,
        -0.18820134,
        -0.027628692,
        -0.24444999,
        0.2065835,
        0.14640841,
        0.05732661,
        -0.004692854,
        0.004564742,
        -0.018652651,
        0.1219527,
        -0.40865436,
        0.14131112,
        -0.06875623,
        0.10071523,
        -0.2051688,
        0.21703547,
        0.12413766,
        -0.008509753,
        0.16367248,
        -0.16425794,
        -0.031129858,
        -0.12449868,
        -0.010614727,
        0.15201445,
        -0.31368676,
        -0.0335859,
        -0.19066116,
        -0.27799225,
        0.32979256,
        0.060687825,
        0.07642484,
        -0.29146415,
        0.16136011,
        0.10813824,
        -0.030251907,
        0.22817077,
        -0.28132084,
        -0.08105253,
        -0.0016750989,
        -0.03445491,
        0.1753436,
        0.0704834,
        0.03610629,
        -0.2603928,
        0.07137791,
        -0.09498265,
        -0.015721122,
        0.30206954,
        -0.059925538,
        -0.04552576,
        0.30514464,
        0.1237011,
        0.1627236,
        0.22153385,
        0.09755567,
        0.19157423,
        -0.011224172,
        -0.095621645,
        0.12339348,
        -0.00991624,
        -0.106074944,
        -0.17845969,
        0.057147115,
        0.009999411,
        -0.12780537,
        0.1588826,
        -0.15166046,
        0.08401826,
        0.09079786,
        0.04552895,
        -0.0692952,
        -0.049163144,
        0.23214297,
        0.018283319,
        0.006293732,
        0.09141901,
        0.10965313,
        0.17840514,
        0.012704145,
        -0.20617121,
        -0.1351404,
        -0.23650229,
        0.10742013,
        -0.052359678,
        -0.12850995,
        -0.054658372,
        0.1160925,
        -0.06688698,
        -0.29343188,
        -0.19348612,
        -0.24616532,
        0.09843478,
        -0.04404037,
        -0.28275308,
        -0.0075990115,
        -0.0077436306,
        -0.2575179,
        0.09872133,
        0.036671214,
        0.07393609,
        -0.0077664712,
        0.048418958,
        0.19018865,
        0.21088335,
        -0.06655451,
        0.10639848,
        -0.1181211,
        -0.009716328,
        0.013751408,
        -0.108787544,
        -0.19104132,
        0.12355461,
        0.00015599071,
        -0.025686251,
        0.1415744,
        0.020673502,
        0.43267396,
        0.028647538,
        -0.055429187,
        -0.21510568,
        0.13065313,
        -0.01028856,
        -0.060458038,
        -0.17026736,
        -0.007810216,
        -0.018310376,
        -0.17546415,
        -0.12963404,
        0.20080312,
        -0.18829732,
        0.10016718,
        0.26401713,
        -0.047384437,
        -0.034169268,
        0.016200827,
        -0.11331247,
        -0.016686076,
        0.08677416,
        0.2927312,
        0.10936843,
        0.10090068,
        -0.042267345,
        0.030857425,
        0.07558614,
        0.26376048,
        0.0960284,
        0.18064442,
        0.11285952,
        0.24213259,
        -0.05574131,
        0.049462862,
        -0.2738432,
        0.19089748,
        -0.014665998,
        0.0870687,
        -0.17213771,
        0.1750398,
        0.11319145,
        -0.03705338,
        0.20139359,
        -0.17319456,
        0.25177252,
        0.16053909,
        0.095839106,
        0.00897877,
        -0.023201818,
        -0.18344197,
        0.17745116,
        0.13969341,
        0.11411116,
        0.23823345,
        0.15350594,
        0.057134066,
        0.036293086,
        -0.0023180777,
        0.02186526,
        -0.15536532,
        -0.2652892,
        0.066465355,
        -0.10862556,
        0.13698627,
        0.14035834,
        0.2019595,
        -0.0040605213,
        -0.014015299,
        0.12279341,
        0.015426882,
        -0.19922167,
        0.0042567723,
        -0.17553464,
        0.21377394,
        0.23857881,
        0.25655535,
        -0.05511862,
        0.048140462,
        0.11451402,
        0.17514828,
        -0.248309,
        -0.07825708,
        -0.11035975,
        0.026558274,
        0.08723198,
        -0.055500478,
        0.17106988,
        0.019328045,
        -0.0688725,
        -0.0993217,
        0.018350217,
        -0.23717324,
        0.032225866,
        0.0952352,
        -0.016890507,
        -0.123182826,
        -0.3041423,
        -0.12736635,
        -0.06849206,
        -0.0030301656,
        -0.094711974,
        -0.14934461,
        -0.05143102,
        0.11775755,
        -0.028771255,
        0.0070177987,
        -0.05640612,
        0.10487003,
        0.047234222,
        0.23120862,
        0.30643275,
        0.10272787,
        0.22082935,
        0.0849579,
        -0.31119514,
        -0.08408424,
        0.12256833,
        -0.0038912366,
        -0.23770651,
        0.0063607935,
        -0.14067486,
        0.13949874,
        -0.04699845,
        0.21928878,
        -0.10336671,
        0.16027091,
        -0.3318121,
        0.108401544,
        0.15632136,
        -0.20256782,
        -0.054116827,
        -0.1433245,
        -0.14075153,
        -0.24339944,
        0.00923922,
        0.007473556,
        -0.012143783,
        -0.15967526,
        0.26184314,
        -0.2450105,
        0.11719903,
        -0.34720618,
        -0.080455884,
        -0.05164139,
        0.09891298,
        0.0019069805,
        0.032463107,
        -0.050689504,
        0.076160565,
        -0.019085282,
        0.35428202,
        -0.010045095,
        -0.038142636,
        0.050967064,
        -0.099645175,
        0.045139357,
        -0.1182893,
        -0.00975248,
        -0.28864357,
        0.20423561,
        0.14702459,
        -0.011421673,
        0.026393486,
        -0.056876365,
        -0.23657148,
        0.10760601,
        0.050121237,
        -0.0086509315,
        -0.051511824,
        -0.27159765,
        0.07753959,
        0.35795423,
        0.15384676,
        0.06647821,
        -0.33263758,
        0.123852864,
        -0.0012988932,
        -0.21049842,
        0.12787156,
        -0.14812665,
        0.04196579,
        0.0042910795,
        -0.0661261,
        0.05255751,
        0.19874857,
        0.012869398,
        0.07106369,
        -0.050349165,
        0.20695476,
        -0.16983348,
        0.18727061,
        0.28139362,
        -0.09739274,
        0.16186981,
        0.1312716,
        0.06961935,
        -0.034384336,
        0.17367718,
        -0.17516631,
        -0.057294834,
        -0.1152937,
        0.1286789,
        -0.018686464,
        0.12234928,
        0.009417612,
        -0.023650907,
        -0.116005085,
        -0.04431132,
        -0.045351587,
        -0.29275993,
        -0.021628333,
        -0.09016734,
        0.15173918,
        0.13670106,
        -0.061233003,
        -0.2149177,
        -0.0070642927,
        -0.18880914,
        0.11886138,
        0.058372848,
        0.116101936,
        -0.058531456,
        -0.08681986,
        -0.13190913,
        0.013699087,
        0.19945426,
        -0.10107615,
        0.16865508,
        -0.09593148,
        -0.08493851,
        0.0034869611,
        0.15492451,
        0.05187518,
        -0.085933484,
        -0.047007564,
        0.006093715,
        -0.23126262,
        0.19811745,
        -0.13455027,
        -0.0786937,
        -0.20199844,
        0.19744837,
        -0.06446079,
        0.13766055,
        0.08937003,
        0.29712626,
        0.002096076,
        -0.2318132,
        -0.06476225,
        -0.113633335,
        0.0048831,
        0.2340896,
        -0.20685814,
        -0.2941639,
        -0.02346228,
        0.20744225,
        -0.008980928,
        0.15117902,
        0.067060314,
        0.21518041,
        0.09089982,
        0.14809737,
        0.15828595,
        0.08789868,
        0.29319102,
        0.036782924,
        -0.2314132,
        -0.19414438,
        0.037638336,
        0.009086811,
        0.0026625327,
        0.03850159,
        -0.06474075,
        -0.156153,
        0.0057169474,
        -0.10538323,
        0.022402933,
        -0.10589573,
        0.062420126,
        0.06174175,
        -0.09664107,
        -0.12286155,
        -0.068127714,
        0.09057007,
        -0.08197312,
        0.014838298,
        -0.21422495,
        -0.022539772,
        -0.041479062,
        0.043806937,
        -0.31307778,
        -0.08717575,
        -0.049810637,
        0.29154983,
        -0.21714829,
        -0.07818033,
        0.058076438,
        0.063973516,
        0.16443413,
        0.20473474,
        -0.24399957,
        -0.14272538,
        0.16559348,
        -0.057905845,
        -0.042107012,
        0.09661258,
        0.32985324,
        0.054133598,
        0.17218763,
        0.14039761,
        0.006086461,
        0.043456715,
        0.07199664,
        -0.17336717,
        0.0751762,
        0.03648122,
        -0.09272049,
        -0.07377475,
        0.12693731,
        -0.07226104,
        0.05063499,
        0.045094658,
        0.3036639,
        0.23626532,
        0.19983071,
        -0.01687624,
        0.07533675,
        0.26545915,
        0.20673354,
        -0.06874719,
        0.039776187,
        0.006093888,
        -0.030486071,
        0.25289688,
        0.23372212,
        0.18274958,
        0.08455327,
        0.12716952,
        -0.1255858,
        0.00803452,
        -0.2200844,
        -0.03637436,
        -0.22388852,
        0.02074845,
        -0.013541605,
        0.098947726,
        0.13627875,
        -0.2340891,
        0.06037628,
        -0.05064253,
        -0.19518241,
        0.21411058,
        -0.012589014,
        0.063312255,
        0.055255234,
        0.26891378,
        0.017282628,
        0.039718002,
        -0.16526766,
        0.30206853,
        0.26256073,
        0.027553154,
        -0.0346651,
        0.059844133,
        -0.1588904,
        0.2974635,
        0.1113507,
        -0.022421403,
        -0.22842011,
        -0.234694,
        -0.08100685,
        0.11795999,
        -0.12957619,
        -0.23109701,
        0.15881419,
        0.14171407,
        0.145996,
        0.117205545,
        -0.028192911,
        -0.08522302,
        -0.08597147,
        -0.11232513,
        -0.23133941,
        0.022607801,
        0.11477004,
        0.081187695,
        -0.39565936,
        0.22240944,
        -0.057128463,
        0.055172026,
        -0.21369454,
        -0.14011425,
        0.061720878,
        -0.0015415371,
        0.22430305,
        0.13380392,
        0.033399165,
        0.027441902,
        -0.1240411,
        -0.042692214,
        -0.05505201,
        -0.15602171,
        0.07958891,
        0.021988142,
        0.094289005,
        -0.1580088,
        0.05430699,
        0.21845303,
        -0.03485387,
        0.13937153,
        -0.25964656,
        0.08156388,
        -0.005684026,
        -0.05293175,
        -0.2569642,
        -0.0873481,
        -0.027827734,
        -0.059866514,
        -0.08161969,
        0.0071762507,
        -0.12745821,
        0.06831511,
        -0.059357207,
        -0.14840768,
        0.17094223,
        -0.10045026,
        0.14617273,
        -0.043656595,
        -0.15617245,
        -0.036128446,
        0.021919258,
        -0.340161,
        -0.06286452,
        0.26851913,
        0.2483158,
        -0.059336424,
        0.0783507,
        0.023521664,
        -0.051343255,
        -0.21931262,
        0.05394611,
        0.16934478,
        -0.09992071,
        -0.08926577,
        0.09042818,
        0.07924207,
        -0.07890525,
        0.01121695,
        -0.14096391,
        0.1495486,
        -0.19969748,
        0.014808163,
        -0.09246524,
        0.14301755,
        -0.040818352,
        -0.18682314,
        0.040085874,
        -0.07550436,
        -0.0014377366,
        -0.009925371,
        -0.20222789,
        0.14800343,
        0.069687255,
        -0.23346472,
        -0.04035119,
        -0.2773161,
        0.10498233,
        -0.0024901272,
        0.1456087,
        -0.07373705,
        -0.04674905,
        0.058243643,
        0.14439993,
        -0.15434426,
        0.14019462,
        0.20688649,
        0.23542713,
        0.1653496,
        0.10396236,
        -0.16925001,
        -0.32606977,
        0.12934056,
        0.038619354,
        -0.23557253,
        -0.08370945,
        -0.4819968,
        0.012749315,
        0.15844433,
        -0.1857894,
        -0.13453795,
        -0.21694542,
        -0.043689862,
        0.09296245,
        0.0578032,
        -0.12818639,
        0.23353541,
        0.07451976,
        -0.25480685,
        0.067642,
        0.036251675,
        -0.30503118,
        -0.014864202,
        0.15998435,
        -0.016336322,
        -0.04325004,
        -0.011524395,
        -0.33212978,
        -0.21826738,
        -0.0026224284,
        0.119975045,
        -0.061135095,
        -0.039691437,
        -0.061609194,
        -0.20660754,
        0.031111091,
        -0.07404456,
        -0.21784033,
        0.0017173316,
        0.25245276,
        -0.12081151,
        0.15215139,
        -0.0257379,
        -0.005145369,
        -0.056240205,
        0.19115144,
        0.13848142,
        0.016125962,
        0.021319704,
        0.11094706,
        -0.037645422,
        0.018388232,
        -0.1206526,
        0.21853857,
        -0.100336164,
        0.14039224,
        -0.026816493,
        -0.033553004,
        0.044251695,
        0.12724356,
        0.07683823,
        0.060031857,
        -0.08614395,
        0.25736585,
        -0.1880297,
        -0.015802585,
        0.0065714316,
        0.11370755,
        -0.12952921,
        -0.10201149,
        -0.053122822,
        -0.098437056,
        0.020642413,
        0.07865375,
        -0.016497085,
        -0.1927238,
        0.03258682,
        -0.36104882,
        -0.023955736,
        -0.16662551,
        -0.16495167,
        -0.16051,
        -0.17842375,
        0.11972885,
        -0.15613516,
        0.06135856,
        0.3984938,
        -0.07758882,
        -0.1417304,
        -0.03242588,
        0.16442561,
        0.17105015,
        -0.07369536,
        0.09560323,
        0.09250667,
        -0.042745117,
        0.2825043,
        -0.06858274,
        -0.123237126,
        0.19008298,
        0.16081534,
        0.016933938,
        0.114259504,
        0.28760004,
        -0.12267408,
        0.023555487,
        -0.010549955,
        0.13448858,
        0.21408218,
        0.2756036,
        0.026260372,
        -0.03215469,
        -0.07472897,
        -0.074929774,
        0.04000042,
        -0.074875444,
        0.023464074,
        -0.112625785,
        -0.20826271,
        0.23966582,
        -0.06994122,
        -0.035139058,
        -0.067870125,
        0.06956736,
        0.5433103,
        -0.008708581,
        -0.28617227,
        0.20702018,
        0.106275424,
        0.06941597,
        0.05308972,
        -0.07151921,
        0.1366235,
        -0.07194784,
        -0.034991,
        0.19396524,
        0.2623104,
        0.13651943,
        0.40807804,
        0.07938425,
        0.037213817,
        -0.06644975,
        0.043062884,
        0.20792516,
        0.27153888,
        0.33872956,
        0.012637253,
        -0.010401977,
        0.13279682,
        -0.16405992,
        -0.29398474,
        0.10241219,
        -0.11235877,
        -0.039850045,
        0.022498947,
        0.11315816,
        0.17481238,
        -0.09725862,
        -0.06375346,
        -0.2006235,
        -0.085877255,
        -0.08425908,
        0.2561227,
        0.0673101,
        -0.26419005,
        0.017218465,
        -0.05755743,
        0.10711429,
        0.3337117,
        -0.122918434,
        0.14999671,
        -0.021348434,
        0.0779501,
        0.54365814,
        0.23365249,
        0.1467718,
        0.16937959,
        0.008103592,
        0.0685775,
        -0.20425607,
        -0.03363837,
        0.08303722,
        0.07718711,
        0.03242963,
        -0.20090699,
        -0.17539386,
        0.09221564,
        0.14132842,
        -0.1592751,
        0.11741526,
        0.12658696,
        -0.049972426,
        -0.1426201,
        -0.10399343,
        0.051557492,
        -0.014282214,
        -0.097908214,
        -0.0051730303,
        0.07906296,
        0.059741084,
        -0.07502753,
        0.0737082,
        0.078395635,
        -0.10310201,
        -0.25749496,
        -0.22474578,
        -0.006574003,
        -0.13986652,
        0.14074598,
        -0.041779462,
        0.028625537,
        0.13375428,
        -0.037200045,
        0.044868626,
        -0.059431065,
        -0.3576935,
        -0.05583685,
        0.15234743,
        0.02130396,
        0.093696766,
        0.028683009,
        0.2745401,
        0.11931481,
        -0.08208728,
        0.17982595,
        0.11603332,
        -0.14310993,
        0.32618386,
        0.04836464,
        0.018013174,
        -0.08143824,
        -0.22615938,
        0.16707641,
        0.036656972,
        0.0075572045,
        -0.072692916,
        0.1233395,
        -0.17375773,
        -0.059287433,
        -0.14040177,
        -0.0010484828,
        -0.21461889,
        0.1253132,
        -0.13644816,
        -0.028713185,
        0.024162134,
        0.2861299,
        -0.020412056,
        -0.1574151,
        -0.040630374,
        0.20843296,
        -0.03521635,
        -0.1358346,
        -0.05701948,
        -0.25416628,
        0.06694288,
        0.3342814,
        -0.09861956,
        0.002342116,
        -0.15984093,
        -0.24224201,
        0.15676625,
        0.122920394,
        -0.20640764,
        -0.059423037,
        0.08585985,
        -0.1492244,
        -0.06685215,
        -0.004652893,
        -0.0740737,
        -0.16123036,
        -0.06816811,
        0.061436128,
        -0.12763678,
        -0.07893043,
        0.08035267,
        0.01660603,
        -0.28759873,
        -0.25190887,
        -0.00011082321,
        0.10160861,
        0.073371366,
        0.25368923,
        -0.18095028,
        0.21150197,
        -0.062481605,
        0.05210711,
        0.068507604,
        0.0034865728,
        0.10056536,
        -0.19129777,
        -0.16269797,
        0.119019195,
        -0.0065539265,
        0.1732469,
        -0.2603944,
        -0.010741603,
        -0.07077012,
        0.080664344,
        0.107195936,
        0.15348634,
        -0.15859427,
        -0.09011692,
        -0.16270398,
        -0.046419896,
        -0.15796615,
        0.2656801,
        -0.10015426,
        0.20292518,
        0.1210784,
        -0.11747299,
        0.09295705,
        -0.2773585,
        0.11951405,
        0.04391687,
        -0.15343885,
        0.010381457,
        -0.026808852,
        -0.26448894,
        0.03441217,
        0.2742811,
        -0.0742351,
        0.012406116,
        0.21026488,
        -0.1582975,
        0.26894143,
        -0.003365046,
        0.046938,
        -0.07465658,
        0.22609277,
        -0.06698784,
        0.072425775,
        -0.17661081,
        -0.06539344,
        -0.121713504,
        -0.010689811,
        -0.04598871,
        -0.029243559,
        -0.019155925,
        0.0950069,
        -0.20180684,
        0.15057118,
        -0.0038809658,
        -0.2239315,
        0.035293575,
        -0.16257614,
        -0.1054916,
        -0.17821376,
        -0.13222063,
        -0.095096305,
        0.03253851,
        -0.16250667,
        0.048962064,
        -0.27377242,
        0.03644637,
        -0.08856288,
        0.13865319,
        -0.11724375,
        0.23242503,
        -0.019695202,
        0.15154503,
        0.085537046,
        0.07661631,
        0.28999707,
        0.24021807,
        0.020841127,
        0.009082532,
        -0.1491475,
        0.19570565,
        -0.19871742,
        0.077760525,
        -0.16392471,
        -0.060100555,
        -0.005930107,
        0.1355251,
        0.015192646,
        -0.046828244,
        -0.13317257,
        0.04917077,
        0.025331276,
        0.013831473,
        -0.17301069,
        -0.07080196,
        -0.1611544,
        -0.1891149,
        -0.010749753,
        0.065191835,
        -0.081102505,
        0.2041455,
        0.37937757,
        0.010961471,
        -0.04704561,
        0.07013995,
        0.29401213,
        0.17600906,
        -0.029107558,
        -0.005390309,
        -0.09500345,
        -0.19913985,
        -0.107082546,
        -0.035585556,
        -0.041592866,
        0.12786278,
        -0.042474147,
        0.11397536,
        0.024440894,
        0.10958943,
        0.045443,
        0.021373501,
        0.024830747,
        -0.18200794,
        0.11280204,
        0.034587104,
        0.09629999,
        0.02414279,
        -0.08920969,
        -0.079462424,
        -0.124196045,
        -0.11471827,
        0.038588934,
        0.16082996,
        -0.25911105,
        -0.031059736,
        -0.057488855,
        0.20038693,
        -0.17391478,
        0.014561565,
        0.060895827,
        0.058907673,
        -0.14993016,
        0.24655618,
        0.17763294,
        0.024107564,
        0.060039677,
        -0.07336886,
        0.27225554,
        -0.097814314,
        0.28954402,
        0.0010035695,
        -0.01104877,
        -0.13907494,
        0.06119724,
        0.04956709,
        0.16088457,
        0.10898353,
        0.016846104,
        0.24114959,
        -0.10585693,
        -0.4669172,
        -0.014555763,
        -0.049038235,
        -0.08289369,
        -0.030894829,
        -0.0121964775,
        0.015687898,
        -0.2517359,
        -0.03018392,
        0.19580519,
        0.1380839,
        0.037280302,
        -0.27856278,
        0.21892765,
        -0.18068415,
        0.10643472,
        0.06238979,
        -0.11715531,
        -0.17710929,
        -0.21040517,
        0.061426505,
        -0.46635267,
        0.004635629,
        0.053922933,
        -0.011523863,
        0.067334995,
        -0.065446995,
        0.04452724,
        0.025918655,
        -0.17259511,
        -0.16147597,
        0.24033904,
        0.0045019547,
        -0.19471763,
        -0.18198398,
        0.0148346955,
        -0.06667105,
        -0.10939635,
        0.1276938,
        0.05506807,
        -0.100719124,
        -0.23745838,
        -0.34790555,
        0.04554091,
        0.034761738,
        -0.107743256,
        -0.16892295,
        0.123814724,
        -0.14749753,
        -0.1478309,
        -0.23043136,
        0.21229106,
        -0.028293123,
        0.082444854,
        -0.038067866,
        -0.045006685,
        -0.105883196,
        0.40221107,
        -0.30044454,
        0.17359778,
        0.18621275,
        0.17542477,
        -0.22851782,
        -0.10428036,
        -0.205074,
        0.18733235,
        0.055937238,
        -0.08837807,
        0.044546135,
        0.1430248,
        -0.085538186,
        -0.16226219,
        0.09382872,
        -0.10051319,
        -0.045011822,
        0.11032465,
        0.07704708,
        0.17752413,
        0.08530593,
        -0.19844195,
        -0.104226515,
        0.17735808,
