{
  "name": "5-gram",
  "parameter_count": 188082,
  "layers": [
    {
      "layer_type": "Linear",
      "name": "Input",
      "index": 0,
      "weights": [
        -0.24553396,
        -0.024210036,
        -0.56929654,
        -0.09482588,
        -0.035158917,
        -0.238457,
        0.15713404,
        -0.24637662,
        0.43199423,
        0.26564255,
        -0.27102575,
        0.11766142,
        0.11532587,
        0.0014941264,
        0.028915014,
        -0.068604544,
        -0.13409747,
        0.18380657,
        0.2233106,
        0.48508808,
        -0.12767234,
        0.03799794,
        0.2271189,
        0.19070795,
        0.09531217,
        0.047883574,
        0.2547853,
        -0.06785191,
        -0.014390722,
        -0.13671488,
        -0.01968254,
        0.10351829,
        -0.14965248,
        -0.34528166,
        -0.36265284,
        -0.30932373,
        0.068333015,
        -0.30990496,
        0.01418584,
        -0.08040838,
        -0.021984452,
        -0.08028183,
        -0.17141466,
        -0.057324678,
        0.17997575,
        0.051182214,
        -0.07016385,
        0.1691171,
        0.08782249,
        0.23014739,
        0.34395942,
        0.12993091,
        0.01571927,
        -1.3047663,
        -0.13716269,
        0.11710512,
        -0.22924085,
        -0.09289059,
        0.3152536,
        0.1329949,
        0.2972331,
        -0.021808935,
        -0.048201595,
        -0.10981827,
        0.087104715,
        0.09613239,
        -0.1746436,
        0.0548028,
        0.051780257,
        0.27465504,
        -0.05326821,
        -0.27283588,
        0.15389416,
        -0.7621854,
        0.21340527,
        0.17428611,
        0.5181025,
        -0.06840734,
        0.037487417,
        0.14555907,
        -0.16968085,
        -0.054877475,
        -0.012254694,
        -0.11186697,
        0.10265525,
        -0.5681347,
        0.49886477,
        0.097315975,
        -0.22010206,
        -0.16404474,
        -0.14476426,
        0.045092374,
        -0.16771193,
        -0.22699176,
        0.11163732,
        -0.3741459,
        -0.13069615,
        0.14170077,
        -0.0756574,
        -0.14927703,
        0.22205968,
        -0.20553507,
        -0.34960064,
        -0.012348239,
        -0.08102949,
        0.26314953,
        0.071664155,
        0.016998965,
        -0.06406263,
        0.07143376,
        0.31074128,
        0.19394313,
        0.12021378,
        0.015249617,
        -0.27508664,
        -0.1206006,
        0.20132186,
        0.054596964,
        -0.19076034,
        -0.23507884,
        0.03480467,
        -0.45666268,
        -0.13181438,
        -0.13749655,
        0.3593447,
        0.16062026,
        0.041325204,
        -0.077693,
        -0.10399167,
        0.19068837,
        0.085843205,
        -0.06006443,
        -0.11715588,
        0.06945236,
        -0.013589426,
        0.13481054,
        -0.17475663,
        0.09975655,
        -0.02448478,
        0.30379808,
        -0.11598,
        0.1499686,
        0.03845046,
        0.1084431,
        0.34471178,
        0.20384789,
        0.12185349,
        -0.20710845,
        0.20268042,
        -0.13360013,
        -0.080655426,
        0.005455384,
        -0.16651092,
        0.33610278,
        -0.043376785,
        0.0705862,
        0.05616965,
        -0.097958356,
        0.20415394,
        -0.089114636,
        -0.09632523,
        -0.03281121,
        0.1510257,
        -0.03444277,
        0.0877072,
        -0.019629743,
        0.051133797,
        0.0262955,
        0.058058143,
        0.035546146,
        -0.2988885,
        0.073687404,
        0.013511744,
        0.013543571,
        0.14005667,
        0.2781882,
        0.049326368,
        -0.152677,
        -0.11337062,
        -0.2858572,
        0.053504467,
        -0.48990425,
        -0.008313106,
        -0.08496903,
        0.0050950292,
        -0.10305469,
        -0.13003667,
        0.030785186,
        -0.11112883,
        0.12241486,
        -0.22923568,
        0.004347565,
        0.10614571,
        0.0013341593,
        0.13470416,
        -0.23927775,
        0.042812563,
        -0.10740219,
        -0.2298117,
        -0.046550393,
        0.10535344,
        0.03763294,
        -0.09557021,
        0.15315945,
        -0.3532612,
        0.037147716,
        0.16454124,
        -0.10735442,
        -0.07310537,
        -0.038507696,
        0.038596492,
        0.22671722,
        0.10698158,
        -0.00033894787,
        -0.1581077,
        0.30127335,
        -0.071236536,
        -0.00069568935,
        -0.0067074215,
        0.08659512,
        -0.0020858378,
        0.12438386,
        -0.13302147,
        0.010026498,
        -0.017307755,
        -0.12149204,
        -0.17980826,
        -0.16119175,
        0.30507672,
        0.17424902,
        0.12057227,
        0.0356526,
        0.018571232,
        -0.09910601,
        0.0034868657,
        0.10590382,
        -0.06232447,
        0.007001476,
        -0.107398584,
        -0.16349024,
        0.047765218,
        0.08868902,
        -0.026699984,
        0.22825089,
        -0.010878748,
        -0.013821252,
        0.113342226,
        0.044316515,
        0.094634935,
        -0.14222448,
        0.0406836,
        0.053298984,
        -0.15267839,
        0.27240264,
        0.04460918,
        0.009369569,
        -0.19571188,
        -0.0038434453,
        -0.12427881,
        -0.09603155,
        -0.0446611,
        -0.04531479,
        0.04959274,
        0.053631276,
        -0.09837015,
        -0.1669845,
        0.3632698,
        -0.08527564,
        0.026051898,
        -0.004500448,
        0.044550054,
        -0.021296192,
        0.068875246,
        0.11455953,
        0.08712276,
        0.29431129,
        -0.08301783,
        0.012936487,
        0.047878426,
        -0.054638427,
        0.0780064,
        0.027541697,
        -0.0061273207,
        -0.22054811,
        -0.067585096,
        0.15769473,
        -0.17863351,
        0.13794105,
        0.1109332,
        -0.09720506,
        0.14428215,
        -0.044761766,
        0.022182515,
        0.01644279,
        0.03821252,
        -0.16082594,
        -0.15059729,
        -0.002456203,
        -0.05080425,
        -0.07015326,
        0.14514844,
        0.017299145,
        0.20420991,
        -0.16522305,
        0.06732992,
        0.016327316,
        -0.22736496,
        0.10010154,
        0.0770399,
        0.19200513,
        0.23979157,
        0.19148238,
        -0.041793972,
        -0.20355052,
        -0.10802977,
        0.0052577783,
        -0.05464183,
        0.41403526,
        -0.16551122,
        0.09760076,
        -0.005621277,
        -0.34838104,
        0.09842028,
        0.05780686,
        0.009803606,
        -0.003876821,
        -0.04315563,
        -0.21938992,
        -0.26003945,
        -0.08658976,
        0.19810717,
        -0.14501369,
        -0.122934654,
        0.10254756,
        0.061839122,
        -0.21145599,
        -0.09159994,
        0.105269834,
        0.39199844,
        -0.0048585325,
        0.06399919,
        0.2581279,
        -0.16424645,
        0.16716775,
        0.002729815,
        0.03461226,
        0.018950919,
        0.085786626,
        -0.039896715,
        0.16581629,
        -0.19740827,
        -0.17735018,
        -0.08775687,
        -0.069392495,
        0.25206044,
        -0.18345967,
        -0.06973674,
        0.10804748,
        -0.41524485,
        -0.12871446,
        0.13968323,
        0.17871562,
        -0.15801828,
        0.08605325,
        0.09751704,
        0.18496618,
        -0.06688293,
        -0.04459049,
        0.04211576,
        0.016322982,
        0.1858741,
        0.14406215,
        -0.04273047,
        0.102491766,
        0.0658281,
        -0.040381357,
        -0.02101118,
        0.12760332,
        -0.102762155,
        -0.041750982,
        -0.34670296,
        -0.18928477,
        0.13459438,
        0.14165121,
        0.16008504,
        -0.07011474,
        -0.09394863,
        0.31732622,
        -0.21200258,
        0.3547986,
        -0.2078362,
        -0.0027815073,
        0.018210111,
        0.09553222,
        0.11760637,
        0.22593343,
        -0.04257587,
        0.020942029,
        0.22262262,
        0.0012660504,
        0.0029886323,
        0.1325896,
        -0.1443956,
        0.17786634,
        -0.057806496,
        -0.018496465,
        0.11470753,
        -0.030826263,
        0.049434118,
        -0.18724562,
        0.22951113,
        -0.13884887,
        0.0124747995,
        -0.19091089,
        0.12682085,
        0.072024174,
        0.024373392,
        -0.1682735,
        0.020808231,
        -0.2728862,
        -0.13961576,
        -0.032939855,
        -0.008042685,
        0.25352225,
        0.14686958,
        0.2635694,
        0.031000905,
        0.05425743,
        0.12536535,
        0.17635041,
        -0.05256098,
        0.2813392,
        -0.102520965,
        -0.10836088,
        0.14767806,
        -0.07807472,
        0.05010263,
        -0.25270313,
        -0.21803264,
        -0.12308378,
        0.004654202,
        -0.08231844,
        0.23382957,
        0.05345758,
        0.05893856,
        -0.041478727,
        -0.0066408813,
        0.2273765,
        -0.15112323,
        0.13066907,
        0.010066471,
        0.039596364,
        -0.042275954,
        -0.08926634,
        0.098691106,
        -0.15293802,
        -0.052153412,
        0.0535425,
        -0.17328855,
        -0.11082194,
        0.15075375,
        0.08887514,
        -0.25187302,
        -0.25231123,
        -0.0866375,
        -0.11709144,
        -0.21708827,
        0.14926639,
        0.009432467,
        -0.0050572725,
        0.041652992,
        0.041034084,
        0.20192637,
        0.17004213,
        -0.034023833,
        0.079081625,
        -0.01891609,
        -0.03809416,
        -0.10313929,
        0.0133547485,
        -0.32730657,
        -0.049678363,
        -0.036802277,
        0.13952339,
        0.03508098,
        -0.31118166,
        -0.14580637,
        -0.074607104,
        0.27047175,
        -0.020329522,
        -0.015127122,
        -0.34574297,
        0.14821476,
        -0.29133686,
        0.0069747013,
        -0.13083002,
        0.19387622,
        -0.091134906,
        0.06443748,
        -0.05057624,
        -0.11642883,
        -0.1156752,
        -0.1429932,
        0.048543874,
        -0.2252546,
        -0.07954965,
        0.19586632,
        0.07383253,
        -0.1116624,
        -0.005756195,
        0.052288033,
        -0.13710108,
        -0.18906473,
        0.0096574295,
        0.13928314,
        -0.11906279,
        -0.03599561,
        -0.10018496,
        -0.05942938,
        -0.08184485,
        -0.06081248,
        0.06831704,
        0.18422821,
        -0.1661845,
        -0.14330779,
        0.11124445,
        0.01098032,
        -0.05092175,
        -0.14124411,
        0.21303795,
        -0.040389925,
        -0.09727219,
        0.06562297,
        0.008737407,
        0.073534675,
        0.17773828,
        -0.28443316,
        -0.23056452,
        -0.13167502,
        -0.0993406,
        -0.03282367,
        0.14321783,
        -0.25453603,
        0.0862354,
        -0.05771944,
        0.10103881,
        -0.13239856,
        0.108026676,
        0.11449931,
        0.025045073,
        0.137396,
        -0.09968208,
        -0.071701,
        0.10580895,
        0.023172786,
        -0.17751803,
        -0.027056547,
        0.058570877,
        -0.11481714,
        -0.030681493,
        0.0055092727,
        0.18750149,
        0.20003928,
        0.13197163,
        -0.26185626,
        0.08199798,
        0.3508439,
        -0.05984175,
        0.35150772,
        0.15503731,
        0.097843714,
        -0.020151004,
        0.084747545,
        0.31390727,
        -0.021391232,
        0.19221218,
        -0.0648552,
        0.13781972,
        -0.13676539,
        0.095014565,
        0.0749669,
        -0.033283502,
        0.10665096,
        0.15918075,
        -0.17208263,
        0.11585422,
        -0.105478875,
        -0.09185604,
        0.09575686,
        0.041283794,
        0.10947474,
        -0.3093465,
        -0.06793542,
        -0.08141275,
        -0.03403979,
        -0.016111651,
        0.23693576,
        0.006793999,
        -0.2455328,
        -0.045187555,
        -0.21061003,
        0.14140835,
        -0.10516012,
        -0.22459604,
        -0.08819483,
        -0.09620303,
        -0.07142436,
        0.20574151,
        -0.17178267,
        -0.004754366,
        0.18331176,
        0.10412957,
        -0.037995283,
        -0.121457726,
        0.024590662,
        -0.09297913,
        0.1786199,
        -0.16466904,
        -0.105559275,
        -0.19297332,
        -0.047899585,
        -0.04539919,
        0.03928516,
        0.009179939,
        -0.25392017,
        -0.04786202,
        -0.08158715,
        0.10127581,
        -0.16455096,
        0.13271806,
        0.26016974,
        0.2772197,
        0.04370832,
        0.1670164,
        0.14413185,
        0.0066347546,
        -0.031589594,
        -0.12108845,
        -0.16139667,
        0.0064365547,
        0.056739964,
        0.23174517,
        0.31074452,
        -0.031168343,
        -0.15204732,
        0.0151106585,
        -0.020067802,
        -0.041543476,
        0.027964577,
        0.08053014,
        0.110902816,
        -0.17853154,
        -0.07545885,
        -0.016954808,
        -0.22854196,
        -0.057504963,
        0.17593774,
        0.065594435,
        -0.0833841,
        0.041726194,
        -0.14690435,
        -0.11644232,
        0.06902805,
        0.044002287,
        0.05129763,
        0.14004938,
        0.17230554,
        0.093661815,
        0.17793538,
        -0.07373548,
        -0.26657698,
        -0.005879389,
        0.11625082,
        0.25254104,
        0.10245048,
        0.2037896,
        -0.11464397,
        0.062991425,
        -0.15246257,
        -0.12619755,
        0.00044510054,
        0.092462,
        0.056364395,
        -0.004489447,
        -0.03761153,
        -0.2782185,
        0.19123277,
        -0.039092995,
        -0.18903102,
        0.114634894,
        -0.00695413,
        -0.054214925,
        0.11699679,
        0.08810166,
        -0.14211835,
        0.098347925,
        -0.034498464,
        0.074510776,
        0.022072367,
        0.069555,
        0.34827134,
        -0.14251481,
        0.04447759,
        -0.048200708,
        0.14083603,
        0.08317101,
        -0.20334774,
        0.13597105,
        0.056921005,
        -0.16127183,
        0.4474103,
        -0.1460329,
        0.028445821,
        -0.108066015,
        0.08858658,
        -0.106772326,
        -0.028808776,
        0.14314799,
        0.07128998,
        -0.03687127,
        0.1301946,
        -0.025884174,
        0.2309475,
        -0.1265454,
        0.117407896,
        0.25226855,
        -0.20169502,
        -0.0044993064,
        0.03954815,
        -0.18271892,
        0.3711829,
        0.09959197,
        -0.09477083,
        0.026135713,
        0.23140658,
        0.06854028,
        0.03590989,
        0.12941597,
        0.0010371216,
        0.06959524,
        -0.04673521,
        -0.13124427,
        -0.035465214,
        0.021081695,
        0.044514075,
        -0.00822823,
        -0.14595927,
        -0.06605489,
        0.02044048,
        0.090410806,
        -0.19881748,
        0.008807997,
        -0.12264531,
        -0.19171111,
        0.062368292,
        -0.084562756,
        -0.04808473,
        0.04141352,
        -0.021435555,
        -0.0027969647,
        0.060982093,
        0.01877639,
        0.006055024,
        -0.20526288,
        0.100672625,
        -0.032879323,
        0.07912172,
        -0.10766959,
        0.0084188795,
        -0.07667248,
        0.04801273,
        -0.19324587,
        -0.24290676,
        -0.24699135,
        0.13657781,
        0.22783491,
        -0.09215578,
        0.12570415,
        0.34182534,
        -0.012288097,
        -0.10239651,
        -0.06279353,
        0.26396185,
        -0.13193499,
        0.012500111,
        -0.039622705,
        -0.047210608,
        -0.07385326,
        -0.17467634,
        0.08943756,
        0.12477117,
        -0.24311486,
        -0.22698659,
        0.08273529,
        -0.020274771,
        0.244839,
        -0.17881548,
        0.24235883,
        0.025531568,
        0.13351111,
        -0.038439002,
        0.037697114,
        -0.19269857,
        0.06583145,
        -0.4357985,
        -0.04507941,
        0.2177384,
        0.0030693018,
        -0.16490096,
        -0.21153775,
        -0.078905694,
        0.21539956,
        0.1524834,
        0.009165788,
        -0.10530484,
        -0.11254886,
        -0.08944785,
        0.22478649,
        -0.12378453,
        -0.15517841,
        0.24032483,
        0.16537245,
        -0.23594992,
        -0.13123077,
        0.10332346,
        0.025615271,
        -0.05370098,
        0.1861592,
        0.1303186,
        0.1352603,
        0.10414245,
        -0.029656757,
        -0.06155655,
        -0.13553657,
        0.18281876,
        0.09856417,
        -0.14164785,
        -0.051912006,
        0.065440916,
        0.15963534,
        0.06011186,
        0.13325171,
        0.22829789,
        0.08540319,
        -0.0554287,
        -0.008098041,
        -0.041635823,
        0.14072117,
        0.027708309,
        -0.07259583,
        0.12424198,
        0.10268976,
        0.06396741,
        0.05153168,
        -0.15847751,
        0.17190659,
        -0.013868624,
        0.22815517,
        0.18177602,
        -0.26410902,
        -0.17740297,
        -0.106768586,
        -0.21515378,
        -0.17243224,
        0.066938855,
        0.09108821,
        -0.020819124,
        0.16795912,
        -0.16804546,
        0.06223692,
        -0.14465563,
        0.06334857,
        -0.025508763,
        -0.055191755,
        -0.04213572,
        0.23668653,
        0.0040124506,
        0.10597027,
        0.007062732,
        0.114999786,
        -0.17863607,
        0.022126304,
        -0.12866779,
        -0.09307206,
        0.09405357,
        0.15356712,
        0.08260466,
        0.12894176,
        -0.20401023,
        0.087047175,
        0.14977579,
        0.07974858,
        -0.14546607,
        -0.20184779,
        0.23501438,
        -0.13469185,
        0.40773773,
        -0.31467062,
        0.039973516,
        0.048184436,
        -0.111480705,
        -0.12095888,
        -0.14699467,
        -0.018401822,
        0.011236359,
        -0.14739911,
        -0.031215161,
        0.10828581,
        -0.2374174,
        -0.20269525,
        0.13521144,
        -0.014144951,
        -0.026588872,
        0.12659653,
        0.32074133,
        0.061498933,
        0.04499743,
        0.084356,
        0.10061011,
        0.27116138,
        -0.10643619,
        0.22405708,
        0.021483732,
        -0.029770836,
        0.23508546,
        -0.074231654,
        -0.10748015,
        -0.15282767,
        -0.014731693,
        -0.105549134,
        -0.14481746,
        0.0769802,
        -0.026265012,
        0.13615848,
        -0.23621021,
        -0.014544657,
        -0.099171504,
        -0.12839973,
        0.0042711855,
        -0.037555635,
        -0.27051413,
        0.22800735,
        0.14751476,
        -0.022291886,
        0.008020364,
        0.17897092,
        0.12230054,
        -0.18435341,
        -0.07618788,
        0.0405916,
        0.11075239,
        -0.108094364,
        -0.19118999,
        0.0522879,
        0.03119436,
        -0.19780128,
        0.11104797,
        0.02118292,
        -0.18841659,
        0.10107276,
        -0.23553234,
        0.27331263,
        -0.15019067,
        -0.07837569,
        0.040030736,
        -0.048032694,
        0.2523372,
        -0.15141726,
        0.07557068,
        0.078133084,
        -0.069800705,
        0.1718091,
        -0.18070096,
        -0.04693045,
        0.17973697,
        -0.22646539,
        -0.106434174,
        0.35105518,
        -0.036845524,
        -0.15336952,
        -0.2206766,
        -0.032597393,
        -0.30932716,
        -0.19419287,
        -0.019070394,
        -0.058361966,
        0.06207136,
        -0.050790682,
        -0.26033247,
        -0.049811855,
        0.10705009,
        0.17181574,
        -0.019515645,
        0.067784935,
        0.07118191,
        0.10780633,
        -0.10279864,
        0.061171763,
        -0.42589483,
        -0.111440025,
        -0.13917094,
        0.054826878,
        -0.052583717,
        0.21311414,
        0.039360788,
        0.059954558,
        0.26860708,
        -0.1356696,
        -0.00063314004,
        -0.16692816,
        0.18293022,
        0.08924994,
        0.1959234,
        -0.010372471,
        -0.3344116,
        -0.10031256,
        0.096331544,
        -0.0040800986,
        -0.14705233,
        0.026882624,
        0.08835123,
        -0.009806915,
        0.0642201,
        -0.03259174,
        0.11396357,
        -0.15587127,
        -0.01831555,
        0.038957436,
        -0.11348038,
        0.21441415,
        0.0692145,
        -0.2520308,
        -0.086935334,
        0.055077024,
        0.050934523,
        0.029362993,
        -0.20168099,
        -0.15989934,
        -0.4464304,
        0.090134494,
        0.10395598,
        0.029020065,
        0.13922004,
        -0.057763502,
        0.009988976,
        -0.117461555,
        -0.110434756,
        0.072362825,
        0.04950363,
        -0.21444073,
        -0.09607683,
        -0.25231412,
        0.015427358,
        -0.036618672,
        -0.19906984,
        0.17422315,
        -0.09839316,
        -0.29034743,
        -0.102146395,
        -0.23894219,
        0.1787205,
        -0.06868089,
        -0.1115569,
        0.10346445,
        0.18625094,
        0.21530811,
        -0.2606577,
        -0.10258508,
        0.11584531,
        0.17298219,
        -0.048875686,
        -0.20367752,
        0.017986586,
        -0.011863988,
        0.18083702,
        0.33264524,
        0.095768064,
        0.320351,
        -0.044670343,
        0.14174652,
        -0.059514467,
        -0.09824587,
        0.10656086,
        0.2582065,
        0.04463822,
        -0.27231103,
        0.16442662,
        0.12432069,
        -0.10101279,
        0.22407597,
        0.13699451,
        -0.16876666,
        -0.008813097,
        0.029436242,
        -0.01563271,
        -0.053524345,
        0.022035645,
        -0.08546747,
        0.038126316,
        -0.029567143,
        0.2515022,
        -0.11838473,
        -0.24654685,
        -0.21809766,
        0.15369986,
        -0.040741332,
        0.03452476,
        0.31936607,
        -0.09780649,
        0.32004768,
        -0.06668963,
        0.35181043,
        -0.0817426,
        0.026454201,
        0.08502217,
        -0.08007141,
        -0.24405779,
        0.06325653,
        0.20395346,
        -0.3371353,
        -0.10650894,
        0.11923789,
        -0.18488193,
        0.08767753,
        -0.22137833,
        0.020850433,
        0.11345047,
        -0.14559573,
        -0.023418535,
        -0.0022027448,
        0.21609204,
        0.11293074,
        0.04181284,
        -0.16897863,
        -0.108935125,
        0.17555544,
        0.11625807,
        0.15090702,
        0.1020413,
        -0.11971115,
        0.041264564,
        0.0061667487,
        -0.23029149,
        0.35220653,
        -0.20595028,
        -0.118589394,
        -0.019401893,
        0.013067717,
        0.25046623,
        0.07170845,
        0.0061188927,
        0.026708767,
        -0.04239567,
        0.02351911,
        0.12863061,
        0.07726001,
        0.062492587,
        -0.3207402,
        0.07086738,
        0.09980876,
        -0.1081478,
        -0.030045317,
        -0.28280878,
        0.05335055,
        0.14866629,
        -0.032580744,
        -0.15626055,
        -0.14166598,
        0.1118329,
        -0.30721357,
        0.028556786,
        0.08786619,
        0.057526834,
        0.023834597,
        -0.094437405,
        0.04858317,
        0.03368638,
        0.067267165,
        -0.16178969,
        0.10314774,
        -0.1036091,
        -0.09851858,
        -0.034467295,
        -0.15151961,
        -0.1925413,
        0.05368785,
        0.032575842,
        -0.008219467,
        -0.25612703,
        -0.15174411,
        0.039730646,
        -0.20898242,
        0.33854604,
        -0.060761023,
        0.024232931,
        -0.15989232,
        -0.03434363,
        -0.0322946,
        0.067808025,
        0.117511,
        -0.40807667,
        -0.027428277,
        0.11270381,
        0.14983904,
        0.024687832,
        0.10154103,
        0.100479476,
        -0.30963868,
        0.25607526,
        0.09207127,
        0.096712574,
        0.09300709,
        0.022088267,
        -0.057152208,
        0.020050408,
        0.064581804,
        -0.063317165,
        -0.2859989,
        -0.05558637,
        -0.17298116,
        -0.09700173,
        -0.052751627,
        -0.0033201864,
        -0.22207618,
        -0.05324998,
        -0.021551643,
        -0.15077397,
        -0.17133485,
        0.16608205,
        -0.2789265,
        -0.07727995,
        -0.0063690324,
        0.14729524,
        -0.11738659,
        0.054096084,
        -0.18181995,
        0.034632545,
        0.15923814,
        -0.13938189,
        -0.052734178,
        0.10548198,
        0.3636315,
        -0.37235728,
        0.12267482,
        0.030297175,
        0.12098692,
        -0.060388617,
        -0.008579013,
        -0.21673805,
        0.044485394,
        0.09550299,
        0.12741499,
        -0.01639216,
        -0.262789,
        0.0514819,
        0.22912948,
        0.03248291,
        0.09634479,
        0.111243986,
        -0.061323427,
        -0.1202346,
        -0.031572923,
        0.32009614,
        0.10855471,
        0.067991525,
        0.0079974895,
        0.18986249,
        -0.24675786,
        -0.06196256,
        0.12454048,
        -0.00037991814,
        -0.14287224,
        -0.24836616,
        -0.18649657,
        -0.0671364,
        -0.14002292,
        -0.15985493,
        0.09499572,
        -0.2010431,
        -0.21143626,
        -0.09909051,
        0.04929388,
        0.025937283,
        -0.07483846,
        -0.047529515,
        0.3305205,
        -0.030296652,
        -0.06772119,
        0.324557,
        -0.23125428,
        -0.012899324,
        -0.087114505,
        0.15378192,
        -0.08218529,
        -0.2421424,
        -0.14053974,
        0.015272477,
        -0.14204967,
        0.116559096,
        -0.073050775,
        -0.00046929347,
        -0.048109394,
        -0.08259766,
        0.11921546,
        0.07399982,
        -0.033313956,
        -0.002409421,
        0.22945337,
        0.21926035,
        0.111149564,
        0.00913827,
        0.19506295,
        0.10815747,
        -0.041231073,
        -0.033699438,
        0.16143788,
        -0.0013267467,
        -0.0037115181,
        -0.15843658,
        -0.044036333,
        -0.06859375,
        0.19671316,
        0.10787989,
        0.15256932,
        -0.2641232,
        0.2422185,
        0.09848236,
        0.023312766,
        -0.23467237,
        0.024534432,
        0.036200438,
        -0.15072912,
        0.2325098,
        -0.2516807,
        -0.15491666,
        -0.07553447,
        -0.0848782,
        0.1062696,
        0.098248236,
        0.09656671,
        -0.0029083933,
        -0.054405745,
        0.06767337,
        0.02633793,
        0.31285077,
        -0.2833999,
        -0.1137917,
        -0.061266717,
        -0.08989992,
        -0.044366088,
        0.032583527,
        -0.007029515,
        0.3092347,
        0.030902233,
        -0.11700057,
        0.1417081,
        -0.07807851,
        -0.36471218,
        0.1840644,
        0.28732222,
        -0.29610923,
        0.1490503,
        -0.0763874,
        -0.04468231,
        -0.0776685,
        -0.20308937,
        0.1546495,
        0.36009246,
        0.03698475,
        -0.100951746,
        -0.06610697,
        -0.06139745,
        -0.08853141,
        -0.10295943,
        -0.03350794,
        -0.08993135,
        -0.079485245,
        -0.24210967,
        -0.05074422,
        -0.11611033,
        -0.26664206,
        -0.08106526,
        0.12052574,
        -0.18017137,
        0.028125105,
        -0.124153554,
        0.041868225,
        0.043029584,
        0.16804478,
        -0.19191314,
        0.098315075,
        0.032024477,
        0.1505927,
        0.12872888,
        -0.14763464,
        -0.02496443,
        -0.050586723,
        0.03837844,
        0.04047987,
        -0.20792705,
        0.16395965,
        0.28212452,
        0.20706649,
        -0.08926826,
        0.11592627,
        -0.13740066,
        -0.3248066,
        -0.17111091,
        0.058171954,
        -0.0038748463,
        -0.1505903,
        0.053904347,
        0.17529336,
        -0.16658974,
        0.39135152,
        0.09011555,
        0.16667014,
        0.031490542,
        -0.08336941,
        0.14561482,
        0.009603276,
        0.14817244,
        -0.017973298,
        -0.03994057,
        0.020096552,
        0.17452268,
        -0.122621015,
        0.17158476,
        0.12975644,
        0.32002538,
        -0.2810118,
        0.15663636,
        -0.121083364,
        -0.12481251,
        -0.0149098495,
        -0.10161088,
        -0.17145276,
        0.05039015,
        0.034627516,
        -0.21255231,
        -0.0204307,
        -0.121187866,
        -0.14482051,
        0.003265063,
        0.16889982,
        -0.3425401,
        -0.10211768,
        0.28735554,
        -0.0934962,
        0.078362055,
        -0.060089916,
        -0.18351452,
        0.17236647,
        0.33396557,
        0.05884656,
        -0.13109124,
        -0.09753206,
        0.18983811,
        0.015666407,
        0.041990597,
        -0.22777252,
        -0.052103154,
        0.25034752,
        0.045841917,
        0.066344514,
        0.04495361,
        0.08921647,
        0.15767275,
        0.025585642,
        0.123842716,
        0.060632095,
        0.10898668,
        -0.05267063,
        0.02205603,
        0.025478408,
        0.14664543,
        -0.23592064,
        -0.11721644,
        -0.045018334,
        0.16845097,
        -0.21100463,
        -0.0752559,
        -0.04566824,
        0.18414824,
        -0.011834045,
        -0.092002,
        0.26085573,
        -0.070815854,
        0.16275774,
        0.05813726,
        0.006676156,
        -0.01617561,
        -0.10036728,
        -0.07217318,
        -0.0063383714,
        -0.079937115,
        -0.059432276,
        0.17097136,
        -0.41830894,
        -0.15404063,
        0.4670885,
        0.06393914,
        -0.13419075,
        -0.06103435,
        0.13769755,
        0.006850217,
        0.02978932,
        0.08450524,
        -0.033437595,
        -0.23167382,
        0.39991677,
        -0.2525396,
        0.20973942,
        -0.012231464,
        -0.03197042,
        0.11548979,
        -0.15597194,
        0.04664415,
        0.2841254,
        0.4596861,
        -0.098884694,
        0.03626269,
        0.13307521,
        0.028368726,
        -0.2743931,
        0.13339724,
        0.065194264,
        0.13833359,
        0.11549406,
        0.108597964,
        0.058722805,
        -0.18847571,
        0.020887654,
        -0.27176282,
        0.02355856,
        0.05136316,
        0.32339355,
        -0.11687164,
        -0.13304327,
        -0.1615456,
        -0.3469195,
        -0.056128237,
        0.29124716,
        -0.12682676,
        0.16162409,
        0.31921005,
        0.051988132,
        -0.022827953,
        0.04182398,
        0.057686508,
        0.013453579,
        0.10413481,
        -0.22381885,
        -0.16098465,
        -0.014094341,
        -0.0050675063,
        -0.121532194,
        0.20185499,
        0.14641504,
        -0.12554975,
        -0.02556463,
        0.078774124,
        0.053561483,
        -0.18595956,
        -0.13912757,
        0.17277014,
        -0.3432257,
        0.11132516,
        0.03228023,
        -0.08586567,
        0.086917415,
        0.11612126,
        -0.3291765,
        0.10482358,
        0.13571359,
        0.28060758,
        0.21201983,
        -0.051368207,
        -0.03993414,
        -0.21789761,
        0.18925326,
        -0.06596761,
        -0.013010029,
        0.043361444,
        -0.14592288,
        -0.35347867,
        -0.19403715,
        0.08228879,
        0.14574237,
        0.06483167,
        0.09689716,
        -0.1347888,
        0.27089992,
        -0.15199849,
        -0.08219833,
        0.07584452,
        0.045223556,
        -0.06759701,
        -0.09947816,
        -0.05880742,
        -0.01855474,
        0.04630452,
        -0.12027347,
        -0.048011217,
        -0.08960825,
        -0.23368362,
        0.16528687,
        -0.04124575,
        0.33628538,
        0.24379298,
        0.05342723,
        -0.2466257,
        -0.105308734,
        0.19343795,
        0.123253755,
        -0.06350064,
        0.019622777,
        0.1429951,
        0.1321409,
        0.14477132,
        -0.019966949,
        -0.06614821,
        0.078874774,
        -0.063177705,
        -0.17826374,
        0.15089248,
        0.061157882,
        0.17978035,
        0.27274394,
        0.25195476,
        0.013319832,
        0.12298818,
        0.09753683,
        -0.29467106,
        0.11038774,
        0.11562196,
        0.18419471,
        0.026154228,
        -0.019052342,
        -0.037357017,
        -0.023770703,
        -0.14016387,
        -0.08611107,
        0.06795962,
        -0.12925994,
        -0.21826002,
        -0.14510722,
        -0.06186845,
        0.21512167,
        -0.16194981,
        0.21784405,
        -0.04736028,
        -0.15120523,
        0.037830543,
        -0.12904598,
        0.18226743,
        0.04533862,
        -0.005017724,
        0.13917798,
        0.122342095,
        -0.054179396,
        0.17288586,
        0.22178522,
        0.07512354,
        0.06374573,
        -0.30780447,
        -0.28450802,
        0.13713937,
        0.30774897,
        0.06459504,
        -0.055036247,
        0.34092292,
        -0.056216016,
        0.18636379,
        0.31378084,
        0.11191338,
        0.09006932,
        -0.038713094,
        -0.1441437,
        0.16832024,
        0.0073139085,
        0.05295398,
        0.15120995,
        0.2282086,
        -0.007894167,
        0.03882908,
        -0.35642353,
        -0.15069538,
        0.17606124,
        0.41556025,
        -0.12817991,
        0.17195196,
        0.2877265,
        0.12931913,
        -0.12400065,
        -0.028855108,
        -0.12757722,
        0.018030655,
        0.28854015,
        -0.065120526,
        0.112484485,
        0.17928065,
        0.46400592,
        0.061228976,
        0.075350754,
        -0.23281838,
        0.22508672,
        -0.061008446,
        0.16793662,
        0.09098355,
        0.12474549,
        -0.06089972,
        0.11212201,
        0.05153464,
        -0.026370674,
        0.04927692,
        -0.04686305,
        0.051558163,
        -0.0018758829,
        -0.029556654,
        -0.09863924,
        0.25851753,
        -0.046713352,
        -0.0024550494,
        -0.06554137,
        0.04603971,
        -0.05698655,
        -0.043340586,
        0.12906526,
        0.058714688,
        -0.019461948,
        -0.16422525,
        -0.05946154,
        0.19377801,
        0.058797162,
        0.12960055,
        0.3243387,
        -0.22857022,
        0.16444367,
        -0.060400482,
        0.12256605,
        -0.03840015,
        -0.056459967,
        0.046358876,
        -0.22692771,
        -0.045681857,
        0.18078195,
        0.018112324,
        0.17171818,
        0.14355057,
        -0.048357558,
        0.19508134,
        0.2512512,
        -0.15077111,
        -0.036434278,
        -0.022939479,
        -0.13739793,
        -0.0075016925,
        0.07802274,
        0.2818536,
        -0.25254935,
        0.22389545,
        -0.0017721867,
        -0.09267849,
        0.012228206,
        -0.2070387,
        -0.038208395,
        -0.09701344,
        -0.050576195,
        0.2560712,
        0.19129737,
        0.12648849,
        0.08727087,
        -0.04276531,
        -0.03288647,
        -0.22052146,
        0.0054875,
        0.16106284,
        -0.0055644405,
        0.17950253,
        0.14019448,
        0.0335509,
        0.026549712,
        -0.090882994,
        0.04336789,
        0.08454276,
        0.02939859,
        -0.10371309,
        0.25043583,
        -0.13919207,
        0.209049,
        -0.20395905,
        0.14455535,
        0.16965182,
        -0.16195992,
        -0.051179882,
        -0.11189122,
        0.12679763,
        -0.14361563,
        0.18396984,
        0.11097291,
        0.065888695,
        0.09929041,
        -0.13848168,
        -0.008877457,
        -0.14286916,
        0.15647934,
        0.039712645,
        0.06741345,
        -0.11442134,
        0.26915553,
        0.253422,
        0.19234216,
        0.10183207,
        0.25797033,
        -0.02368919,
        0.106211744,
        0.45030624,
        -0.010079998,
        0.07087529,
        -0.21361332,
        0.023953713,
        -0.018037196,
        -0.03256205,
        0.10729892,
        0.09463553,
        -0.1463839,
        0.031690724,
        0.037352335,
        0.18346317,
        0.18949862,
        -0.14007731,
        -0.18294086,
        -0.04265018,
        -0.06381595,
        0.11943245,
        -0.118016005,
        0.08502992,
        0.1336459,
        -0.038842846,
        0.053993475,
        0.21079862,
        0.14158623,
        -0.044624455,
        0.17859538,
        0.17070223,
        0.09907413,
        -0.048750967,
        0.15076725,
        0.20322815,
        -0.21239258,
        0.03952813,
        -0.00030304687,
        -0.03171126,
        0.048845463,
        -0.034379985,
        -0.021749692,
        0.14560896,
        0.05608987,
        0.043553323,
        -0.11366232,
        0.14265732,
        0.058329407,
        0.056629755,
        -0.18801475,
        0.14018002,
        0.17071116,
        0.021403221,
        0.10098109,
        -0.004790888,
        0.05873087,
        0.07132318,
        -0.087307654,
        -0.10747528,
        -0.07749658,
        0.0027687289,
        0.1598245,
        0.23538129,
        0.05277644,
        0.08489159,
        -0.12950748,
        0.037924353,
        -0.28073657,
        0.05597422,
        0.13332564,
        -0.05998802,
        0.0060893423,
        0.003527383,
        0.12866427,
        0.013816946,
        0.038885675,
        0.13270484,
        0.0485631,
        -0.10027601,
        0.13065043,
        -0.08720757,
        -0.2752813,
        0.088274516,
        0.09243951,
        -0.02990204,
        0.0954507,
        -0.1515496,
        0.093843386,
        0.16123569,
        -0.046220757,
        -0.0013685466,
        0.008582273,
        -0.016326627,
        0.006851562,
        0.28544587,
        0.17008027,
        0.11035302,
        -0.069449455,
        0.2351394,
        -0.11015724,
        0.16977173,
        0.2040164,
        -0.05807414,
        -0.18832605,
        0.0317602,
        -0.17800115,
        0.18822019,
        -0.16945413,
        -0.13371375,
        0.012265785,
        -0.095838234,
        -0.30074054,
        0.0104414355,
        0.15908056,
        -0.16707766,
        0.247666,
        -0.30156818,
        -0.061805114,
        0.025911255,
        -0.04113048,
        -0.13179593,
        0.14965093,
        0.17199229,
        0.10203033,
        -0.06443877,
        0.009396196,
        -0.00045222926,
        0.012974259,
        0.15005043,
        0.22482558,
        -0.1425233,
        0.08166626,
        0.12181601,
        0.38577002,
        0.03832264,
        0.106543325,
        0.007859049,
        -0.1683047,
        -0.035625618,
        0.017632011,
        -0.020259174,
        0.0664318,
        -0.081383504,
        -0.08906112,
        -0.027136907,
        -0.000723723,
        -0.013008478,
        0.0016829005,
        -0.113763705,
        -0.083477885,
        -0.12409054,
        0.09600959,
        0.08964828,
        0.34822822,
        -0.14775375,
        0.10518171,
        -0.14345126,
        -0.01557386,
        -0.09474969,
        -0.1364219,
        -0.0428791,
        0.15452902,
        -0.03955962,
        -0.12242601,
        0.10710019,
        0.07022798,
        0.11464531,
        -0.45218927,
        0.21362206,
        -0.00006202453,
        0.11372934,
        0.065852985,
        -0.043834493,
        -0.26373392,
        -0.058024537,
        -0.11872848,
        -0.006426091,
        -0.22790551,
        0.028619224,
        0.1714449,
        -0.18598928,
        -0.018522868,
        0.24612679,
        -0.020481415,
        0.01599659,
        -0.18206798,
        0.18034299,
        -0.027536374,
        0.06974363,
        -0.0048495983,
        -0.14538772,
        0.07807241,
        0.022636218,
        -0.0401944,
        0.04013141,
        -0.20490465,
        0.3784923,
        0.024045344,
        0.14014004,
        0.06177487,
        -0.06114034,
        0.11014624,
        0.15579285,
        -0.31137985,
        0.15391351,
        -0.026058504,
        0.013426401,
        -0.11262902,
        -0.087758735,
        -0.032842938,
        0.035305124,
        -0.009155314,
        -0.0068555414,
        -0.11157052,
        0.05758364,
        0.082361296,
        0.020498967,
        0.043556318,
        -0.01598669,
        0.025318269,
        -0.08933725,
        0.21012598,
        -0.057366103,
        0.18025589,
        -0.009119666,
        0.38283986,
        -0.018849084,
        0.048123706,
        0.049359035,
        -0.19434708,
        -0.1943514,
        -0.045094848,
        -0.2300704,
        -0.039256692,
        0.29913917,
        -0.22554237,
        0.016989369,
        0.01228291,
        0.109613955,
        0.11084008,
        -0.092077635,
        0.030875314,
        -0.15367873,
        0.19882089,
        0.0660332,
        0.10164726,
        0.19611871,
        0.11625398,
        0.1828759,
        -0.022114962,
        -0.303117,
        0.059701823,
        0.099924974,
        0.09482103,
        0.36250585,
        -0.08416115,
        -0.028196458,
        0.16395158,
        0.043522306,
        -0.04689871,
        0.018561007,
        -0.06217187,
        -0.10815943,
        -0.2535242,
        0.06802148,
        -0.2165821,
        0.023991743,
        -0.06761435,
        0.24976148,
        0.026581977,
        0.08625536,
        0.16841221,
        0.06321162,
        -0.21205595,
        -0.10209074,
        -0.04426403,
        0.34633207,
        0.06446114,
        -0.017291809,
        0.02726249,
        -0.07208614,
        0.06735776,
        -0.01761127,
        0.08941797,
        0.07394912,
        -0.029299783,
        0.220436,
        0.24837443,
        0.116505966,
        0.07921181,
        -0.3263209,
        -0.081882335,
        0.26645333,
        -0.07044997,
        0.11727651,
        0.025832182,
        -0.049735516,
        0.19128416,
        -0.117079444,
        0.12978214,
        -0.050891,
        -0.053064987,
        0.13934465,
        0.014267366,
        -0.1736456,
        0.06916837,
        -0.25007728,
        -0.0034272738,
        0.052802674,
        0.13426858,
        0.012625711,
        0.17114396,
        0.034406565,
        0.20117328,
        0.011646025,
        -0.1651519,
        0.09497401,
        -0.09813518,
        0.06061074,
        -0.12967318,
        -0.26538754,
        0.05084065,
        -0.07922096,
        0.1751523,
        0.15598373,
        0.07110232,
        -0.08972398,
        0.26608828,
        -0.19683225,
        0.08540034,
        0.03533599,
        -0.1235311,
        -0.033108592,
        -0.045246173,
        0.17718007,
        0.14774413,
        0.106308326,
        -0.011338956,
        -0.23308057,
        0.23773241,
        -0.105430126,
        -0.15969023,
        -0.032323387,
        0.026102064,
        0.044071525,
        0.06180277,
        -0.13350855,
        0.37253222,
        -0.15680936,
        0.25930417,
        -0.051561985,
        -0.14958869,
        0.024595985,
        -0.079518214,
        -0.060289964,
        -0.08588781,
        0.02366058,
        0.22591902,
        -0.34819266,
        0.08702187,
        -0.007681948,
        -0.028873252,
        -0.034348328,
        -0.2193045,
        0.16890144,
        -0.1110491,
        -0.16148934,
        -0.05141686,
        0.10757766,
        0.121426284,
        -0.04619393,
        -0.05503845,
        -0.074559055,
        0.19435522,
        0.20040959,
        0.09895998,
        -0.17384091,
        0.40129867,
        0.15903835,
        0.28693548,
        0.16874672,
        0.19529298,
        -0.25791663,
        0.16882636,
        0.14806502,
        -0.02412942,
        0.045789164,
        -0.056915868,
        0.03406068,
        -0.08720243,
        -0.14706816,
        0.0452494,
        -0.042988926,
        -0.038056046,
        0.15906513,
        -0.18195537,
        -0.080367014,
        0.115216725,
        -0.022095667,
        -0.044618994,
        -0.04706103,
        0.06561762,
        -0.07008608,
        0.106449254,
        0.10495545,
        0.19072473,
        0.20357662,
        -0.14098603,
        0.09710604,
        -0.12346116,
        -0.1273342,
        -0.124434195,
        0.16065328,
        0.050722744,
        -0.0680152,
        0.23497106,
        0.14373581,
        0.18107802,
        0.0028478722,
        0.25587937,
        0.0101335,
        0.0155993365,
        -0.24031733,
        0.11996165,
        0.10021413,
        -0.007913486,
        0.13159576,
        -0.059935167,
        -0.036501497,
        -0.14504679,
        -0.0210702,
        -0.44404033,
        0.05803644,
        -0.026519682,
        0.21572673,
        0.16236822,
        -0.09414788,
        0.24959636,
        0.10043643,
        -0.081177436,
        0.10939763,
        -0.04434179,
        0.27625948,
        0.17800686,
        0.0805522,
        0.08462789,
        0.29748783,
        0.07113795,
        0.14794075,
        0.056686196,
        -0.14294463,
        0.2660882,
        0.114437245,
        -0.09309804,
        -0.27173692,
        0.33245245,
        0.35163945,
        -0.058090933,
        0.076194115,
        -0.05137026,
        -0.026048252,
        -0.002741021,
        0.084388226,
        0.05794355,
        -0.06319095,
        -0.21335454,
        0.09358432,
        -0.10124768,
        -0.12523806,
        0.061791215,
        -0.0152945565,
        -0.11905141,
        -0.13642615,
        -0.025808988,
        0.011491746,
        -0.0012631741,
        -0.094083205,
        -0.24240145,
        0.21540932,
        0.1263433,
        -0.02833876,
        0.10590617,
        0.08872099,
        0.110123955,
        -0.14659195,
        -0.016815366,
        0.0010408043,
        0.1279857,
        0.039631628,
        0.08024999,
        0.05367187,
        0.29340398,
        0.064342335,
        -0.06408189,
        0.11072865,
        -0.005736356,
        -0.15049997,
        -0.025247294,
        0.06162974,
        -0.0161392,
        0.3380627,
        -0.012374301,
        -0.027213415,
        -0.084954016,
        -0.06317399,
        0.056284294,
        -0.014726132,
        0.1619302,
        0.2750907,
        0.07328005,
        0.033649467,
        0.0028970581,
        0.12109645,
        0.021061664,
        0.05722438,
        0.13098969,
        -0.030011248,
        0.025203502,
        -0.1507896,
        -0.06228921,
        0.09048279,
        0.23324642,
        -0.02831154,
        0.08734533,
        -0.061420165,
        0.019775392,
        -0.020090811,
        0.19784153,
        0.2601161,
        0.03785659,
        0.01765857,
        -0.07418007,
        0.29847318,
        0.105774954,
        -0.06453729,
        -0.046032734,
        -0.03209929,
        0.18734537,
        0.0596636,
        -0.019298421,
        0.12945539,
        0.07045162,
        0.121659815,
        0.35259876,
        0.13451096,
        0.058910485,
        -0.08841322,
        0.14979327,
        -0.044762775,
        -0.25531435,
        0.22683495,
        0.009198247,
        0.017359355,
        -0.121597625,
        0.1355803,
        0.0051928405,
        0.071034394,
        0.052390344,
        0.08609392,
        0.022242196,
        -0.11513172,
        -0.11167649,
        -0.18194419,
        -0.07114191,
        -0.029295938,
        0.005609343,
        -0.00051561964,
        -0.07105038,
        -0.034028444,
        -0.121052064,
        -0.08127612,
        -0.06136805,
        -0.14487758,
        -0.055978633,
        -0.14035167,
        0.30240512,
        -0.14383046,
        0.043071296,
        -0.10303194,
        0.048765145,
        0.005506461,
        0.14401603,
        0.089090005,
        0.097077675,
        0.021424545,
        -0.189114,
        -0.117179446,
        -0.102410674,
        0.15021664,
        -0.039563373,
        -0.027556647,
        -0.10856015,
        0.0019623446,
        0.09253863,
        0.24682246,
        -0.24206232,
        -0.12566239,
        0.0996835,
        0.1372029,
        0.01998095,
        -0.11151439,
        0.046071876,
        0.17645617,
        -0.024630811,
        0.048976943,
        -0.23323669,
        0.09899205,
        0.11703207,
        -0.13464747,
        -0.060525477,
        -0.03319782,
        0.11279937,
        0.1358049,
        0.06890027,
        0.180203,
        0.05928151,
        -0.058765948,
        -0.0031564464,
        -0.17422447,
        -0.30753693,
        -0.1682014,
        -0.20093916,
        -0.087589964,
        -0.25581914,
        0.05345342,
        -0.036443003,
        -0.010152634,
        -0.17416368,
        -0.10499844,
        0.26140967,
        0.1865199,
        0.18497548,
        -0.083865784,
        -0.012287756,
        -0.17268384,
        0.03931284,
        0.048356015,
        -0.3085419,
        0.12750284,
        0.054372467,
        0.2820561,
        0.13910842,
        0.031061022,
        0.10495226,
        -0.049723744,
        0.042341553,
        -0.05821476,
        0.16198102,
        -0.29327556,
        0.02746523,
        0.11580989,
        0.020045176,
        0.089081675,
        -0.18310921,
        -0.1511256,
        0.08697156,
        0.082500875,
        -0.102784656,
        -0.1317702,
        -0.007911939,
        0.02503329,
        -0.12731451,
        0.0061551374,
        0.14748588,
        -0.20204055,
        -0.28698212,
        -0.026995819,
        -0.18336317,
        0.009087615,
        -0.09949997,
        -0.10094161,
        -0.14092115,
        -0.082282774,
        0.02351724,
        -0.117926896,
        -0.040119987,
        -0.08952279,
        0.12877339,
        -0.247579,
        0.019414393,
        0.06304325,
        -0.035853814,
        -0.36258653,
        -0.023126017,
        -0.045080096,
        0.07494999,
        -0.31078857,
        0.06324815,
        0.32931474,
        -0.033656165,
        0.05327275,
        -0.12871283,
        0.053451873,
        0.19295798,
        0.065356016,
        -0.043727282,
        0.082229674,
        0.039135784,
        -0.17005248,
        -0.22096157,
        0.026386753,
        0.0034674855,
        -0.042930596,
        0.084254354,
        0.070719436,
        -0.15006174,
        -0.022782903,
        0.20760399,
        0.08570677,
        0.11047342,
        0.10502504,
        0.12459645,
        -0.09406135,
        0.0034010175,
        -0.20074436,
        -0.108411394,
        0.1589074,
        0.20262066,
        0.20614508,
        -0.26302737,
        -0.18420455,
        0.21865466,
        -0.14224124,
        0.059696496,
        -0.17398308,
        -0.12153348,
        0.19101435,
        -0.1898368,
        -0.22623003,
        0.16799946,
        -0.051134955,
        0.062045343,
        0.09268478,
        0.14274709,
        0.16902584,
        0.06367865,
        0.16276391,
        -0.13535656,
        -0.18052615,
        -0.33603063,
        0.018087033,
        -0.03828253,
        0.08715384,
        -0.13632627,
        -0.11475245,
        0.4011366,
        -0.08926068,
        0.16715588,
        -0.08959127,
        -0.019887129,
        -0.0015487751,
        -0.006775392,
        -0.025448555,
        0.14040396,
        0.12094471,
        0.013764529,
        -0.12723115,
        -0.23511522,
        -0.06742551,
        0.08783,
        -0.019983178,
        0.011226873,
        0.18509649,
        -0.34385076,
        0.16470721,
        -0.05359092,
        0.019810174,
        -0.14551774,
        -0.23914786,
        0.06583532,
        -0.020105712,
        0.08028949,
        0.0026724811,
        0.048868455,
        -0.068245076,
        -0.094154626,
        -0.29928163,
        -0.11313245,
        -0.13319305,
        -0.119387604,
        0.17813177,
        0.107749015,
        -0.081278615,
        0.11683313,
        0.20215248,
        0.15309067,
        -0.334094,
        0.063003756,
        0.14674494,
        -0.2325074,
        0.14408906,
        -0.032446392,
        0.1313007,
        -0.16071182,
        -0.12951593,
        -0.23399764,
        0.017847417,
        0.01190398,
        -0.0012322905,
        -0.08727995,
        0.06929667,
        -0.042686768,
        0.103893645,
        0.007099034,
        0.106372215,
        -0.0655406,
        0.12548913,
        -0.052687164,
        -0.059628922,
        -0.21934251,
        -0.08810352,
        0.014095357,
        0.032598358,
        -0.06400271,
        0.17415282,
        0.037852146,
        -0.14532255,
        0.092157505,
        0.042377748,
        -0.058126252,
        0.14256792,
        -0.15213828,
        -0.037641436,
        -0.07333556,
        0.17317867,
        0.08921206,
        -0.045740496,
        -0.10984793,
        0.09470896,
        -0.14297485,
        -0.23603508,
        -0.014764255,
        0.060650483,
        -0.17468354,
        -0.005421907,
        0.09830743,
        0.10368391,
        0.22080462,
        -0.009981854,
        -0.10987565,
        0.017344417,
        -0.00033372693,
        0.10612022,
        0.15845324,
        0.26437548,
        0.08970901,
        0.0038929083,
        0.003825022,
        0.080138266,
        0.11044684,
        0.19182537,
        0.06927209,
        -0.15561266,
        -0.049548965,
        0.1675146,
        -0.04204633,
        -0.40415692,
        0.28489825,
        -0.0021772496,
        -0.118754484,
        0.04101825,
        -0.094142504,
        0.029249627,
        -0.15886177,
        -0.12127704,
        -0.1436006,
        -0.17645323,
        -0.11322941,
        0.0032714272,
        0.08437108,
        -0.07814703,
        0.41115603,
        -0.083515435,
        0.19891118,
        -0.20159571,
        -0.06455717,
        0.04576735,
        0.032592528,
        0.14751828,
        0.030397797,
        0.024243256,
        -0.18465254,
        -0.2505091,
        -0.015075064,
        0.016834732,
        0.22004938,
        -0.2680029,
        0.14764093,
        0.020751813,
        -0.03047739,
        0.09457422,
        -0.030959196,
        0.2423413,
        -0.093246475,
        -0.07526335,
        0.40395728,
        0.057574898,
        0.020152284,
        -0.06449443,
        0.09503062,
        -0.048569802,
        -0.20510009,
        -0.20717083,
        0.009908217,
        -0.20190896,
        -0.0101349475,
        -0.00871386,
        0.0031306902,
        -0.032870714,
        -0.40864584,
        -0.11557687,
        -0.06686288,
        -0.0016779943,
        -0.07236585,
        0.16827685,
        -0.04205217,
        -0.13403171,
        0.15328458,
        0.14238177,
        0.114452325,
        0.008100279,
        -0.05572274,
        0.31196466,
        0.218649,
        -0.017746422,
        0.019161424,
        -0.0915898,
        -0.19851768,
        -0.17998287,
        -0.20575278,
        -0.24348976,
        0.034808412,
        -0.12954648,
        0.05924545,
        0.22117682,
        -0.17708033,
        0.28149763,
        -0.023042195,
        0.17225333,
        -0.14866373,
        -0.07370331,
        0.16045503,
        0.13290687,
        -0.043388017,
        0.34843177,
        0.05213685,
        -0.09869493,
        -0.097519815,
        0.010453625,
        0.05280116,
        0.07334577,
        -0.23043598,
        0.002883659,
        -0.0068087173,
        0.17770176,
        0.05990507,
        -0.015663272,
        -0.2609428,
        -0.10998399,
        0.18635777,
        0.12195776,
        0.12115862,
        -0.08634982,
        -0.15197097,
        -0.31676424,
        -0.12503262,
        0.08030031,
        0.11299159,
        0.15586853,
        -0.056105003,
        0.11473357,
        0.039212827,
        -0.06872934,
        0.07060463,
        0.012288848,
        -0.058258977,
        -0.08582145,
        0.13023564,
        0.038157836,
        0.009678216,
        0.14239895,
        0.21904372,
        -0.16264178,
        -0.08360748,
        -0.22242829,
        -0.17668886,
        0.23524366,
        -0.36347362,
        -0.11598725,
        0.17923144,
        -0.21472716,
        -0.00003014018,
        -0.11518801,
        0.07338084,
        0.08524685,
        0.024437673,
        -0.069174215,
        -0.17629664,
        0.022620574,
        0.12554988,
        0.074902184,
        0.19360512,
        -0.087729655,
        0.07478867,
        0.09873808,
        0.05303017,
        -0.03794938,
        -0.015344309,
        0.011810717,
        -0.06826602,
        0.15283181,
        -0.046332113,
        0.17689358,
        0.20768441,
        -0.085903734,
        0.32654813,
        -0.11968913,
        0.10186667,
        0.30129275,
        0.01835441,
        0.11022554,
        -0.1999496,
        -0.20990756,
        0.0020030676,
        0.00008737683,
        -0.03233814,
        -0.19684188,
        0.096132874,
        -0.19711241,
        0.10813307,
        0.17515919,
        0.07671192,
        -0.17110641,
        0.13015027,
        -0.06817086,
        -0.019244757,
        0.016099164,
        0.15100746,
        -0.021313488,
        -0.27998063,
        0.092882924,
        0.22681728,
        0.046303455,
        -0.106506824,
        0.039454345,
        0.06604447,
        0.2882739,
        0.08698403,
        -0.00039605482,
        -0.26303926,
        -0.18972497,
        0.029227184,
        0.2058759,
        -0.2694519,
        -0.032712072,
        0.041976728,
        0.1962813,
        0.09965514,
        0.046667233,
        0.041630775,
        -0.11917254,
        0.13055663,
        0.02299112,
        -0.08620766,
        0.05310951,
        -0.15125759,
        -0.15670437,
        0.14852154,
        0.033768795,
        0.23293844,
        -0.13063583,
        0.015879637,
        -0.09127028,
        0.038663305,
        0.014102699,
        -0.025843132,
        0.011913015,
        0.00070133427,
        0.04834283,
        0.03932758,
        0.10300374,
        -0.21379633,
        0.07645995,
        0.022955757,
        0.018292889,
        -0.23376985,
        -0.062620215,
        0.1679746,
        -0.0597132,
        0.12921081,
        0.14496693,
        0.20717011,
        0.050460167,
        -0.1548272,
        0.056657523,
        0.2478332,
        0.14639755,
        0.16112523,
        -0.12393453,
        -0.04108965,
        0.07867214,
        0.09484575,
        -0.19565953,
        -0.28821445,
        -0.008015109,
        0.016497409,
        0.16914804,
        -0.1987253,
        -0.18416281,
        0.10471562,
        0.10613027,
        -0.23755497,
        -0.25558472,
        -0.13885239,
        -0.008539552,
        -0.08844781,
        -0.074790895,
        -0.19078991,
        0.27177727,
        0.024976967,
        0.21225071,
        0.21747783,
        -0.09120118,
        -0.11897662,
        -0.12959272,
        -0.07764115,
        0.028108334,
        0.09017009,
        -0.05068405,
        0.21315195,
        -0.1079663,
        0.13155708,
        0.046565253,
        -0.1679092,
        -0.02608762,
        -0.31571576,
        0.22779742,
        0.026186006,
        -0.29387805,
        -0.024576692,
        -0.08290062,
        -0.12689072,
        -0.05218061,
        0.07207629,
        -0.011222783,
        0.27098382,
        0.03984273,
        0.27562815,
        0.06536616,
        0.016388154,
        0.50377655,
        0.34305766,
        -0.15117225,
        -0.21249633,
        -0.15679838,
        -0.016487831,
        0.09071573,
        -0.09198792,
        -0.3785888,
        -0.20176789,
        0.089130946,
        0.19956228,
        0.1110556,
        0.15717824,
        0.10799496,
        -0.06367581,
        0.2799263,
        -0.3595277,
        -0.21924245,
        0.24276783,
        0.2822227,
        -0.007679604,
        0.11042213,
        -0.04665512,
        -0.38982213,
        -0.005987703,
        -0.25007597,
        0.11278043,
        0.16562064,
        -0.009090539,
        -0.22745898,
        -0.11922011,
        0.012670845,
        0.25215754,
        -0.29380506,
        0.16858289,
        0.046101157,
        -0.25951278,
        0.10577935,
        0.15940726,
        0.10741464,
        -0.11940206,
        -0.07738409,
        0.053361733,
        -0.13147552,
        -0.11702904,
        -0.09997205,
        -0.16591434,
        0.20072304,
        -0.23575646,
        -0.38878357,
        0.1215258,
        -0.14225316,
        -0.34789574,
        -0.17248853,
        -0.0542506,
        0.04938118,
        0.007763523,
        0.050720967,
        -0.004816527,
        -0.022170836,
        0.34334072,
        0.09441856,
        -0.11354644,
        0.14755374,
        0.11845864,
        -0.07089459,
        0.012395618,
        0.10711484,
        0.19084172,
        -0.17581004,
        -0.19621792,
        0.04912164,
        0.2590037,
        -0.11174381,
        -0.0043953317,
        0.109668985,
        0.09574224,
        -0.22423217,
        0.024229936,
        0.07820262,
        -0.22347,
        -0.18822896,
        0.101884015,
        0.12401763,
        -0.005023426,
        -0.288805,
        -0.059886374,
        -0.034428958,
        -0.14052959,
        -0.07531715,
        0.037465084,
        -0.07755792,
        0.13248229,
        -0.1826684,
        0.051438626,
        0.0074444776,
        0.14986363,
        0.07099117,
        0.023341848,
        -0.051340144,
        -0.35601112,
        -0.05591132,
        -0.12809414,
        0.040686406,
        -0.07339947,
        -0.054787464,
        0.0973875,
        -0.06733798,
        0.10560876,
        0.056996666,
        -0.03324642,
        0.3543109,
        -0.25589737,
        0.21070059,
        0.008864808,
        0.07838645,
        -0.10243765,
        0.022451114,
        0.2150834,
        0.09745982,
        -0.043330833,
        -0.1752628,
        0.38158023,
        0.2616544,
        -0.05239636,
        -0.09952558,
        0.07250163,
        0.15239616,
        -0.01655835,
        -0.3456946,
        -0.22665235,
        0.28064913,
        0.025298355,
        -0.27528873,
        -0.1417174,
        -0.25779033,
        0.016688816,
        0.095341146,
        0.12318283,
        -0.20751338,
        0.009655969,
        0.075308986,
        -0.17013676,
        0.12843977,
        0.0471426,
        -0.029236568,
        -0.111138426,
        -0.024119813,
        -0.00042718987,
        -0.19366552,
        0.30421823,
        -0.029012024,
        -0.083102606,
        0.016129043,
        0.042023107,
        -0.10440364,
        -0.1487995,
        0.1623499,
        0.07449252,
        0.08447006,
        -0.054783724,
        0.07516009,
        -0.20579483,
        -0.037991975,
        0.40604037,
        -0.027775148,
        0.17259192,
        0.045191668,
        -0.22744583,
        0.06577305,
        -0.012227889,
        0.101625286,
        0.15389372,
        0.23469284,
        0.2205626,
        -0.04760188,
        -0.018991264,
        -0.23616877,
        -0.23797573,
        -0.1878412,
        -0.40606493,
        0.035955947,
        0.24081607,
        -0.0072917645,
        -0.1795896,
        -0.07698357,
        -0.44243205,
        0.023081,
        -0.07024052,
        -0.04411198,
        -0.20220248,
        0.04982574,
        -0.03789135,
        -0.14308529,
        0.23645766,
        -0.18861204,
        0.043153636,
        -0.026568327,
        0.27364427,
        -0.23881063,
        -0.07485154,
        0.025193617,
        0.2346268,
        -0.092660904,
        -0.03356632,
        0.22529846,
        0.1030102,
        0.09685202,
        0.051524054,
        0.022061823,
        -0.05909649,
        -0.21401294,
        0.01044614,
        -0.22753851,
        -0.017530909,
        0.16800699,
        0.03920712,
        -0.064567044,
        0.2558421,
        0.04626278,
        0.06293015,
        -0.21529263,
        0.1692585,
        0.010680898,
        -0.12080824,
        0.1623721,
        -0.12305984,
        0.107567854,
        0.1138654,
        0.06875361,
        0.045250773,
        0.19529934,
        0.14540093,
        0.092801295,
        -0.19408889,
        0.032600723,
        -0.016530981,
        -0.13709597,
        0.015127983,
        0.095438115,
        0.13076602,
        -0.099687606,
        0.054653265,
        -0.15925962,
        0.14843069,
        -0.031377364,
        -0.14475045,
        0.29071367,
        0.16214591,
        0.076784916,
        -0.03802851,
        0.014634518,
        0.2433799,
        -0.22512458,
        0.03363644,
        0.040048882,
        -0.04767947,
        0.19438782,
        0.17152488,
        0.046908766,
        0.2108464,
        0.01648902,
        -0.072059326,
        0.015047686,
        -0.016773295,
        -0.16054066,
        0.14999138,
        0.19011383,
        -0.16480817,
        -0.06641083,
        -0.05543145,
        0.06258249,
        0.040584344,
        0.0072100786,
        -0.10720567,
        -0.031517807,
        0.33936346,
        0.1357603,
        -0.04886424,
        -0.18756214,
        0.122213274,
        -0.018833151,
        -0.18283409,
        0.15528372,
        -0.3706815,
        -0.04308122,
        0.046352476,
        -0.20813757,
        0.121179804,
        -0.13718668,
        -0.2704237,
        0.0827527,
        0.4628264,
        -0.00040688273,
        0.09503243,
        -0.32334226,
        0.0876869,
        -0.18858376,
        0.056524523,
        0.04975576,
        -0.18668337,
        0.03547825,
        0.15589812,
        0.08606518,
        -0.013673287,
        -0.07877391,
        -0.064202435,
        0.1516654,
        -0.13564675,
        0.068426326,
        -0.16107552,
        0.6080942,
        -0.11744793,
        0.009760944,
        0.055666737,
        0.20304495,
        0.027372535,
        -0.15545093,
        0.11329234,
        -0.0778131,
        -0.22513352,
        -0.23762669,
        0.065224394,
        -0.16593447,
        0.0860284,
        0.12903859,
        -0.12628992,
        -0.029687675,
        0.12093614,
        0.04509105,
        0.11672784,
        -0.056301173,
        -0.20927574,
        0.030624168,
        0.022535317,
        0.14667916,
        0.01723614,
        -0.059779905,
        -0.13821632,
        -0.27456832,
        -0.16241352,
        -0.24737844,
        0.013707852,
        0.100764945,
        0.08505714,
        0.0019032789,
        -0.08034161,
        0.08655683,
        0.31706846,
        -0.09234215,
        -0.12422049,
        -0.14606275,
        -0.22317533,
        0.06603621,
        -0.09731261,
        0.13508707,
        -0.15316992,
        -0.057833567,
        -0.005056905,
        0.07634569,
        0.16852756,
        0.35737714,
        -0.030223388,
        -0.11542766,
        -0.017655032,
        0.049428936,
        0.17114191,
        -0.032968808,
        0.09831685,
        -0.012953274,
        0.0460413,
        0.076045744,
        -0.06410383,
        -0.007195589,
        -0.030371353,
        0.069031954,
        0.11612019,
        -0.027813368,
        -0.23666067,
        -0.35643315,
        0.044891354,
        -0.17717925,
        0.04348448,
        0.08886351,
        0.07738588,
        0.33908752,
        0.030197011,
        -0.30031133,
        -0.35478643,
        0.1580577,
        -0.12276574,
        -0.17934126,
        0.09766869,
        -0.0504684,
        -0.008704838,
        -0.3028575,
        -0.38717902,
        0.28480765,
        0.035275683,
        -0.07678672,
        -0.013458786,
        -0.14588828,
        -0.06951054,
        0.075076014,
        0.26768693,
        0.15791067,
        0.13650788,
        -0.20437703,
        0.10550397,
        -0.17395587,
        0.123622864,
        -0.20114554,
        -0.21977694,
        -0.0020407562,
        -0.12434733,
        -0.100731246,
        0.01773184,
        0.25913683,
        0.09551726,
        -0.17113705,
        -0.22081803,
        0.06619119,
        0.026497368,
        -0.09735124,
        0.03157215,
        -0.14250462,
        -0.069157496,
        0.017025061,
        -0.07654061,
        -0.22235951,
        0.17637146,
        -0.22765401,
        0.23520577,
        0.23972724,
        -0.013526972,
        -0.32279068,
        0.4722992,
        0.19180337,
        0.068318754,
        0.19253708,
        -0.15408127,
        -0.11734473,
        -0.032744937,
        0.026619796,
        0.11416667,
        0.14204179,
        -0.13950425,
        -0.14176318,
        0.10161086,
        -0.17633137,
        0.1324191,
        0.021630637,
        -0.09739536,
        0.13047661,
        -0.23562932,
        -0.24674213,
        -0.27585888,
        0.1226379,
        0.15391226,
        0.085624516,
        0.1119149,
        -0.07818587,
        -0.04258746,
        0.021228341,
        0.013433451,
        0.096424,
        -0.0027054895,
        -0.27699736,
        -0.13241094,
        -0.06265585,
        -0.056293096,
        0.13615233,
        0.35858348,
        0.2676796,
        -0.13671838,
        0.021834843,
        0.43262655,
        0.03303213,
        0.0037226707,
        -0.0150112705,
        0.18598314,
        0.021840785,
        0.13513568,
        -0.13265498,
        -0.15968052,
        0.19611494,
        -0.33494875,
        0.033054028,
        -0.24800147,
        0.17002372,
        0.09734539,
        -0.09027059,
        -0.095693484,
        0.11561034,
        0.08244768,
        -0.11392945,
        0.11023831,
        0.058081254,
        0.22203109,
        0.104826584,
        0.12547266,
        -0.042311206,
        0.10908296,
        -0.041008078,
        0.14526136,
        -0.08987239,
        -0.071291395,
        0.008844216,
        -0.12295443,
        0.00028879172,
        -0.09377055,
        0.07774948,
        -0.05954126,
        -0.09571961,
        -0.21074285,
        -0.40237096,
        -0.20166397,
        0.023770181,
        0.2790641,
        -0.08389623,
        0.26233625,
        0.0596167,
        -0.10078744,
        0.21474485,
        -0.093932204,
        0.020775618,
        0.10617956,
        -0.28532237,
        0.10288472,
        -0.15154369,
        -0.13150956,
        0.007886568,
        -0.09400726,
        -0.01523828,
        -0.28990474,
        -0.02372258,
        -0.13972852,
        -0.08903954,
        0.19081895,
        0.07435293,
        0.10921296,
        -0.2453366,
        0.26214713,
        0.014924578,
        0.18094444,
        -0.12475136,
        -0.04702446,
        -0.043141823,
        0.31008732,
        -0.110288695,
        -0.027149206,
        0.09488219,
        -0.12938416,
        0.09186329,
        -0.08463542,
        0.0048580407,
        0.22460537,
        -0.062036715,
        0.027161669,
        0.08937947,
        -0.020750795,
        0.06976783,
        -0.25953606,
        0.0009960398,
        -0.010652792,
        0.009331307,
        -0.09433403,
        -0.007965559,
        0.0865718,
        0.018444631,
        0.052891217,
        -0.10590574,
        -0.063104555,
        -0.0538922,
        -0.056221213,
        0.27776116,
        -0.29902238,
        0.27286476,
        0.02051929,
        -0.25824076,
        -0.021222137,
        0.036192212,
        -0.25312713,
        0.25084493,
        -0.054964006,
        0.09324094,
        -0.033497203,
        -0.06394201,
        0.03520595,
        -0.031413384,
        -0.1196215,
        0.36411658,
        -0.29797193,
        0.095038965,
        -0.034087464,
        0.3573787,
        0.13841526,
        -0.36428097,
        -0.09036536,
        -0.24255838,
        -0.28709474,
        0.1969323,
        0.13087785,
        0.12711352,
        -0.030951293,
        0.037744597,
        0.20338279,
        -0.07973231,
        -0.18159577,
        0.20836699,
        -0.13842183,
        -0.31349075,
        0.03087573,
        0.14057381,
        -0.039650455,
        -0.007970534,
        0.104226604,
        -0.30188474,
        0.14080597,
        0.08331616,
        0.06593464,
        -0.1749035,
        0.12696923,
        -0.03788153,
        0.01243207,
        0.11035349,
        0.010283387,
        0.04296551,
        0.051042087,
        0.057037156,
        -0.05961554,
        -0.20345533,
        0.22076729,
        0.06823849,
        -0.041226927,
        -0.08599976,
        -0.026257431,
        -0.08995228,
        -0.052981686,
        -0.08220212,
        0.35681078,
        0.04356309,
        0.024682518,
        0.18929203,
        -0.027570525,
        -0.100525595,
        -0.02024373,
        -0.0016730616,
        -0.016506014,
        -0.14325267,
        -0.0041965744,
        -0.043744653,
        0.028561084,
        0.36244246,
        0.0032557216,
        -0.2442598,
        0.0042043286,
        0.037904486,
        -0.01416203,
        -0.10221476,
        0.09551499,
        -0.043437697,
        -0.20011988,
        -0.074521,
        -0.13418888,
        0.026261246,
        -0.030928787,
        0.25884426,
        -0.087446444,
        -0.2242305,
        -0.104822785,
        -0.02445972,
        -0.011983602,
        0.008627455,
        0.05143932,
        0.07382916,
        0.027200729,
        -0.27894425,
        0.33990303,
        -0.19755262,
        0.11282571,
        0.016122246,
        0.022042308,
        0.073343255,
        0.11190981,
        -0.12138751,
        0.06630664,
        0.30517346,
        0.17665026,
        0.03320956,
        -0.13746102,
        0.242499,
        0.113443695,
        0.03703417,
        -0.15637198,
        0.057710916,
        -0.1803524,
        -0.11695919,
        -0.15490068,
        -0.17978223,
        0.25485516,
        -0.082346715,
        0.033849508,
        0.02895627,
        -0.021019094,
        0.16847858,
        0.081119515,
        0.08157458,
        0.03128769,
        -0.024589416,
        -0.12767984,
        -0.009554113,
        0.020124063,
        -0.20217468,
        -0.13583429,
        0.121819235,
        0.06262081,
        0.12881267,
        -0.005264682,
        0.07230253,
        0.0737425,
        -0.07993926,
        0.13478664,
        0.052038338,
        0.11201736,
        -0.016143646,
        -0.14725214,
        0.097146645,
        0.039449006,
        -0.13699062,
        0.052427467,
        0.1572929,
        0.07195354,
        -0.11150333,
        0.14900373,
        0.071294546,
        0.022990325,
        -0.021241793,
        0.17317447,
        0.08048818,
        0.23486082,
        -0.09606285,
        -0.13985918,
        0.073598765,
        -0.10215456,
        -0.17879274,
        0.035517156,
        0.025381846,
        -0.11201916,
        0.02745964,
        -0.1540689,
        -0.024253972,
        0.094100535,
        0.07431449,
        -0.1382239,
        0.005224045,
        0.36605495,
        0.16288976,
        0.25428656,
        0.105092995,
        0.1595591,
        -0.07263831,
        0.0044350103,
        0.010443377,
        -0.28992122,
        0.052902512,
        -0.087445326,
        -0.0008198961,
        -0.2194638,
        -0.3426051,
        0.23525484,
        0.03765584,
        -0.0483782,
        -0.044124965,
        0.16053551,
        -0.0071140653,
        -0.134314,
        0.026294354,
        0.0996218,
        0.06330342,
        -0.21237458,
        0.15803447,
        -0.108425595,
        -0.16353995,
        0.20131949,
        -0.13549866,
        -0.13410881,
        -0.015445764,
        0.28568658,
        0.14936508,
        -0.055513877,
        -0.2768097,
        0.080343835,
        0.13949476,
        -0.19706912,
        -0.06706218,
        0.016368583,
        0.03900176,
        0.05186751,
        -0.1490182,
        -0.10400574,
        0.058294248,
        -0.11565733,
        -0.09237779,
        -0.07780319,
        0.10421492,
        0.050457146,
        0.18170321,
        -0.09930142,
        -0.06919858,
        -0.0019871464,
        -0.1432675,
        0.11068171,
        0.06142161,
        -0.117862016,
        -0.0978999,
        -0.47447655,
        0.011991221,
        0.26747802,
        0.0064068297,
        -0.40173692,
        0.013926417,
        0.011141601,
        -0.22652307,
        0.022035042,
        0.15435202,
        -0.091200426,
        -0.34533367,
        -0.15216903,
        -0.07625681,
        0.31834754,
        0.006396555,
        0.09081845,
        -0.21612625,
        0.0034256198,
        0.079127334,
        0.03772381,
        -0.047816653,
        -0.047400065,
        0.24885662,
        0.037686765,
        0.33922827,
        0.17586784,
        0.111078866,
        0.16324064,
        -0.10948835,
        -0.04989142,
        -0.11858431,
        0.14300644,
        -0.10843465,
        0.08656098,
        -0.106632695,
        -0.106443636,
        0.13288409,
        0.021377543,
        0.2174789,
        0.060317643,
        0.04559234,
        0.06634877,
        -0.0058564995,
        0.10431047,
        0.08819346,
        0.13320836,
        0.15096688,
        0.12781677,
        0.12597182,
        -0.025446514,
        -0.6077063,
        -0.022098597,
        -0.06177389,
        -0.05666619,
        -0.1716577,
        -0.3165483,
        0.006792597,
        0.06060654,
        -0.07625063,
        0.042097006,
        0.13979271,
        0.19050963,
        -0.13575889,
        0.037224744,
        0.03225269,
        -0.1624904,
        -0.20917076,
        -0.23258728,
        0.061356433,
        -0.07106292,
        -0.17400768,
        -0.16453694,
        -0.0584807,
        0.08766954,
        0.08998487,
        0.09322949,
        -0.059204586,
        -0.055599168,
        -0.10743851,
        0.069624305,
        0.15028842,
        -0.06404949,
        0.2705512,
        -0.05793558,
        -0.12257793,
        0.22307214,
        0.21306597,
        0.042105876,
        -0.2157374,
        0.0076257135,
        -0.1181842,
        -0.07731944,
        -0.018237729,
        0.03258596,
        0.2653836,
        -0.04915832,
        0.11777476,
        0.112002485,
        -0.41377863,
        0.3498085,
        -0.13681324,
        0.025101589,
        0.10651764,
        -0.29405087,
        0.13707423,
        0.03945565,
        -0.2634125,
        -0.16909249,
        -0.31839433,
        0.18902,
        0.017588273,
        -0.009264365,
        0.16165756,
        0.070682526,
        -0.25120795,
        -0.24063261,
        -0.06255541,
        -0.13926542,
        0.19416621,
        0.03277133,
        0.24384774,
        0.07754863,
        0.044198062,
        -0.20024787,
        -0.1162237,
        -0.28622246,
        -0.038018964,
        -0.06710305,
        -0.2623266,
        0.2847245,
        0.23140107,
        0.023873962,
        -0.25135642,
        0.14871377,
        -0.15712343,
        -0.09387489,
        0.17806256,
        0.12924613,
        0.026835885,
        -0.03595893,
        0.016235538,
        0.23019162,
        0.00855021,
        0.032229662,
        -0.14157535,
        -0.048686575,
        0.1998875,
        -0.1412097,
        0.01370445,
        -0.22740051,
        0.008881432,
        -0.028895766,
        0.013372249,
        0.06885532,
        -0.03391771,
        0.045512807,
        0.019417087,
        -0.11216253,
        -0.3056709,
        0.024022115,
        -0.18515293,
        0.031510513,
        0.043070503,
        -0.01588126,
        -0.30573174,
        0.04600814,
        0.19629373,
        0.10132266,
        0.20840329,
        -0.10269386,
        0.021718213,
        -0.18055072,
        0.13993214,
        0.054177552,
        -0.14480801,
        -0.034041185,
        0.39458328,
        0.35006237,
        0.109295,
        -0.16764937,
        0.20924376,
        0.3103088,
        -0.27422673,
        0.076812156,
        0.2581334,
        -0.06502664,
        0.09295664,
        0.16158588,
        0.11749562,
        0.1825715,
        -0.18281405,
        0.2383954,
        -0.2594579,
        0.2334602,
        -0.012554392,
        -0.18537924,
        0.2125947,
        -0.16016479,
        0.13070153,
        0.057887107,
        -0.09417142,
        0.18384092,
        0.09312821,
        -0.16232122,
        0.018946689,
        0.11043589,
        0.32114744,
        0.030114964,
        0.0037260735,
        0.010511122,
        0.19668971,
        0.042764828,
        -0.009910177,
        -0.16790563,
        -0.038212895,
        0.28848946,
        0.2059687,
        0.05538473,
        -0.027573096,
        0.035680797,
        0.12889113,
        0.18607272,
        -0.31097203,
        0.002618878,
        -0.17566764,
        0.067022175,
        0.25560302,
        0.043130677,
        -0.45016786,
        0.050107002,
        0.054405514,
        0.09923295,
        0.24655591,
        0.14326459,
        -0.15174207,
        0.2073502,
        0.24196705,
        0.056435533,
        -0.16545564,
        -0.0554139,
        0.13393636,
        0.1681014,
        0.29496926,
        0.07300663,
        -0.15418386,
        -0.21183267,
        0.2819971,
        0.12751415,
        -0.09255529,
        -0.029874139,
        0.028968109,
        -0.26524684,
        -0.047006927,
        -0.17489053,
        0.06383064,
        -0.06978765,
        0.1342486,
        0.12793216,
        -0.23055397,
        -0.2122671,
        -0.07158454,
        -0.1645942,
        0.22384582,
        0.029931469,
        0.1056223,
        -0.047805455,
        -0.069870345,
        0.008856993,
        -0.030572765,
        -0.19124055,
        -0.16757442,
        0.13003312,
        -0.08290252,
        -0.038451612,
        0.09471393,
        0.049770042,
        0.14602666,
        0.03910401,
        -0.026779894,
        0.26168332,
        -0.00046279418,
        0.08513744,
        0.16393042,
        0.0910102,
        0.11389916,
        0.039472148,
        -0.17042245,
        0.123080894,
        0.18781719,
        -0.055395585,
        -0.06341755,
        -0.023368545,
        -0.1360098,
        -0.08356123,
        -0.10093843,
        0.29424754,
        -0.047428057,
        -0.045808528,
        -0.16370188,
        -0.10106286,
        0.15325755,
        -0.06896383,
        -0.049626913,
        -0.00007513369,
        -0.13550328,
        -0.1814471,
        -0.0053131785,
        -0.069018826,
        -0.018557537,
        0.13742423,
        -0.08958317,
        0.23400201,
        -0.059863362,
        0.07146388,
        0.097441114,
        -0.15638547,
        0.0017949123,
        -0.12241129,
        -0.044980954,
        -0.059959393,
        -0.10419295,
        -0.0070743994,
        0.02854213,
        -0.083783686,
        0.036716837,
        -0.051342,
        0.034751996,
        -0.08882727,
        -0.19098881,
        0.3680442,
        0.33257505,
        0.03140741,
        0.035614755,
        0.1852002,
        0.14423412,
        -0.06598441,
        -0.19411083,
        0.11518318,
        -0.0421486,
        -0.16361326,
        0.06065271,
        0.008578078,
        0.05604676,
        -0.007348224,
        -0.20422512,
        -0.24501644,
        0.046884738,
        -0.028728506,
        -0.12919325,
        0.0012560005,
        -0.05501197,
        0.038864862,
        -0.029278167,
        -0.10253826,
        -0.17246605,
        0.11897378,
        -0.0020653766,
        -0.44080615,
        -0.039270196,
        0.09819309,
        -0.0741069,
        -0.1736073,
        -0.08757707,
        0.09256648,
        0.34577873,
        0.0019393106,
        -0.15283073,
        -0.055756208,
        0.23037264,
        -0.026204892,
        -0.08481841,
        -0.05902609,
        0.027545031,
        -0.06973465,
        -0.40239143,
        0.10653057,
        0.0034834389,
        0.07953389,
        0.24855675,
        0.0027800826,
        -0.069781944,
        -0.20801908,
        -0.03459598,
        0.016547842,
        0.08714808,
        0.07477485,
        0.05211266,
        -0.013370359,
        -0.006499989,
        -0.021090755,
        0.038561624,
        -0.010034592,
        -0.12794137,
        -0.07233337,
        0.24676646,
        -0.25458044,
        -0.059347276,
        -0.035413083,
        0.03214561,
        0.16367614,
        0.040214673,
        -0.2525864,
        -0.093369566,
        0.11624037,
        0.18490244,
        -0.17175466,
        -0.06385699,
        -0.16110434,
        -0.10863739,
        -0.12362238,
        0.19755794,
        0.14258666,
        0.004803088,
        -0.26914334,
        -0.012296708,
        -0.22979149,
        0.07357648,
        -0.13264742,
        -0.085319355,
        0.0658293,
        -0.028822804,
        0.15190417,
        -0.037736792,
        -0.14518514,
        -0.17185025,
        0.18930447,
        -0.27971178,
        0.05045785,
        -0.14201798,
        0.16975398,
        -0.024741573,
        0.38596398,
        0.1183725,
        -0.123422645,
        0.0005453948,
        -0.23809555,
        -0.28960353,
        -0.17672883,
        -0.21799715,
        -0.20397171,
        -0.0624319,
        0.079896934,
        -0.029147513,
        0.13415448,
        -0.16179888,
        0.01358767,
        0.0006449136,
        0.1384744,
        0.21615508,
        -0.071952365,
        -0.12481772,
        -0.2324951,
        -0.056730285,
        -0.16461533,
        0.2105488,
        -0.17032407,
        0.062728,
        -0.22915612,
        0.007609477,
        -0.15202332,
        0.062159304,
        0.015188962,
        -0.23505712,
        0.03379284,
        -0.31743175,
        0.15132874,
        -0.08839515,
        -0.027723588,
        -0.15055859,
        -0.13771625,
        0.05885172,
        -0.034276154,
        0.16418225,
        -0.2814903,
        0.009688597,
        0.06284959,
        0.023186991,
        0.3313166,
        0.12676245,
        -0.05041007,
        0.062275622,
        0.032117408,
        -0.008147593,
        -0.28744534,
        0.23919488,
        0.050824616,
        -0.00735406,
        -0.091527924,
        0.15427962,
        0.18128178,
        0.1072487,
        -0.02589555,
        0.2023099,
        0.07017508,
        -0.13298588,
        0.17350326,
        0.0957331,
        0.27927545,
        0.096798085,
        -0.20812982,
        0.18509717,
        0.102878675,
        0.22450976,
        -0.13317573,
        0.38209972,
        -0.12786514,
        -0.2789883,
        -0.20162791,
        0.027869547,
        0.07042219,
        0.18266338,
        0.113997646,
        0.04818988,
        0.35700583,
        -0.15460345,
        0.051430672,
        0.22109133,
        0.09434195,
        -0.033526216,
        0.028165441,
        -0.0717969,
        0.28714928,
        0.015136189,
        0.0702086,
        0.24657366,
        0.19251949,
        -0.21688798,
        0.003530006,
        0.19807827,
        0.19596344,
        0.05445031,
        -0.2359926,
        -0.10092627,
        0.004770175,
        -0.22936983,
        0.13872497,
        -0.308959,
        -0.08327044,
        0.124650806,
        0.15552676,
        0.045410536,
        0.3362601,
        -0.25175533,
        0.45283046,
        0.006152172,
        0.096334256,
        -0.000015846686,
        -0.28732288,
        0.08952867,
        -0.2459855,
        0.08774913,
        0.06715214,
        0.057453778,
        -0.047721718,
        0.08313264,
        0.0709574,
        -0.1619315,
        0.09080948,
        0.08893352,
        0.23193021,
        0.12868805,
        0.07759725,
        0.06731391,
        0.3154859,
        0.05556088,
        -0.028782293,
        -0.15255095,
        0.116320476,
        0.12259986,
        -0.008221362,
        0.05105416,
        -0.1458502,
        -0.055257034,
        0.1695368,
        -0.054261476,
        -0.091514476,
        0.12615614,
        -0.13728666,
        -0.19428705,
        -0.045331225,
        -0.29990146,
        -0.08506551,
        0.022124056,
        0.25754973,
        -0.022267386,
        -0.0054178513,
        -0.02105034,
        -0.045671612,
        -0.24503334,
        -0.09050176,
        0.22973405,
        0.124132544,
        -0.0903604,
        0.22467312,
        0.028022269,
        -0.14574325,
        0.12965137,
        -0.0011258271,
        -0.07002937,
        -0.29556835,
        0.074999,
        -0.115330525,
        0.08254034,
        -0.15516469,
        -0.12754014,
        -0.068384305,
        0.010884758,
        -0.13883981,
        0.02985237,
        0.06736623,
        -0.026861882,
        0.00050910347,
        -0.04117598,
        -0.018827438,
        -0.08983135,
        0.00026239158,
        -0.13723229,
        0.07379522,
        -0.19325107,
        -0.20917994,
        0.19243406,
        -0.09232979,
        0.17837836,
        0.09650947,
        -0.11757876,
        -0.15351713,
        -0.0464107,
        0.12639752,
        0.019446246,
        0.10656598,
        0.123882435,
        0.040433563,
        0.24699163,
        -0.023074014,
        -0.10824568,
        0.22424808,
        -0.14575939,
        0.076152705,
        0.16559991,
        -0.046391748,
        0.029884027,
        0.09466805,
        -0.05326595,
        -0.02545293,
        0.033425655,
        0.22586513,
        -0.0059421365,
        -0.3682405,
        0.06287157,
        -0.062130153,
        -0.07234138,
        0.11809535,
        -0.018132582,
        -0.10829579,
        0.0056252866,
        -0.098101266,
        -0.13120408,
        -0.03515211,
        0.33393872,
        -0.23967664,
        0.037137147,
        0.2814017,
        -0.1714561,
        0.20323008,
        -0.21277991,
        0.13925502,
        0.025083663,
        0.095730074,
        -0.048230305,
        0.27155235,
        0.07891847,
        0.09398315,
        0.06773958,
        -0.021729037,
        0.19906081,
        0.09960332,
        0.05942035,
        0.041089494,
        -0.30564266,
        0.07800648,
        -0.116232045,
        -0.11703333,
        0.09648795,
        -0.25579783,
        -0.23494957,
        0.19584602,
        -0.12149033,
        -0.11651346,
        -0.23165873,
        0.2017122,
        -0.13220315,
        -0.16501194,
        0.021468902,
        0.17058884,
        0.084829904,
        0.12174101,
        0.025368499,
        0.14890726,
        0.15299778,
        -0.13317741,
        -0.139385,
        0.16632916,
        -0.06953524,
        0.04311695,
        0.15874527,
        -0.056575175,
        -0.08225543,
        0.1399228,
        0.26764455,
        0.016477896,
        -0.017632265,
        0.109354325,
        0.38087556,
        -0.1417361,
        -0.09814676,
        -0.10423924,
        -0.3624754,
        0.030592622,
        -0.14242634,
        -0.089984246,
        -0.13785663,
        -0.19905816,
        -0.26941177,
        -0.04291793,
        -0.0732654,
        0.14757125,
        0.10959989,
        -0.042565316,
        0.23795183,
        -0.08291511,
        -0.15963182,
        0.14413229,
        -0.16925786,
        -0.42520168,
        0.037414268,
        0.013548222,
        -0.31985605,
        -0.2472393,
        0.18275607,
        0.15164724,
        -0.09813068,
        0.009502547,
        0.25709555,
        -0.010831141,
        0.09570703,
        -0.022073457,
        0.05805733,
        0.020346608,
        -0.03679905,
        0.03593511,
        0.3507158,
        -0.18708816,
        -0.0064289705,
        -0.12121507,
        0.103238486,
        0.002765084,
        0.23875819,
        0.058596577,
        -0.2232102,
        -0.05228748,
        -0.06192587,
        -0.011338048,
        0.20859435,
        0.19467378,
        -0.058551647,
        0.24781236,
        -0.12734684,
        0.3748901,
        0.06312571,
        -0.2382513,
        -0.15014513,
        -0.023777295,
        0.07482998,
        0.3542031,
        -0.03812057,
        0.18892333,
        -0.14164165,
        0.03674026,
        -0.06449479,
        0.1573175,
        0.024046823,
        0.012746713,
        -0.08247326,
        0.03131705,
        0.20035689,
        -0.13445602,
        0.014682737,
        0.23131302,
        0.117359936,
        0.1533766,
        -0.094397,
        0.16250147,
        -0.2243646,
        0.029224584,
        0.040624533,
        -0.13658875,
        0.2941161,
        0.12380777,
        -0.030867511,
        -0.26132232,
        0.0358304,
        -0.11590665,
        0.031709973,
        0.03668881,
        -0.24820578,
        -0.39226115,
        0.07856075,
        -0.24841745,
        -0.039338373,
        0.073290326,
        0.06192327,
        0.14376988,
        0.22472602,
        0.03744062,
        -0.06488079,
        0.24974246,
        0.3050293,
        -0.10865833,
        -0.21395108,
        -0.0027714882,
        0.07895921,
        -0.21883519,
        0.027925871,
        -0.0691084,
        -0.13952994,
        -0.27469265,
        -0.205939,
        0.19409664,
        0.09076138,
        0.2743594,
        -0.21270335,
        -0.09665747,
        0.041726466,
        -0.010643062,
        0.24300234,
        -0.18812941,
        0.020134535,
        0.07189856,
        0.15482877,
        -0.30447307,
        -0.025275704,
        -0.09138128,
        -0.018148826,
        -0.15928894,
        0.018493064,
        -0.14756033,
        -0.04815489,
        0.004571826,
        -0.04756839,
        -0.14776063,
        0.31838658,
        0.06549517,
        -0.12537326,
        0.27228612,
        0.069499835,
        0.00060346496,
        -0.015973153,
        -0.06599404,
        0.054305192,
        -0.13456805,
        -0.25627062,
        0.037867494,
        0.023284633,
        0.051778868,
        0.25366127,
        -0.1050361,
        0.06891574,
        -0.15970948,
        -0.0557982,
        0.05466423,
        -0.102663234,
        0.05023687,
        0.16880557,
        0.2301309,
        0.25692117,
        0.049547408,
        -0.030599697,
        -0.07358077,
        0.3998212,
        0.10411387,
        0.09515301,
        -0.005384003,
        0.6625702,
        -0.17409459,
        -0.015566851,
        -0.18636867,
        -0.19384186,
        -0.15427123,
        0.09152931,
        0.26566422,
        0.031850845,
        -0.13894472,
        0.03208149,
        -0.17925009,
        0.15976955,
        0.08181423,
        -0.04192683,
        0.22616501,
        -0.19640353,
        0.069381125,
        -0.012862601,
        0.1359237,
        0.10218224,
        0.17359771,
        0.20103915,
        -0.08355665,
        0.20444052,
        0.14470102,
        0.12090033,
        -0.049664117,
        0.130664,
        -0.03565095,
        -0.20711698,
        0.2203482,
        -0.46038496,
        0.16889691,
        -0.14363667,
        0.13157794,
        -0.14140259,
        0.021746397,
        -0.05322169,
        -0.09157901,
        -0.085416906,
        0.2854337,
        0.112180024,
        0.012157913,
        -0.15837407,
        0.2343307,
        0.13803063,
        0.037056785,
        0.0022459712,
        -0.08198988,
        -0.10235052,
        -0.057045504,
        -0.21973158,
        0.07554756,
        0.20032409,
        -0.052227847,
        -0.0027784854,
        -0.18471956,
        0.081246965,
        -0.30041376,
        0.21641171,
        0.059009906,
        0.020493973,
        0.062849134,
        -0.07699639,
        -0.25231653,
        0.25465125,
        0.269006,
        0.2707227,
        -0.109384045,
        -0.21996148,
        -0.21033494,
        0.13400918,
        -0.16041063,
        0.053680003,
        -0.08642291,
        0.0007838678,
        -0.009605047,
        0.03076172,
        0.015441764,
        0.19962531,
        0.11529135,
        -0.13179725,
        0.16691315,
        -0.31335315,
        -0.37471718,
        0.26906687,
        -0.11914079,
        0.18155421,
        -0.05106263,
        0.03677504,
        0.27340335,
        0.084975965,
        -0.1397388,
        -0.00021042743,
        -0.03413908,
        0.09557562,
        -0.04340145,
        -0.13863368,
        -0.01229462,
        -0.2158587,
        -0.3397713,
        -0.16010842,
        -0.13610859,
        -0.17548086,
        -0.09731784,
        -0.14730012,
        -0.13814989,
        0.12993367,
        -0.1460655,
        -0.21245834,
        0.050800595,
        0.19411525,
        -0.23269832,
        0.08202153,
        0.067126356,
        -0.07906614,
        0.25607803,
        0.33526003,
        -0.050381206,
        0.28418282,
        -0.060993742,
        0.10806154,
        -0.094279915,
        0.08282497,
        0.2972195,
        0.0013257898,
        0.05924608,
        0.039919835,
        -0.20856553,
        0.037147,
        -0.06068864,
        0.015969584,
        -0.11939541,
        -0.23571229,
        0.051789887,
        -0.18648733,
        0.23780099,
        0.22304504,
        -0.27701584,
        -0.18610995,
        -0.072443165,
        0.19859323,
        0.12448848,
        0.032300018,
        0.001450087,
        0.09646894,
        -0.0066658375,
        0.055011246,
        -0.20082152,
        0.154848,
        0.1181781,
        -0.11001197,
