{
  "name": "trigram",
  "parameter_count": 346,
  "layers": [
    {
      "layer_type": "Linear",
      "name": "Input",
      "index": 0,
      "weights": [
        -0.10319814,
        0.1573403,
        0.023481298,
        -0.8718155,
        0.3585598,
        -0.52407295,
        -2.4984856,
        0.2872546,
        0.7337697,
        0.8048864,
        -0.2863787,
        -0.7339092,
        0.75336325,
        -1.6611865,
        -1.0855982,
        -0.044633523,
        -1.20906,
        -0.14831053,
        -1.1381879,
        -0.5084682,
        -0.6257041,
        0.01391662,
        -0.81960684,
        -0.5474455,
        0.25693122,
        -0.66470355,
        0.258748,
        -0.0041537844,
        -1.2334967,
        0.6078588,
        -0.7182755,
        0.01931003,
        0.22693604,
        0.23499545,
        0.5664198,
        -1.2420679,
        -2.4640017,
        0.119809054,
        1.1043053,
        -0.3947954,
        -0.44083685,
        0.13013513,
        1.0241895,
        -0.90608597,
        -0.4846619,
        -0.18977623,
        0.80294275,
        -0.45758778,
        1.0315813,
        -1.4886069,
        -0.09431253,
        -0.330587,
        0.2621083,
        1.0318162,
        -2.0137486,
        0.14489219,
        1.0493497,
        -0.74425995,
        -0.2635015,
        0.40402806,
        0.05148565,
        -0.016823132,
        1.0610468,
        -0.42332596,
        -0.59892356,
        0.41714895,
        0.9176723,
        1.6848971,
        0.08909586,
        0.99291027,
        -0.13859236,
        0.67489,
        0.5750538,
        -0.013858023,
        1.4152093,
        -1.2530767,
        0.69267946,
        0.96052736,
        -0.008877528,
        0.46484137,
        0.92278075,
        0.56843656,
        1.9851879,
        0.2795696,
        0.27433702,
        -1.327249,
        -0.31137618,
        0.4497293,
        0.16125453,
        -0.28479773,
        1.6685294,
        1.3520349,
        -0.9065228,
        0.8672985,
        1.0766305,
        -0.13017927,
        1.5165263,
        1.1231341,
        -0.3297629,
        -0.12743333,
        0.10781958,
        -0.6930262,
        0.8242752,
        0.13779524,
        -0.62896025,
        0.46148837,
        2.0652983,
        -0.6559949,
        -0.31673723,
        2.5481467,
        -0.8324543,
        0.6337843,
        -1.2132024,
        -1.6894331,
        -0.66545415,
        -0.15697029,
        0.60225135,
        0.36639935,
        0.15199293,
        1.2558638,
        -0.09904869,
        -0.55370444,
        0.8626407,
        -0.007773161,
        1.2909118,
        0.61070204,
        0.23057108,
        0.5952087,
        0.19107172,
        1.0518801,
        0.99312097,
        -0.37942815,
        0.48646697,
        -0.72514355,
        -0.21647862,
        0.06128462,
        -0.22612458,
        1.2632873,
        -0.024572864,
        0.20812587,
        0.43255457,
        0.041835353,
        0.14956492,
        0.17328832,
        -1.5180259,
        0.46928757,
        -0.102701776,
        -1.2178421,
        0.04564292,
        1.6434534,
        0.6332551,
        -1.6007837,
        0.5583651,
        -0.23753299,
        0.6707184,
        -0.31923038,
        -0.3000095,
        0.24909577,
        0.840464,
        -0.9122596,
        0.4324048,
        -0.54532576,
        -0.54351217,
        -0.025425212,
        -2.523628,
        0.45662883,
        0.45041937,
        1.1649224,
        -0.3478012,
        0.37809667,
        0.51533383,
        0.098127365,
        0.83543324,
        -0.09505497,
        -1.67059,
        -1.4763786,
        0.11387012,
        -1.2142826,
        0.11268367,
        1.6104513,
        0.019325072,
        -1.1857536,
        -1.1202471,
        0.5080173,
        -0.9171306,
        -0.6554084,
        0.92124903,
        -0.85203564,
        -0.27597845,
        -0.009308047,
        0.03471186,
        1.0758128,
        0.09428325,
        0.9395508,
        0.9239858,
        1.0500005,
        -0.5280558,
        2.1558805,
        -0.2142909,
        0.080035016
      ],
      "shape": [
        50,
        4
      ]
    },
    {
      "layer_type": "Tanh",
      "name": "AL 1",
      "index": 1,
      "weights": [],
      "shape": []
    },
    {
      "layer_type": "Linear",
      "name": "HL1",
      "index": 2,
      "weights": [
        -0.51843035,
        0.23494528,
        -1.991783,
        2.8620858,
        -1.4490072,
        0.83401054,
        0.61683685,
        1.2066592,
        0.85236794,
        -1.3483397,
        -1.3475313,
        -0.6008622,
        -0.02664548,
        -0.13238384,
        -0.03215954,
        -0.5072411
      ],
      "shape": [
        4,
        4
      ]
    },
    {
      "layer_type": "Tanh",
      "name": "AL2",
      "index": 3,
      "weights": [],
      "shape": []
    },
    {
      "layer_type": "Linear",
      "name": "HL2",
      "index": 4,
      "weights": [
        -0.07704636,
        -0.8768857,
        -0.048988473,
        -0.1414438,
        0.49072617,
        0.46047062,
        0.7388382,
        0.39134908,
        -0.80970573,
        0.6184987,
        -0.21977606,
        0.04464734,
        1.4166449,
        -1.6803384,
        2.1753585,
        0.5231839,
        1.2474161,
        -0.13760713,
        -0.1100989,
        1.7948366,
        0.37702325,
        -1.4140134,
        -1.8249936,
        0.24869977,
        -0.30476353,
        2.829093,
        -1.0194609,
        1.4885218,
        -1.5492399,
        0.09314637,
        -1.1004516,
        0.12480379
      ],
      "shape": [
        4,
        8
      ]
    },
    {
      "layer_type": "Tanh",
      "name": "AL3",
      "index": 5,
      "weights": [],
      "shape": []
    },
    {
      "layer_type": "Linear",
      "name": "HL3",
      "index": 6,
      "weights": [
        1.7595923,
        1.5026985,
        1.7718205,
        0.16259138,
        -2.4283893,
        -0.28807223,
        2.2614558,
        1.240404,
        1.1098914,
        -0.16946603,
        0.59785235,
        1.868921,
        -0.2088474,
        2.0558243,
        -1.0253716,
        -0.6933028,
        -0.69920576,
        0.7757081,
        -0.61370957,
        0.51738477,
        -1.8232751,
        -0.57291055,
        -0.3966778,
        0.9205979,
        -1.4936727,
        -3.5869238,
        -0.5168559,
        -1.1845604,
        1.2075737,
        0.63755953,
        -0.926344,
        -1.1573703
      ],
      "shape": [
        8,
        4
      ]
    },
    {
      "layer_type": "Tanh",
      "name": "AL4",
      "index": 7,
      "weights": [],
      "shape": []
    },
    {
      "layer_type": "Linear",
      "name": "HL4",
      "index": 8,
      "weights": [
        2.0221148,
        -0.7784986,
        -0.07718648,
        1.4948125,
        0.087103195,
        -0.16944489,
        -0.8662077,
        1.4445825
      ],
      "shape": [
        4,
        2
      ]
    },
    {
      "layer_type": "Tanh",
      "name": "AL5",
      "index": 9,
      "weights": [],
      "shape": []
    },
    {
      "layer_type": "Linear",
      "name": "HL10",
      "index": 10,
      "weights": [
        -1.1039219,
        1.1048399,
        -0.17358892,
        1.083485
      ],
      "shape": [
        2,
        2
      ]
    },
    {
      "layer_type": "Tanh",
      "name": "AL11",
      "index": 11,
      "weights": [],
      "shape": []
    },
    {
      "layer_type": "Linear",
      "name": "HL11",
      "index": 12,
      "weights": [
        0.75778925,
        1.480172,
        0.52069676,
        1.0692183
      ],
      "shape": [
        2,
        2
      ]
    },
    {
      "layer_type": "Tanh",
      "name": "AL12",
      "index": 13,
      "weights": [],
      "shape": []
    },
    {
      "layer_type": "Linear",
      "name": "HL12",
      "index": 14,
      "weights": [
        0.43914342,
        -0.03192009,
        -0.9505332,
        -0.87558687,
        -2.205014,
        1.2467362,
        0.67738444,
        0.42357305,
        0.1044795,
        -0.046478886,
        0.44368252,
        0.26480004,
        0.56783795,
        1.5783089,
        0.4904671,
        -0.48819166,
        -0.07918697,
        -0.034372754,
        0.7789973,
        -0.052822925,
        0.72031325,
        -0.6205233,
        -0.16988145,
        0.40920216,
        0.3160231,
        -0.7859481,
        -0.7927798,
        -0.19814081,
        0.06408711,
        -0.0057859635,
        -2.097384,
        -1.4251398,
        -0.59472924,
        -0.2821041,
        0.27305266,
        0.27757347,
        -1.8755003,
        -0.965045,
        -0.61773694,
        0.38297936,
        0.73648065,
        -0.93362975,
        0.9328831,
        -0.42960528,
        -1.4559858,
        -0.3194332,
        -0.4862564,
        0.63838804,
        0.58934057,
        0.3973817
      ],
      "shape": [
        2,
        25
      ]
    },
    {
      "layer_type": "Sigmoid",
      "name": "Output",
      "index": 15,
      "weights": [],
      "shape": []
    }
  ],
  "epoch": 1000,
  "saved_lr": 0.005
}