{
  "name": "trigram",
  "parameter_count": 12100,
  "layers": [
    {
      "layer_type": "Linear",
      "name": "Input",
      "index": 0,
      "weights": [
        -0.108098194,
        -0.7506238,
        0.49593273,
        -0.1265903,
        -0.17174797,
        -0.6395933,
        -0.010655337,
        -1.9595183,
        0.5348345,
        0.021004628,
        -1.1327956,
        1.1480427,
        0.5698814,
        -0.9142921,
        1.1361685,
        1.644024,
        1.1275355,
        -0.04845287,
        0.1658096,
        0.41912666,
        0.27543873,
        0.43292576,
        -1.6005294,
        0.34738925,
        -0.8335312,
        -1.9812974,
        0.90124726,
        -2.3379927,
        1.1119115,
        -1.8637824,
        -1.8126996,
        1.2217115,
        0.63316834,
        -1.3635265,
        0.3571486,
        0.13122901,
        0.24608226,
        -0.035107765,
        1.8449273,
        -0.44365388,
        0.6973789,
        -1.7167054,
        0.42203197,
        0.6674029,
        0.21162035,
        -2.1709948,
        -1.5365968,
        0.54576105,
        0.5310454,
        1.444216,
        0.5679408,
        0.25972655,
        0.78428686,
        0.17872122,
        1.0532818,
        1.2477424,
        1.6642107,
        -1.288224,
        -1.5409356,
        0.76340884,
        -0.24695131,
        0.2693345,
        -2.0554438,
        1.6766676,
        0.35919726,
        -0.18622597,
        1.5050281,
        -1.2023277,
        1.0547676,
        0.16395122,
        3.2447217,
        1.9910738,
        0.22235766,
        0.2174805,
        -1.1827967,
        -0.36560616,
        -0.8866492,
        -0.24482282,
        2.0814345,
        -1.9253509,
        -0.57703567,
        -1.3075181,
        1.1184132,
        -1.1218681,
        1.7722085,
        -0.014466917,
        1.5846399,
        -1.0785221,
        -2.9593496,
        0.118757695,
        0.30464786,
        -0.88045967,
        0.50649315,
        1.118238,
        0.07556059,
        -1.4984928,
        -1.1847075,
        -0.375502,
        0.97255313,
        -0.525929,
        0.7894051,
        1.0684161,
        -0.5478232,
        -0.9394288,
        0.5658215,
        -0.43075863,
        -1.3348355,
        -0.014733225,
        0.63373095,
        -0.8732296,
        0.5511152,
        0.6877726,
        -0.09686249,
        0.5013081,
        -0.52428687,
        -1.3461566,
        -1.0055114,
        -0.28137827,
        0.5484829,
        2.4167554,
        0.25662202,
        -1.4262537,
        0.45543143,
        0.90441924,
        -0.70816433,
        0.7561263,
        0.85014665,
        -0.9424984,
        1.0741389,
        0.7983659,
        0.82072973,
        0.43569985,
        1.4013561,
        1.0904096,
        -0.34435436,
        -1.9155488,
        1.6370679,
        -1.1212054,
        1.2173603,
        -1.2624813,
        -1.2911255,
        0.22748996,
        -1.2621636,
        0.08762702,
        0.04730415,
        0.040865,
        0.1669342,
        -0.9522399,
        -0.13664556,
        0.2771917,
        0.60803187,
        -0.2033215,
        1.6707244,
        0.41272438,
        -1.0250336,
        0.34422293,
        0.23861535,
        0.4922536,
        0.47334692,
        -0.03984568,
        1.3998045,
        0.31908,
        -0.5867692,
        0.70393294,
        -0.6172268,
        0.9232732,
        -0.2708923,
        1.0651627,
        -1.5277168,
        0.45211473,
        -1.1561377,
        -0.918423,
        0.3265153,
        1.3709981,
        -0.16269523,
        -0.30050352,
        -0.19279124,
        0.62417,
        0.8655711,
        -0.51476043,
        0.6027519,
        0.03070977,
        0.52593666,
        -1.605502,
        0.45523867,
        -0.820202,
        -0.42698804,
        1.8172885,
        -0.32827744,
        -0.30724695,
        0.89499015,
        -0.96784645,
        -0.7354896,
        -0.23104416,
        1.2259487,
        -0.5350521,
        -0.66809934,
        -0.62866193,
        -0.99502456,
        0.5128613,
        -0.732799,
        -0.68232137,
        -1.2685657,
        -0.6299214,
        0.14200345,
        0.72013354,
        0.8446137,
        0.5479646,
        0.028850995,
        0.738619,
        -1.1115686,
        -0.6271991,
        -0.67530924,
        -1.114449,
        0.05228723,
        -1.3212273,
        0.7939755,
        -0.897243,
        -0.6488927,
        0.2486596,
        -0.5751803,
        0.79718673,
        -0.01624458,
        -0.45405826,
        -0.25602862,
        -1.0032791,
        0.6996433,
        0.49753737,
        -1.0533193,
        0.18022212,
        -1.4496071,
        -0.10955284,
        1.043774,
        -0.37818757,
        1.6335195,
        2.2711165,
        0.27192995,
        0.6274541,
        0.027996039,
        -0.87720966,
        0.25715643,
        -0.67949086,
        1.3052828,
        -2.2920585,
        -0.33328864,
        0.21891354,
        -1.0349764,
        -0.31182557,
        0.27280325,
        -0.441891,
        2.3101695,
        -0.9488348,
        1.8670377,
        -0.94415724,
        -1.6749905,
        -0.55016935,
        -1.0491114,
        -0.410994,
        -1.274453,
        0.16407877,
        0.53096366,
        2.199005,
        -1.0818347,
        -1.6174142,
        -0.33170035,
        -0.9984025,
        0.76301944,
        0.45299366,
        1.5157137,
        0.57032955,
        0.70568717,
        -2.177054,
        -1.4420325,
        0.4460426,
        -0.36743858,
        -1.1287725,
        1.4006423,
        -0.339304,
        0.25671038,
        1.5975536,
        -0.47176746,
        -0.6018444,
        -0.8609629,
        -0.28577596,
        -0.08126111,
        1.0873744,
        0.3002179,
        -1.4915767,
        0.14175542,
        1.0012891,
        0.27618644,
        -0.43571293,
        -0.25138077,
        0.4794534,
        -1.2708318,
        0.70414466,
        0.9206927,
        1.3047949,
        0.7203027,
        -0.7066671,
        -0.5206983,
        -1.8659197,
        -1.4949435,
        -0.55812764,
        0.76643425,
        -1.1991765,
        -0.050895743,
        0.08913225,
        0.13363002,
        0.7641921,
        0.5621335,
        -1.1121205,
        -0.7228847,
        -0.5280557,
        -0.45902166,
        -0.049222782,
        1.248592,
        1.122342,
        0.14248836,
        0.90522814,
        -2.1488426,
        -0.7029183,
        -0.31803745,
        -0.30436388,
        -0.7381004,
        -0.15787049,
        0.23601353,
        -2.437671,
        0.8102681,
        0.37363502,
        -1.6743202,
        -0.3227172,
        0.64467156,
        0.32078892,
        -1.0137959,
        -0.351704,
        -1.7633615,
        -0.8162837,
        0.36949715,
        0.6151737,
        -0.01032349,
        -0.59541553,
        -0.94256055,
        -0.43272626,
        0.75916857,
        -0.8502131,
        0.35586062,
        -0.59355474,
        0.87074834,
        -0.48117363,
        1.1365938,
        0.24163273,
        -0.74979925,
        0.4413005,
        -1.0616217,
        0.42617485,
        1.4181216,
        0.5601006,
        3.2267418,
        -1.403683,
        -0.46243086,
        0.16980466,
        0.6596144,
        0.09925666,
        -1.0297916,
        -0.33936447,
        -0.10998076,
        1.5360881,
        -1.6334561,
        1.1069356,
        1.0529968,
        0.51250833,
        -1.241462,
        1.4014707,
        0.1815837,
        0.3253577,
        -1.4248351,
        -1.1637459,
        -0.5712925,
        0.74826217,
        1.186284,
        -1.6430869,
        -0.7352592,
        -1.9750925,
        -0.8617781,
        0.79508793,
        1.0135261,
        -0.3999985,
        -0.7431686,
        -0.79364514,
        1.5250698,
        -0.61193544,
        0.23755898,
        -0.6968359,
        0.43043107,
        1.0168271,
        -1.410635,
        0.90895635,
        -0.4529837,
        0.26379538,
        -0.26375502,
        -0.35528436,
        4.5880446,
        -0.37155664,
        0.36315864,
        -2.0831394,
        -1.0356156,
        -0.8700279,
        1.8388975,
        0.27403712,
        0.086146325,
        -0.43315515,
        0.2741114,
        -1.5091468,
        -0.27627206,
        -0.8018453,
        -0.0075049447,
        -2.2939208,
        -0.042646408,
        -2.045519,
        0.41802317,
        -3.0332224,
        1.9661537,
        -1.451652,
        -1.8297011,
        -1.0593615,
        -1.0060798,
        1.5823817,
        -1.1425625,
        0.49053547,
        -0.89883924,
        0.9117438,
        -0.5086352,
        1.558043,
        -0.64740413,
        -0.47920147,
        -0.56051785,
        -0.52021384,
        1.4980627,
        -0.1869025,
        -1.0492373,
        -0.8390354,
        0.8440361,
        0.5988745,
        -0.3197594,
        -1.7358158,
        -0.11991113,
        0.26935488,
        1.0408999,
        -0.58144766,
        0.00839527,
        0.06350826,
        -1.1153626,
        -0.51818055,
        0.56046736,
        0.5461598,
        0.4873308,
        -0.18597493,
        -0.3761656,
        2.461669,
        0.20413579,
        -0.96721905,
        -0.29764536,
        -1.0223637,
        -0.013247575,
        1.0111569,
        0.38129196,
        0.67978674,
        1.773474,
        -0.38127866,
        -0.79648215,
        -0.42435926,
        -1.5941833,
        0.026986938,
        0.97766113,
        -1.4895209,
        -0.0703748,
        -1.9793549,
        0.20891184,
        -0.07167361,
        -1.334787,
        -1.8200985,
        -1.1891711,
        0.5558993,
        -1.2785519,
        1.8217237,
        -0.13889086,
        0.674233,
        -0.83721894,
        2.5449057,
        -0.9055069,
        0.11854185,
        0.062436353,
        -0.50568706,
        -1.262875,
        0.06297958,
        0.3237439,
        -0.7890576,
        -1.2932119,
        -0.06363295,
        -0.83747065,
        -1.0895275,
        -1.0172646,
        -0.9058029,
        -0.44687933,
        0.5514658,
        0.46986488,
        -0.47713277,
        -0.9830561,
        1.0304426,
        -1.0352694,
        -0.018407425,
        0.068144776,
        -0.8600614,
        -0.31311715,
        0.7307498,
        -1.3320823,
        0.8537528,
        -0.021363683,
        0.5813172,
        -0.34885097,
        0.27030793,
        1.3845444,
        -2.1318676,
        0.5855347,
        0.43078196,
        1.1522831,
        0.12437188,
        0.5518084,
        -0.09438317,
        0.14509822,
        -2.560869,
        0.015858049,
        -1.5527146,
        0.9592202,
        -0.64680123,
        -0.6010921,
        -1.3323139,
        0.63147455,
        -0.083019465,
        -0.3346041,
        1.0866402,
        -1.3099322,
        1.652625,
        -0.1625342,
        -0.67808014,
        0.16449574,
        0.17783904,
        -1.0520754,
        -0.83662885,
        -0.3157046,
        -1.6371998,
        -0.6182927,
        -0.32242692,
        0.4940698,
        -0.91148704,
        0.048681326,
        0.48623672,
        0.67041177,
        0.720279,
        0.88582385,
        -1.1297356,
        1.2153708,
        -1.2434256,
        1.3304454,
        0.978593,
        0.64625907,
        1.1575675,
        -1.7159683,
        2.3849711,
        0.4002542,
        -1.3498585,
        -0.83788246,
        -1.4991606,
        0.6473889,
        -1.7945869,
        -1.5544366,
        -1.1342355,
        1.7286944,
        0.36223412,
        -0.97612756,
        1.4326375,
        -0.9775787,
        0.2507297,
        0.27885243,
        -0.73728096,
        -0.68451697,
        -0.23111255,
        1.227013,
        0.45094657,
        0.018161578,
        -0.7233505,
        1.5868824,
        0.5082569,
        0.5461558,
        -0.4471091,
        -0.008270069,
        0.55391246,
        -0.51693034,
        -0.27478436,
        1.3051854,
        -0.3558786,
        1.0925877,
        0.065120004,
        0.1430385,
        -1.531293,
        -0.8736849,
        1.8773568,
        -0.24267435,
        -0.23273298,
        2.0060537,
        -1.8215258,
        -0.17885482,
        0.7756124,
        -1.1491017,
        -0.504297,
        -0.14735875,
        1.2248032,
        -0.91249055,
        -1.8376086,
        0.6050556,
        0.012062583,
        1.098006,
        -1.7225027,
        -0.12397042,
        -0.48088944,
        1.1080892,
        1.4355311,
        1.1724136,
        -1.4850764,
        0.44424626,
        1.5597241,
        1.706005,
        1.2085333,
        0.03450662,
        0.36554393,
        1.1841372,
        1.8410431,
        -1.7875072,
        0.13494048,
        0.5399231,
        -0.37031308,
        0.25126544,
        0.3172323,
        0.4482275,
        1.2014765,
        0.9454581,
        0.82798725,
        0.34889704,
        0.17251045,
        2.192192,
        -0.8921581,
        0.626186,
        1.0421644,
        -0.9930224,
        -1.0407501,
        -0.21775812,
        1.6367649,
        1.671724,
        -0.1842501,
        0.1554884,
        -0.23022293,
        -0.40297052,
        0.7263628,
        -0.14619623,
        -0.36139,
        1.3417248,
        -0.22645745,
        1.2273915,
        -0.7890239,
        -0.30665615,
        -0.6409222,
        -0.247996,
        -0.38215473,
        0.9722981,
        0.020780224,
        -1.3688416,
        0.38246772,
        -0.6606573,
        -2.5802221,
        -0.35495266,
        -0.081088394,
        0.117018364,
        -0.4815969,
        -0.94971395,
        -1.1000831,
        -1.0953988,
        -0.4098906,
        -1.5922328,
        0.12039554,
        -0.12371499,
        0.6742602,
        -0.26311415,
        -0.042917892,
        -1.4330348,
        1.5593723,
        1.4458643,
        -0.1597255,
        -0.51309687,
        0.75222623,
        0.45346558,
        -1.0177573,
        0.08175685,
        1.2787868,
        0.641239,
        -1.8768156,
        0.6954534,
        0.1381046,
        -0.66163707,
        0.26163688,
        -0.6918483,
        0.09445041,
        -0.15337819,
        -0.048797306,
        2.6728613,
        -0.02914363,
        0.96155447,
        1.164864,
        -1.7406604,
        -0.5115652,
        -1.1188688,
        -0.8122121,
        0.73019755,
        -0.06551871,
        0.3087625,
        0.485552,
        0.25098008,
        -0.69510996,
        0.69781095,
        0.86147326,
        1.3803477,
        0.60037106,
        1.4581201,
        1.5510094,
        0.5737395,
        -1.1488522,
        0.32294622,
        -0.731357,
        -0.030910345,
        -0.32008845,
        -0.5418932,
        0.5641459,
        -1.8534071,
        0.6853416,
        -0.1252767,
        1.311272,
        0.7513775,
        0.27341905,
        0.79059887,
        0.3623041,
        -0.02708128,
        0.50337017,
        -0.85324264,
        -1.3825997,
        0.88279617,
        1.632109,
        0.80950785,
        -0.65964943,
        0.9081524,
        -1.2843125,
        -0.94922394,
        -0.10039744,
        0.7641376,
        0.2658745,
        -2.1756365,
        -1.6590105,
        -1.3430258,
        2.0859976,
        0.07232826,
        0.4882073,
        -0.2864785,
        -1.714384,
        0.7476326,
        -1.7024513,
        -0.25014928,
        -0.13113765,
        -0.2701398,
        0.3021809,
        -0.12556846,
        -0.82985884,
        -0.36987305,
        0.51620495,
        0.072791465,
        0.9456452,
        2.2689505,
        -0.87488437,
        2.0018997,
        0.8988611,
        -0.52297133,
        -0.5939027,
        0.27742982,
        0.49099523,
        0.03090624,
        0.02916817,
        -0.2560986,
        -1.1839939,
        0.58421785,
        0.11595399,
        -0.39636114,
        -1.6232471,
        -0.43856582,
        0.21997519,
        -0.7740218,
        0.7793099,
        -0.63107795,
        -0.070169464,
        -0.38135004,
        0.31922126,
        -0.5580219,
        -0.35855672,
        0.22533949,
        -0.956698,
        0.36726925,
        -0.807973,
        1.3029493,
        0.16160968,
        -0.84620404,
        -0.62268245,
        -1.0146956,
        -0.10933087,
        -0.89019555,
        2.2670832,
        -0.4146563,
        1.7181429,
        0.27625337,
        -0.961433,
        0.41147563,
        -0.019987494,
        1.5709893,
        -1.3086679,
        0.18367647,
        -1.6039325,
        -0.21779169,
        0.09756243,
        0.63014233,
        -1.0090973,
        0.18776332,
        -1.0593362,
        -1.1146716,
        1.5297569,
        3.3510883,
        -0.6663896,
        -0.8257349,
        -0.33809003,
        1.2361296,
        0.50319695,
        -0.40119147,
        -0.83523977,
        1.2904053,
        1.333162,
        1.423041,
        1.2887946,
        0.23102008,
        -1.0629765,
        0.6995052,
        -1.1659265,
        0.65091395,
        0.58126456,
        -0.43331763,
        0.4478654,
        -2.143873,
        -0.71221936,
        0.9123174,
        0.13133389,
        -1.0191243,
        -1.1929398,
        0.077353425,
        -0.23178563,
        2.0142477,
        -0.15731306,
        0.7742666,
        0.11180629,
        1.2875396,
        -1.3957441,
        -0.33257908,
        -0.5676541,
        -1.1062462,
        -1.2309175,
        0.37879506,
        1.5275213,
        0.6901232,
        -0.5838241,
        1.7122715,
        0.13231756,
        -0.17680733,
        -1.8124667,
        -1.7354435,
        1.4767596,
        -1.5929122,
        2.140259,
        1.2743939,
        1.6176462,
        0.92324793,
        0.27683264,
        -0.96697044,
        1.1933275,
        1.4521992,
        0.37888268,
        -0.9914744,
        -2.202051,
        -0.374813,
        0.6447268,
        0.8452144,
        0.7812403,
        0.19211568,
        -0.9747236,
        -0.44123688,
        -0.822716,
        1.7157612,
        0.3874113,
        -0.49621946,
        1.3465927,
        -0.024190098,
        -0.47478014,
        0.25469396,
        0.18112506,
        0.68269783,
        -0.76558983,
        -0.22003709,
        -0.9303847,
        0.67706543,
        0.46703643,
        0.92762333,
        -0.15768187,
        -0.5522639,
        -1.4926182,
        2.6654034,
        0.6843954,
        -1.2830003,
        -0.5779669,
        0.54078406,
        1.4926785,
        1.0325507,
        0.93226385,
        1.843062,
        -1.1339989,
        -0.96232164,
        -1.0796163,
        0.119722225,
        0.30531484,
        0.42754352,
        -0.40865532,
        -0.72870636,
        -0.7969601,
        -0.3149097,
        -0.15209742,
        -1.0657152,
        0.008781114,
        -0.19419509,
        0.6580572,
        -0.9723285,
        -0.733861,
        0.61651933,
        0.7932292,
        -0.94277346,
        -0.56416965,
        0.70148796,
        -0.10015812,
        -1.4909953,
        0.77958745,
        1.7765996,
        1.5563384,
        1.1658627,
        -0.20007148,
        -0.087125115,
        0.94670206,
        -0.39886388,
        -0.5321319,
        -0.8404021,
        -0.3856785,
        0.810486,
        0.28891295,
        0.34178525,
        0.57593966,
        -0.55259126,
        -0.3671595,
        0.09847335,
        -0.76622593,
        1.9019731,
        -0.13317761,
        -1.5792004,
        -0.15747337,
        0.17528726,
        0.008814998,
        1.8635298,
        -0.35854414,
        1.1977872,
        1.7768334,
        0.12243424,
        1.0049378,
        1.2374576,
        -0.041390747,
        0.47125226,
        -0.88066095,
        -0.5030458,
        0.43993494,
        0.46326026,
        0.14479259,
        -0.41965508,
        -0.65369004,
        -0.36340246,
        -0.4427374,
        -1.125903,
        0.9590872,
        -1.9327286,
        0.49869728,
        -1.634937,
        -0.3539203,
        -0.30737188,
        0.2572151,
        -0.63470787,
        -0.10422566,
        0.15968023,
        -0.40389544,
        0.7571882,
        -0.72446495,
        -1.2701235,
        -0.833348,
        0.6240557,
        -0.21976553,
        0.045991626,
        -0.3169654,
        -0.5037493,
        -0.9262974,
        -0.6487283,
        0.35735953,
        -0.3805849,
        0.61306757,
        1.3940816,
        -2.3270845,
        0.46186683,
        -1.4886627,
        0.016586108,
        -1.5849869,
        -0.84650964,
        -1.3649641,
        -0.2792263,
        -0.846997,
        -0.40791485,
        -0.33571002,
        -0.94128525,
        -0.33899373,
        3.3829923,
        -0.774179,
        -0.83837676,
        -0.4201156,
        -0.33210778,
        -0.10338838,
        -0.34885165,
        -0.66666704,
        1.4965284,
        -0.0828654,
        1.03398,
        0.3481459,
        0.6135105,
        0.5881034,
        -0.47621185,
        -0.39705577,
        0.35511386,
        -0.43799162,
        -0.9425659,
        -0.29903975,
        0.90991527,
        -0.024664598,
        0.7585372,
        2.2844794,
        -0.12546358,
        0.876594,
        -0.0029821289,
        -0.7325511,
        0.08192206,
        -0.12889425,
        0.33848557,
        -2.0539367,
        -0.6854821,
        -0.20452583,
        0.9743805,
        0.5414563,
        1.4652303,
        1.0935181,
        0.7291735,
        0.4620917,
        0.5414761,
        -1.7513614,
        0.1893476,
        0.31631395,
        -0.2628219,
        0.112703845,
        0.6982505,
        -0.65427804,
        0.66399264,
        0.50029767,
        -0.18265885,
        -0.9934832,
        -0.7342927,
        -1.6661249,
        0.080763675,
        1.8072162,
        0.93679357,
        0.89244163,
        0.32961673,
        -1.2529953,
        0.6622307,
        -0.85099924,
        0.22029275,
        -2.1775045,
        0.9500139,
        0.5420343,
        -0.0838128,
        -1.1959089,
        1.3043423,
        -0.8835748,
        0.9414635,
        -0.8323431,
        -0.67904526,
        -0.81503826,
        0.5097044,
        0.8232489,
        1.4488078,
        0.2383079,
        0.65688217,
        0.6300468,
        -1.3211716,
        0.85875434,
        -0.3109243,
        -1.0102094,
        -0.6316773,
        0.30135232,
        0.24961454,
        0.10806564,
        -0.3493117,
        -0.41470474,
        -1.1141746,
        1.9212756,
        2.5338135,
        0.85020876,
        0.5618307,
        -0.29428214,
        -0.10895195,
        -3.1178966,
        -1.3181142,
        0.33603886,
        0.66620576,
        -1.1654197,
        -0.63672024,
        -0.3739386,
        -0.8818866,
        0.52035904,
        0.37130165,
        1.2684289,
        0.35726652,
        -0.5991415,
        -0.6113151,
        -0.53473586,
        2.4816172,
        -0.016874805,
        -0.60219353,
        -1.0019884,
        0.8297005,
        0.046111554,
        2.1001432,
        -0.67805374,
        -0.09963772,
        1.0359135,
        0.4474935,
        -2.307548,
        -0.6226475,
        -0.18767896,
        1.0874867,
        -0.8859421,
        -0.9113519,
        -0.018309228,
        1.9605405,
        -0.15158097,
        0.38591474,
        0.18457775,
        0.99928796,
        -0.08444674,
        -0.014467029,
        -0.22737111,
        -1.1111635,
        0.5078746,
        -0.58773184,
        0.9885877,
        0.83567905,
        0.7703573,
        -0.8959932,
        -0.50094664,
        -1.3109531,
        -0.7210501,
        -0.2591071,
        -1.0917497,
        -1.70823,
        -0.14231952,
        1.1653364,
        -0.28066915,
        -0.041637465,
        -0.17932367,
        -1.8478602,
        0.77991986,
        1.1179007,
        0.641448,
        -2.2030723,
        0.39257237,
        1.3700072,
        -1.0220546,
        -0.15169033,
        -1.5897274,
        1.5173969,
        -0.21798208,
        0.06465485,
        -1.2469429,
        -0.1934553,
        -1.8657433,
        1.1073717,
        -1.240891,
        -0.040044967,
        -2.147835,
        -0.57438785,
        0.13276814,
        -0.646955,
        -0.41033423,
        0.12603997,
        0.86241084,
        -1.0190296,
        -0.051643018,
        -0.1388741,
        -0.16530685,
        -0.7248775,
        0.18168797,
        0.18550743,
        -0.7265924,
        0.9832072,
        1.5003128,
        -0.48270652,
        -0.6129128,
        -1.0009536,
        0.25883764,
        -1.8068336,
        -1.8023188,
        2.5659866,
        -0.5792084,
        -0.369825,
        -1.5774271,
        -0.009008854,
        0.28672597,
        0.38834175,
        0.37085968,
        1.2098494,
        0.20032221,
        1.5175437,
        -0.7925014,
        0.51130134,
        -0.07185611,
        1.2253385,
        -1.3323421,
        0.6291744,
        1.6726197,
        0.10053285,
        -1.9842802,
        1.3569691,
        2.540615,
        -0.6835508,
        1.3026419,
        -1.0554852,
        -1.5494465,
        -1.1652732,
        0.34745786,
        -0.044674743,
        0.44773373,
        0.40114513,
        -1.4617952,
        -0.51277894,
        -0.94080395,
        2.5463274,
        1.8670892,
        -1.0472955,
        -1.0650002,
        -0.35744983,
        0.23747411,
        -0.21118182,
        0.04119252,
        0.019936865,
        -1.5632076,
        -0.4207739,
        0.73852295,
        0.20529567,
        1.0084119,
        0.9958897,
        0.3977831,
        -1.6575875,
        0.24571513,
        -0.48616233,
        0.4940029,
        -1.7447644,
        -1.7478222,
        0.1480841,
        -0.21468377,
        -1.258636,
        0.75419044,
        0.7013179,
        0.022457907,
        0.11182049,
        0.88751185,
        -1.840448,
        -0.20686881,
        0.021588804,
        1.3882285,
        0.9154128,
        -1.8368417,
        -0.25260726,
        -0.45317653,
        0.68355185,
        0.77228415,
        -1.1227299,
        0.53399616,
        -0.26649892,
        -0.20978197,
        -0.2428093,
        0.7837782,
        1.1082067,
        -1.0134859,
        0.0916677,
        1.0981557,
        0.09703245,
        0.42697635,
        1.318547,
        -0.25561076,
        -0.07046334,
        -0.46852654,
        0.21281393,
        -2.360184,
        -0.24732749,
        0.3048161,
        0.005430287,
        0.10945003,
        0.93109906,
        -0.1818718,
        -0.3877755,
        -0.19301777,
        0.089253284,
        0.13846104,
        -0.15813261,
        0.043533716,
        2.0165071,
        -0.19807184,
        0.40702617,
        0.5296237,
        0.07134369,
        -0.46617645,
        -0.48073322,
        1.186778,
        -1.0551832,
        -1.1120349,
        -0.86953974,
        0.22150132,
        0.8801052,
        0.9439339,
        -0.63634485,
        1.1618645,
        0.2095154,
        2.0003865,
        0.029069452,
        1.0757089,
        -0.13971566,
        -1.9469132,
        -0.7089332,
        -1.4807907,
        1.090332,
        -0.30281377,
        1.7776242,
        0.852787,
        0.44105893,
        0.79772484,
        0.6453451,
        0.70122534,
        0.2391026,
        0.35879382,
        0.7136432,
        -0.40963447,
        1.2122028,
        -1.1877557,
        1.1282794,
        -0.101626985,
        -0.11237345,
        -0.033668954,
        -0.07864545,
        -0.5025423,
        1.1194628,
        1.4766822,
        0.95016235,
        0.50545716,
        0.4294477,
        0.77700394,
        1.6922978,
        -0.6509155,
        1.2741836,
        0.36473602,
        -0.6282843,
        -1.5173429,
        0.26438576,
        -0.5614233,
        1.2939609,
        0.7841037,
        0.2694448,
        0.095166646,
        1.1046095,
        1.061759,
        0.2753487,
        -0.45817283,
        0.89241403,
        0.058663514,
        -0.670965,
        -1.751512,
        0.5423424,
        -0.47533154,
        -0.1735939,
        -0.730312,
        1.6529293,
        1.5099299,
        0.6433263,
        -0.4133668,
        -0.59335375,
        0.44216314,
        -0.8890787,
        0.016344093,
        0.49345726,
        0.36051726,
        0.942767,
        -0.8918682,
        0.017667469,
        0.430699,
        0.25178167,
        -0.4890909,
        -1.1887625,
        2.0927901,
        0.60266095,
        1.6719201,
        0.6493667,
        0.9446558,
        1.4829283,
        0.6195993,
        -0.32934818,
        2.2754786,
        1.1052395,
        1.4490252,
        0.7659646,
        0.509299,
        -0.99397594,
        0.08130721,
        -0.66255313,
        -0.09597865,
        1.3108299,
        0.4829055,
        -1.0903989,
        0.48335674,
        1.355836,
        1.4689165,
        -0.5170998,
        -1.0437427,
        1.0873758,
        -0.5483216,
        0.71825325,
        1.2575942,
        1.2218055,
        1.1521739,
        -0.14568743,
        0.4132067,
        0.13608432,
        0.57685834,
        0.08211468,
        -0.75601953,
        0.9645569,
        -0.70723695,
        -0.8884653,
        0.567629,
        0.21350428,
        0.49294427,
        1.0840739,
        0.807885,
        -0.993716,
        -0.10637431,
        -0.29701528,
        1.5788633,
        0.7319317,
        1.661401,
        0.67337734,
        1.3599973,
        2.0292559,
        -0.9652105,
        0.015586489,
        0.56938213,
        0.24495895,
        -1.421688,
        -0.2617765,
        -1.1167519,
        -2.0311646,
        1.6176478,
        0.0082513895,
        0.5832244,
        -0.7320891,
        -0.30917475,
        -1.1155938,
        -1.5957882,
        1.6759893,
        1.3590925,
        -1.4231968,
        -0.29915532,
        0.45339867,
        -2.3406854,
        -0.3953751,
        -1.4056971,
        0.57854,
        1.0040867,
        -0.4031173,
        -1.0013411,
        0.0050243908,
        -2.672742,
        0.97970045,
        -0.96001023,
        1.0843356,
        -0.3583188,
        0.6140278,
        -0.5148027,
        -0.098648794,
        -1.1476322,
        -1.0055203,
        -0.4992655,
        -1.2098904,
        -1.0129933,
        -0.830149,
        -0.5923187,
        0.20162745,
        0.29226175,
        -0.58477426,
        -0.46049342,
        1.0551565,
        0.5183075,
        -0.44407997,
        -0.16861604,
        -0.25437164,
        -0.43997484,
        -0.09815552,
        -0.56968343,
        -1.8737211,
        -1.2988266,
        2.2978256,
        0.85378325,
        0.35688156,
        1.7479037,
        -0.27079594,
        0.8069911,
        -0.7606726,
        -0.747626,
        -2.858442,
        -0.4226515,
        0.014296381,
        -1.0117233,
        -1.7998351,
        0.331445,
        0.79829454,
        0.48674923,
        -1.5614315,
        0.12253756,
        -0.4103891,
        -0.064130075,
        0.48264804,
        0.08221484,
        3.2352617,
        0.5596377,
        0.26002046,
        -0.7810401,
        0.09264151,
        -0.25441974,
        -1.3058963,
        0.25541005,
        -1.5152752,
        0.72677827,
        1.6175945,
        -0.23830923,
        -0.50783867,
        -0.4495671,
        1.9678298,
        0.12491672,
        -0.27707896,
        0.41370597,
        -0.24741255,
        -0.58682996,
        1.4024713,
        -0.13781834,
        -1.4584554,
        -0.49750087,
        -0.17638108,
        0.08563489,
        -1.9220953,
        0.16125304,
        -0.8219778,
        -0.5265927,
        -0.3839854,
        -0.44860417,
        1.6943604,
        -0.19802073,
        2.2196434,
        -1.2299514,
        -0.18350604,
        -0.037864577,
        0.004765363,
        -1.6890674,
        1.1085227,
        0.18923871,
        -0.0135984225,
        0.3584854,
        0.4321662,
        -2.2791364,
        0.000985782,
        -0.7755587,
        -0.16879886,
        0.28597325,
        -1.0141853,
        -0.8776825,
        1.9494518,
        1.0224376,
        -0.6016545,
        -0.27443057,
        0.491338,
        -1.3798064,
        0.8989187,
        0.03815292,
        -0.20736842,
        -0.014924122,
        -1.0102001,
        -0.6706854,
        0.24094883,
        -0.42055735,
        -0.25086743,
        0.7529555,
        1.1395984,
        -0.6565487,
        1.0986713,
        1.374784,
        -0.9939123,
        0.49148712,
        -1.6884459,
        -0.6075691,
        0.29094738,
        -0.3993073,
        -0.671357,
        1.2777356,
        1.1597557,
        0.4758349,
        1.8470515,
        1.2372001,
        1.1079384,
        1.6306587,
        2.2038155,
        -0.05446365,
        0.7734255,
        0.08038937,
        0.1983039,
        0.62558866,
        0.8457865,
        -0.64540416,
        -0.44774318,
        -0.5681524,
        -2.02069,
        -0.60481083,
        -0.8548898,
        -1.6487186,
        -1.2209091,
        -0.5510151,
        -1.3646768,
        0.7406922,
        -0.18379323,
        0.18828177,
        -0.03204865,
        1.2371024,
        -1.8551475,
        -1.3753504,
        -0.07062394,
        -0.56271106,
        -0.7922382,
        0.3221253,
        -0.3785815,
        0.62626463,
        -1.5764016,
        0.4715228,
        -0.8007566,
        0.9358087,
        0.52901846,
        1.6418816,
        0.1309403,
        0.932492,
        -0.11376018,
        -0.2402066,
        1.1053972,
        0.64424837,
        1.959336,
        -0.23929961,
        2.8312426,
        -1.1106616,
        1.4018153,
        0.20668183,
        0.62351656,
        0.296531,
        -0.29234418,
        -0.30040932,
        -1.9249252,
        1.4236659,
        0.42118677,
        1.4912845,
        -0.38030058,
        1.9525074,
        -1.5582229,
        -0.80972815,
        1.2379078,
        0.46183074,
        0.86648417,
        -1.2090867,
        0.42098045,
        -0.22648326,
        0.45426387,
        -0.25364032,
        1.0985112,
        -0.76718897,
        0.95916384,
        2.9563773,
        -0.4765365,
        0.52740353,
        -0.6554378,
        0.6371045,
        0.3568587,
        0.23477472,
        1.1597553,
        0.41169295,
        -0.20077427,
        1.0848411,
        0.9633436,
        -1.994723,
        0.81108797,
        0.7995689,
        0.10999824,
        -0.14584461,
        0.06545391,
        -0.21180685,
        1.0599827,
        0.71085936,
        0.5138429,
        3.9325256,
        0.5795793,
        0.06546738,
        1.3247904,
        -0.7812346,
        -0.33533052,
        0.33869666,
        -0.63057435,
        -1.5958558,
        -1.6479828,
        -1.1463305,
        0.6777344,
        1.2942061,
        -0.8943976,
        0.5957634,
        -2.443431,
        0.29273057,
        0.9019698,
        -1.4790871,
        -1.9596976,
        -0.21595494,
        -0.7799039,
        1.891325,
        0.3373075,
        0.59146637,
        0.7894012,
        0.82275903,
        -0.67864317,
        -0.17879911,
        0.33635148,
        -1.7680821,
        -1.0512567,
        -2.0329154,
        -1.000979,
        1.4566498,
        -1.8155965,
        2.7938786,
        1.743479,
        0.9748022,
        0.00012194877,
        -1.052044,
        0.24828984,
        -1.0974112,
        0.9410874,
        0.5893171,
        0.17052929,
        0.7297769,
        0.36912206,
        0.39720586,
        -1.1632551,
        1.0528011,
        1.0971026,
        2.292659,
        -0.008824274,
        0.7031585,
        -1.1127264,
        0.5918882,
        -1.8073739,
        -1.587701,
        -0.6738275,
        -0.6882501,
        -1.0871516,
        0.3368725,
        -0.994646,
        0.19671151,
        0.7983041,
        -0.5360772,
        0.075590834,
        0.18493822,
        -0.06685755,
        0.8515967,
        -0.25638595,
        2.2927194,
        -0.47361985,
        0.41317487,
        0.24979706,
        -0.018680256,
        0.21595226,
        0.5422863,
        -0.120710626,
        0.7909606,
        0.49930233,
        -0.818225,
        -1.3989595,
        0.04420795,
        -1.1571088,
        -0.1208764,
        0.9435983,
        0.19809848,
        0.4792818,
        0.50729877,
        0.41841385,
        -0.58742386,
        -0.7586927,
        0.2703273,
        -0.38386416,
        -0.0005218591,
        0.59435576,
        -0.9527126,
        -3.0656376,
        -0.749589,
        -1.0786287,
        -0.9064464,
        1.0365878,
        1.6167665,
        -1.8760632,
        -0.5535735,
        1.0561625,
        1.183984,
        -0.40081847,
        1.4775788,
        0.34028122,
        -1.4649383,
        0.5861491,
        -0.9951384,
        -0.6565317,
        0.91768104,
        -1.628329,
        0.6333119,
        -0.37116736,
        -0.2376212,
        -0.7052188,
        0.18776177,
        1.918931,
        1.7999482,
        0.06674434,
        0.83276457,
        -0.85596937,
        2.0912519,
        0.021974685,
        1.9064033,
        -1.7380753,
        -0.1538418,
        0.40487507,
        -0.04062177,
        1.91769,
        2.2444034,
        0.10440266,
        -1.9463474,
        -0.78120565,
        1.0501264,
        0.4820961,
        1.001186,
        -0.50551075,
        0.66761965,
        0.106302805,
        -0.22522222,
        -1.3881986,
        -1.5971414,
        -0.03369546,
        -1.1709849,
        -0.38341758,
        0.055093735,
        -0.12395172,
        1.0832802,
        0.42817122,
        -0.7658,
        -0.55903983,
        -0.20553198,
        1.2168046,
        -0.6653154,
        1.403799,
        -1.3702657,
        -1.588608,
        0.27251324,
        -0.025519226,
        -0.51524615,
        0.15737863,
        -0.76598036,
        -1.6842526,
        0.6914018,
        -0.9900588,
        -0.835444,
        1.5390948,
        1.2189289,
        0.6723261,
        0.32009435,
        -1.2752213,
        -0.37838227,
        -0.63635653,
        2.2377138,
        -0.52693766,
        0.27573803,
        1.8667686,
        -0.33529902,
        0.857044,
        -0.037283745,
        -1.4297705,
        0.8789275,
        1.2760082,
        -0.09889534,
        0.5147649,
        1.5658052,
        -0.5556571,
        -0.18666595,
        1.0069948,
        0.22104481,
        -0.19478957,
        0.25097513,
        -0.025402606,
        0.32297572,
        0.7522015,
        -1.4555987,
        -0.85974354,
        0.51704603,
        -0.20536728,
        -0.81426305,
        -0.9523458,
        0.767377,
        -0.7142027,
        -0.48264214,
        0.8398295,
        0.25055858,
        -0.9774781,
        0.8759069,
        -1.1803861,
        0.7093065,
        -1.617719,
        0.4557263,
        0.1812827,
        -0.86851066,
        -0.6503349,
        0.9810171,
        -0.10759511,
        -0.26493788,
        -1.1006651,
        -1.0896938,
        0.0027870901,
        -0.7216446,
        -1.8468565,
        -1.0615987,
        -1.2093861,
        -1.1727495,
        1.4938169,
        -0.54597294,
        -0.5564653,
        -0.4187479,
        0.81551796,
        0.18424298,
        -0.26481506,
        1.125414,
        0.8904436,
        -0.8004141,
        -0.36364114,
        -1.8880366,
        -1.1799717,
        1.3453244,
        -0.056479435,
        -0.39824477,
        1.226011,
        -0.6532852,
        0.15035594,
        0.38965353
      ],
      "shape": [
        50,
        40
      ]
    },
    {
      "layer_type": "Tanh",
      "name": "AL 1",
      "index": 1,
      "weights": [],
      "shape": []
    },
    {
      "layer_type": "Linear",
      "name": "HL1",
      "index": 2,
      "weights": [
        -0.8727178,
        0.43541804,
        -0.955222,
        0.35863954,
        0.77669495,
        1.7694738,
        1.1837683,
        0.82769644,
        -1.2477729,
        1.4175072,
        1.1992468,
        1.865464,
        -0.1868392,
        -0.88709164,
        0.20057538,
        1.1647094,
        -1.3898436,
        0.23708795,
        0.37510142,
        0.88389224,
        -0.66719514,
        0.35949692,
        -0.696166,
        0.9399224,
        -0.26488045,
        -1.7555101,
        0.5202149,
        0.8755243,
        1.2485071,
        -1.207793,
        0.17806986,
        1.6202092,
        -0.4900449,
        -1.9923342,
        -0.24252406,
        0.5079072,
        0.44686815,
        -0.83363867,
        -0.4218832,
        -0.47371432,
        0.23562421,
        -0.6746532,
        0.5169601,
        1.297839,
        -0.69314945,
        0.64553314,
        0.21186896,
        -0.8273771,
        0.2886597,
        -1.141258,
        -0.5156383,
        -0.48364028,
        0.14601086,
        -0.089443445,
        -2.2944849,
        0.18854746,
        1.3524671,
        0.1847422,
        0.38850287,
        -0.46577385,
        0.1176624,
        0.7145527,
        0.70224136,
        0.0040213503,
        -0.2158751,
        0.21378769,
        -0.48721874,
        -0.09166978,
        0.14568193,
        1.0263401,
        -0.30074924,
        -1.0005972,
        1.2651912,
        0.045170713,
        -1.4179425,
        -0.18279687,
        0.89797753,
        0.05882814,
        0.7813424,
        0.30522236,
        -0.17626527,
        -0.6720893,
        0.43464586,
        -0.6745778,
        1.2361231,
        -1.4107717,
        -0.24066614,
        1.2655994,
        0.9062633,
        -0.92889005,
        -0.7406091,
        -0.44604558,
        0.72221875,
        0.8751448,
        1.1639123,
        1.007274,
        -0.42306542,
        0.45509893,
        0.01484166,
        0.71990466,
        -0.5693252,
        -0.38384208,
        0.63814056,
        0.8207514,
        0.13741432,
        -1.4348544,
        -1.1820195,
        0.25873384,
        -2.0761356,
        -1.4926575,
        -1.3235784,
        -1.2126502,
        -1.3919648,
        0.24403417,
        -1.6280472,
        0.26445314,
        -1.3633083,
        1.135649,
        -0.6981065,
        0.2657082,
        -0.3657281,
        2.1748512,
        -0.3610672,
        -1.5036507,
        0.4099688,
        1.8735704,
        0.003462599,
        -1.3728168,
        0.25770327,
        -1.1478279,
        2.8602962,
        1.2342374,
        0.6056421,
        -0.26531512,
        -0.7059653,
        2.1138606,
        0.5351712,
        0.023021158,
        -1.0006332,
        0.12957297,
        -1.4086512,
        1.45104,
        1.0366983,
        0.2759145,
        -1.167281,
        0.8528584,
        -1.1825039,
        0.33149958,
        -0.22831997,
        0.11980522,
        -0.02893645,
        0.1693632,
        2.041478,
        -0.4784066,
        0.95512384,
        -0.9251468,
        2.4565232,
        0.90826595,
        0.1266826,
        -0.19508432,
        0.7476492,
        -0.022223756,
        -0.26536372,
        -1.5095466,
        -1.5903085,
        -0.33919773,
        0.40825826,
        1.1696315,
        1.0194314,
        -0.116974145,
        0.9329448,
        -0.57572794,
        -1.2892276,
        0.07521,
        0.27146912,
        -0.8026656,
        0.21896578,
        0.088412106,
        -1.0377781,
        0.9525062,
        -1.3449308,
        -0.47072798,
        -2.518474,
        -0.65703976,
        -0.9869778,
        -1.2582496,
        -0.44283035,
        0.28709415,
        -0.5695665,
        0.6566655,
        -0.19449621,
        0.2854334,
        1.107303,
        1.1670262,
        0.56038755,
        -0.885528,
        1.5969017,
        0.54196846,
        -0.22274418,
        -1.67731,
        -0.36758727,
        2.185984,
        -0.95989186,
        0.27977172,
        0.052807696,
        0.12467402,
        0.108207315,
        2.521406,
        -0.33024415,
        0.21630894,
        -1.8675841,
        -0.9725623,
        0.022548148,
        -0.014647507,
        0.82144105,
        0.0054229675,
        1.3018223,
        -0.75663847,
        -0.89683557,
        -0.35121617,
        -1.5755372,
        -1.3410298,
        1.1012487,
        0.83602357,
        -2.197487,
        -1.4987415,
        0.6598452,
        -0.8755967,
        -0.693949,
        0.84321076,
        -1.0889204,
        -1.4035732,
        -0.7835091,
        1.117356,
        0.20549312,
        0.20393597,
        -2.0162866,
        -0.20591524,
        0.0052804467,
        0.115804985,
        1.1524447,
        -0.19881512,
        0.94027895,
        -1.0328803,
        -1.5805795,
        -1.4721428,
        -0.0833181,
        -1.3837321,
        -0.88532084,
        0.8851738,
        -0.29064673,
        0.85687625,
        -0.35336983,
        1.1541904,
        1.9498733,
        -1.1680019,
        -0.13840048,
        -0.89201546,
        -0.8094331,
        -0.18497084,
        -0.6690394,
        -0.6914082,
        -0.3592078,
        -0.53124434,
        -1.6187638,
        -0.05860529,
        0.6949555,
        -0.16880357,
        0.7610399,
        0.091567926,
        -1.4864178,
        -0.3931972,
        -0.19856496,
        1.3248439,
        0.89093125,
        2.0955484,
        0.008701511,
        -0.32715377,
        -0.6704628,
        -0.34154955,
        -1.3371143,
        -1.2839953,
        -0.06479214,
        0.42648512,
        -0.51843315,
        -0.0021737248,
        -1.4214727,
        1.6756996,
        1.3759335,
        1.4835129,
        -0.7544237,
        0.8475759,
        1.8546923,
        -0.85895926,
        1.1577909,
        1.5248144,
        1.0656567,
        -0.3020504,
        -0.22937348,
        -0.890115,
        -1.5228328,
        -0.39458352,
        0.8612987,
        0.099131726,
        -0.52913594,
        -1.6689055,
        0.6330858,
        1.0865121,
        -1.3529453,
        -0.81499225,
        -0.8986081,
        1.0556571,
        -0.31663114,
        -1.2280747,
        1.5427581,
        0.8065651,
        0.07564437,
        1.6541578,
        1.0633173,
        0.36235753,
        1.103094,
        -0.3542721,
        -0.34585735,
        0.7144579,
        -0.35430744,
        -0.72223717,
        0.9278606,
        -2.4677343,
        0.92110217,
        -0.63840693,
        -0.42878377,
        -1.3372575,
        0.04979027,
        -0.65922225,
        1.0860617,
        0.48474556,
        -0.7847343,
        0.8160256,
        1.2805438,
        0.01659307,
        -0.45466107,
        0.8978297,
        1.2537596,
        0.16548496,
        -0.3634627,
        0.94327784,
        -1.5013702,
        0.72232974,
        -0.02879561,
        2.2243588,
        0.59978276,
        -0.004169459,
        -1.2324401,
        -1.146761,
        0.55509365,
        1.9517268,
        -0.46727428,
        0.85494334,
        1.1682136,
        0.5723379,
        -0.025615506,
        1.3686697,
        1.8398312,
        -0.94888175,
        0.69804114,
        0.6348053,
        1.5078257,
        -0.3913145,
        0.71671325,
        1.5114522,
        -1.1637429,
        -0.8897604,
        0.6464973,
        -0.5146507,
        2.288008,
        0.42003357,
        2.1416812,
        0.15997034,
        -0.248062,
        0.22860408,
        -1.2876066,
        -0.7713962,
        0.5030969,
        -0.035443276,
        -0.14782888,
        0.8251321,
        1.4247633,
        -0.33616966,
        0.9165998,
        -0.4262211,
        -0.21557666,
        -0.34718895,
        -0.82567805,
        -0.97883105,
        -0.07087358,
        -0.35656667,
        1.1899023,
        -0.41438505,
        0.65356934,
        -1.4973263,
        -1.6063912,
        -1.5322714,
        -1.0139164,
        0.47666466,
        -1.2173504,
        0.57663804,
        2.4818127,
        0.9922932,
        -0.2502528,
        -0.050274342,
        1.1810133,
        1.4040649,
        0.7790433,
        -0.22841817,
        0.09356742,
        0.45976037,
        0.59476507,
        0.00806966,
        0.36962068,
        0.7569808,
        -0.4079008,
        0.73068434,
        -1.5550381,
        -0.80349606,
        1.2376653,
        0.1671808,
        0.5167018,
        0.19385928,
        -0.03197314,
        -1.4282148,
        0.35262606,
        0.36452535,
        0.45414433,
        1.6839088,
        -0.21784355,
        -1.1260349,
        -0.22465353,
        0.21314618,
        1.3010763,
        -0.8066642,
        0.4061079,
        0.35745615,
        0.29192045,
        -0.28152442,
        2.151087,
        0.22378251,
        -0.4787375,
        1.778716,
        -0.46964106,
        -1.0153036,
        0.63212514,
        -0.38108176,
        0.052429527,
        0.7321788,
        -1.0885737,
        -0.8095257,
        0.89208496,
        -0.9957369,
        -0.32258427,
        0.4286304,
        -0.27222914,
        -0.099781856,
        0.98176163,
        -0.65382606,
        0.98751235,
        0.19500144,
        0.8477246,
        -0.22544698,
        -0.36274114,
        0.46469662,
        -0.16455479,
        -0.9345579,
        -0.4501195,
        -0.32303026,
        -0.5694386,
        -2.3122473,
        0.250263,
        -1.231383,
        -1.2822821,
        1.149822,
        -0.40826207,
        0.38716802,
        1.2294997,
        -0.4451264,
        1.7732158,
        -1.8846756,
        -1.4168978,
        -0.33397478,
        0.19334733,
        -0.05778349,
        -1.149295,
        0.92210054,
        -0.032336038,
        0.7092028,
        -0.8259313,
        1.8466073,
        0.64826673,
        -0.071497396,
        -1.4799919,
        -2.1410627,
        0.49730647,
        -0.09318555,
        0.2555974,
        -1.7215943,
        0.28490576,
        -0.4808329,
        -1.3632653,
        1.8667761,
        -1.9663775,
        -1.297892,
        -0.05217866,
        -0.02471348,
        -0.26397306,
        -0.47195235,
        0.39290893,
        -0.8972032,
        0.1350857,
        0.11964255,
        -0.89676195,
        0.7151887,
        -1.594801,
        0.26656646,
        0.44822386,
        -1.6309686,
        1.211704,
        -1.0674376,
        0.33639413,
        -0.23962626,
        -0.30500746,
        -1.3262537,
        0.9609469,
        0.19237578,
        -0.07891952,
        -0.47917968,
        0.08795548,
        -0.2680459,
        0.6026035,
        -0.00041178416,
        -0.28926647,
        0.8803843,
        -0.63390976,
        -0.58607596,
        -0.31720996,
        0.24948911,
        0.39819965,
        -1.3038125,
        -0.28533503,
        -1.0783753,
        -0.04158754,
        -1.7656742,
        1.8220044,
        -2.3678021,
        -0.9782675,
        0.90679634,
        1.8975335,
        0.10663705,
        0.6426634,
        -0.040034153,
        -0.16988266,
        0.9672709,
        -1.2878706,
        -0.79298466,
        0.39774626,
        0.779915,
        -0.5440342,
        1.918722,
        -0.26204965,
        -0.5799555,
        1.4246142,
        0.3252794,
        -1.179962,
        1.2432115,
        -0.072936505,
        0.4308906,
        -1.2440078,
        1.4803697,
        -0.75703746,
        -0.4691866,
        -0.40240335,
        -1.841329,
        -1.1098644,
        -0.9571623,
        0.116976835,
        0.34608835,
        -0.63687164,
        -0.7749486,
        0.90900826,
        -1.0829728,
        -0.2625935,
        -1.3774838,
        1.2280612,
        0.24024953,
        -0.5835771,
        0.16162184,
        0.031155879,
        -1.4630857,
        -0.93123853,
        0.9955086,
        -0.31406763,
        0.88491964,
        0.10511452,
        0.35689104,
        0.017520385,
        0.19445725,
        0.1577087,
        0.6752648,
        0.076736264,
        -0.22427192,
        -0.012546901,
        0.87669456,
        1.0432998,
        -1.599783,
        0.74978954,
        -1.5357463,
        -0.73594284,
        0.025326546,
        0.13478136,
        -0.08094631,
        2.0959682,
        0.6652575,
        0.75540215,
        0.8320458,
        0.1369362,
        0.5842597,
        0.39798552,
        0.73699003,
        -0.344224,
        0.70476305,
        -0.15769218,
        2.0797486,
        0.87466604,
        0.95684636,
        -1.2470181,
        -0.5490965,
        -0.43340665,
        -0.27574673,
        0.1462586,
        0.10996848,
        1.1828554,
        -0.6116078,
        -0.62356627,
        -2.75496,
        -0.29101732,
        -0.7052831,
        -0.5409783,
        -1.7588383,
        -1.6555077,
        -0.28396612,
        -1.2165046,
        0.47680467,
        -0.56686556,
        0.71928775,
        -0.6897988,
        0.54487437,
        -0.057608057,
        0.76576936,
        1.0269386,
        -0.42601046,
        -1.4343473,
        -0.6745211,
        -0.022306127,
        0.8095845,
        0.89582115,
        -0.566346,
        -0.395437,
        -1.2152218,
        0.33311927,
        0.095688626,
        -0.14341338,
        0.7140299,
        -0.24138431,
        -0.9632972,
        1.5498803,
        -1.6661991,
        0.9172014,
        -1.8191577,
        -1.4754164,
        -0.84220266,
        0.3316187,
        1.3549541,
        -1.4731846,
        0.5660578,
        -0.64358604,
        -0.29905674,
        -0.026639557,
        -0.6334225,
        1.3040451,
        0.44796246,
        0.6759027,
        -0.36161843,
        -0.9570752,
        0.47428355,
        0.68462455,
        -0.5618383,
        2.0304286,
        0.6774783,
        -0.45266962,
        0.9368982,
        1.0119523,
        1.0927825,
        2.083455,
        -0.15664183,
        1.37833,
        0.8155841,
        -1.0700697,
        1.0033932,
        -1.2639511,
        0.5214247,
        -0.4471214,
        0.7343534,
        -1.1773204,
        0.2461577,
        -0.5036813,
        -1.2795832,
        -0.81670594,
        1.0077277,
        1.4491203,
        -2.4016175,
        -0.25871608,
        1.8917216,
        0.5146828,
        0.5412424,
        -0.11152738,
        1.3252176,
        -1.8030989,
        -0.24580698,
        -1.2197331,
        1.0814372,
        -0.099486984,
        1.0697228,
        0.9638452,
        1.3274864,
        0.009732948,
        1.3354088,
        0.58473337,
        -0.10589242,
        0.23917893,
        0.10950426,
        -0.3238725,
        0.36091545,
        1.1771868,
        -0.93634725,
        1.9675477,
        -2.3734868,
        -0.46686995,
        -1.0322831,
        0.06607096,
        -0.049815387,
        -0.1994975,
        -0.928863,
        1.020857,
        -0.6406538,
        -0.16473708,
        0.74131393,
        0.47495952,
        -0.23319522,
        0.025301043,
        -1.0115492,
        -0.78069526,
        -0.16027315,
        -0.08812892,
        0.8278323,
        0.9478137,
        -0.30669346,
        -0.90861315,
        1.2152517,
        -0.052005056,
        -1.1399783,
        -0.61142397,
        2.4788558,
        -0.7682433,
        -0.6162336,
        0.17257819,
        -0.69624335,
        0.42111507,
        0.28972244,
        -1.4858001,
        -1.6216316,
        -0.62951744,
        0.13095541,
        1.0807297,
        0.73394865,
        -0.16424356,
        -1.3441098,
        0.014438075,
        1.2496586,
        -0.4737885,
        -0.9094498,
        0.7093004,
        -0.1847418,
        1.3456674,
        -0.21429962,
        -0.86336553,
        -0.7106286,
        0.88757765,
        -0.6400119,
        0.39637896,
        -0.9019465,
        0.04558482,
        1.0950898,
        -0.07125696,
        0.5529457,
        0.52721745,
        -1.2496295,
        -0.5913775,
        -0.41245332,
        -0.80659735,
        0.65386415,
        1.7571362,
        1.8957568,
        1.6410319,
        0.5473108,
        0.35496122,
        -2.0033467,
        -2.375048,
        0.415006,
        0.26717687,
        1.3327097,
        -0.3365,
        -0.595427,
        0.33150658,
        0.3111892,
        -0.2792416,
        -0.9362103,
        -0.5123177,
        0.54647356,
        0.810829,
        -0.66323686,
        -0.6170868,
        -0.04145984,
        -0.69629925,
        -0.79534626,
        -0.047911488,
        1.0452541,
        0.77229226,
        0.6870397,
        -2.0158033,
        -0.21309368,
        -1.0356318,
        -0.28082773,
        1.2113751,
        1.1714112,
        0.31696266,
        1.1749489,
        -0.72238994,
        -1.0224631,
        1.7739775,
        -1.0856583,
        -1.2337528,
        0.41923004,
        -1.222273,
        -1.4062866,
        0.9674811,
        -0.36349455,
        0.3814305,
        0.84549516,
        -0.02762895,
        -0.24798729,
        -1.0816665,
        -0.9117226,
        -0.515461,
        1.3045713,
        0.31310955,
        0.57391256,
        -0.8393938,
        0.013494437,
        -0.09426441,
        -2.3584487,
        0.6912208,
        1.8617853,
        3.3626876,
        -1.2631106,
        -0.991435,
        -0.78314996,
        0.8880702,
        0.6351188,
        1.2689701,
        0.6185191,
        0.30204913,
        0.15516658,
        1.463257,
        0.12006054,
        0.5762816,
        0.39087483,
        0.3148182,
        0.19302633,
        0.21299785,
        0.51627856,
        -2.438187,
        -0.8677555,
        -0.3596353,
        -1.6753677,
        0.4551254,
        0.8568695,
        -0.4590662,
        0.38093597,
        0.61539817,
        1.2864832,
        0.793712,
        -0.16504778,
        0.35359704,
        1.8677087,
        1.8498251,
        0.5646871,
        -0.6554685,
        -0.2611141,
        0.008762586,
        0.29036787,
        -0.35227245,
        0.61235577,
        -0.83381236,
        -0.030726843,
        0.8502635,
        -0.4619177,
        -1.2101647,
        -1.128283,
        1.6605366,
        -0.46482703,
        -0.20414016,
        0.4832214,
        0.85753596,
        1.2598459,
        -0.8184649,
        0.13483168,
        1.7972025,
        -0.49502444,
        1.1537625,
        0.06791483,
        -0.45112288,
        -1.8596188,
        -0.4248887,
        -1.6907547,
        0.546531,
        1.1507947,
        -0.44674134,
        0.3859439,
        -0.86905867,
        -1.2113225,
        0.6721163,
        0.120797195,
        1.498483,
        0.99134374,
        1.076212,
        -0.58898884,
        0.63109237,
        0.36226875,
        0.9909033,
        0.80621916,
        -0.56217563,
        -1.444837,
        0.13982318,
        -0.20939545,
        -2.1149573,
        -0.47342998,
        -0.4478354,
        -1.382377,
        2.5310204,
        0.6938389,
        -0.874858,
        0.31575218,
        1.4855719,
        0.620254,
        0.17706753,
        0.06653755,
        0.7306431,
        -0.8797269,
        -2.103955,
        0.81181383,
        -0.9238289,
        -0.6497772,
        0.89879805,
        -1.3498014,
        0.6548299,
        0.49280456,
        -0.81366843,
        0.4970684,
        0.4856553,
        -0.73730886,
        -0.50488436,
        -0.751088,
        -0.95751053,
        2.788832,
        -1.663589,
        2.0530095,
        -2.0096865,
        0.0058959182,
        0.081518106,
        1.5652484,
        0.05996437,
        -0.5948577,
        -0.5966229,
        0.92273283,
        1.7351999,
        0.41966784,
        -0.85703194,
        1.0139186,
        0.5883911,
        -1.0204504,
        -1.2546678,
        1.4090607,
        -0.47972518,
        0.43749997,
        -0.37823322,
        0.99656695,
        -0.87016004,
        1.6589594,
        -0.067295134,
        -1.4248027,
        -0.188874,
        -0.49629995,
        -0.7512018,
        -0.099465415,
        0.26734716,
        1.6220622,
        -0.46787387,
        -0.18295433,
        -0.363318,
        -1.4904497,
        -1.404965,
        1.3284602,
        1.2675257,
        -0.09063122,
        1.3454688,
        1.7853037,
        -0.1408572,
        0.591443,
        -0.21176599,
        -1.1338863,
        1.8190601,
        0.4316163,
        1.2529482,
        -0.4545099,
        -0.8577105,
        -0.4902664,
        1.2340202,
        0.51596177,
        1.264274,
        -1.072233,
        1.6331744,
        -0.47623372,
        -1.9771365,
        -0.08680577,
        -1.9033077,
        -1.0031143,
        -0.22457686,
        0.5421109,
        0.47579265,
        -0.61767566,
        1.3525496,
        1.5378445,
        0.83192456,
        -1.6153816,
        1.1962191,
        0.7587887,
        -1.2183101,
        0.6745211,
        -0.24475825,
        -0.56768787,
        0.5703518,
        -1.0931759,
        -0.6409872,
        -0.1335314,
        1.0896071,
        1.7090592,
        -2.2796202,
        0.55022544,
        -0.013739636,
        0.6914851,
        0.04538219,
        1.3094845,
        0.19035688,
        1.366776,
        -0.7729127,
        0.079706,
        1.258596,
        0.7681144,
        0.9638765,
        -0.27518892,
        -2.1361885,
        1.213432,
        0.77691776,
        0.5905061,
        -0.83306336,
        2.5648608,
        -1.2353039,
        1.8882594,
        0.86629736,
        0.38776565,
        -0.031187544,
        -0.48666766,
        0.0019422944,
        0.9228831,
        0.48103076,
        -0.51953346,
        0.18741423,
        -0.19955131,
        0.49048516,
        0.314526,
        0.1494575,
        -0.23958898,
        -0.61839306,
        -0.5719632,
        0.09396297,
        -0.16123569,
        -0.46193948,
        0.85301346,
        0.41848665,
        0.6747835,
        -1.6686969,
        -0.45508796,
        1.9675659,
        0.7011563,
        -0.29941362,
        -0.2185464,
        -0.22330716,
        0.4158841,
        -1.459313,
        -0.7149153,
        0.26787314,
        -0.2926044,
        0.317572,
        1.5712795,
        -0.07651104,
        -0.25762844,
        -0.19753523,
        1.9480876,
        -1.1548201,
        -0.9589769,
        1.8962743,
        1.1276271,
        -0.06386797,
        0.5245866,
        1.5544428,
        1.0942708,
        1.6182089,
        -0.22282618,
        1.1587968,
        -0.9857668,
        2.6124997,
        0.7981989,
        -0.5548306,
        -1.0241634,
        0.4475602,
        -0.097727105,
        -0.49859843,
        -0.48477015,
        -3.5719745,
        0.57121575,
        0.053819038,
        -1.1469188,
        2.8220255,
        1.1727366,
        1.7356025,
        -1.5696411,
        1.7416495,
        1.2510104,
        -0.9384551,
        0.40226638,
        2.1218348,
        -1.2355853,
        0.40073594,
        0.09936271,
        1.4836663,
        0.46959987,
        1.1288764,
        1.4209882,
        -1.8763716,
        -0.33725166,
        -0.8332732,
        0.91276276,
        -0.74019593,
        -0.18663304,
        0.10356376,
        -0.37789607,
        -0.22552161,
        1.2321782,
        -1.5855961,
        0.345146,
        -0.5791217,
        0.6659,
        -1.3612185,
        0.3113375,
        0.40664676,
        -0.47645456,
        -0.88989747,
        0.74991435,
        0.43773344,
        -1.6535338,
        -0.23016031,
        -2.0338871,
        0.5003822,
        1.3021742,
        1.4766082,
        0.052191347,
        0.15512362,
        1.6444314,
        0.5830528,
        -0.6916992,
        0.28636298,
        -1.8192835,
        0.060877007,
        -0.40008005,
        -0.92115605,
        0.8425572,
        0.22085483,
        0.5535488,
        -0.82556266,
        1.7550135,
        0.4051815,
        -0.51403797,
        0.08612224,
        -0.32701045,
        -0.6259852,
        0.49474576,
        0.7853664,
        -2.1126633,
        -1.4942234,
        -0.90222275,
        1.1549484,
        -0.469671,
        -0.25231877,
        0.7038961,
        0.5776503,
        0.13380077,
        1.1240326,
        0.3270273,
        -0.55989176,
        -0.19201928,
        -0.15276721,
        2.7174783,
        1.1321477,
        -0.92751133,
        -0.3918622,
        -0.48605227,
        1.8496971,
        0.36050206,
        -1.0636228,
        -0.06327719,
        0.9487882,
        1.2653947,
        2.2033403,
        -0.26350856,
        -0.90615535,
        -0.71147144,
        -1.9817085,
        0.107284635,
        1.2793978,
        0.55448735,
        -1.9528776,
        1.1683716,
        0.616434,
        -1.5822976,
        0.7742548,
        -1.4969348,
        0.3735822,
        -0.77209544,
        0.9345443,
        -1.0600041,
        -2.3003693,
        0.13370644,
        -1.0905687,
        -0.23936132,
        0.22206756,
        1.6627741,
        0.028193604,
        0.52002895,
        0.092765845,
        -1.4016072,
        1.39348,
        -1.5120927,
        1.0449413,
        0.6749965,
        0.6132185,
        -0.48543045,
        -0.34705612,
        0.2899047,
        -0.43269286,
        1.1149769,
        -0.81343764,
        -0.66335654,
        -0.69260716,
        -0.6773686,
        1.080016,
        0.45159242,
        -0.2160395,
        -0.94827145,
        1.2460923,
        -0.00528108,
        -0.6590414,
        -0.4246187,
        0.32671148,
        0.86734474,
        1.9934858,
        1.380798,
        -2.0167685,
        -0.25198492,
        1.8399687,
        1.1148362,
        0.8996613,
        -0.121437296,
        -1.7926642,
        0.3772806,
        -2.927838,
        -0.02095428,
        -0.14312945,
        0.5149735,
        0.98608416,
        -0.20223537,
        1.1013936,
        0.37421852,
        -0.2204828,
        0.5249725,
        -0.99766105,
        0.7014066,
        0.0663487,
        0.26957428,
        1.4957353,
        -0.47399196,
        0.34631065,
        0.12900214,
        -0.19474824,
        1.6870077,
        0.67058295,
        -0.34473786,
        -1.3183374,
        -0.7469525,
        0.52504444,
        -0.14432421,
        0.20327874,
        1.3801672,
        -0.12055918,
        -0.6380395,
        0.58711934,
        -2.568811,
        0.6669067,
        -0.23729068,
        1.6148638,
        -1.1119775,
        -1.401568,
        -0.1661819,
        -0.35240602,
        -0.41413587,
        -0.01255378,
        -0.3697862,
        -0.6666634,
        -0.33001474,
        -0.6523397,
        0.5546775,
        -2.2293074,
        1.0499253,
        -2.3259115,
        -0.16269392,
        0.51728314,
        0.89978075,
        0.3469144,
        1.0827465,
        0.09108951,
        2.2203133,
        0.19541241,
        1.2940723,
        1.4932921,
        0.76318496,
        -0.41719946,
        0.046788126,
        0.9554641,
        0.464929,
        0.005341288,
        1.0912986,
        0.014877875,
        -0.8071413,
        -1.6078575,
        -0.94355524,
        -1.3719884,
        -1.0501087,
        -1.6455481,
        0.8989755,
        0.62858206,
        0.37031916,
        1.0627427,
        0.069511,
        -0.086622454,
        -1.2632338,
        0.15396458,
        0.97724146,
        -0.79148036,
        -1.5020572,
        -0.82254714,
        0.56384784,
        0.83652365,
        -0.5736642,
        2.3731246,
        1.5678766,
        0.4840815,
        1.1734543,
        0.21114212,
        -0.6174838,
        0.11219677,
        0.29125577,
        -1.6975211,
        0.6012506,
        1.2235703,
        -0.05172208,
        0.8701744,
        -0.48559925,
        0.3663581,
        0.40231085,
        0.9780456,
        -1.1177548,
        0.50702316,
        -1.2946669,
        0.687527,
        0.12507261,
        -0.36654276,
        0.82273936,
        0.3099006,
        -0.44444194,
        -0.46342146,
        -0.41355944,
        -0.66118735,
        -1.2652682,
        1.3061435,
        -0.82829595,
        1.5408652,
        1.3672391,
        0.13198681,
        1.3245858,
        2.1085112,
        1.3511324,
        0.31643745,
        0.27035835,
        2.2816317,
        0.002626853,
        1.7565503,
        -0.24079905,
        -0.49227268,
        0.44252113,
        -0.49778154,
        -0.50495124,
        0.010726055,
        0.25511593,
        1.5737836,
        -0.6883197,
        0.7736614,
        0.34934714,
        -0.51981646,
        -0.3076583,
        0.4211851,
        -1.1683823,
        -0.16554254,
        -1.2761905,
        -1.5738441,
        -0.3611805,
        -0.030769449,
        -0.76617974,
        -1.3570176,
        0.3151171,
        -0.4617337,
        -1.8501791,
        0.25773862,
        -1.0896469,
        0.2858738,
        1.0030352,
        0.6389262,
        2.2872202,
        -1.8244108,
        -0.5343967,
        -0.7352523,
        2.2707572,
        0.77739114,
        -0.76715463,
        0.66714334,
        -1.5487043,
        -0.20864952,
        0.90263027,
        0.45613343,
        2.061854,
        -0.024976645,
        -1.0097324,
        0.5684545,
        -0.21981822,
        -0.21566142,
        0.2084633,
        0.9017536,
        0.15742409,
        -0.79163307,
        -0.30849576,
        -0.5483868,
        -0.3277795,
        0.029515455,
        -1.3943785,
        0.3459552,
        0.5963214,
        -0.4813423,
        -0.31539285,
        0.07548132,
        -0.74312294,
        -0.15145569,
        -0.6362351,
        -1.3406321,
        -0.768757,
        0.9855432,
        -1.0347042,
        0.8362724,
        -0.23910415,
        0.82762593,
        -0.31708676,
        -0.14130378,
        -0.7681196,
        -1.2625684,
        1.0858585,
        -1.6881361,
        -0.87457496,
        0.88956356,
        -0.9257315,
        -1.2155325,
        -0.05129023,
        -0.4648021,
        2.308752,
        0.96222764,
        -0.073269464,
        -0.006960074,
        0.60823864,
        0.96505105,
        2.4467664,
        0.5836066,
        0.8876576,
        2.5891566,
        -1.0133715,
        -1.1016785,
        0.0020774635,
        -0.26091415,
        0.80157834,
        0.45551136,
        -0.22724241,
        1.3938546,
        -0.117356814,
        1.7278148,
        0.7815097,
        0.8668385,
        -0.46469024,
        0.7518825,
        -0.24072163,
        -0.9918814,
        1.128809,
        0.25666502,
        0.10595274,
        -0.25288662,
        -0.83810276,
        -2.017061,
        0.8121032,
        0.57571805,
        -0.49996695,
        -0.0894461,
        0.08423017,
        -1.5013286,
        -2.031711,
        0.6199413,
        -1.4128759,
        0.108879335,
        0.41576588,
        0.36187795,
        0.44290894,
        0.2530561,
        1.4374824,
        0.83692175,
        -0.4639447,
        -2.0246358,
        -0.9243898,
        -1.0230814,
        -1.1034901,
        1.5757506,
        0.26425794,
        1.4097784,
        -1.1866251,
        -1.3540679,
        -0.11955746,
        0.22680838,
        1.1927042,
        1.2110833,
        0.22865286,
        0.5281049,
        0.51791877,
        -0.85957974,
        -2.2546415,
        -0.6334487,
        0.0898773,
        0.23407052,
        0.6914806,
        0.9361407,
        0.6358955,
        -1.5268615,
        -2.2039266,
        -2.96261,
        1.0097815,
        -1.780968,
        0.71720314,
        -1.6092848,
        -0.36640486,
        -1.3230156,
        -0.07707219
      ],
      "shape": [
        40,
        40
      ]
    },
    {
      "layer_type": "Tanh",
      "name": "AL2",
      "index": 3,
      "weights": [],
      "shape": []
    },
    {
      "layer_type": "Linear",
      "name": "HL2",
      "index": 4,
      "weights": [
        0.19593978,
        -1.6460578,
        -0.9282036,
        1.0423093,
        0.09580552,
        0.0826966,
        -1.3273704,
        0.32660782,
        -0.57976115,
        -0.52454376,
        -0.7577138,
        0.3482253,
        -0.1298213,
        0.4347469,
        -1.1598729,
        -2.4265316,
        -0.1902899,
        -0.22956522,
        0.09356856,
        -1.4929096,
        1.8452079,
        -0.41593367,
        -0.33104277,
        0.16024609,
        0.61382663,
        -0.8805931,
        -0.6102956,
        -0.015817506,
        0.09369957,
        -0.14833532,
        0.6470945,
        0.5060203,
        -1.3453965,
        -0.5954352,
        0.10153957,
        -0.20488746,
        0.29330167,
        0.7983693,
        -1.2553767,
        0.20179503,
        -1.0539058,
        1.0427397,
        -3.020717,
        -1.0431075,
        0.8149221,
        0.78547585,
        1.0591646,
        0.3744931,
        -0.9606404,
        -1.2215462,
        -0.29996583,
        -2.021594,
        -0.53429663,
        -0.08182411,
        1.737611,
        0.54694563,
        0.011924939,
        0.05304489,
        0.566249,
        -2.3417363,
        -0.5133561,
        0.46732584,
        -0.5525344,
        -0.6546915,
        1.3265576,
        1.0972157,
        0.54777855,
        -0.34036714,
        1.113149,
        1.1712002,
        1.2908833,
        -0.17548305,
        1.1887375,
        -0.4866394,
        -1.2428746,
        -0.8247324,
        -0.85220474,
        1.1240476,
        1.2875338,
        -1.0329674,
        -0.5726499,
        0.7267982,
        -1.2558016,
        -0.2550506,
        -0.9242272,
        0.27177465,
        -0.18661581,
        -0.3297903,
        -1.0097607,
        1.0347077,
        -0.5920947,
        -0.95622057,
        -1.1932449,
        0.58837,
        0.65944344,
        -0.34638956,
        0.31889102,
        -1.7313652,
        1.2510663,
        0.5512125,
        0.7423323,
        -1.8445799,
        -0.47775853,
        1.6183766,
        -0.9172394,
        0.29627797,
        -0.7032423,
        -1.7344854,
        -1.1291217,
        -0.52794975,
        0.5103964,
        -1.5359585,
        -0.543238,
        -1.0223908,
        -0.5338733,
        1.3094367,
        0.5130446,
        -0.07987517,
        -0.65131795,
        -0.009726318,
        0.75903594,
        0.2276592,
        0.9704809,
        0.9246651,
        0.74787074,
        -0.9272045,
        -0.14263608,
        -0.1591069,
        0.674026,
        1.0674369,
        1.358333,
        1.5608591,
        -0.6478392,
        -0.07820292,
        0.5112341,
        -0.84920806,
        -1.4972981,
        1.5436468,
        1.7015905,
        0.5121191,
        0.08065636,
        -0.1920019,
        0.5895031,
        0.18082485,
        0.83255726,
        0.22269654,
        0.39819506,
        0.17518038,
        0.15915762,
        0.4590998,
        1.0096817,
        -0.12846488,
        -0.012767768,
        1.2205092,
        -0.9609067,
        -1.650744,
        0.40995726,
        -1.5934715,
        -0.7468764,
        0.36021593,
        -0.6437428,
        -1.418253,
        0.5851021,
        -1.3697568,
        0.23825993,
        0.6365233,
        -0.76813257,
        -1.2003051,
        -2.422067,
        1.370708,
        -0.7806794,
        0.9693859,
        -1.6822449,
        0.41427633,
        -0.7723357,
        1.4395324,
        -0.25936186,
        -1.1954397,
        0.20584716,
        0.001304537,
        -1.6432132,
        0.064341,
        -0.66927624,
        0.9972711,
        0.7200308,
        -0.60627085,
        0.8097259,
        -0.4479934,
        -0.9853947,
        -1.0800868,
        -0.30885652,
        0.5728217,
        0.06492342,
        -0.94905984,
        -0.32095903,
        0.17024104,
        0.26233318,
        0.7001255,
        -0.5898877,
        -1.282378,
        0.44994664,
        -0.47996444,
        1.3645674,
        -0.6454077,
        -0.098690525,
        -0.059926096,
        -0.17176834,
        -0.69383204,
        0.42207327,
        -0.63699293,
        -0.8883923,
        -0.94866323,
        -1.3077395,
        1.7441026,
        -0.71768737,
        0.036402058,
        0.75732327,
        -1.0681261,
        -1.023371,
        1.2358549,
        1.381635,
        0.6626699,
        -0.51510185,
        0.2461808,
        -0.71742845,
        -0.2706616,
        -1.750844,
        1.2241607,
        -0.35720474,
        0.71303,
        2.0075266,
        0.5572855,
        0.14925908,
        -0.71988654,
        0.71281797,
        1.9855782,
        0.9261187,
        1.0787046,
        0.3545086,
        0.27892378,
        -0.12543176,
        -1.2782664,
        -2.0034034,
        -0.56817615,
        0.54031575,
        1.4686755,
        -0.37092614,
        1.3470917,
        1.2208759,
        2.680411,
        -1.0012649,
        -0.15783152,
        -1.0304729,
        -0.33434835,
        -0.25486323,
        0.15389073,
        0.38694844,
        0.1714568,
        0.090465434,
        -1.0149678,
        1.2127634,
        0.13917477,
        -1.2388383,
        0.5672356,
        0.38304982,
        -1.0386959,
        0.113870844,
        1.16437,
        -0.22696242,
        -1.9564945,
        -0.66356957,
        0.5989976,
        1.091693,
        1.2403305,
        -1.6279315,
        -1.3306315,
        -0.27702603,
        0.793394,
        0.9137868,
        0.252517,
        -0.5918218,
        -0.99299777,
        -0.061323196,
        0.09730058,
        -0.59391457,
        0.5180108,
        -1.4842175,
        0.7053123,
        -2.0655603,
        0.7686238,
        0.3749768,
        1.2318814,
        -0.9571418,
        1.0104073,
        1.2163943,
        -0.2728859,
        1.5044669,
        -0.42176783,
        -1.6075335,
        1.1374183,
        -0.56776494,
        1.0140809,
        2.1007583,
        -0.6499751,
        -0.30414203,
        -0.040994685,
        -1.5897243,
        -0.8666615,
        0.52932984,
        0.62491924,
        1.4022563,
        -0.11948768,
        -1.4377848,
        -0.49165878,
        -0.5484666,
        0.80635,
        0.5938587,
        0.6987312,
        -0.4582329,
        0.92316014,
        -0.24009025,
        -0.8551296,
        1.0642941,
        -1.3526275,
        -2.0921195,
        -0.4896657,
        -0.22388196,
        0.6903422,
        0.70582545,
        2.737746,
        0.068527475,
        -0.7405341,
        -1.3175809,
        1.1586684,
        1.1948612,
        -0.8219762,
        -0.80447316,
        -1.8021727,
        -0.26832247,
        -1.0417101,
        -1.2676393,
        0.7187979,
        -0.36299536,
        0.40844157,
        1.3156995,
        -0.72927606,
        -0.07222149,
        -0.18497199,
        -0.43073463,
        -0.5667906,
        -0.49115852,
        1.235123,
        -0.33168763,
        0.6439149,
        0.92535,
        0.31775874,
        -0.7566508,
        -1.3157682,
        -0.05224231,
        0.5667733,
        1.3936669,
        0.3860733,
        -0.041810654,
        1.1648762,
        1.0584583,
        -0.22292818,
        -0.08298076,
        0.009065722,
        2.0099752,
        -0.57171607,
        2.4673235,
        -0.326405,
        -0.36426768,
        1.2374034,
        0.60989296,
        1.6052495,
        1.1057081,
        1.5276608,
        -2.381252,
        0.75999624,
        -1.1451248,
        0.388837,
        0.35011476,
        -0.11586999,
        0.34877655,
        1.4208959,
        0.19078395,
        -0.94532603,
        0.31034657,
        -0.91137075,
        -0.29869178,
        -1.0185828,
        0.78505117,
        -0.5622294,
        -2.1124527,
        0.5410199,
        -1.3078816,
        1.1157956,
        -0.68825597,
        0.15657564,
        -1.8985432,
        0.3977368,
        -0.45051572,
        0.87804747,
        -1.9229044,
        -0.7248061,
        0.554133,
        -0.50040555,
        -0.56593794,
        1.5312927,
        1.137081,
        0.6604246,
        0.6356446,
        0.46215987,
        -1.2640101,
        -1.1454095,
        -1.8834492,
        1.482658,
        0.59654266,
        1.0600822,
        0.040779643,
        1.0710932,
        0.6121352,
        1.1078136,
        0.750999,
        0.43064064,
        -0.093257256,
        2.2698522,
        -1.1895264,
        -0.20194498,
        -0.62714034,
        -0.22256011,
        1.3761115,
        1.2232035,
        -0.6492237,
        0.09810643,
        0.000033233366,
        0.058875743,
        0.6195996,
        0.76833457,
        1.1249021,
        0.23079275,
        -1.3404678,
        0.35665002,
        -1.2981958,
        -1.1793685,
        0.12287408,
        0.052156243,
        -0.8379672,
        0.92575634,
        0.079537004,
        0.50356615,
        0.20215923,
        -0.92967135,
        -0.2341524,
        0.2796611,
        0.11911885,
        0.07162893,
        1.2391808,
        -1.497488,
        1.5982907,
        0.10093373,
        0.6333794,
        -0.5142255,
        0.6996798,
        -1.5086762,
        -0.6354059,
        0.43960887,
        1.1248543,
        0.4840823,
        0.07355474,
        -2.1178052,
        -0.73774976,
        0.99706435,
        -0.11662055,
        -0.6734254,
        0.3506109,
        1.053671,
        0.4151083,
        0.34087914,
        0.77653927,
        -0.18215384,
        -0.6722111,
        0.571048,
        1.6898453,
        -0.57202935,
        -1.0657483,
        -1.6910324,
        -0.74166036,
        -0.8785213,
        1.4525506,
        -0.062288016,
        -0.20415476,
        0.14646183,
        -2.5138776,
        0.86814713,
        -1.108038,
        1.759968,
        -0.049068023,
        0.89088684,
        -0.15929043,
        -1.5951382,
        0.2627805,
        0.5259658,
        -1.4994588,
        1.9278654,
        1.5590087,
        -1.2231325,
        -0.6375945,
        0.5936404,
        -1.5238883,
        -1.2348163,
        -0.463914,
        -1.393537,
        1.3803433,
        -0.2878212,
        0.58068913,
        -0.659361,
        0.65312773,
        -2.1108248,
        -0.72668564,
        -0.25078523,
        0.5274966,
        -0.35781392,
        0.16967905,
        0.3538417,
        -1.4482449,
        0.088419825,
        -0.23128779,
        0.38955304,
        -0.8974673,
        0.20255277,
        -0.15767866,
        0.50176114,
        -0.1715614,
        1.4041612,
        -0.33513734,
        0.13347739,
        -0.272447,
        -1.4826396,
        1.0855638,
        0.19762784,
        -1.4291505,
        -0.47137582,
        0.46285045,
        -0.74236506,
        -0.7129811,
        -0.58027124,
        0.7824691,
        -1.2847526,
        0.5527306,
        0.15647697,
        -0.49326885,
        -0.04299093,
        -1.4221741,
        0.8783318,
        1.2349209,
        0.47527918,
        -1.5324912,
        -0.27557862,
        -0.96612096,
        0.77874756,
        1.1232828,
        0.5602924,
        -1.5557303,
        -0.07689157,
        -1.4629004,
        0.22252804,
        0.6575382,
        0.26513076,
        -0.88435537,
        -0.33369887,
        -1.1893737,
        -0.10121959,
        1.7353306,
        2.060612,
        -1.3086768,
        -1.296543,
        0.94739205,
        1.5592487,
        0.41482252,
        -0.39831245,
        -0.16282935,
        -0.8372059,
        1.1045462,
        0.1274922,
        -0.30822283,
        -0.27289152,
        -0.83913505,
        -0.30863357,
        1.925386,
        0.3023786,
        -0.9729577,
        -0.6434,
        -0.29278934,
        0.8710797,
        1.3042511,
        -1.4054579,
        0.86931837,
        0.15850604,
        -1.1169994,
        -0.11062354,
        -0.69098747,
        -1.2677423,
        0.775736,
        -0.40891328,
        0.48137754,
        -1.2782758,
        -0.17823493,
        -0.7059254,
        0.47733665,
        0.3808527,
        -0.5483969,
        -0.4165491,
        1.5787224,
        -0.061706528,
        1.5797745,
        -0.01200179,
        1.4765534,
        -0.29012367,
        0.08894906,
        -0.5298162,
        -0.81830984,
        0.94486725,
        -2.4926498,
        0.6071526,
        1.6858901,
        -0.4072103,
        -0.6000979,
        -0.2552676,
        -0.98270035,
        -0.3068999,
        2.8412447,
        1.160964,
        1.1154686,
        0.7598401,
        0.4509102,
        -1.5865527,
        0.963527,
        -0.9414251,
        -0.71710837,
        -0.8068029,
        0.8733748,
        -0.2921817,
        -2.0684855,
        -0.47125232,
        -1.4875251,
        1.6812263,
        0.8853304,
        1.9681402,
        0.77684474,
        -0.2893444,
        -0.53665644,
        1.5116365,
        1.0399066,
        -0.9513568,
        -0.52913916,
        -0.4150498,
        -1.0494314,
        -0.19295736,
        0.01154582,
        -1.3847674,
        0.04860731,
        0.028714579,
        -0.8327442,
        0.83065426,
        -1.3540767,
        -1.7026114,
        2.70207,
        0.6724349,
        1.7307006,
        -0.7161993,
        -0.8141598,
        1.2604948,
        0.93899137,
        2.4599504,
        -0.3781444,
        0.5440535,
        -0.89476955,
        0.10119116,
        0.50061363,
        -2.945309,
        0.42616937,
        1.1936437,
        -0.9636542,
        -1.8135986,
        0.26023793,
        -0.30274588,
        -1.7524499,
        1.516693,
        0.9013316,
        -1.7773716,
        -0.191763,
        0.27221525,
        -0.5193833,
        -0.3109677,
        1.0813004,
        -0.6119084,
        0.31072122,
        -0.13055272,
        -0.15697826,
        -0.62361926,
        -0.4283782,
        -0.31309405,
        0.5853507,
        0.93802255,
        0.9250458,
        -0.10558181,
        -0.11836582,
        0.22621445,
        -1.8603452,
        0.15069553,
        -0.71987545,
        -0.91320544,
        -0.81396616,
        2.6044781,
        -0.82695955,
        -0.56028265,
        -0.8222117,
        -1.1401563,
        0.022155961,
        0.9327907,
        -0.93568695,
        -0.58913827,
        -1.4278127,
        0.14102814,
        -1.4502398,
        -0.26532918,
        0.1277471,
        -0.28394246,
        1.6126158,
        -0.64602864,
        1.0583532,
        -0.41200647,
        0.6422133,
        1.1002533,
        0.88266426,
        -1.3221005,
        0.90416074,
        -0.43196252,
        2.3998928,
        0.15270482,
        -0.46702904,
        -1.6689287,
        -0.60874164,
        0.12584047,
        -0.19195236,
        1.2211857,
        0.33598065,
        -1.3185495,
        -0.33704886,
        0.8487746,
        1.913224,
        0.20163837,
        0.5598513,
        -0.9165564,
        2.0573447,
        -0.8973518,
        -0.15689206,
        -1.6197773,
        0.2902223,
        -0.49119702,
        1.1063298,
        0.17720294,
        1.3610955,
        0.3940264,
        1.2912536,
        0.24389862,
        0.893353,
        -0.44542307,
        -0.8550445,
        0.35543296,
        -0.21009536,
        0.16592242,
        0.6761333,
        -2.2363043,
        -0.13170284,
        -0.56344914,
        0.3373514,
        1.1256667,
        1.611355,
        -1.6557506,
        0.7620894,
        0.45267344,
        -0.0011261681,
        0.581336,
        1.5432521,
        -0.5401214,
        -1.1093923,
        -1.9972117,
        2.6457925,
        -0.59754837,
        0.57396185,
        0.8785229,
        -0.9578481,
        -0.2105274,
        0.594429,
        -0.10618798,
        1.8267508,
        -0.73318213,
        0.6182556,
        -1.921357,
        -0.8871336,
        -1.0134016,
        0.862426,
        -0.6203203,
        1.3145505,
        2.165543,
        -0.08782435,
        -0.9840888,
        -0.25697657,
        1.3239763,
        -1.0088515,
        -2.1001368,
        0.10439873,
        -1.088878,
        1.7766395,
        1.0478759,
        1.0476519,
        0.9559304,
        -1.0536393,
        -0.40953487,
        -1.1654838,
        -0.32071316,
        0.4299694,
        1.1108394,
        0.23726663,
        -0.74262875,
        -0.898258,
        -0.68618464,
        -0.47839633,
        -0.075067855,
        0.56332326,
        0.42765167,
        -0.57986844,
        0.23416111,
        -0.048891213,
        1.431557,
        -0.50756645,
        0.17442644,
        -0.07662319,
        1.4726114,
        0.8069177,
        -1.4955474,
        -1.2149278,
        0.351291,
        1.2224026,
        -0.6043654,
        0.99153,
        0.54356825,
        -0.41742897,
        0.5414385,
        0.8826366,
        1.2430345,
        1.4339869,
        0.36194068,
        0.068530336,
        -0.024399266,
        -0.08695116,
        -0.4274203,
        0.4096354,
        -1.0413773,
        -0.40249527,
        -0.22866325,
        0.36317676,
        0.04841304,
        -0.6021596,
        1.0263467,
        -0.57938766,
        0.8785102,
        0.3776881,
        -0.1517776,
        -0.62172794,
        -0.59922266,
        -1.10507,
        1.6237326,
        0.270177,
        0.19023256,
        0.8577275,
        0.6464156,
        -0.32557288,
        -1.000387,
        -0.15699019,
        0.450862,
        0.5573198,
        -1.4821212,
        -0.3059222,
        -0.98819315,
        -0.0324099,
        0.48797753,
        0.5373466,
        1.007474,
        -0.47590333,
        2.473751,
        -0.10480794,
        0.5994013,
        -1.9384637,
        1.0053326,
        0.27781445,
        0.28562316,
        2.0429807,
        -1.1174693,
        -1.0638275,
        0.33429095,
        0.72312194,
        -0.8134196,
        -0.8631108,
        0.73670423,
        -0.27139807,
        0.5476099,
        -1.1118778,
        -1.66103,
        0.07359648,
        -0.30392218,
        0.6944226,
        -0.81440926,
        -0.07012856,
        -0.34544903,
        -0.30388954,
        -0.7812991,
        0.5422157,
        -1.4336364,
        -1.6099501,
        -0.16755106,
        1.8833495,
        1.1894305,
        -0.5633796,
        -0.62409925,
        0.031071372,
        1.3017727,
        -0.3893405,
        0.03107549,
        0.97491485,
        0.21687798,
        0.71270007,
        0.36524183,
        1.1134193,
        0.30815685,
        -1.1078676,
        -0.8190285,
        -1.2101822,
        -0.6890217,
        -0.04106403,
        -1.1386317,
        1.1495842,
        0.18543932,
        0.71536446,
        -2.165835,
        0.3796682,
        -0.645802,
        -0.20789844,
        -0.15989468,
        -0.76554465,
        0.14359069,
        -0.3541306,
        -0.17768942,
        0.6394509,
        0.7361195,
        -0.9490404,
        -1.9417542,
        1.5537266,
        -0.81055266,
        -0.21575056,
        1.4401367,
        -0.5837703,
        0.12482213,
        -0.4305584,
        -0.5905543,
        -0.188325,
        1.4832016,
        -1.4026418,
        -0.401904,
        -0.7499642,
        0.44072893,
        -1.1993445,
        -0.9527629,
        0.030446442,
        -1.7424403,
        -0.90596163,
        0.18434772,
        -1.7951965,
        -0.7591529,
        -1.274217,
        1.5941862,
        2.1043875,
        -0.9730368,
        -0.23790482,
        0.87802684,
        -0.61539286,
        0.7051168,
        -0.44514313,
        -1.5106412,
        1.1970465,
        1.840877,
        -0.27789637,
        0.3845304,
        -0.42185777,
        0.2734085,
        0.15921918,
        0.33581334,
        0.43698755,
        -2.4615548,
        0.5483244,
        1.144088,
        -0.6082915,
        0.26623723,
        -0.75474036,
        -0.58194804,
        1.694358,
        -0.58184415,
        0.00072686526,
        -1.6659486,
        -0.10567901,
        0.038329743,
        0.5753775,
        -1.068376,
        -0.24376954,
        1.5977372,
        -0.46215466,
        -1.2026424,
        -0.66907954,
        -0.77764654,
        0.40389046,
        0.11260503,
        0.9869196,
        -0.71769416,
        -0.66494596,
        0.040767778,
        0.63778985,
        -0.29778832,
        -1.8718499,
        1.352418,
        -0.23066437,
        -1.0550894,
        1.005479,
        0.6518472,
        3.465558,
        -1.3982774,
        -1.0935751,
        0.08187183,
        0.40464813,
        0.7848735,
        0.25949666,
        -0.25475076,
        1.2356858,
        -0.15636618,
        -1.6302775,
        -0.65719295,
        0.016608251,
        0.5103315,
        2.5916088,
        1.247915,
        1.0139751,
        -1.2097393,
        -0.14371258,
        0.73307836,
        0.5655461,
        0.4857705,
        -1.729081,
        -0.57077795,
        -0.51068366,
        0.30923176,
        0.55453026,
        -1.6843808,
        0.43409923,
        0.7567415,
        0.22455584,
        0.49815845,
        -0.108623356,
        1.0183591,
        -0.8240233,
        0.25875565,
        -0.51491994,
        -0.63021886,
        -0.045705292,
        -1.0287919,
        -1.3329854,
        -1.5581104,
        0.38371515,
        0.8136572,
        1.5218408,
        0.23470603,
        0.07005377,
        0.77038556,
        1.2693973,
        0.75114465,
        -0.44110996,
        0.25788352,
        -2.8103163,
        -1.4499165,
        0.40103093,
        0.07872511,
        -0.8249257,
        0.90850157,
        0.81490445,
        -0.4362902,
        1.1344968,
        0.98337245,
        -1.6515026,
        0.20130399,
        1.0006896,
        -0.98351955,
        -0.79087794,
        -1.0604901,
        -0.7266537,
        -0.4405215,
        -0.0815074,
        -0.8439518,
        -0.48172104,
        -0.20698397,
        -0.3144245,
        -0.014902589,
        1.5302229,
        -0.73943704,
        -1.268871,
        -1.4834913,
        -0.6830632,
        -1.5024326,
        1.0692593,
        -2.0875814,
        -0.8885578,
        -0.7390163,
        -0.12920442,
        -1.1807626,
        0.5695349,
        1.6550769,
        -1.1809021,
        1.2235513,
        0.83784914,
        -1.1669618,
        -0.53274053,
        0.3940275,
        0.19854927,
        0.80622303,
        0.71598655,
        -0.040022098,
        2.1129785,
        -1.1965635,
        -0.12746616,
        -0.9258322,
        0.118071534,
        1.9042984,
        1.1167723,
        1.7876936,
        -0.092008114,
        -0.29480866,
        0.74258375,
        0.725701,
        -0.3027342,
        -0.9157876,
        0.6331912,
        1.2902472,
        0.8809436,
        0.018850362,
        1.8562032,
        -1.1444954,
        0.4162252,
        0.91345435,
        0.28778484,
        -0.71028596,
        0.4578583,
        1.5146046,
        -1.1142724,
        -0.10489296,
        -0.78902894,
        0.38018775,
        0.2740434,
        0.03471325,
        0.81294686,
        -0.046899077,
        -0.25083145,
        0.8551869,
        -0.11868767,
        0.50977224,
        0.7643147,
        0.39008456,
        1.1986586,
        0.98655957,
        1.2046779,
        0.035143312,
        0.1924373,
        -0.21954508,
        0.9115458,
        2.059822,
        -0.23611465,
        2.0663476,
        -0.34363088,
        -0.7788838,
        0.27947694,
        0.63698924,
        -0.27277216,
        -1.1581186,
        1.530338,
        0.06007613,
        0.15682703,
        -1.417051,
        0.23926517,
        1.468841,
        0.024401167,
        -0.092286095,
        0.64350164,
        -0.9522513,
        -0.27487326,
        -0.59671664,
        1.61883,
        -1.296101,
        -0.7998079,
        0.62051654,
        0.47908056,
        0.8348423,
        -0.20223987,
        0.091638446,
        1.516058,
        0.59551895,
        0.3272871,
        -0.8308609,
        -0.5531967,
        -0.08444626,
        -0.08994161,
        -0.1747335,
        -2.144443,
        1.0358623,
        2.6174805,
        -0.20853107,
        0.8304887,
        -1.1214442,
        -0.9064903,
        -1.0384474,
        -0.13116914,
        0.2422317,
        -0.56791574,
        -1.4059234,
        0.82477564,
        1.2072399,
        -0.39918777,
        -0.26370364,
        0.7519076,
        -0.38917562,
        1.6741856,
        0.4980979,
        0.58387697,
        1.020709,
        -0.22123764,
        -1.2236718,
        -1.4460402,
        -1.5450342,
        0.22848733,
        0.9034451,
        -2.0282528,
        1.1362315,
        -0.82103735,
        0.39772147,
        1.0687785,
        1.3822703,
        -0.67513573,
        0.07048681,
        -0.12247581,
        -0.21338506,
        1.435537,
        -0.7527256,
        -0.98843294,
        0.86580294,
        -0.41990334,
        -0.43846148,
        -2.2673564,
        0.60407466,
        -0.15008666,
        0.106061,
        0.7560356,
        -1.7806245,
        0.12766829,
        -0.9775143,
        -1.1377006,
        0.03479695,
        -0.36760005,
        0.42640543,
        -0.13494775,
        -0.2121139,
        0.35663363,
        -0.8053778,
        -0.1412461,
        0.09161841,
        0.39866257,
        -2.1110992,
        -0.81920075,
        -0.37343812,
        0.27780762,
        -0.21097077,
        0.9036925,
        -0.7141631,
        0.7290152,
        0.21575463,
        0.09786877,
        2.2119823,
        0.5593943,
        -1.0529515,
        0.1589831,
        -1.8875796,
        -1.1270957,
        -1.530481,
        -0.04079731,
        0.11649522,
        -0.22419348,
        0.6561387,
        -0.8673358,
        -0.20401977,
        -0.67778,
        -1.1828625,
        -0.87223434,
        -0.07567104,
        -1.1535666,
        0.3550593,
        1.1416417,
        0.8347623,
        -0.14244314,
        1.6951382,
        2.2451503,
        1.2235379,
        0.7381097,
        -0.53110707,
        -0.013739527,
        -0.4514131,
        -0.8748171,
        -0.41545174,
        0.43622592,
        0.53840965,
        0.85767376,
        1.0018222,
        1.1338288,
        0.8520318,
        0.20451875,
        -0.6491655,
        2.0433383,
        -0.06809982,
        1.5953246,
        0.716079,
        -1.3573277,
        -1.3453505,
        0.8579802,
        0.11442696,
        -1.8623827,
        -0.38577285,
        1.2924147,
        0.30540136,
        -1.4650826,
        2.561246,
        -1.9309186,
        0.20900175,
        -1.250385,
        1.2030581,
        1.70324,
        0.29091805,
        -0.9451867,
        0.03580416,
        -1.023499,
        -1.1519428,
        -0.49908715,
        -1.9159638,
        -0.31647533,
        1.4990393,
        -0.26184863,
        0.23849373,
        1.4282755,
        0.3372803,
        -0.22279413,
        0.21686333,
        0.39117065,
        2.7605631,
        0.233786,
        -1.1793648,
        -0.7593887,
        -1.1464775,
        0.78623205,
        2.0787969,
        -0.21995805,
        -0.47939682,
        2.4551528,
        0.5544423,
        0.61960924,
        -0.21470965,
        0.8727624,
        0.037040275,
        -0.81315345,
        0.82397914,
        0.3546958,
        -0.75379586,
        0.3433406,
        -0.23150669,
        -0.5102778,
