{
  "name": "trigram",
  "parameter_count": 82472,
  "layers": [
    {
      "layer_type": "Linear",
      "name": "Input",
      "index": 0,
      "weights": [
        -1.258875,
        -0.8463337,
        0.12762395,
        -0.33484772,
        -1.0179535,
        0.17771813,
        -0.21786956,
        -1.0967314,
        -1.191494,
        -0.8925922,
        -0.9014939,
        0.4395546,
        -0.41919622,
        -0.13922247,
        -0.38531905,
        -0.4463419,
        -0.53967065,
        -1.2946736,
        -0.0080507165,
        -1.0396702,
        -1.4944934,
        0.24620715,
        -0.119917035,
        -1.2108372,
        -1.1853493,
        0.17093849,
        -1.77563,
        -0.29679233,
        -0.47081244,
        -1.7707212,
        -1.3502715,
        -0.050214734,
        -0.8543834,
        0.002901548,
        -0.32200897,
        -0.5588957,
        0.3510016,
        -1.3114758,
        -0.76033074,
        0.057907835,
        0.52210355,
        -0.4371514,
        -1.0319271,
        -1.4183547,
        -0.13396761,
        -0.67415637,
        0.024886597,
        0.16914679,
        -1.2114866,
        -0.76138455,
        -1.4488693,
        -0.52570415,
        -1.0877993,
        -0.87014467,
        -0.7031971,
        0.2708346,
        -0.3366475,
        -0.94659686,
        -0.46469283,
        0.39826465,
        -0.25360152,
        0.035084356,
        -1.5482199,
        -0.25225532,
        0.051313095,
        -0.93499726,
        0.0034248086,
        -0.8021456,
        -0.5521318,
        -0.91576755,
        -0.68703353,
        -0.25243628,
        -1.3118075,
        0.2082505,
        0.09702839,
        0.02399368,
        0.19920416,
        -0.3513975,
        -0.4119543,
        -0.6872574,
        -1.4084537,
        -1.3224553,
        -0.22973144,
        0.7463772,
        -0.103304945,
        -0.5569892,
        -1.159955,
        -0.2272646,
        -0.61543363,
        -0.45850205,
        -0.9233412,
        0.078544885,
        0.23572229,
        0.1185188,
        0.05571685,
        0.067986004,
        -0.4207454,
        -0.85788155,
        -2.1628256,
        -0.023509528,
        -0.799128,
        -0.79395914,
        -0.15060212,
        -0.7304305,
        0.21217854,
        -0.6557546,
        0.14600717,
        -1.4936107,
        -0.44894385,
        -1.0716611,
        -1.7117908,
        0.4079663,
        0.00446191,
        -0.3724102,
        -0.014737455,
        -0.2043325,
        -1.6007398,
        -0.18242413,
        -0.98287004,
        -0.405882,
        -0.8403243,
        -0.59331906,
        -0.8564531,
        -0.27758422,
        -1.5243416,
        0.03823886,
        0.1001217,
        -0.23939152,
        0.39183474,
        -0.06051783,
        -0.66832227,
        -0.13688266,
        0.082794964,
        -0.8530972,
        -0.320869,
        -1.5389812,
        0.15648778,
        -0.2980799,
        -1.4533471,
        -0.8845708,
        -0.18756783,
        -0.90832996,
        -0.16653386,
        -0.11415946,
        -0.043662492,
        0.09725144,
        -0.37866062,
        0.31842673,
        0.046501704,
        -0.52848923,
        0.13710314,
        0.2581167,
        -0.22737324,
        -1.5966854,
        -0.9973853,
        0.2031904,
        -0.3646055,
        -0.8852139,
        -0.62241447,
        -0.54878986,
        0.71301925,
        -1.4898031,
        -1.7303596,
        -1.7683054,
        -0.3796399,
        -1.1718957,
        -0.7857563,
        -0.120141335,
        0.043499414,
        -0.0076100435,
        -0.1282913,
        -0.46646637,
        0.37502798,
        -1.2700728,
        -0.7291134,
        -0.91982186,
        0.042054698,
        -0.3079154,
        0.4005719,
        -1.1202352,
        0.10770793,
        -0.67063904,
        -1.1917686,
        -0.07928875,
        0.059448726,
        -0.55235666,
        0.52588606,
        0.013084287,
        -1.4723134,
        -1.1218809,
        -0.9993217,
        -0.87272865,
        -0.5277956,
        -2.16264,
        0.07672863,
        -0.03671775,
        -0.04985643,
        -0.2931172,
        -0.9806358,
        -2.1756744,
        -0.63585967,
        0.057573278,
        -0.003965139,
        -0.50310916,
        -0.50069004,
        -0.20435634,
        -0.104795866,
        -0.4353815,
        -0.061946034,
        -0.14834142,
        -0.78063893,
        -0.8116787,
        -0.08179593,
        -0.56505257,
        -0.8578904,
        -0.51331145,
        -0.42319548,
        -0.57404846,
        -0.48577031,
        -0.32702515,
        0.19283213,
        -0.67324394,
        -0.37403306,
        -0.26159018,
        -0.19161028,
        -0.09193073,
        -0.09507822,
        -0.27915937,
        -0.97407895,
        -0.013711748,
        -0.1651758,
        -0.57536554,
        -0.39849097,
        0.17083603,
        -0.14901783,
        -0.786001,
        -0.031769324,
        -0.82212555,
        -0.8092072,
        -0.17174962,
        -0.12046532,
        -0.8251638,
        0.26254746,
        -0.4855349,
        -0.47621155,
        0.111314364,
        -0.5216428,
        -0.6503912,
        -0.35155216,
        -0.32305467,
        -0.7593615,
        -1.214892,
        -0.035190765,
        -0.63968676,
        -0.3366858,
        -0.36210662,
        -0.12980829,
        -0.15117891,
        -0.6762255,
        -0.14655726,
        -0.39425412,
        -0.56740314,
        -0.36587363,
        -0.6038656,
        -0.1553069,
        -0.60416645,
        -0.7230544,
        -0.06873245,
        -0.60856956,
        -0.65316576,
        -0.86954963,
        -0.5306627,
        -0.42702454,
        -0.21559265,
        0.09159753,
        -0.3140382,
        0.09596517,
        -0.476033,
        -0.28333443,
        -0.33233264,
        -0.75032234,
        -0.5500873,
        -0.048589718,
        -0.1303241,
        -0.18214527,
        -0.5038782,
        -0.3495218,
        -0.2158164,
        -0.3653121,
        -0.27556878,
        -0.3809284,
        -0.13384679,
        -0.21248686,
        -0.23005655,
        -0.13303486,
        -0.40892133,
        0.13129368,
        -0.20202655,
        -0.06757474,
        -0.14913984,
        -0.06274325,
        -0.2771161,
        0.28074244,
        -0.38741577,
        -1.0065703,
        0.14116883,
        -0.49624157,
        -0.08901391,
        -0.09331574,
        0.039145548,
        -0.077260956,
        -0.5901212,
        -0.27673602,
        -0.35003176,
        -0.40428182,
        -0.07788686,
        -0.86554086,
        -0.18277878,
        -0.31068945,
        -0.23774183,
        -0.41814196,
        -0.5799523,
        -0.5948214,
        -0.09161033,
        -0.66234493,
        -0.41046804,
        -0.32039002,
        -0.54117674,
        0.11096562,
        -0.32035688,
        -0.2673265,
        -0.22093895,
        -0.67908144,
        -0.16346015,
        -0.3882435,
        -0.37728226,
        -0.5039297,
        -0.76663905,
        -0.073486365,
        -0.4670669,
        -0.30334756,
        -0.3060084,
        -0.30337036,
        -0.6190309,
        -0.06911684,
        0.13145702,
        -0.48103753,
        -0.7336217,
        -0.15172312,
        0.013517832,
        -0.5060291,
        -0.29974428,
        -0.22226262,
        -0.50759304,
        0.18619071,
        -0.6289461,
        -0.07504514,
        -0.51070136,
        -0.63146913,
        -0.13054548,
        -0.5957368,
        0.33935156,
        -0.6913652,
        0.055285532,
        -0.13567041,
        -0.3447845,
        -0.25743493,
        0.22059724,
        -0.2788639,
        -0.20168184,
        -0.32011974,
        -0.1357719,
        -0.5460803,
        -0.08244787,
        -0.18807647,
        -0.06898259,
        -0.21717648,
        -0.34283957,
        -0.13353187,
        -0.07670336,
        -0.2757872,
        -0.24445592,
        -0.63593686,
        -0.38358083,
        0.04569119,
        -0.46915784,
        -0.3153467,
        -0.018428694,
        -0.26825058,
        -0.19542164,
        -0.23073353,
        -0.20447405,
        -0.45608225,
        0.06929379,
        -0.5079032,
        -0.29155222,
        -0.1678347,
        -0.11369262,
        -0.8889268,
        -0.099219315,
        -0.5695396,
        -0.10661426,
        0.038734294,
        -0.43705133,
        -0.258405,
        0.08584137,
        -0.4772597,
        -0.088532284,
        -0.03770756,
        -0.90983874,
        0.06416078,
        0.059504766,
        0.24112433,
        -0.39880145,
        -0.43374178,
        -0.31957945,
        0.2550163,
        0.1329914,
        -0.17015983,
        0.0625707,
        -0.03847249,
        -0.12555102,
        -0.13216797,
        0.11713125,
        0.26092526,
        -0.26634467,
        0.0039500105,
        -0.15123759,
        -0.018596692,
        -0.19070604,
        -0.0092845205,
        0.23458716,
        0.41105944,
        -0.01853518,
        0.06273195,
        0.21441443,
        -0.011797854,
        0.38553238,
        0.012468824,
        0.119711995,
        -0.061799295,
        -0.17365968,
        0.2084298,
        -0.20755999,
        -0.20315751,
        0.01568078,
        -0.13558665,
        -0.15723053,
        -0.107891224,
        0.27480125,
        -0.35377508,
        0.053549647,
        -0.013590042,
        -0.39002773,
        -0.1002369,
        -0.17250237,
        0.1179371,
        -0.14903213,
        0.24038081,
        0.27936715,
        -0.05687404,
        -0.09217016,
        0.15167801,
        0.0950879,
        -0.38905832,
        -0.14467989,
        0.34225944,
        -0.3088051,
        -0.44440717,
        0.10783489,
        0.3605139,
        -0.509716,
        -0.1405554,
        0.28606808,
        0.4240758,
        -0.45700574,
        -0.42755672,
        0.2530181,
        0.30115885,
        0.21538189,
        0.1711515,
        -0.3073358,
        0.029636294,
        -0.22871703,
        -0.46950558,
        0.006997086,
        -0.03217668,
        0.4307127,
        0.26959926,
        -0.056723498,
        -0.04454473,
        0.09629554,
        -0.039479937,
        0.1891123,
        0.19236326,
        -0.2862121,
        0.11010779,
        -0.061075546,
        0.25640234,
        0.05623692,
        -0.06649811,
        -0.14756413,
        0.015341734,
        -0.16171402,
        -0.6596559,
        0.14012364,
        0.024194324,
        -0.9181649,
        0.21857938,
        0.13804382,
        -0.07371543,
        0.20604813,
        0.13171224,
        -0.13893698,
        -0.018890167,
        -0.36981112,
        0.14541483,
        -0.91323185,
        -0.2949959,
        0.34251586,
        -0.5232886,
        -0.088755965,
        -0.05928126,
        0.000060844683,
        -0.25856245,
        -0.070168346,
        -0.12873943,
        -0.14706439,
        -0.011618138,
        0.37441063,
        0.38055918,
        -0.4003177,
        0.09717541,
        0.34362137,
        -0.28109267,
        -0.08622389,
        -0.18676528,
        0.10468837,
        0.35394308,
        -0.033076614,
        0.17414564,
        0.06345128,
        0.60417247,
        -0.043694407,
        -0.20397761,
        -0.109895796,
        -0.08492661,
        0.18460402,
        -0.25922695,
        -0.13486303,
        -0.07957652,
        -0.17916074,
        -0.049085766,
        -0.31459185,
        0.16747646,
        -0.030355895,
        -0.08417461,
        -0.065709904,
        -0.102841154,
        -0.19013526,
        0.093783006,
        -0.19235636,
        -0.080087684,
        0.19538833,
        -0.21050076,
        -0.02667882,
        0.21489951,
        -0.064417735,
        0.32545957,
        -0.15556699,
        0.10206288,
        -0.29967898,
        0.2107691,
        0.14471093,
        0.15406878,
        -0.18952085,
        -0.3992382,
        -0.3113024,
        0.26715526,
        0.060765732,
        -0.03547059,
        -0.15863743,
        -0.042888466,
        0.27652812,
        -0.012109653,
        -0.4147183,
        0.061135665,
        -0.18607627,
        0.39445516,
        0.09272614,
        -0.07225107,
        0.141353,
        -0.20836069,
        0.47672158,
        0.15925105,
        0.19527596,
        0.26124492,
        -0.308522,
        -0.053547468,
        0.09706479,
        -0.2778325,
        -0.024092162,
        0.118297234,
        -0.02672925,
        0.026852893,
        0.14922008,
        -0.05311403,
        0.5169406,
        0.011546879,
        -0.124330424,
        -0.14633507,
        0.2389652,
        -0.011171443,
        0.044474144,
        0.18386364,
        -0.16231291,
        0.32164297,
        -0.13176222,
        -0.2946185,
        -0.46442205,
        0.24806306,
        -0.088239394,
        0.35250518,
        0.14712346,
        -0.049745526,
        -0.17276025,
        0.19851862,
        0.07306662,
        -0.41317007,
        0.035591338,
        -0.27181432,
        0.42262402,
        0.0030266866,
        -0.18548822,
        0.23017581,
        -0.2817879,
        0.052983154,
        0.36087173,
        0.33676162,
        0.13706443,
        -0.8102578,
        0.06835212,
        -0.19360624,
        0.29888725,
        0.34036782,
        -0.5929457,
        0.44434965,
        0.30047542,
        0.069495395,
        -0.39383212,
        -1.0073886,
        -0.68814975,
        0.04308818,
        0.051707808,
        -0.07278833,
        -0.65771264,
        0.14336278,
        0.37893745,
        -0.67259765,
        -0.31832632,
        0.12686357,
        0.62815,
        -0.01297011,
        0.61726147,
        -0.9738451,
        -0.08633872,
        0.110488966,
        0.2521173,
        0.57880735,
        0.50537544,
        -0.022782769,
        0.039486684,
        0.68909436,
        0.3911642,
        0.07491581,
        -0.22504564,
        -0.09983728,
        -0.18288447,
        -0.17326812,
        -0.7590167,
        -0.050642084,
        -0.13516454,
        0.36493418,
        -0.23589794,
        0.4314181,
        0.59916615,
        -0.004370287,
        -0.009337239,
        -0.02786986,
        0.00409959,
        0.42036936,
        0.429096,
        0.11930305,
        0.6225809,
        0.14598736,
        -0.05879878,
        0.09779825,
        -0.20309207,
        0.1688022,
        -0.2493854,
        -0.12815122,
        0.24668811,
        -0.21727061,
        -0.73211783,
        0.46021917,
        0.37169734,
        -0.6263718,
        -0.7648163,
        -0.3965293,
        -0.3561959,
        -0.04531428,
        -0.22146982,
        0.40983623,
        0.119704194,
        0.103508025,
        -0.6044004,
        0.6325284,
        -0.05158358,
        -0.35786647,
        -0.07150466,
        -0.4296982,
        -0.6698836,
        -0.15934962,
        0.31628788,
        -0.102298506,
        0.4615925,
        0.26637924,
        0.54195255,
        -0.38511828,
        0.3392895,
        0.09661229,
        0.07564449,
        -0.3515336,
        -0.33839524,
        0.3612285,
        0.33144423,
        -0.40605912,
        -0.40868205,
        -0.44316363,
        0.15491308,
        0.46230552,
        0.10635956,
        -0.42519528,
        -0.008562121,
        0.09947991,
        -0.622041,
        -0.07324891,
        0.21445388,
        -0.38932335,
        -0.4678341,
        0.089072146,
        -0.36222255,
        -0.19341126,
        -0.39508107,
        -0.45782834,
        -0.3723313,
        0.51257163,
        -0.17037998,
        -0.48506555,
        0.20104583,
        0.0149726495,
        0.5503512,
        0.2602642,
        -0.31256738,
        0.22774762,
        -0.5854192,
        -0.037444897,
        -0.027701557,
        -0.03386248,
        0.032985546,
        -0.95263916,
        0.104558334,
        -0.053970553,
        0.23261687,
        -0.17594445,
        -0.0663724,
        -0.041441716,
        -0.288285,
        0.009369986,
        -0.56144845,
        0.24930672,
        -0.21278712,
        0.17066507,
        -0.0032384377,
        -0.77411956,
        0.5412924,
        -0.026928652,
        0.13971141,
        -0.6396328,
        -0.23740907,
        0.12072698,
        0.14982493,
        -0.41486776,
        -0.15641254,
        0.25908333,
        0.5608139,
        -0.46035856,
        0.16569695,
        0.42588672,
        0.29406723,
        -0.5879088,
        -0.43641013,
        -0.15900698,
        -0.67942697,
        -0.041068386,
        -0.123135276,
        0.38477656,
        -0.13701536,
        -0.46738672,
        0.22488996,
        -0.3744043,
        -0.08432364,
        0.6206796,
        1.4119577,
        0.6249109,
        0.13261712,
        -0.31438538,
        -0.39818722,
        -0.35701308,
        -0.12921163,
        -0.09312454,
        0.12279353,
        0.047346015,
        0.64974713,
        -0.3248141,
        -0.050508484,
        -0.24833876,
        -0.33229312,
        -0.5006548,
        -0.6912877,
        0.24147199,
        0.16719879,
        -0.16313817,
        -0.22419181,
        -0.29791617,
        0.114597306,
        -0.1412569,
        0.72724015,
        0.16413458,
        0.50906926,
        -0.010276779,
        0.0726596,
        0.01885094,
        -0.17002547,
        0.18781045,
        -0.32672125,
        0.27129507,
        0.030329613,
        0.4255781,
        -0.034461897,
        -0.30339167,
        0.03891725,
        -0.1859839,
        0.24629001,
        -0.14812858,
        0.23841514,
        -0.22773543,
        -0.4420605,
        0.06611098,
        -0.4700177,
        -0.14178252,
        -0.13235101,
        -0.33835337,
        -0.29204127,
        0.0071029975,
        -0.048740838,
        -0.47242025,
        -0.15072776,
        0.087658994,
        0.06688449,
        -0.38828516,
        -0.07982617,
        0.47841907,
        -0.2905529,
        0.38387933,
        -0.21750426,
        -0.26592287,
        -0.2850839,
        -0.32964554,
        0.15480687,
        -0.14462799,
        -0.18590848,
        -0.018996228,
        -0.0765114,
        -0.5523601,
        0.10449854,
        -0.25919053,
        -0.22248699,
        -0.26256442,
        0.13431895,
        -0.58313835,
        -0.25504357,
        -0.13223994,
        -0.2008849,
        0.19470003,
        0.3253714,
        0.24918272,
        -0.029163519,
        0.16321194,
        -0.1182413,
        -0.42868662,
        0.10112681,
        -0.20083262,
        0.5982133,
        0.64118594,
        -0.1401389,
        0.083491944,
        0.12741676,
        -0.03309262,
        -0.021759233,
        0.03613182,
        -0.13785258,
        0.39922714,
        0.17698249,
        0.028537802,
        0.2525442,
        0.1558691,
        -0.010928888,
        -0.1634107,
        -0.46944585,
        -0.061223075,
        0.2112786,
        -0.15404865,
        -0.022069905,
        0.41339505,
        -0.08368028,
        -0.18340573,
        0.13146509,
        0.08557705,
        -0.19404428,
        -0.41862246,
        -0.22887495,
        0.1770953,
        -0.7600667,
        -0.34036446,
        -0.12935051,
        -0.7780516,
        -0.32140118,
        0.372289,
        0.21751949,
        -0.09626834,
        -0.21538201,
        -0.09911979,
        0.0126273045,
        -0.111182995,
        0.21344127,
        -0.031766087,
        -0.08085866,
        -0.28360835,
        0.14204937,
        -0.09791984,
        -0.15993299,
        0.32821873,
        -0.32577625,
        -0.11272575,
        -0.62643564,
        0.17305641,
        -0.23663445,
        0.33727938,
        -0.045272425,
        -0.24676518,
        -0.31123027,
        -0.2259614,
        -0.20175831,
        -0.15106595,
        -0.274866,
        0.13729028,
        -0.24166246,
        -0.08429815,
        0.4887991,
        -0.20750533,
        0.10272552,
        -0.0002436399,
        0.023094056,
        -0.44252554,
        -0.35922942,
        0.55801594,
        -0.35126454,
        0.39235345,
        0.15954822,
        -0.35667565,
        0.01771708,
        -0.06272622,
        0.080248915,
        -0.0457499,
        -0.35256445,
        0.11642837,
        0.2568246,
        -0.18171136,
        0.19852766,
        0.12935966,
        -0.44691208,
        -0.43352973,
        0.04046587,
        0.03494711,
        0.16819116,
        -0.5148665,
        0.093823545,
        -0.32394457,
        0.50338274,
        -0.27268577,
        -0.15667726,
        -0.064985834,
        -0.03978043,
        0.16659118,
        -0.20140971,
        -0.18051283,
        0.288206,
        0.064163856,
        0.21383281,
        -0.39389285,
        -0.37144947,
        0.07829748,
        -0.049061846,
        0.0342361,
        0.328587,
        0.16690041,
        0.15055823,
        -0.1653855,
        0.23327123,
        -0.36562198,
        0.30634588,
        0.43481323,
        -0.15183651,
        0.040030185,
        -0.00016037883,
        -0.28244343,
        -0.3120535,
        -0.10985633,
        0.60666776,
        0.32863215,
        -0.23205972,
        -0.22652929,
        -0.019773923,
        0.01274722,
        -0.087582596,
        0.24989069,
        -0.15279819,
        -0.30293378,
        -0.098776266,
        0.33077833,
        0.11389217,
        0.061765105,
        0.38317123,
        0.02721467,
        -1.1373172,
        -0.30516106,
        -0.5634725,
        0.31637418,
        -0.03191564,
        0.023699544,
        0.06381166,
        -0.13985536,
        -0.14163545,
        -0.04877559,
        0.0019025499,
        0.1597142,
        -0.31098607,
        -0.010429918,
        -0.07020085,
        0.17246698,
        -0.30951074,
        -0.017010268,
        -0.13644424,
        -0.04688786,
        0.0680549,
        -0.16493075,
        0.025401654,
        0.3898182,
        0.33749786,
        -0.66405666,
        -0.42755327,
        -0.120901726,
        0.20222446,
        -0.41722244,
        -0.09345519,
        -0.44291186,
        -0.00856555,
        0.41708747,
        0.05311225,
        -0.018311508,
        0.53130454,
        -0.26627442,
        0.16043068,
        0.09236223,
        0.48381752,
        0.16829045,
        -0.32466945,
        -0.15002654,
        0.014554412,
        -0.19133326,
        -0.079078704,
        0.12408824,
        -0.15040955,
        0.35717338,
        -0.61661536,
        -0.036684394,
        -0.18684714,
        0.48401478,
        -0.15951687,
        -0.28237328,
        -0.073907726,
        -0.47834843,
        -0.785137,
        -0.3525838,
        0.02473177,
        0.23955435,
        -0.26279283,
        0.041293148,
        -0.25586012,
        0.333353,
        0.020297082,
        -0.7069648,
        0.41071093,
        0.10233451,
        -0.35222805,
        -0.1371743,
        -0.17378633,
        -0.022240993,
        -0.210945,
        -0.020265952,
        0.08603787,
        -0.52820766,
        -0.208434,
        -0.22012496,
        0.29904047,
        0.0985016,
        -0.07985066,
        -0.026459357,
        -0.020237312,
        0.3043644,
        -0.33266613,
        -0.24710888,
        0.091301225,
        -0.31101716,
        -0.27273944,
        -0.43888026,
        0.3247335,
        0.049296223,
        -0.56919116,
        0.0712952,
        0.04441303,
        -0.3213021,
        0.058303833,
        0.21733609,
        -0.01161559,
        -0.16765197,
        -0.18454194,
        -0.083861694,
        0.019769449,
        -0.21529397,
        -0.32161412,
        -0.09981123,
        0.41352648,
        0.14235592,
        0.2513977,
        -0.2640059,
        -0.2704275,
        0.07663417,
        0.031633418,
        0.14520188,
        -0.019286837,
        0.040233474,
        -0.05715184,
        0.34273383,
        0.48141888,
        -0.18245713,
        -0.2831152,
        0.11465224,
        0.25571108,
        0.07713323,
        -0.15326087,
        -0.3550889,
        0.52641183,
        -0.3381497,
        0.008525391,
        -0.024055684,
        -0.73312664,
        0.118826434,
        0.18260844,
        0.047542457,
        0.29193956,
        0.5631477,
        0.2807899,
        -0.28705046,
        0.22664106,
        0.04911386,
        0.1927467,
        0.02130101,
        -0.23687474,
        -0.096296705,
        -0.36085773,
        -0.24157305,
        0.31645146,
        0.3406607,
        -0.70905405,
        0.37073797,
        -0.06322796,
        -0.2573251,
        0.3963666,
        -0.43129376,
        -0.50494474,
        0.087652646,
        -0.19180727,
        0.7558379,
        -0.006738119,
        0.21721888,
        -0.69256955,
        0.4838908,
        0.083392695,
        -0.36771724,
        0.06316244,
        0.18913712,
        0.28054634,
        0.04998648,
        -0.07093363,
        -0.21866177,
        -0.18406624,
        -0.05366592,
        0.082701616,
        0.15621011,
        -0.32060775,
        0.14533709,
        -0.45729527,
        -0.62127423,
        0.11232145,
        -0.33563906,
        0.015145152,
        0.32694474,
        -1.0298717,
        -0.5686104,
        0.27572727,
        0.0999726,
        0.21307611,
        0.2694818,
        -0.27041188,
        -0.0664243,
        -0.759333,
        -0.11788136,
        0.24151947,
        0.454525,
        0.07690088,
        0.045004748,
        -0.008623681,
        -0.6033177,
        -0.35766128,
        0.15730998,
        0.19865425,
        0.06544758,
        0.15325713,
        0.10602788,
        0.17130433,
        0.12692769,
        -0.36699978,
        -0.3060745,
        -0.27152306,
        -0.34638128,
        0.091464944,
        -0.018455636,
        0.095283814,
        -0.38875353,
        0.10181376,
        -0.29553604,
        -0.0924219,
        -0.18042533,
        -0.038797688,
        0.18879852,
        -0.055849634,
        0.0056382287,
        0.23928025,
        -0.34524295,
        0.40054798,
        0.31756088,
        0.037816133,
        0.2168561,
        0.4721966,
        0.1308672,
        -0.0064942325,
        0.14140236,
        0.04180488,
        -0.10311671,
        -0.06233675,
        0.038054597,
        0.4061555,
        0.116502315,
        -0.16520055,
        0.07180895,
        0.1866681,
        -0.14262249,
        -0.044295114,
        -0.13704072,
        -0.15571555,
        0.05139494,
        -0.5746237,
        -0.21957132,
        0.07942808,
        -0.1973537,
        0.3714651,
        0.09969879,
        0.19722141,
        0.6205718,
        0.34184712,
        -0.06549541,
        0.29238504,
        0.04254886,
        0.03765036,
        0.25512862,
        -0.10600442,
        0.19038671,
        0.19722836,
        0.050902165,
        0.12241947,
        0.38911682,
        -0.29616416,
        -0.4486302,
        -0.4759692,
        -0.039317604,
        -0.26196638,
        -0.0039237062,
        -0.03017573,
        -0.33712655,
        0.14070375,
        0.10035808,
        0.008218183,
        -0.036444712,
        -0.057037786,
        -0.022320215,
        0.03756348,
        -0.21642877,
        -0.04058871,
        0.51980954,
        -0.077057205,
        0.16919476,
        0.051405773,
        -0.006658788,
        0.55929077,
        -0.38439864,
        0.056275923,
        0.32426304,
        -0.23095281,
        -0.1678049,
        0.06376479,
        0.43325758,
        0.02032529,
        0.023098784,
        0.49925563,
        0.2926142,
        -0.07213012,
        -0.32094267,
        0.10086452,
        0.3805925,
        -0.2249088,
        -0.26224643,
        -0.37848064,
        0.1238707,
        0.09626663,
        -0.15722373,
        -0.2033583,
        -0.4866465,
        -0.11159451,
        0.1992401,
        0.120423034,
        0.39040905,
        0.050328635,
        -0.4979015,
        0.2259289,
        0.027911242,
        -0.15372062,
        -0.2411032,
        0.2058656,
        -0.15714714,
        0.1363805,
        0.23561658,
        0.34301746,
        0.34724513,
        0.115268946,
        0.22023736,
        0.29877687,
        -0.30671188,
        0.06150758,
        0.35997343,
        0.16862965,
        -0.086251445,
        0.14711687,
        0.37022823,
        -0.075751215,
        0.15216361,
        0.25801727,
        0.020500509,
        0.6711872,
        0.1302367,
        0.06525783,
        -0.27937725,
        0.30529982,
        0.02740026,
        -0.09993143,
        -0.11629949,
        -0.19482833,
        0.032040864,
        -0.17615029,
        0.25264645,
        -0.111009166,
        0.09437875,
        -0.4113098,
        -0.38568768,
        -0.0047366396,
        0.17742532,
        0.04027971,
        0.4399638,
        -0.5133659,
        -0.088451385,
        -0.5335228,
        0.3238302,
        0.49292436,
        -0.21928155,
        -0.07944545,
        0.075121425,
        -0.09618352,
        -0.089290984,
        -0.23326531,
        0.22294131,
        0.04254742,
        0.1909969,
        -0.010649614,
        -0.2738096,
        -0.085239045,
        -0.05718398,
        0.43408018,
        -0.13892142,
        0.01948266,
        -0.1381757,
        -0.011522006,
        -0.13486221,
        0.19019805,
        0.25148746,
        -0.11121227,
        0.2932866,
        -0.39551705,
        -0.78650767,
        0.4451282,
        -0.034183078,
        0.21249945,
        0.17576106,
        -0.35434777,
        0.0900606,
        0.026693363,
        0.020206738,
        -0.34722573,
        -0.08208849,
        0.09246892,
        0.020580864,
        -0.47399947,
        0.05327456,
        -0.056215823,
        0.22436146,
        -0.050087854,
        0.11328913,
        -0.33711877,
        0.0028212725,
        0.9670622,
        -0.07607571,
        0.36213192,
        -0.055171125,
        0.4774556,
        -0.6398024,
        -0.1313903,
        0.3204291,
        0.26144126,
        -0.14055933,
        -0.059347484,
        0.13239726,
        -0.017456276,
        -0.5421581,
        -0.4006507,
        0.5816514,
        -0.3185486,
        0.2817034,
        0.020183595,
        -0.112531364,
        0.9441717,
        0.07994107,
        -0.15887085,
        -0.60290444,
        -0.48192498,
        0.055837866,
        -0.6286979,
        -0.5674544,
        -0.33621168,
        -0.6141071,
        -0.12903869,
        -0.4002939,
        -0.48581702,
        0.08736238,
        0.12297742,
        -0.34162235,
        0.7459448,
        0.11520967,
        -0.51745087,
        -0.7046269,
        -0.42870542,
        0.062309496,
        -0.37972444,
        0.07810434,
        0.36650905,
        0.7659761,
        0.7506185,
        -0.3683845,
        -0.13133676,
        0.4239486,
        0.2035207,
        0.44204077,
        0.9273527,
        -0.19409835,
        -0.5928999,
        -0.18118565,
        -0.029243916,
        0.7756007,
        0.6437393,
        0.15064615,
        0.13859785,
        0.53448296,
        -0.38001284,
        -0.49124724,
        -0.092891596,
        -0.50456554,
        -0.45730054,
        -0.010260365,
        0.026493937,
        -0.035311673,
        -0.16993365,
        -0.4513553,
        -0.31754863,
        -0.34393921,
        -0.19428553,
        0.23081298,
        -0.028702376,
        -0.4299909,
        0.0045587644,
        0.25609246,
        0.7054555,
        0.6411627,
        -0.7033972,
        0.14371803,
        0.38022876,
        0.5304653,
        0.020651823,
        0.048328567,
        -0.38439003,
        0.33798167,
        0.11008925,
        0.59839344,
        -0.11536304,
        -0.12250366,
        0.46562114,
        -0.05165046,
        0.16496141,
        -0.0806127,
        0.2060999,
        0.32735023,
        -0.6464239,
        -0.2407327,
        -0.3918783,
        -0.26903072,
        -0.43497017,
        -0.6758819,
        -0.8551197,
        -0.0113304285,
        0.30271485,
        0.17962159,
        -0.52366585,
        0.41247255,
        0.45504853,
        -0.3844722,
        0.15015262,
        -0.70568895,
        -0.07091666,
        0.081414185,
        -0.15995376,
        -0.22354493,
        0.14367265,
        -0.018652521,
        0.43620917,
        0.22253954,
        0.13279843,
        1.0775679,
        -0.40315023,
        -0.6876682,
        -0.35626236,
        0.64570194,
        -0.58067346,
        -0.21868668,
        0.027974151,
        -0.0019060748,
        0.45337287,
        -0.18144274,
        0.7874552,
        -0.12536521,
        0.0944422,
        -0.49993497,
        0.29604566,
        0.323867,
        0.61697155,
        0.613412,
        -0.4170447,
        -0.51940954,
        -0.58149624,
        -0.1564088,
        -0.23246433,
        0.22779185,
        -0.16912448,
        -0.5786273,
        0.031848162,
        -0.568067,
        -0.12074527,
        0.08383229,
        -0.17400233,
        0.99419683,
        -0.456509,
        -0.3603781,
        -1.1883229,
        -0.31824118,
        0.13409065,
        -0.43960488,
        0.4399383,
        -0.2962074,
        -0.24333365,
        0.060652886,
        0.44662935,
        -0.21144211,
        -0.50210446,
        0.29521784,
        0.5158468,
        0.7952603,
        -0.32282808,
        -0.010167306,
        -0.023139684,
        -0.5071506,
        0.76828593,
        0.5715675,
        0.3813125,
        0.16142868,
        0.114056095,
        0.574153,
        0.5706048,
        0.6135715,
        0.36926028,
        -0.30256423,
        0.22901784,
        -0.02698821,
        -0.46948656,
        0.13946296,
        -0.8174044,
        -0.3814249,
        0.4693573,
        0.258051,
        -0.9425497,
        -0.65264213,
        -0.11843496,
        -0.32170597,
        -0.6300215,
        -0.38451064,
        -0.59269255,
        -0.32852343,
        -0.6990588,
        -0.34453124,
        -0.45529982,
        -0.013141652,
        -0.10043535,
        -0.121011086,
        0.6273941,
        0.29383352,
        0.077097654,
        0.002041414,
        0.23677242,
        -0.03720107,
        -0.21289194,
        -0.028034486,
        0.1907453,
        0.3868607,
        0.012607324,
        0.19262555,
        -0.06861666,
        -0.26750928,
        -0.033349667,
        0.2918585,
        -0.51812977,
        -0.5363092,
        0.40072298,
        -0.022405213,
        -0.7698442,
        -0.06834602,
        -0.2628459,
        -0.23486206,
        0.15024094,
        -0.037844192,
        -0.015278143,
        0.30111444,
        0.1558945,
        -0.3832489,
        0.05149976,
        0.3996106,
        -0.12211408,
        -0.15821175,
        -0.2285811,
        0.48733544,
        -0.2603308,
        0.25830624,
        0.18820135,
        -0.1931844,
        -0.0883353,
        0.16506459,
        -0.34288839,
        -0.4716986,
        -0.2557388,
        0.21679492,
        -0.23056704,
        -0.06719938,
        0.13980676,
        -0.2634976,
        -0.27311727,
        -0.18612598,
        -0.059821136,
        -0.46691552,
        -0.31417054,
        -0.2030158,
        -0.6036839,
        0.27657795,
        0.62319535,
        -0.14782134,
        0.005364009,
        -0.24484688,
        -0.19151258,
        -0.44861108,
        0.023525063,
        -0.106831156,
        0.13246886,
        0.5625035,
        -0.011431252,
        -0.045132603,
        0.020445123,
        -0.2539458,
        -0.28189397,
        0.10414759,
        0.31804284,
        0.19474912,
        0.12016179,
        -0.053203486,
        -0.05002487,
        0.4972729,
        -0.19801508,
        0.061559442,
        -0.47866097,
        -0.30061716,
        -0.05397504,
        -0.20290203,
        0.28167424,
        0.03345213,
        -0.3052508,
        -0.534643,
        -0.068341665,
        -0.053082377,
        -0.14799921,
        0.23431802,
        -0.50532734,
        -0.26203665,
        -0.7806241,
        -0.59628576,
        -0.09439028,
        -0.44102475,
        -0.14700152,
        0.16594306,
        -0.25669324,
        -0.008440959,
        -0.1106785,
        -0.68318784,
        -0.20649306,
        -0.49268386,
        0.035005827,
        0.2510275,
        -0.18093863,
        -0.22593373,
        0.053745113,
        -0.28488153,
        0.10554318,
        -0.20921235,
        -0.11177141,
        0.008259478,
        -0.24200256,
        0.20470694,
        -0.16619511,
        -0.15144493,
        -0.09237578,
        -0.628459,
        -0.22781357,
        -0.48644552,
        0.15816097,
        0.055462457,
        -0.43609828,
        0.18160783,
        -0.08728263,
        -0.21868455,
        -0.43178463,
        -0.236813,
        -0.015703507,
        0.23149098,
        -0.4265308,
        0.052554604,
        0.09502638,
        0.24915685,
        0.008145939,
        -0.43615538,
        -0.024980845,
        -0.49625632,
        0.10810513,
        0.19480191,
        0.11468219,
        0.20257595,
        -1.3695804,
        0.22140928,
        -0.32836714,
        -0.4917546,
        -0.06606468,
        0.15648481,
        -0.8187599,
        -0.07799701,
        -0.524093,
        0.28282443,
        -0.091357246,
        0.28348,
        -0.03913252,
        -0.1874286,
        -0.3066394,
        -0.041451097,
        -0.29115874,
        -0.2798913,
        -0.37312648,
        0.30333704,
        -0.0032297089,
        -0.060222425,
        0.16445798,
        -0.46823433,
        -0.13411294,
        -0.060688194,
        -0.72884035,
        -0.2170638,
        0.1287154,
        -0.07722845,
        0.06945878,
        0.47301054,
        -0.3520937,
        0.21052499,
        0.13423136,
        -0.6314756,
        -0.8407322,
        0.5950983,
        -0.57448685,
        0.076077975,
        -0.0070786974,
        -0.51028335,
        -0.09894042,
        0.17359449,
        0.24793006,
        0.27238852,
        -0.42675993,
        -0.45713878,
        0.18792236,
        0.090860166,
        -0.064384624,
        -0.32314375,
        -0.026647486,
        -0.25028554,
        -0.06583284,
        -0.48654962,
        -0.23707364,
        -0.00089473295,
        0.063344106,
        -0.06775359,
        0.10686939,
        0.12141388,
        0.14391583,
        -0.21775886,
        0.13035981,
        0.023890551,
        -0.13304487,
        -0.24546327,
        -0.038577102,
        0.32786787,
        0.10020472,
        -0.16939394,
        0.14960498,
        -0.31124392,
        -0.21059147,
        -0.0035498587,
        -0.3497743,
        -0.13824679,
        0.3968196,
        -0.08823185,
        -0.4116312,
        0.17235397,
        -1.0059404,
        -0.4057117,
        0.030324545,
        -0.28053033,
        -0.22647259,
        -0.43011594,
        -0.22775494,
        -0.41773534,
        -0.2582039,
        -0.22955279,
        0.023590669,
        -0.45917493,
        -0.4198262,
        0.44941854,
        -0.4324223,
        0.20206605,
        -0.14286791,
        -0.19347598,
        0.036244024,
        0.02925149,
        -0.27328306,
        0.019311948,
        -0.07385792,
        0.067413755,
        -0.2320643,
        -0.18455549,
        -0.047596607,
        -0.17418891,
        -0.36922005,
        0.31531572,
        0.12696445,
        -0.3684347,
        -0.050601363,
        -0.07995418,
        -0.6520537,
        0.22323418,
        0.39063674,
        -0.2313004,
        0.10350868,
        -0.17194684,
        -0.45202073,
        0.00013304692,
        0.13619933,
        -0.21971655,
        0.2162688,
        0.20317666,
        -0.15233767,
        -0.104006805,
        0.10659151,
        -0.17318854,
        -0.4352347,
        0.21523999,
        0.13648288,
        0.19592665,
        0.28666952,
        -0.24270624,
        -0.24405557,
        0.17388238,
        -0.03597952,
        -0.03793696,
        -0.32452327,
        0.18845594,
        0.038291894,
        -0.57351387,
        0.27269644,
        -0.16024472,
        -0.2937662,
        -0.15876575,
        0.15790267,
        0.0015376238,
        -0.025493946,
        -0.34051314,
        -0.50104886,
        -0.15468295,
        -0.44616795,
        -0.609355,
        -0.40814632,
        -0.47844276,
        -0.14802304,
        0.1819159,
        -0.2996389,
        -0.3459792,
        -0.12887412,
        -0.100374825,
        0.044817835,
        -0.37891906,
        0.020505266,
        -0.003484131,
        -0.0102075655,
        -0.5251863,
        -0.08747509,
        -0.61034226,
        -0.15412273,
        0.032861218,
        -0.03767982,
        -0.005841777,
        -0.33033356,
        0.12774739,
        0.10245993,
        -0.06821765,
        -0.13344899,
        -0.6127087,
        -0.16090311,
        -0.36619735,
        -0.09770686,
        0.014439955,
        -0.6127512,
        0.101534784,
        -0.16368598,
        0.06537574,
        -0.08191253,
        -0.29826838,
        0.26424962,
        0.32165706,
        0.0033252994,
        -0.5528269,
        -0.31608397,
        0.33710086,
        0.14783184,
        -0.120861776,
        -0.24202827,
        -0.64266825,
        0.09939493,
        0.1408653,
        -0.26800916,
        -0.17240117,
        -0.35825455,
        0.3605627,
        0.19317836,
        -0.23547454,
        0.3420747,
        0.062023398,
        -0.69059956,
        -0.17143698,
        -0.031162499,
        0.20831923,
        -0.43659613,
        -0.14357804,
        -0.15834378,
        -0.23714937,
        0.10689202,
        -0.04270733,
        -0.18791142,
        -0.37842304,
        -0.48178846,
        -0.25453338,
        0.026291516,
        -0.16694792,
        0.13303986,
        -0.2870633,
        -0.115654714,
        -0.29007202,
        0.07308447,
        -0.28173882,
        0.45082432,
        0.017294165,
        0.111000836,
        0.30591133,
        -0.22063947,
        -0.3002978,
        0.20519243,
        -0.399163,
        -0.19928493,
        0.563028,
        -0.20440099,
        0.09040473,
        -0.044305325,
        -0.7596618,
        -0.14576584,
        -0.0620387,
        -0.24536484,
        0.27383673,
        -0.088740736,
        -0.34459314,
        0.4652041,
        0.1624194,
        -0.09116488,
        -0.31365883,
        -0.12177254,
        -0.4787864,
        -0.48551604,
        0.63845915,
        -0.20042115,
        0.78009874,
        0.0006739242,
        -0.0045986595,
        -0.3645341,
        -0.090377726,
        -0.2626849,
        0.18860959,
        -0.40532055,
        0.04510939,
        -0.032781877,
        0.27668017,
        0.411446,
        -0.010142885,
        -0.1512221,
        -0.842416,
        0.15524606,
        -0.01973727,
        0.06529555,
        0.42079884,
        -0.8587546,
        -0.1762926,
        -0.008155357,
        0.16524832,
        -0.64609754,
        -0.7843855,
        -0.29983926,
        0.16324817,
        -0.18989529,
        -0.28136662,
        -0.5119669,
        0.16628939,
        -0.037437394,
        -0.41216713,
        -1.147811,
        -0.06176521,
        0.54791117,
        -0.14191902,
        0.03194894,
        -0.002725245,
        0.53608125,
        -0.57869565,
        -0.16563863,
        0.19949378,
        -0.011180832,
        -0.13092983,
        -0.40940338,
        0.53587323,
        0.38045815,
        -0.16145752,
        0.28165486,
        -0.14289257,
        0.07325452,
        -0.021217419,
        -0.7488437,
        0.043004937,
        -0.39184862,
        0.17273673,
        -0.50404006,
        0.3592936,
        -0.14352666,
        -0.66498685,
        -0.81300896,
        -0.58980554,
        0.07651177,
        0.14744212,
        0.23282714,
        0.3846939,
        0.009622052,
        0.11960969,
        -0.29915005,
        -0.71839976,
        0.6515437,
        0.25153822,
        0.36835802,
        -0.15882178,
        0.05931521,
        -0.4240217,
        -0.52880496,
        0.14216569,
        0.3708757,
        -0.8236436,
        -0.5963512,
        0.09796846,
        -0.14760898,
        0.122789904,
        0.24184218,
        0.3690339,
        -0.025951989,
        -0.06900722,
        -0.2020276,
        0.15427542,
        -0.28182238,
        -0.098581105,
        -0.09344257,
        -0.19216442,
        -0.24672799,
        -0.43364775,
        -0.17380473,
        -0.056286223,
        0.9626119,
        -0.022146942,
        -0.013246291,
        -0.18698123,
        -0.16435441,
        0.038079873,
        -0.14073667,
        -0.16296738,
        -0.40828335,
        0.23438554,
        0.071427025,
        -0.43034783,
        -0.22542779,
        -0.37590235,
        0.7509189,
        0.12095183,
        -0.17511056,
        -0.2833566,
        0.2829454,
        0.11860085,
        -0.22507216,
        -0.029708054,
        0.082314394,
        0.1332458,
        0.3207007,
        -0.42877397,
        -0.33628073,
        0.23386699,
        -0.20327643,
        -0.3393357,
        -0.13028878,
        0.16399787,
        0.5568784,
        -0.6118855,
        -0.3178475,
        0.3373627,
        0.005940823,
        0.26021233,
        -0.50652355,
        0.09871328,
        -0.4681371,
        0.4253821,
        0.33446524,
        -0.60002124,
        -0.009194061,
        -0.8430059,
        -0.08192691,
        0.46673852,
        -0.010109871,
        -0.2451374,
        -0.108504534,
        -0.3647782,
        0.029707408,
        -0.09793102,
        -0.47482568,
        0.049821727,
        -0.25405306,
        0.024579398,
        0.16846801,
        -0.065845005,
        -0.12197899,
        -0.2810782,
        -0.4973523,
        0.5901362,
        -0.1368654,
        -0.21106797,
        -0.62599164,
        -0.1774278,
        0.3410516,
        0.039922006,
        0.11768749,
        -0.40417144,
        -0.002979505,
        0.24793123,
        -0.3709857,
        -0.5460261,
        -1.072636,
        -0.19660436,
        -0.60324126,
        -0.17992005,
        -0.3744731,
        0.16189757,
        -0.59735644,
        -0.46034646,
        0.15683918,
        0.010273319,
        0.0013196096,
        0.8425808,
        -0.2865882,
        0.19844924,
        -0.36568907,
        -0.32006052,
        -0.17343277,
        -0.741682,
        0.017979765,
        0.06250773,
        -0.25724936,
        0.115427114,
        0.6971067,
        0.11827527,
        -0.3417244,
        0.010471083,
        -0.021264723,
        -1.071289,
        -0.74549454,
        0.34041104,
        0.31230387,
        -0.14458343,
        0.053668577,
        -0.61864823,
        -0.58601224,
        0.3378619,
        0.11071883,
        -0.116907045,
        -0.26850212,
        0.19917722,
        -0.36789638,
        -0.053063773,
        -0.42488247,
        0.35787198,
        -0.075696535,
        -0.011828727,
        -0.084993795,
        0.8425314,
        0.10075663,
        -0.39346611,
        0.1290584,
        -0.44509304,
        0.15614225,
        0.15219182,
        -0.33123335,
        -0.42879048,
        0.5397218,
        0.2738946,
        0.12120757,
        -0.2205591,
        0.3961052,
        0.21653773,
        0.14699425,
        0.1084154,
        -0.15810537,
        -0.03759212,
        0.11837363,
        -0.024784826,
        -0.39562798,
        -0.15934633,
        -0.0053029656,
        -0.11683322,
        -0.20470482,
        0.39604488,
        -0.2535187,
        -0.041327536,
        -0.311542,
        -0.028373234,
        -0.105974786,
        -0.70835197,
        0.0071538244,
        0.04837781,
        -0.21611302,
        -0.4388586,
        0.0937982,
        -0.14559335,
        -0.40088534,
        -0.17345926,
        0.079379514,
        0.14014232,
        0.32243806,
        -0.7277584,
        -0.6995698,
        -0.10004608,
        0.003517082,
        0.02784092,
        -0.145995,
        -0.220933,
        -0.13632925,
        -0.069739535,
        0.10281721,
        -0.047590844,
        0.35414425,
        0.35697657,
        -0.29534534,
        -0.09208205,
        -0.0046187458,
        0.10165407,
        0.10221458,
        0.48952076,
        -0.22170247,
        0.16107513,
        0.2942313,
        0.32325074,
        -0.0405417,
        0.18760788,
        -0.16560209,
        0.09813493,
        -0.63448393,
        -0.88521856,
        0.25645357,
        -0.18881229,
        0.441641,
        -0.06786678,
        0.05505991,
        0.015853597,
        -0.20053506,
        -0.23943129,
        -0.24618886,
        0.06276441,
        0.018087467,
        0.051004637,
        -0.61656743,
        -0.25378582,
        0.20970108,
        -0.020464841,
        -0.12718455,
        0.11137426,
        0.08429343,
        0.18176699,
        0.30862743,
        -0.14852872,
        -0.14360668,
        -0.107654124,
        0.24263516,
        0.36967131,
        -0.6383991,
        -0.14072832,
        -0.08704251,
        0.03395822,
        -0.055225745,
        -0.3402834,
        0.22515142,
        0.23239335,
        -0.16524206,
        -0.18514062,
        -0.42363715,
        -0.12911329,
        -0.300013,
        -0.8225879,
        -0.25617918,
        -0.051285226,
        0.022900917,
        -0.46626818,
        -0.28425053,
        0.109392986,
        0.023606358,
        0.060130183,
        -0.174067,
        0.2291535,
        -0.346052,
        -0.047849525,
        0.26254207,
        -0.041845553,
        -0.13237454,
        -0.025560686,
        -0.14750597,
        -0.26305643,
        -0.14708687,
        0.41658843,
        -0.18496719,
        0.34925932,
        -0.12835376,
        0.2638152,
        -0.04829908,
        0.18326662,
        0.0026179128,
        0.0378062,
        0.109624,
        0.19753188,
        0.53462994,
        -0.37340054,
        -0.27766293,
        0.05381206,
        0.26278433,
        -0.22533251,
        0.088210076,
        0.13285504,
        0.2391002,
        0.22180991,
        0.1081699,
        0.0064836172,
        -0.63621354,
        0.19803216,
        -0.24424382,
        -0.2406596,
        -0.4938321,
        -0.54135394,
        0.6711036,
        0.38111225,
        0.34773135,
        0.393715,
        -0.3886791,
        0.009612375,
        0.11698069,
        -0.37213245,
        -0.20781668,
        -0.5530589,
        0.071861826,
        -0.33563244,
        -0.13805707,
        0.011045615,
        0.50606394,
        -0.30576953,
        -0.08879181,
        0.024922373,
        -0.02043383,
        0.022317281,
        0.14316,
        0.14999615,
        0.063096106,
        0.20715304,
        -0.27337268,
        0.29407504,
        -0.27315852,
        0.36462578,
        0.34003392,
        0.13036339,
        -0.124216765,
        -0.23567414,
        0.20389798,
        0.20768625,
        0.14275035,
        -0.12926912,
        0.37717113,
        1.3529663,
        0.31938627,
        -0.21962696,
        -0.10185696,
        -0.05155215,
        -0.0142314695,
        -0.56512076,
        0.11762697,
        -0.46564308,
        0.029928237,
        -0.95244867,
        0.1313738,
        -0.048558705,
        -0.17352542,
        0.7463234,
        0.038074564,
        0.24984188,
        -0.1611303,
        -0.45233598,
        -0.97816014,
        -0.16347644,
        0.66525584,
        -0.15047623,
        0.419201,
        0.65762454,
        -0.15278712,
        -0.7871957,
        -0.40660897,
        -0.16226572,
        -0.98132807,
        -0.35028756,
        -0.23710504,
        -0.059914667,
        1.2198896,
        -0.35436606,
        0.17764807,
        -0.09219846,
        -0.13360527,
        -0.22323854,
        -0.35481748,
        -0.37306926,
        -0.36502853,
        0.7634843,
        -0.085671954,
        -0.4059147,
        0.10235038,
        -0.04690414,
        -0.06840504,
        0.26195958,
        -0.28059584,
        0.19449514,
        -0.48507914,
        -0.4140417,
        0.21335106,
        1.6001061,
        -1.8155311,
        -0.18392177,
        0.59754837,
        -0.10223684,
        0.6712224,
        -0.022344563,
        0.2103867,
        0.2759151,
        0.23126142,
        -0.16525792,
        -0.6679774,
        0.13395907,
        -0.16384222,
        -0.018246513,
        0.024311045,
        0.060899694,
        -0.15150554,
        -0.044213556,
        -0.97344214,
        0.34212047,
        0.109196275,
        -0.38292,
        -0.31721544,
        -0.17687817,
        0.32574227,
        -1.001257,
        -0.12093801,
        0.87862575,
        -0.1028357,
        -0.75729364,
        0.08189703,
        0.16652508,
        -0.19159408,
        0.06090389,
        0.14531612,
        0.3132696,
        -0.7715376,
        -0.34142458,
        0.31553218,
        -0.23147771,
        0.5714399,
        -0.18199685,
        -0.77071005,
        0.1075618,
        0.36467,
        0.5522078,
        0.14205626,
        0.5819945,
        -0.7829061,
        0.482437,
        0.5653645,
        0.8355385,
        -0.73934954,
        0.1441197,
        0.035301603,
        0.39550498,
        -0.32803664,
        0.115181066,
        -0.30682015,
        -0.023282139,
        0.042890545,
        -0.52157074,
        -0.1464705,
        -0.014515483,
        -0.35749722,
        -0.34150222,
        0.063714065,
        0.056606255,
        -0.19782016,
        -0.2080705,
        -0.0874654,
        0.3743662,
        0.10514553,
        -0.19789492,
        0.32482645,
        -0.6534672,
        0.33829144,
        -0.25173384,
        -0.17472212,
        -0.9017731,
        -0.23714265,
        0.012169882,
        -0.39361793,
        -0.3968276,
        -0.27289414,
        -0.6526719,
        -0.3005961,
        0.3634252,
        -0.1506606,
        -0.44607455,
        -0.3872709,
        0.11709301,
        0.03870289,
        -0.28690043,
        -0.25407496,
        -0.38261116,
        0.018275514,
        0.0054985904,
        0.16726069,
        -0.3593695,
        0.304928,
        -0.03023425,
        -0.041907378,
        -0.45839384,
        -0.15704633,
        0.27273887,
        -0.3202001,
        -0.059222825,
        0.38409996,
        -0.5392313,
        0.063655965,
        -0.77431,
        -0.10452568,
        0.1833747,
        -0.81930554,
        -0.52267677,
        -0.8101134,
        -0.2700361,
        -0.853104,
        -0.28312305,
        -0.51261246,
        -0.04455264,
        -0.12753889,
        0.3532456,
        0.020634124,
        -0.69728166,
        -0.13216807,
        -0.12025502,
        0.041311905,
        0.59509176,
        -1.2045096,
        0.14377598,
        -0.23301508,
        -0.5364282,
        0.33755487,
        -0.19152594,
        -0.3737775,
        -0.121167384,
        0.50998753,
        -0.8475329,
        -0.37524712,
        -0.037443582,
        0.16109392,
        -1.0119704,
        -0.13710414,
        -0.58238775,
        -0.4842527,
        0.15768859,
        0.1679381,
        0.24942471,
        0.12322958,
        0.2196209,
        -0.6249191,
        -0.8110749,
        -0.36370024,
        -0.12761201,
        -0.8635342,
        -0.09964711,
        0.010732355,
        0.25707424,
        0.13315852,
        -0.16936053,
        -0.19869833,
        -0.40261474,
        -0.394979,
        -0.1439267,
        0.1105184,
        -0.062408704,
        -0.4132646,
        -0.36689907,
        -0.08965247,
        0.3747666,
        -0.47785643,
        0.39798635,
        -0.31206247,
        0.09440614,
        -0.6171646,
        -0.5163348,
        -0.29090834,
        0.13471317,
        -0.40075752,
        -0.032669466,
        -0.13399418,
        -0.0101323975,
        0.44817024,
        -0.14714573,
        -0.71238244,
        -0.24194203,
        -0.14602676,
        -0.43144253,
        -0.07312551,
        -0.18130976,
        0.062749274,
        0.021592997,
        -0.22956847,
        0.066935286,
        0.13766004,
        0.16850197,
        0.4866228,
        0.061185867,
        0.13483377,
        0.2293193,
        -0.0056879125,
        0.10752825,
        0.077343315,
        -0.29074264,
        -0.60398877,
        -0.45414758,
        0.71989846,
        0.36586246,
        -0.13057907,
        0.09244417,
        0.00091440656,
        -0.24006107,
        -0.36981213,
        -0.27043477,
        -0.07014705,
        0.05473786,
        -0.25017628,
        -0.51151717,
        0.22808449,
        -0.2575935,
        0.07700626,
        -0.05866872,
        -0.15778215,
        -0.47572684,
        -0.03314975,
        -0.65675336,
        -0.30356285,
        0.32155126,
        0.26456875,
        -0.3373563,
        -0.39820462,
        0.35090816,
        0.50403756,
        -0.031104164,
        0.07171207,
        0.3442898,
        -0.9051316,
        -0.07126974,
        -0.23491202,
        0.5877659,
        0.10119035,
        -0.32938376,
        0.37878832,
        0.07304954,
        -0.028395807,
        0.113224216,
        0.5234364,
        0.18829283,
        -0.053837854,
        -0.42243147,
        -0.219993,
        -0.48418468,
        -0.006126502,
        -0.423016,
        0.44016245,
        -0.092817724,
        -0.50622,
        -0.2989889,
        -0.030409947,
        -0.03636765,
        0.27394256,
        -0.3946331,
        0.0076074596,
        -0.4201537,
        0.15287878,
        0.15328048,
        0.011416218,
        0.21355896,
        -0.15288886,
        0.3580253,
        0.4195211,
        0.17667335,
        0.06511403,
        0.42703536,
        0.05570163,
        -0.018209415,
        -0.43752643,
        0.29334655,
        0.56706804,
        -0.19221479,
        -0.1054093,
        0.49963295,
        0.034736235,
        0.07095235,
        -0.06629904,
        0.09188289,
        -0.044749454,
        -0.36713755,
        0.30662596,
        -0.52303153,
        -0.014621505,
        0.035120323,
        -0.30337784,
        -0.23798066,
        0.16234463,
        -0.21921727,
        0.39336607,
        -0.16565575,
        0.1404964,
        -0.26820305,
        -0.6597043,
        -0.33515888,
        0.112894416,
        0.050553713,
        0.14967129,
        0.45787284,
        -0.27754602,
        0.03035817,
        -0.40138367,
        0.20843178,
        0.100023665,
        -0.24671334,
        0.049486343,
        0.21186022,
        -0.69967496,
        0.69074965,
        0.108694136,
        -0.34752017,
        0.19542451,
        -0.15331934,
        0.30591536,
        0.15021013,
        -0.4429934,
        -0.20182735,
        0.43000296,
        -0.13498099,
        0.65039134,
        -0.37755346,
        -0.14062417,
        -0.12127684,
        0.027769707,
        0.8391268,
        -0.18683757,
        0.43265215,
        0.22785096,
        -0.10102251,
        0.1814123,
        -0.06214594,
        0.47492683,
        -0.08034383,
        -0.48371473,
        0.0813119,
        0.25439775,
        -0.18284334,
        -0.40156877,
        -0.23457839,
        -0.67593217,
        -0.43251905,
        -0.41073003,
        0.09661733,
        -0.7261552,
        0.5040554,
        -0.25979796,
        0.043274686,
        -0.28492105,
        -0.17223734,
        -0.10641296,
        -0.12932791,
        -0.3107067,
        -0.039331995,
        -0.05790546,
        0.15421931,
        0.15936115,
        0.1017887,
        -0.4398238,
        0.08500447,
        -0.34069633,
        -0.0067851334,
        0.09436799,
        0.08512153,
        -0.087113604,
        -0.2582881,
        -0.295251,
        -0.19984473,
        -0.13431261,
        -0.07280797,
        0.21940145,
        -0.04038592,
        -0.024743646,
        -0.06662362,
        -0.30798104,
        -0.1823895,
        0.15237902,
        0.061362185,
        0.09491668,
        -0.09315339,
        -0.087002985,
        -0.13994461,
        -0.027616374,
        -0.35976171,
        -0.30785003,
        0.026036927,
        -0.5938104,
        -0.19631283,
        -0.2375839,
        0.3007201,
        -0.07433447,
        -0.42105383,
        -0.12198141,
        -0.021349793,
        -0.33834493,
        -0.32851177,
        -0.076776,
        0.02494418,
        -0.354486,
        0.029810283,
        0.075528316,
        -0.1159305,
        -0.07836733,
        -0.13013344,
        0.023969261,
        0.11615049,
        -0.54128253,
        -0.6199338,
        -0.06275019,
        -0.021562427,
        -0.13298452,
        -0.25625476,
        -0.18685721,
        -0.016597634,
        -0.024293547,
        -0.40062118,
        -0.05426452,
        -0.19903103,
        0.1859292,
        0.21090424,
        -0.04425258,
        -0.12314854,
        -0.16078308,
        -0.20383221,
        0.01324861,
        0.30501777,
        -0.03475748,
        0.36853,
        0.24072549,
        -0.36914766,
        0.0041217073,
        -0.19455749,
        -0.14963378,
        0.096410334,
        -0.22627081,
        -0.60922205,
        0.020097986,
        0.08043056,
        -0.007863345,
        0.04326353,
        -0.48529437,
        -0.44315448,
        -0.1114867,
        -0.007325005,
        -0.52564865,
        -0.2148667,
        -0.7229396,
        0.014091165,
        -0.23884903,
        -0.41543266,
        0.03127126,
        -0.20391788,
        -0.21776316,
        0.083703436,
        -0.23231207,
        -0.12821905,
        -0.23438747,
        -0.059650198,
        -0.20121785,
        -0.31058016,
        0.087790176,
        -0.14106137,
        -0.29505864,
        -0.44545215,
        0.07709039,
        0.04796377,
        -0.14444293,
        -0.2649323,
        -0.20482668,
        0.3090906,
        -0.14826085,
        0.10137213,
        -0.22624044,
        0.19505492,
        -0.09560302,
        -0.5182483,
        -0.034017906,
        -0.19280772,
        0.19635059,
        -0.7299347,
        -0.43525252,
        -0.016104285,
        -0.4017495,
        0.15487267,
        -0.11223627,
        -0.012066184,
        0.003275436,
        0.124503605,
        -0.009210536,
        -0.15981622,
        0.10715558,
        0.13373505,
        -0.13541365,
        -0.09873567,
        -0.13099474,
        -0.1878794,
        -0.190027,
        0.052358586,
        -0.08135511,
        -0.29281992,
        -0.31477275,
        0.13424501,
        -0.046815053,
        -0.0211335,
        -0.03565767,
        0.15392497,
        -0.19643371,
        -0.3537905,
        -0.15028095,
        0.16900258,
        -0.23918413,
        0.011919108,
        0.09640217,
        -0.0055736084,
        -0.0010478174,
        -0.12618034,
        0.17545132,
        -0.09442643,
        -0.1759295,
        0.064229585,
        -0.20563875,
        -0.07806794,
        -0.0073985346,
        -0.2936699,
        -0.023590514,
        -0.17945835,
        -0.4252448,
        -0.022455601,
        -0.3315506,
        0.03665542,
        -0.14437804,
        -0.31186196,
        -0.22952674,
        0.0030848081,
        -0.10301295,
        -0.04708626,
        -0.12037963,
        -0.17293014,
        0.006910382,
        -0.21118355,
        -0.045770776,
        0.012753882,
        -0.041078303,
        -0.080838256,
        -0.3476788,
        -0.12218244,
        0.054983605,
        0.1263053,
        0.083755456,
        -0.24952042,
        0.05960103,
        -0.05074746,
        -0.35097072,
        0.04160033,
        0.013644903,
        0.011262107,
        0.104622364,
        -0.03636344,
        -0.19282328,
        -0.07830623,
        -0.44891602,
        -0.49997902,
        -0.34499016,
        0.35852838,
        -0.08440021,
        -0.22986136,
        0.015404258,
        0.13730706,
        -0.16033615,
        -0.24696669,
        -0.015341132,
        0.05343329,
        -0.52731943,
        0.2973108,
        0.16177699,
        0.11905896,
        0.14369088,
        -0.07234653,
        -0.28118557,
        -0.40229803,
        0.14897682,
        -0.13107467,
        0.60716784,
        0.44331062,
        -0.19953999,
        0.009060233,
        -0.25711098,
        -0.09212528,
        0.13472933,
        -0.11586049,
        0.44072834,
        -0.09414454,
        0.14458665,
        0.6926238,
        -0.11736555,
        -0.8977243,
        0.43341756,
        -0.32018623,
        0.44372204,
        0.09269741,
        -0.14373323,
        -0.11349177,
        0.03714092,
        -0.3696863,
        -0.345956,
        -0.237584,
        0.010298223,
        0.09058257,
        -0.026105093,
        -0.21970695,
        -0.15482682,
        -0.35197562,
        -0.07142605,
        0.08141192,
        -0.28935856,
        -0.2113308,
        0.42333582,
        -0.28031293,
        -0.030099723,
        -0.01677273,
        -0.11918262,
        0.1873494,
        0.033411983,
        -0.39263165,
        -0.047055315,
        -0.037341524,
        -0.27613062,
        -0.56410444,
        0.069518805,
        0.1971903,
        -0.102830306,
        -0.011391269,
        0.13331705,
        -0.1289078,
        -0.26671413,
        -0.3739923,
        -0.42545506,
        -0.123088345,
        0.24646044,
        -0.3811118,
        0.07535153,
        0.16674572,
        0.011689315,
        0.15834315,
        -0.08441842,
        0.28083152,
        -0.8076677,
        0.08382487,
        0.40137216,
        -0.51970375,
        -0.048293855,
        -0.25117084,
        0.019144334,
        0.12884644,
        -0.062166214,
        0.49516577,
        0.59832317,
        0.12809718,
        0.24490616,
        0.15356082,
        0.16354331,
        -0.3370125,
        -0.11016263,
        -0.1106067,
        0.25390348,
        -0.26562217,
        -0.33245412,
        0.28276756,
        0.11258552,
        -0.44607392,
        -0.15299106,
        0.16730274,
        -0.20447448,
        0.1746093,
        -0.21181308,
        -0.12088769,
        -0.05076378,
        -0.357867,
        0.17386506,
        -0.34057534,
        -0.16320387,
        -0.25127584,
        0.31413278,
        -0.26019597,
        0.21793133,
        0.12772019,
        0.029200686,
        -0.13272025,
        0.30896947,
        0.06850651,
        0.094503164,
        -0.25167966,
        0.20811927,
        -0.026953286,
        -0.039346278,
        -0.1100894,
        -0.323544,
        0.562032,
        0.38323817,
        -0.35373056,
        0.23716603,
        0.11170786,
        0.20558505,
        0.10653459,
        -0.15694527,
        -0.08749616,
        -0.07136101,
        0.37008986,
        0.12959614,
        -0.42182842,
        -0.82030225,
        0.35571438,
        -0.15336555,
        -0.3134263,
        0.6479027,
        -0.33817405,
        0.121209405,
        -0.20388614,
        0.2457306,
        0.030922256,
        0.03705211,
        -0.036011297,
        0.011958384,
        0.09368179,
        0.025452446,
        0.16410491,
        0.26236647,
        -0.1620741,
        0.033545133,
        0.040002424,
        -0.14024192,
        0.10036632,
        0.027709834,
        0.3120333,
        -0.022824137,
        -0.12683716,
        -0.43249068,
        -0.37233204,
        -0.28038678,
        -0.38655972,
        0.23704979,
        -0.16331553,
        -0.16553077,
        0.37496427,
        0.24133673,
        -0.58643615,
        0.19037387,
        -0.13366802,
        -0.16788226,
        0.33115748,
        -0.028231997,
        -0.3977965,
        0.065514795,
        -0.35141677,
        0.08435886,
        -0.054543156,
        -0.20063902,
        0.0017315272,
        0.067479506,
        -0.1362429,
        0.06614862,
        0.15192951,
        0.038557112,
        -0.106171526,
        -0.3547526,
        -1.0936831,
        -0.56676733,
        0.35731304,
        0.12147041,
        -0.5125574,
        -0.4007891,
        -0.1436372,
        -0.43399498,
        -0.42796,
        0.028604537,
        0.22007045,
        0.38467348,
        0.34830248,
        -0.16539554,
        1.202666,
        -0.12840708,
        -0.20702021,
        0.18693073,
        -0.79963285,
        0.45284614,
        -0.28768238,
        -0.21610875,
        -0.38999912,
        0.838407,
        -0.1569156,
        0.49392462,
        -0.052380264,
        0.15759486,
        0.029975286,
        0.30424604,
        -0.104158655,
        -0.3978974,
        -0.1531531,
        0.544817,
        0.12045684,
        -0.5650047,
        0.28575936,
        -0.34108943,
        -0.71287614,
        -0.37876648,
        0.19047044,
        -0.29255065,
        -0.05451604,
        -0.7219492,
        -0.33513173,
        0.23540378,
        -0.5811109,
        0.36946368,
        -0.37003902,
        0.30651,
        0.15544778,
        0.008665447,
        -0.37334806,
        0.67510337,
        -0.5649721,
        -0.8656252,
        -0.2324689,
        0.72802734,
        -0.34693804,
        -1.043843,
        0.11508361,
        0.0054561608,
        0.067701384,
        -0.1904254,
        -0.45070618,
        0.0024318153,
        -0.69318247,
        -0.3759272,
        -0.17924647,
        -0.25027537,
        -0.1793818,
        0.31002098,
        0.1396662,
        -0.1581529,
        0.07150902,
        -0.35113183,
        0.39746806,
        0.5084327,
        -0.5401622,
        0.17668295,
        0.4429352,
        0.6692954,
        0.71843356,
        0.25505427,
        -0.064020626,
        0.5836225,
        -0.98436624,
        0.57476664,
        0.17851917,
        0.8403081,
        -0.099995695,
        0.45209315,
        0.42327434,
        -0.3608375,
        0.11205527,
        0.6845422,
        0.9513569,
        0.21931486,
        0.21642417,
        0.3904974,
        0.20258377,
        -0.36045003,
        0.07368244,
        0.48001912,
        0.27515164,
        0.5852923,
        -0.22481425,
        0.3075839,
        -0.30140027,
        0.12690103,
        -0.5079266,
        -0.13323438,
        -0.02631787,
        -0.77115655,
        -0.047866616,
        0.04593514,
        0.4778075,
        0.036025807,
        -0.29002202,
        0.13129506,
        0.4174227,
        0.34429637,
        -0.49546385,
        -0.5469549,
        -0.7980055,
        0.18184687,
        -1.6194539,
        -0.7906227,
        0.1495873,
        -0.052992214,
        -0.651786,
        -0.42815754,
        0.399524,
        0.5305752,
        0.2535115,
        0.1523782,
        0.24226427,
        0.09039196,
        0.104952775,
        0.51281905,
        0.090965636,
        0.69807583,
        0.0910663,
        0.7628554,
        0.18054773,
        -0.40497702,
        0.001932811,
        -0.83033705,
        0.04043938,
        -0.016795265,
        0.7814074,
        -0.4451067,
        0.07149191,
        -0.066024676,
        -0.0018708846,
        -0.697802,
        -0.1932911,
        0.28907728,
        1.0047239,
        -0.75867385,
        0.18718901,
        -0.082814045,
        -0.3254659,
        0.25153354,
        0.5532704,
        0.4992981,
        0.28555837,
        0.25666088,
        0.32295245,
        -0.43075827,
        -0.10613325,
        0.43097723,
        0.22055647,
        -0.8072599,
        -0.7355886,
        0.13150023,
        0.77633137,
        0.26440656,
        0.08430621,
        -0.48428965,
        -0.31124106,
        -0.18043818,
        0.13223635,
        0.26518527,
        0.36360055,
        -0.22451483,
        -0.34838626,
        -0.37210885,
        -0.7891617,
        0.12312735,
        -0.19093916,
        0.24122457,
        0.19593449,
        -0.20743729,
        0.017943447,
        0.22300285,
        0.1519722,
        -0.48232308,
        0.48099,
        -0.43243524,
        0.39204955,
        -0.10332693,
        0.41621926,
        0.92800516,
        -0.3293114,
        -0.31584978,
        0.029623307,
        -0.06680299,
        -0.050524686,
        -0.22670744,
        -0.14097089,
        -0.3530869,
        -0.4571902,
        -0.11290712,
        0.27117345,
        -0.12413256,
        -0.23523344,
        -0.123667486,
        -0.10800714,
        -0.13381697,
        0.039612424,
        -0.12248246,
        0.30884096,
        0.042805705,
        -0.25963435,
        0.17162928,
        -0.19459489,
        0.0000800472,
        -0.360664,
        0.059316646,
        -0.14268099,
        -0.28689238,
        0.0074985493,
        -0.37319094,
        0.30403745,
        -0.25367773,
        -0.17867562,
        -0.6850688,
        0.16654745,
        0.35696125,
        -0.12558974,
        0.04000251,
        -0.27768472,
        0.02499904,
        -0.02390136,
        -0.10167146,
        -0.0023946892,
        -0.12458023,
        0.07847502,
        0.16329454,
        -0.055361982,
        -0.36312428,
        -0.26635158,
        -0.015269118,
        0.058240652,
        0.3372947,
        0.17724143,
        -0.00039382433,
        0.11024945,
        -0.0483183,
        -0.325979,
        -0.31186575,
        -0.29761505,
        -0.018074118,
        0.046166383,
        -0.3688554,
        -0.42489013,
        -0.04768897,
        -0.58139807,
        -0.15531752,
        -0.07820116,
        -0.1115241,
        0.06130358,
        -0.061699983,
        0.030398777,
        -0.21170782,
        0.26242343,
        -0.058981705,
        -0.3729518,
        0.089328565,
        0.07856739,
        0.124231495,
        -0.29948613,
        -0.0813532,
        -0.011193465,
        -0.36292985,
        0.07330551,
        0.09442016,
        -0.23981826,
        -0.46248958,
        -0.45691657,
        0.24412133,
        -0.059663773,
        0.26029992,
        -0.005678265,
        -0.055091593,
        0.1278633,
        -0.9608949,
        0.048977163,
        0.042621177,
        -0.3781738,
        -0.100087576,
        -0.28168175,
        -0.10690342,
        -0.1574636,
        -0.18315552,
        0.033582546,
        -0.3303121,
        0.17894755,
        0.015142643,
        -0.21962804,
        0.12872386,
        -0.2718137,
        0.061370123,
        -0.4190889,
        -0.18920913,
        -0.22674695,
        0.00086962647,
        -0.28570145,
        0.11713581,
        -0.30144528,
        -0.14349328,
        -0.23901628,
        -0.3006544,
        0.30951017,
        -0.024978114,
        0.32126373,
        -0.38329497,
        0.19880724,
        0.07488108,
        -0.4565968,
        -0.053711433,
        0.38955465,
        -0.09181692,
        -0.59862214,
        0.13194881,
        -0.26336682,
        -0.07068441,
        -0.14431725,
        0.031148084,
        -0.11145765,
        0.12946889,
        0.16983514,
        0.062070888,
        0.31252053,
        -0.5149592,
        -0.07252327,
        0.029406048,
        -0.09080276,
        -0.07231328,
        -0.080320366,
        -0.057895854,
        -0.20271501,
        -0.02932502,
        0.060048975,
        -0.20393649,
        0.12255127,
        -0.29332167,
        -0.15519767,
        -0.23281623,
        -0.19162576,
        -0.19491597,
        -0.11397128,
        -0.4207533,
        -0.083763465,
        -0.19077559,
        -0.56295866,
        -0.31013027,
        0.3915853,
        0.31445226,
        0.07174439,
        0.21866478,
        -0.06812372,
        0.09614619,
        0.0013642397,
        -0.20563868,
        -0.18501978,
        -0.09796279,
        0.17445849,
        0.12924007,
        0.28756046,
        -0.0803132,
        -0.8837605,
        0.07061228,
        -0.17679398,
        -0.42902094,
        0.4826284,
        -0.62408644,
        0.07586968,
        -0.22307502,
        -0.4878629,
        0.20990346,
        0.0523707,
        -0.23693427,
        0.0045960024,
        0.30599093,
        -0.2403256,
        0.020285675,
        0.016574683,
        0.0016118851,
        -0.43206376,
        -0.14400168,
        -0.023318635,
        -0.14397442,
        0.06571627,
        0.17157368,
        0.31632197,
        0.027206201,
        0.1922904,
        -0.41496733,
        -0.34616232,
        -0.38333565,
        0.210164,
        0.79342043,
        -0.16476345,
        0.26884747,
        0.18612655,
        0.47668645,
        0.015681248,
        -0.392267,
        -0.1536466,
        -0.14799531,
        0.2581358,
        -0.20544483,
        0.38840225,
        -0.064828426,
        -0.24826568,
        0.012517415,
        -0.17427544,
        -0.09468158,
        0.31357083,
        -0.017529259,
        -0.23916098,
        -0.008398356,
        0.15012391,
        -0.11828486,
        -0.5389392,
        0.6214012,
        -0.083619095,
        -0.6001755,
        0.15989304,
        -0.46070886,
        0.20401594,
        0.13888165,
        -0.40636963,
        -0.6490714,
        -0.55409575,
        0.54462403,
        -0.6305526,
        -0.43234375,
        0.0253245,
        -0.15972869,
        0.062185295,
        0.17931834,
        0.1836673,
        -0.022668019,
        0.0068465765,
        0.00519626,
        -0.012684562,
        -0.36149433,
        0.06766125,
        -0.2309392,
        -0.053152654,
        -0.16316001,
        -0.16831928,
        -0.48153353,
        0.061496463,
        0.0815402,
        -0.10086926,
        -0.25102285,
        -0.15951152,
        0.25724515,
        0.14091918,
        -0.2500649,
        -0.39285648,
        0.50796145,
        -0.06562364,
        -0.28470013,
        0.10462037,
        -0.06447219,
        0.007483383,
        -0.12297544,
        -0.094084114,
        -0.13410014,
        0.18020284,
        0.15797216,
        -0.008431766,
        0.151121,
        -0.04572249,
        -0.16082479,
        -0.46357605,
        -0.09985285,
        0.124612026,
        0.073962614,
        -0.023862178,
        0.122709304,
        -0.13482997,
        -0.20772737,
        -0.22302985,
        0.03308376,
        0.053351752,
        0.13804872,
        -0.6367814,
        0.06253331,
        -0.028038569,
        -0.27525908,
        -0.9141048,
        -0.12634292,
        -0.13472264,
        -0.0687982,
        -0.014344113,
        0.0030644427,
        0.20858777,
        -0.5439859,
        -0.26552698,
        -0.26129326,
        -0.103757635,
        0.013367991,
        -0.52449447,
        -0.15412132,
        0.14839444,
        0.06039255,
        -0.26207936,
        -0.4860015,
        -0.06432159,
        -0.3421673,
        -0.029858021,
        0.19944264,
        0.11862623,
        -0.16905496,
        -0.35537553,
        -0.0027064062,
        -0.112619765,
        0.39466295,
        0.033446822,
        -0.3019336,
        -0.2747632,
        -0.26646647,
        0.3798365,
        0.16773744,
        0.15781973,
        0.045917213,
        -0.04036837,
        -0.058997028,
        -0.33755776,
        0.08411835,
        -0.021647945,
        0.28634578,
        -0.036156427,
        -0.042874157,
        0.1166888,
        0.121074885,
        -0.08574098,
        0.11373572,
        0.17321697,
        -0.08390198,
        -0.047849692,
        -0.24956751,
        -0.2240985,
        0.20480534,
        -0.02235895,
        0.3980053,
        -0.17944492,
        0.35198474,
        -0.009840719,
        -0.8191511,
        0.16461104,
        -0.28480142,
        0.54192895,
        -0.28489277,
        -0.11970779,
        0.067056805,
        0.2737439,
        -0.07452055,
        -0.36507678,
        -0.468915,
        -0.1265895,
        -0.6823042,
        0.10252991,
        -0.2509365,
        -0.09669924,
        0.06913849,
        -0.17817907,
        -0.0808998,
        -0.3096983,
        -0.7031131,
        0.2084363,
        -0.2969934,
        0.19281358,
        0.40133467,
        -0.6532468,
        -0.19251171,
        -0.48380506,
        0.21461353,
        0.086815774,
        0.24322192,
        0.06968943,
        -0.1820184,
        0.0692266,
        0.08273962,
        0.011628658,
        -0.4358013,
        -0.050122473,
        -0.17726833,
        0.06906393,
        -0.098678365,
        0.027520834,
        0.15731047,
        -0.3825912,
        0.06542448,
        -0.2523949,
        -0.17821902,
        0.123729765,
        -0.43729815,
        0.2904167,
        0.2249111,
        -0.42842174,
        -0.09035549,
        -0.55973506,
        -0.22684789,
        -0.085686505,
        0.15670128,
        -0.5527645,
        -0.39230525,
        -0.19711857,
        -0.81901485,
        0.178352,
        -0.35142007,
        -0.37964812,
        0.034114715,
        0.19752678,
        0.13853481,
        -0.12823908,
        0.36899716,
        -0.9965685,
        -0.030884411,
        -0.20386948,
        0.2586153,
        -0.43144035,
        0.10807194,
        0.4036649,
        -0.19552362,
        -0.43650785,
        0.21276298,
        -0.50902534,
        -0.17903164,
        0.36903676,
        0.78373474,
        -0.06265973,
        0.22967137,
        -1.1272712,
        -0.019160442,
        0.5027895,
        0.26969892,
        -0.24051555,
        -0.049243774,
        0.11099488,
        0.8156567,
        -0.62194824,
        -0.55022866,
        0.52982295,
        -0.524971,
        0.43335375,
        -0.36463517,
        -0.3582348,
        0.31935766,
        -0.5466477,
        -0.007922561,
        0.039903946,
        -0.25266126,
        -0.31902665,
        0.26642135,
        0.28991133,
        0.16962683,
        0.71769875,
        0.19137214,
        0.50691986,
        0.60582155,
        -0.026853217,
        0.25240657,
        -0.7716187,
        0.15292035,
        -0.22247618,
        -0.08545543,
        0.1978494,
        0.41570875,
        0.1207675,
        -0.14539264,
        -0.5875206,
        -0.5422962,
        -0.068086736,
        -0.37640926,
        0.08810557,
        -0.7329556,
        -0.36862838,
        -0.25426447,
        0.037091292,
        -0.32645473,
        -0.036660407,
        -0.5745831,
        0.26429978,
        0.7106054,
        -0.55530435,
        -0.17953932,
        0.8339924,
        0.21893857,
        0.24660428,
        0.08531482,
        0.0897857,
        0.64016306,
        -0.24844564,
        0.25430304,
        0.1485732,
        -0.3193265,
        -0.16209953,
        0.26165065,
        0.28179714,
        0.13389096,
        0.10126644,
        0.6011029,
        0.7741987,
        -0.2829362,
        0.09050926,
        -0.45149982,
        -0.22143385,
        -0.47190732,
        0.16708842,
        -0.10892626,
        -0.34755793,
        -0.33642593,
        -0.0072020306,
        0.6989844,
        -0.66391397,
        -0.05397684,
        -0.052909814,
        0.3854047,
        0.15280905,
        -0.8560735,
        -0.10325606,
        0.22530203,
        -0.24561903,
        0.1415604,
        -0.5090041,
        0.43670174,
        0.24784426,
        -0.005106938,
        0.31742826,
        0.47131932,
        -0.9079511,
        0.5485869,
        -0.44962698,
        0.1593476,
        -0.0707881,
        0.23717709,
        0.10440323,
        -0.62818336,
        0.37446755,
        -0.1812092,
        -0.43383405,
        -0.40387833,
        -0.26434225,
        0.49933216,
        -0.17578991,
        0.31372985,
        -0.27661645,
        -0.036156323,
        -0.033491973,
        0.46760562,
        0.24370842,
        -0.24589288,
        -1.551855,
        -0.24762805,
        0.11620565,
        -0.008307951,
        0.20685852,
        -0.5781916,
        0.35465148,
        -0.18077302,
        -0.13929859,
        -0.065425485,
        -0.091963075,
        -0.38217703,
        1.1507215,
        -0.23685853,
        0.38358623,
        0.016695308,
        0.41626847,
        0.07202052,
        0.22710809,
        0.05968441,
        0.46094158,
        -0.29372504,
        -0.09695595,
        -0.56712455,
        0.06908782,
        0.24662393,
        -0.47707197,
        0.323482,
        -0.19082364,
        0.16954914,
        0.16131483,
        0.14772977,
        -0.4145518,
        -0.25401554,
        -0.32116914,
        0.41943333,
        1.057223,
        -0.5476888,
        0.41550374,
        -0.106629476,
        -0.40334448,
        -0.8863343,
        -0.5844765,
        -0.10327388,
        -0.2588936,
        0.25597024,
        0.3121872,
        -0.052982606,
        0.19744419,
        -0.30879375,
        -0.10155366,
        -0.42278984,
        0.010783216,
        0.41653338,
        0.09345386,
        0.13060512,
        0.2744778,
        0.6381862,
        -0.20190358,
        -0.79320484,
        0.16816549,
        0.15666188,
        -0.4019431,
        0.08121585,
        0.1582921,
        -0.32547957,
        -0.57118386,
        -0.4057783,
        -0.097199835,
        -0.35943213,
        -0.37043983,
        -0.3264274,
        -0.09724542,
        -0.52082336,
        0.0337445,
        0.092568874,
        0.30714914,
        -0.14699331,
        0.18427221,
        0.10761527,
        0.14245771,
        -0.06678527,
        -0.4214582,
        -0.11531187,
        -0.21254711,
        -0.08606021,
        0.599789,
        0.4749335,
        0.20036487,
        0.02828134,
        0.1344485,
        0.10554868,
        0.10439427,
        -0.009753988,
        0.13046789,
        0.6398158,
        0.03305236,
        -0.19734578,
        0.18592261,
        -0.41000187,
        -0.8946556,
        0.11064333,
        0.19845513,
        0.34222066,
        0.057413954,
        -0.36300284,
        -0.32684624,
        -0.02277966,
        -0.43618345,
        -0.62342167,
        0.53997487,
        0.016318409,
        -0.22866008,
        0.34776467,
        0.1975247,
        -0.23991796,
        -0.25953,
        0.33632818,
        0.15915911,
        0.044979077,
        -0.24345234,
        0.100925826,
        0.04983274,
        0.18620099,
        -0.02781262,
        -0.3222505,
        -0.69373596,
        -0.2597348,
        -0.19303393,
        -0.22642085,
        -0.33063936,
        -0.013353658,
        0.52434844,
        -0.22524147,
        -0.3964141,
        -0.05431353,
        -0.15339753,
        0.21369927,
        0.28752446,
        0.010477148,
        -0.39112815,
        -0.47000661,
        0.59065914,
        0.35625637,
        -0.31188145,
        0.0832503,
        0.2536694,
        -0.14893329,
        -0.7515572,
        -0.10064231,
        0.32584074,
        -0.22970253,
        0.08981508,
        -0.0037340147,
        -0.09099072,
        -0.25635433,
        -0.19061178,
        -0.27122837,
        0.43294495,
        0.07203304,
        0.19128992,
        -0.44745067,
        -0.15725282,
        0.09440584,
        -0.20759057,
        -0.37198326,
        -0.43118042,
        -0.15693043,
        0.08211369,
        0.23773514,
        -0.5179229,
        -0.93499124,
        -0.085640684,
        0.009695841,
        0.23559602,
        -0.47007608,
        0.09829386,
        -0.09587549,
        0.12337974,
        -0.44900376,
        -0.2000284,
        0.20964757,
        -0.35575807,
        0.032250274,
        -0.15261452,
        -0.43056184,
        0.3461477,
        -0.13904618,
        -0.5481067,
        -0.050486453,
        0.08823789,
        -0.029162757,
        -0.17748536,
        0.21303545,
        0.051216878,
        0.05990304,
        -0.2056586,
        -0.31130454,
        0.34095898,
        0.68552464,
        -0.08433551,
        -0.102640875,
        -0.059393108,
        0.14908317,
        -0.38795742,
        -0.23007524,
        0.097474776,
        0.46675453,
        -0.027691653,
        0.034306474,
        0.28770545,
        -0.02768662,
        0.4523381,
        0.395219,
        -0.25712004,
        -0.7132577,
        -0.21917263,
        -0.12735388,
        -0.1753337,
        0.31004152,
        -0.21609823,
        -0.3347933,
        0.04435772,
        0.12015831,
        0.14176628,
        0.13316405,
        -0.1605036,
        -0.14335291,
        0.0009474755,
        -0.19461986,
        0.020492613,
        -0.44603953,
        -0.17893524,
        -0.18416978,
        -0.2598043,
        0.16666764,
        -0.26159993,
        0.7923715,
        0.1079852,
        0.37272164,
        -0.04641935,
        -0.34267423,
        -0.20348841,
        -0.1902784,
        -0.35758328,
        0.03127041,
        -0.041282527,
        0.041241687,
        0.2310305,
        -0.032066483,
        -0.27706015,
        0.087729946,
        0.022226734,
        0.11421478,
        0.5076315,
        0.044764765,
        -0.31761876,
        0.22212432,
        -0.26684207,
        -0.15887763,
        -0.008884677,
        -0.15980282,
        -0.3492336,
        -0.19911711,
        0.07086036,
        0.037797976,
        0.2847443,
        -0.1781344,
        -0.2662762,
        -0.104255006,
        -0.4693233,
        0.5942884,
        -0.022542667,
        0.08556958,
        -0.14852315,
        0.18888216,
        -0.23080884,
        -0.14585246,
        0.100999326,
        0.24833883,
        0.121065706,
        -0.61843795,
        0.0035604623,
        0.07540904,
        0.0720259,
        -0.2461261,
        0.1156719,
        -0.12339775,
        0.29889897,
        0.115759,
        -0.1284289,
        0.80392146,
        0.16744824,
        -0.27707905,
        0.011730922,
        0.14342043,
        0.10874829,
        -0.12550649,
        0.0013375758,
        -0.16985635,
        0.18602036,
        -0.66989684,
        -0.05702079,
        0.49921083,
        -0.090532795,
        -0.0019889895,
        0.35346287,
        0.44799942,
        -0.22086637,
        -0.023314424,
        0.23892058,
        0.0842448,
        0.033812206,
        0.2559732,
        0.2860861,
        0.23738298,
        0.14281687,
        0.33455864,
        0.44488734,
        -0.36494815,
        0.040152162,
        0.04030472,
        0.05435145,
        -0.04762355,
        -0.3815568,
        0.007680724,
        0.08355531,
        -0.36381793,
        0.12357508,
        0.16400853,
        0.46103537,
        0.38624817,
        0.30228654,
        -0.16148967,
        -0.13723147,
        -0.1747116,
        -0.5688933,
        -0.0036397234,
        0.05509471,
        0.1404584,
        -0.0386731,
        -0.5449826,
        -0.34695396,
        0.42342904,
        -0.25626305,
        0.12621073,
        0.048815455,
        0.15905392,
        0.08991985,
        -0.40821552,
        0.39915788,
        -0.089429975,
        -0.20011662,
        -0.16328289,
        -0.109898165,
        0.13355067,
        -0.22224239,
        0.14772902,
        0.0783977,
        -0.52611005,
        0.021749977,
        0.3268167,
        0.088796824,
        0.5415402,
        0.11912134,
        0.009291884,
        0.0911073,
        -0.3365961,
        -0.00205148,
        0.20033483,
        0.09364651,
        -0.118921034,
        0.027821781,
        -0.07587609,
        0.056254406,
        -0.23584397,
        -0.22809759,
        0.33741552,
        0.016328683,
        -0.17217791,
        0.6166713,
        -0.62122023,
        0.42563125,
        0.07342968,
        0.0319744,
        0.19864264,
        -0.55736876,
        -0.38792184,
        -0.06978242,
        0.1246948,
        0.03381925,
        0.14674109,
        0.21526904,
        0.06669419,
        0.10430868,
        0.17025758,
        0.054942418,
        0.35659766,
        -0.10432309,
        -0.047131952,
        0.24131234,
        -0.22361575,
        -0.10170644,
        0.08783772,
        -0.33995605,
        -0.034018222,
        -0.03535424,
        0.3672883,
        -0.2152322,
        -0.12049323,
        -0.109174505,
        0.20892094,
        -0.0006237882,
        0.18844354,
        0.11700895,
        0.054147318,
        -0.33286694,
        -0.12861098,
        -0.16187303,
        0.31717408,
        0.07974709,
        -0.12467321,
        -0.555184,
        -0.23633876,
        -0.38085294,
        -0.04586129,
        0.30586502,
        0.122203134,
        0.31906158,
        -0.17305969,
        0.31215712,
        0.006120412,
        -0.2153721,
        -0.45080218,
        -0.10969118,
        0.37947148,
        0.402755,
        -0.71812725,
        0.39951867,
        -0.060882293,
        -0.25217322,
        0.09679076,
        0.28727522,
        0.057251133,
        0.26549414,
        -0.26217714,
        0.14518987,
        0.42604062,
        -0.3237219,
        0.3043506,
        -0.5009969,
        0.17732407,
        0.3217556,
        -0.30320662,
        -0.3149406,
        0.09452122,
        0.13570406,
        0.45833224,
        0.3314905,
        0.773863,
        0.13171944,
        -0.17885278,
        -0.63124084,
        -0.3400864,
        -0.0019580224,
        0.43818143,
        -0.017195188,
        -0.3373933,
        -0.5622744,
        -0.3961894,
        0.13617614,
        -0.24429646,
        0.21035953,
        0.1350703,
        -0.4240951,
        -0.6979054,
        0.4703479,
        -0.08317232,
        0.17959838,
        0.06940423,
        0.077092715,
        0.36526984,
        -0.64907247,
        -0.07315903,
        0.021570852,
        -0.58566916,
        0.27916268,
        0.15743215,
        0.76568395,
        -0.11713679,
        -0.45700032,
        0.17925477,
        0.023081537,
        -0.10907874,
        0.35631764,
        0.14972779,
        -0.34196115,
        0.075100645,
        -0.3902383,
        0.46658176,
        0.0037507638,
        -0.33452603,
        -0.21225807,
        -0.27562582,
        0.110395074,
        -0.5386123,
        -0.5018119,
        -0.21482183,
        -0.102494486,
        0.015410552,
        -0.57842314,
        -0.70493287,
        0.26433384,
        -0.14145659,
        -0.22465555,
        0.2652608,
        -0.3481982,
        0.19864847,
        -0.35924688,
        -0.6555437,
        0.23532236,
        -0.18548945,
        -0.051287375,
        0.24074607,
        0.054381013,
        0.14285831,
        -0.15293837,
        -0.33807757,
        -0.5630561,
        0.057447277,
        0.06429004,
        -0.28706062,
        -0.25071838,
        -0.32371914,
        0.79766303,
        -0.38009143,
        -0.19432472,
        1.019362,
        -0.19847487,
        -0.56476915,
        0.28591153,
        -0.24355209,
        0.17120709,
        0.1741888,
        -0.43055537,
        -0.15783927,
        0.112070166,
        0.33581492,
        -0.22689648,
        -0.045120653,
        0.1022055,
        0.18846454,
        -0.010204394,
        0.20970497,
        0.04762819,
        -0.39883453,
        0.0885998,
        -0.17576899,
        -0.41540313,
        -0.13581638,
        0.5280335,
        -0.43716758,
        0.09427747,
        -0.11492902,
        -0.010213519,
        -0.07386301,
        0.45913193,
        -1.0148033,
        0.6317412,
        0.1762837,
        0.1342813,
        -0.0068449904,
        0.013691208,
        -0.11911402,
        -0.33173025,
        -0.054574896,
        -0.06671126,
        0.28046677,
        0.19893308,
        0.4036832,
        -0.2699477,
        0.026742956,
        0.21762386,
        -0.021267751,
        -0.6311465,
        -0.2984733,
        0.2771389,
        0.0836043,
        0.16766681,
        -0.19260219,
        0.030763209,
        0.6475718,
        0.21803285,
        0.508777,
        -0.5360302,
        -0.1527832,
        -0.08075637,
        -0.28774083,
        0.22152233,
        0.04846468,
        0.16913325,
        0.24681151,
        0.40951976,
        -0.24324988,
        1.0342082,
        -0.2497755,
        -0.17069067,
        -0.16084659,
        0.2742862,
        0.18649776,
        -0.76824594,
        -0.24874209,
        0.32432842,
        0.16718392,
        0.53960913,
        -0.18816285,
        -0.15115254,
        -0.021333002,
        -0.15449846,
        0.1747058,
        -0.0687579,
        -0.2453765,
        -0.04972734,
        0.079793945,
        0.5797955,
        -0.23555662,
        -0.3402162,
        0.37646407,
        -0.41223377,
        0.22761554,
        -0.42831567,
        -0.4948899,
        -0.11467528,
        -0.00688336,
        0.42175388,
        0.3190639,
        -0.42849243,
        -0.3163107,
        -0.3775201,
        -0.59704906,
        -0.13444214,
        -0.33265272,
        -0.20690173,
        0.104475215,
        -0.08071946,
        -0.2328089,
        0.20770518,
        0.91578794,
        0.018486487,
        -0.123892784,
        0.10717392,
        -0.20882724,
        0.45159727,
        -0.5863466,
        -0.0010877429,
        -0.10663178,
        0.01892875,
        0.29319498,
        0.3828804,
        -0.3529957,
        -0.79342234,
        0.23131607,
        -0.026877096,
        -0.62978196,
        0.86225235,
        0.45541763,
        -0.23239434,
        0.68546164,
        -0.28665742,
        -0.41505662,
        -0.29409382,
        0.10179284,
        0.06169784,
        0.32589093,
        0.2084478,
        0.04099151,
        -0.067107506,
        -0.5447264,
        -0.35137603,
        -0.45651683,
        0.1142496,
        -0.8504458,
        0.16195323,
        0.4054508,
        0.12509914,
        0.12823522,
        0.013027329,
        -0.03722326,
        0.0061069843,
        0.01885883,
        0.16570686,
        -0.07680725,
        -0.013391266,
        0.00059119385,
        -0.06616448,
        0.02503857,
        0.09691203,
        0.043245703,
        -0.011300459,
        0.058135677,
        0.007956388,
        -0.0009620696,
        0.030948626,
        -0.0044025583,
        -0.1226924,
        -0.048859663,
        0.08514759,
        0.13368694,
        -0.13821864,
        0.13071197,
        0.07243277,
        -0.08872422,
        -0.1564381,
        -0.11918666,
        -0.039670113,
        0.0139556825,
        -0.08635849,
        -0.022040926,
        0.07164298,
        -0.11503027,
        -0.089520946,
        -0.06215552,
        -0.070543595,
        -0.15061723,
        -0.04590251,
        -0.16452378,
        -0.011085687,
        -0.088410534,
        0.070150875,
        0.045498677,
        0.09681727,
        0.16512668,
        0.033251744,
        -0.021606326,
        -0.07456446,
        -0.017211882,
        -0.035431307,
        -0.124773145,
        -0.12371109,
        0.07938636,
        0.040987175,
        0.03737176,
        0.12231916,
        0.044145737,
        0.17492475,
        0.024986258,
        -0.06997234,
        0.20645699,
        0.055590447,
        0.15028554,
        -0.07796198,
        -0.18339382,
        0.06617315,
        -0.15934704,
        0.016831353,
        0.12201812,
        0.08561416,
        -0.05427794,
        0.014639455,
        0.14406273,
        -0.07287163,
        0.13955912,
        0.034760427,
        0.14674245,
