{
  "name": "bigram",
  "parameter_count": 26976,
  "layers": [
    {
      "layer_type": "Linear",
      "name": "Input",
      "index": 0,
      "weights": [
        0.45408055,
        0.88356805,
        -0.77501,
        0.20038274,
        2.922172,
        0.72898525,
        -0.9129575,
        -0.5136218,
        0.21904874,
        0.361442,
        -0.39296764,
        0.93334323,
        -0.34805274,
        -0.49958795,
        -0.7859119,
        0.39157894,
        -0.26649046,
        1.0223457,
        1.1988965,
        1.6914791,
        0.6383087,
        1.8513808,
        0.11617517,
        1.0880876,
        -0.5520123,
        -0.36004904,
        -0.6491554,
        -1.0757855,
        0.87840164,
        0.8535436,
        -1.6772848,
        0.7958593,
        -0.47647274,
        0.49969724,
        1.2414117,
        0.9967346,
        -0.47525063,
        0.78702337,
        -0.12523296,
        -2.3539221,
        1.298759,
        -0.7497523,
        -0.72917587,
        -2.4794917,
        -0.38423163,
        1.1037451,
        0.119348995,
        -1.059724,
        -0.38726714,
        -1.0401205,
        0.5083176,
        0.9305483,
        2.1444187,
        0.035484903,
        -1.3918728,
        -0.48494324,
        -0.9798592,
        -0.76412916,
        -0.26611125,
        0.64442456,
        0.45504746,
        -1.2876004,
        0.4070954,
        0.5243005,
        -2.1267238,
        1.3448685,
        0.9379636,
        0.53338814,
        0.33804458,
        -1.7020282,
        1.0072542,
        0.12554725,
        -1.6319082,
        0.055963192,
        0.8660319,
        -1.2056208,
        -1.5526596,
        0.81977606,
        0.38259304,
        -2.4023304,
        1.052712,
        -0.107080504,
        -0.69740975,
        -1.3715334,
        -0.074850954,
        -0.5291857,
        0.12641978,
        -0.52707493,
        -0.9447192,
        -0.08761863,
        -0.5997194,
        -0.50226265,
        0.03519142,
        -0.7074243,
        0.14162496,
        -1.6861115,
        0.24146123,
        1.051645,
        1.7692952,
        0.18229447,
        -1.0452082,
        -0.9909906,
        0.069639914,
        -1.2696786,
        -0.10469221,
        0.57928264,
        1.1603264,
        0.47035637,
        -0.75182366,
        0.273932,
        -1.0234764,
        -0.7318452,
        1.0042361,
        0.60674214,
        1.1780663,
        0.59032243,
        -0.75622404,
        -0.10588784,
        0.45287764,
        -1.0184513,
        1.9049491,
        -0.08912642,
        -0.16653642,
        -0.31355438,
        0.07621777,
        1.0584525,
        -1.5169663,
        0.8048806,
        -1.1447254,
        -1.9267107,
        1.3348235,
        -1.3583488,
        1.0061936,
        0.15185004,
        -0.08925035,
        0.33728266,
        -0.5861468,
        0.0320763,
        -1.0189017,
        1.179631,
        0.23990445,
        0.20657824,
        -0.23852752,
        -1.0832236,
        -0.76703763,
        -0.48614514,
        0.17288789,
        -1.7671568,
        0.32251254,
        -0.16071588,
        -0.48937815,
        0.606419,
        0.19812475,
        0.24496432,
        -0.9412592,
        -1.0858355,
        -0.66500866,
        0.1701905,
        -1.2978224,
        0.81968915,
        0.69940317,
        0.838766,
        0.13362832,
        -0.68393743,
        1.0803791,
        -0.16271323,
        1.0614957,
        1.3198246,
        0.13775925,
        0.20371233,
        0.92156804,
        0.5966746,
        0.9145513,
        -0.74066126,
        0.57436275,
        2.3500664,
        1.4945954,
        0.0630602,
        0.4185283,
        -1.3320352,
        -0.41285774,
        -1.0671028,
        1.3347963,
        -1.8394566,
        1.8033277,
        -1.0687678,
        0.6864968,
        -0.6923448,
        -0.6537496,
        -1.8488873,
        -0.18138689,
        -2.1178536,
        0.8106671,
        -0.47309178,
        -0.07119006,
        0.04522814,
        -2.2011104,
        0.34866217,
        -0.7668824,
        -3.3261635,
        -1.0788137,
        -0.23342738,
        -1.3787124,
        0.19891506,
        0.8330745,
        0.19045164,
        -0.8716247,
        -0.8633217,
        -0.78519267,
        0.4628809,
        0.38506094,
        0.9573356,
        0.4616286,
        -0.34526512,
        -1.6002916,
        0.20455119,
        1.9711813,
        0.08513092,
        0.91538024,
        0.57359815,
        -0.24261133,
        0.8573015,
        0.6431667,
        1.5724705,
        -0.5720605,
        0.34917378,
        -0.01070805,
        -0.6572682,
        0.65427244,
        0.74364865,
        0.42473525,
        0.4388936,
        1.5956199,
        0.5910235,
        0.6506853,
        -0.8409382,
        0.5601481,
        0.31209996,
        -0.63106567,
        1.1257936,
        0.30417228,
        0.49214977,
        -0.17816834,
        0.8105034,
        0.24816881,
        0.27221864,
        -1.5302075,
        -1.3477136,
        -0.53639567,
        2.1404495,
        0.607152,
        -0.469377,
        -0.5627086,
        -0.033003174,
        -0.04684521,
        -0.9724415,
        0.059201367,
        -0.10091599,
        0.5610674,
        -0.15063071,
        0.7886418,
        -0.9370844,
        0.27557433,
        -0.5388409,
        -0.75590986,
        -0.8771658,
        -0.81226015,
        0.9366748,
        -2.3906689,
        -0.2593462,
        -0.9883805,
        -0.45978338,
        -1.157477,
        -1.2960808,
        -0.63450164,
        1.3302253,
        0.9145788,
        -0.44542843,
        -0.5643918,
        0.8019532,
        -0.9693581,
        1.3502928,
        -0.21236669,
        1.3274405,
        -0.60801333,
        0.5483674,
        0.9606084,
        0.57070905,
        -0.5305505,
        -0.04095076,
        0.479205,
        -0.8877753,
        -0.43558764,
        -1.085662,
        1.4612672,
        0.22335732,
        1.1147721,
        -1.1127568,
        -1.9175234,
        -1.3006968,
        1.2878076,
        -0.80588645,
        -1.6363839,
        0.65831137,
        -1.0329928,
        1.0081166,
        -0.10970058,
        -0.69462407,
        -0.44519666,
        -0.5240313,
        0.34759247,
        -0.56035507,
        -0.7032196,
        1.8676745,
        1.2647645,
        -0.36545786,
        0.68919307,
        0.68199754,
        0.105350226,
        0.45958734,
        0.5949866,
        -0.6268683,
        -2.7251005,
        -0.05888697,
        -1.1394938,
        -0.9473304,
        -0.73537654,
        -1.5638427,
        -0.030124104,
        2.1688251,
        -0.3218102,
        -0.821314,
        -0.07522813,
        -0.6578418,
        -0.854582,
        -1.0998037,
        -0.6897521,
        0.06506057,
        -1.4598721,
        0.2550484,
        -1.9577812,
        -0.8038002,
        0.4087368,
        0.37521148,
        0.6678019,
        1.7433296,
        2.0294425,
        -0.51489073,
        -1.1384664,
        1.675364,
        -0.59646326,
        0.4067482,
        0.39021343,
        0.96722585,
        -1.7691711,
        -0.22313184,
        -2.6448278,
        1.4723617,
        -0.40945426,
        0.5336914,
        -1.6434346,
        -0.6855665,
        1.4977407,
        -0.68802166,
        0.78882194,
        -0.17494908,
        -2.5516274,
        -0.998222,
        0.33067402,
        1.1156439,
        0.8921831,
        -0.65323514,
        -1.0298469,
        -1.7786208,
        -1.3536383,
        -1.8042241,
        -0.62457544,
        -0.05497084,
        -0.8774714,
        1.1436993,
        -0.6400554,
        0.5210887,
        -0.20679988,
        -0.64142954,
        0.89339525,
        0.62771237,
        -0.049008004,
        -1.3569913,
        0.9229782,
        -1.4143554,
        -1.2039213,
        -0.7189389,
        0.8015829,
        -1.3212926,
        1.8758572,
        0.61701053,
        -0.18756084,
        -0.17300576,
        0.5085929,
        0.27537996,
        0.46035218,
        -0.5388156,
        1.1415628,
        -0.23330384,
        0.34919494,
        1.9506128,
        -0.8456644,
        1.3210799,
        0.40142733,
        -0.08567278,
        1.673591,
        -0.40463755,
        -0.15483277,
        1.2032269,
        -0.9100002,
        -0.07494984,
        0.2343269,
        0.94594663,
        -1.3929636,
        -0.59546214,
        -0.20362052,
        0.5757764,
        0.033067323,
        -1.7954074,
        -0.9775376,
        -0.2888509,
        -0.42615563,
        -2.1858861,
        -1.4100052,
        1.065312,
        0.8657851,
        0.7807291,
        1.3164401,
        0.5157147,
        -0.8702099,
        1.2809125,
        0.37159047,
        0.008434422,
        -0.076654345,
        0.09591379,
        1.6436719,
        -0.052379005,
        -1.7485137,
        0.8247592,
        -0.47641104,
        0.81169945,
        1.089726,
        0.8165339,
        -1.6178209,
        1.0117973,
        0.75800735,
        0.206756,
        -1.1069437,
        0.64461696,
        0.11606731,
        -0.22691327,
        0.23633188,
        0.104090646,
        0.6386821,
        -0.4749567,
        0.044030186,
        -0.7418854,
        -1.1425196,
        -1.3587168,
        0.42409307,
        0.0492629,
        -1.351415,
        -0.25949594,
        -0.027832631,
        -0.85784763,
        -0.30090168,
        0.28200576,
        -1.0907887,
        -0.5960155,
        -0.21294315,
        -0.35331568,
        -0.43038288,
        -1.1724993,
        0.23261194,
        -0.8671574,
        0.4795487,
        -0.9041035,
        -1.2309902,
        -0.41094986,
        1.7481446,
        -1.0037638,
        1.1112024,
        -1.0481502,
        -0.80997944,
        -1.6622206,
        -1.1892364,
        -0.105012536,
        -0.00006676396,
        -0.0059271804,
        -0.8668871,
        -0.9139072,
        0.17734909,
        1.0290381,
        0.9370702,
        1.7167791,
        -0.78707564,
        -0.08401348,
        -0.22561513,
        -0.2987707,
        1.0022991,
        -1.2560812,
        0.5502246,
        -0.8512427,
        -0.3847098,
        -2.1200047,
        0.053300913,
        2.447967,
        0.8550138,
        -1.1446148,
        -1.5841314,
        -2.0041385,
        -0.57064134,
        0.4749895,
        1.3664359,
        -0.79196876,
        -0.76418597,
        0.5887947,
        0.07093233,
        -1.2768093,
        0.30935952,
        2.0167418,
        1.5708594,
        -0.009659684,
        -1.2465124,
        -0.57663983,
        1.2922158,
        0.56823677,
        0.42150015,
        -0.46384856,
        -0.015785798,
        -0.8369397,
        -0.2572638,
        -0.9137823,
        1.7039399,
        0.29628554,
        -1.2507175,
        0.22491832,
        0.68085104,
        0.1750597,
        1.1418465,
        0.5090254,
        -1.5101537,
        0.2902753,
        1.0991831,
        -0.4337574,
        -0.17214057,
        -0.21140787,
        -0.61302006,
        -0.83704865,
        -0.187955,
        0.8425899,
        -0.32052547,
        -1.4522825,
        -0.91968304,
        -1.108117,
        -1.0524542,
        -1.8576719,
        -1.2562206,
        -1.0873411,
        -0.66620344,
        1.2039529,
        0.6533648,
        -0.6827975,
        1.1825209,
        -0.71469176,
        1.3843176,
        -1.0421336,
        -1.9638861,
        -0.0022421242,
        -0.67084414,
        1.2047143,
        -0.6499379,
        -0.26450104,
        0.5603939,
        -1.341322,
        0.043119963,
        1.0531964,
        1.6055332,
        0.116113015,
        -0.11757433,
        -0.6592736,
        -1.1852812,
        -1.3318553,
        -0.5739639,
        0.024852717,
        -0.82343835,
        -1.5360057,
        -0.7203351,
        -1.6024615,
        1.6506667,
        0.32400194,
        -1.8676487,
        -1.1394516,
        -1.1360112,
        -0.8838684,
        -1.3385946,
        0.5210337,
        -0.22625554,
        -0.35775772,
        -0.0386012,
        -0.32212785,
        1.0750042,
        -0.6254237,
        0.7685795,
        0.50452805,
        -0.06243452,
        0.28242752,
        0.461017,
        -0.38594997,
        -0.34794992,
        1.0674348,
        1.4265116,
        1.5679356,
        -0.38570395,
        0.49691215,
        0.0953714,
        0.29497847,
        -0.28773135,
        -0.662287,
        0.3836456,
        -1.0485334,
        -0.1990931,
        2.22272,
        -0.60742444,
        0.8826017,
        1.4033939,
        1.0455081,
        -1.1164484,
        1.1915071,
        1.6449839,
        2.180836,
        0.049860112,
        0.2041729,
        -1.4015688,
        0.03343913,
        0.340817,
        1.3049474,
        -0.20715116,
        -1.2848606,
        -0.46977544,
        0.51197225,
        0.11751442,
        -0.8541114,
        0.18747328,
        -0.38306528,
        -1.29952,
        1.1800956,
        -1.3690467,
        -0.33401185,
        -0.1830352,
        -0.45705628,
        0.027693413,
        -0.65393704,
        0.9400886,
        0.920631,
        0.9911954,
        -0.8631215,
        -0.09433349,
        1.0831565,
        0.9022247,
        -0.55332625,
        2.1908119,
        -0.5305669,
        0.39304164,
        -0.8396292,
        1.1896186,
        -0.8228294,
        0.87797886,
        0.9229304,
        2.32006,
        0.7855877,
        1.3979013,
        0.54093635,
        1.2572283,
        -0.3764321,
        -0.15241086,
        0.052705616,
        0.99469984,
        -0.2500262,
        -0.23008388,
        -0.6877111,
        -0.5010292,
        0.3654494,
        0.28337035,
        -2.3277745,
        0.39288905,
        0.5282652,
        1.2882873,
        1.7738172,
        0.3639422,
        -1.0044339,
        1.3579717,
        -0.31854796,
        0.06996045,
        -0.18839745,
        -0.42732835,
        1.2281817,
        1.5896928,
        0.5037265,
        -1.0240303,
        0.12256434,
        1.2752322,
        -1.0481678,
        0.47869632,
        1.1648378,
        1.2516181,
        -2.185477,
        -0.35755265,
        -0.6130324,
        -0.50260425,
        0.38265634,
        0.310336,
        0.68172187,
        0.0438804,
        -0.5753159,
        1.2022502,
        -0.24885973,
        -1.731666,
        0.11234855,
        0.28847688,
        -1.2760242,
        -0.11438878,
        -0.22482572,
        -1.1252805,
        -0.25955868,
        -0.21608807,
        0.060345687,
        0.23163275,
        0.52549964,
        -1.3220514,
        1.467963,
        0.35013083,
        0.60117626,
        -0.34299904,
        -0.2649274,
        -0.8152937,
        1.10633,
        0.75068885,
        -0.830228,
        2.0330634,
        0.4699147,
        -1.9872707,
        -1.5553069,
        1.410793,
        0.41472304,
        0.35652387,
        -0.06125817,
        -0.8322813,
        -1.5880271,
        -0.36124942,
        -0.7780466,
        -1.0530969,
        1.74226,
        -0.9171254,
        0.44133237,
        -0.50426835,
        -1.3605063,
        1.5753115,
        0.6772366,
        -2.1698062,
        -0.49192864,
        -0.5996106,
        0.3256693,
        0.17165537,
        -0.9574954,
        -1.1553456,
        -1.526067,
        -0.4518897,
        1.1798055,
        -1.3658153,
        -0.8789486,
        2.2432756,
        -1.4348946,
        1.351618,
        1.182703,
        1.3527044,
        -0.15239573,
        0.45530137,
        0.7066451,
        -0.46468735,
        1.7258617,
        0.27202296,
        -0.5668165,
        0.8412231,
        0.47624925,
        -0.2532262,
        -0.2787938,
        2.390072,
        0.996832,
        0.4803259,
        -0.26911172,
        -0.33908343,
        -0.8871591,
        1.3541117,
        -0.36877874,
        1.9423134,
        0.21048753,
        -0.16265081,
        -1.5052025,
        -0.48457214,
        -0.33380055,
        -1.6489514,
        -0.75429773,
        0.35679504,
        -0.799823,
        1.1492977,
        1.2854801,
        0.31483936,
        -1.5773293,
        -1.213842,
        1.5199285,
        0.32847905,
        -1.966724,
        -1.529374,
        0.43162504,
        -0.63426894,
        -0.92656714,
        -0.15388566,
        0.63454556,
        1.4832385,
        0.20741437,
        0.52220696,
        -0.60320115,
        -0.74722594,
        -0.7957925,
        -0.12020164,
        2.259998,
        0.6292503,
        -0.7138852,
        0.34204108,
        1.0669469,
        0.9814182,
        -0.02385401,
        -0.77936774,
        -0.6708772,
        0.28039992,
        -0.5469407,
        -1.2109004,
        0.82011575,
        -0.8600266,
        -0.9715592,
        -1.9481401,
        0.33132982,
        -0.5039859,
        0.37266356,
        0.3702354,
        1.7733763,
        0.83304226,
        -0.8222393,
        0.5962206,
        0.35103813,
        -0.87204045,
        0.9348975,
        -1.190481,
        0.9931669,
        0.0076621575,
        -0.12661889,
        2.5220537,
        -0.516194,
        -0.9362284,
        -0.9734096,
        1.4392972,
        1.1341913,
        -0.6010323,
        0.9743366,
        1.290599,
        1.4757195,
        0.15407087,
        0.06390934,
        0.09550238,
        0.2595926,
        -0.4885628,
        -1.1445974,
        -0.93917984,
        -1.1546983,
        1.0891246,
        -0.81539184,
        -0.65192825,
        0.63344985,
        -0.37218305,
        -1.9878267,
        0.7385257,
        -0.23101008,
        0.5446274,
        1.1157221,
        1.6260303,
        0.96409965,
        0.8220204,
        -1.0286075,
        -0.84827673,
        -0.5756162,
        0.6883066,
        2.6708648,
        -0.43064058,
        -1.4261236,
        -0.81653357,
        -0.060211346,
        0.5594531,
        -0.4919864,
        1.1108556,
        -1.5040547,
        -1.2676059,
        -0.30276296,
        -0.01523017,
        -1.5307615,
        1.6514503,
        -1.1463599,
        -0.7576412,
        -1.2140598,
        -1.0653422,
        0.36057037,
        0.018874943,
        1.0672945,
        -0.59186393,
        0.56659484,
        -0.67951953,
        -0.11260509,
        -1.6842079,
        0.585,
        -0.16147043,
        -0.6670658,
        2.1683888,
        1.9109519,
        -0.7101788,
        -1.0960361,
        -0.20180143,
        0.3748306,
        1.3164306,
        -1.3656117,
        -0.7268254,
        1.7496153,
        -2.199964,
        0.13072108,
        0.7090738,
        -1.3829607,
        0.78866166,
        -0.12903252,
        0.36871627,
        -0.19932663,
        -2.0436947,
        -0.6708669,
        0.38297307,
        0.81979954,
        0.1819548,
        0.5485305,
        1.5484412,
        -0.49129754,
        0.80034333,
        -1.3472896,
        -0.92351735,
        1.109559,
        1.579695,
        0.57485306,
        -0.18364874,
        -0.14872469,
        -0.8921134,
        0.6409694,
        0.8564784,
        -1.3791153,
        1.5254104,
        -0.091705866,
        0.084564425,
        -0.2722659,
        -1.6499277,
        1.1661708,
        0.1762586,
        1.3818536,
        -0.3947321,
        -0.24002819,
        0.80976266,
        1.3101469,
        0.45864052,
        0.30834344,
        -0.06316175,
        0.34454527,
        1.0153954,
        -1.3132975,
        0.23154294,
        0.1926263,
        0.6323616,
        0.52279043,
        1.7836041,
        0.79330957,
        -0.44375515,
        0.16825642,
        -1.1846992,
        1.1264366,
        -0.5949206,
        0.9709668,
        -0.8259371,
        -0.37696144,
        -0.23564664,
        0.7141476,
        0.8624619,
        -0.8788341,
        0.18677141,
        -1.0577646,
        -1.9423736,
        -1.6482552,
        1.0301387,
        -0.60380226,
        0.9887487,
        0.1227806,
        -0.14467934,
        -0.2934163,
        -1.2474039,
        -0.15790871,
        -1.6414691,
        -0.7537884,
        1.1693431,
        0.109989844,
        -0.16130811,
        1.3467864,
        -0.10325586,
        0.3721136,
        -0.07384461,
        -1.7368556,
        -0.22033553,
        0.62493926,
        1.489306,
        -0.7679385,
        0.32939923,
        -0.64556754,
        0.08951447,
        1.1743515,
        0.099370606,
        0.8642877,
        -1.7767155,
        -1.5940094,
        -1.1232456,
        -0.81516355,
        0.10566752,
        0.041391343,
        -0.61067593,
        -2.402042,
        -0.41222468,
        0.7019679,
        -0.6739009,
        0.43551442,
        -0.60559416,
        -1.1984401,
        0.034951195,
        0.47303537,
        0.123664916,
        0.7385802,
        0.06987829,
        -1.5300224,
        -0.24690929,
        -0.28283685,
        0.9735993,
        0.68110865,
        -1.4856031,
        0.37195817,
        -0.05059624,
        -0.34488308,
        1.764314,
        -1.3327956,
        -1.1239102,
        -0.45609188,
        -0.43663228,
        0.29808256,
        0.10113315,
        -0.694798,
        -2.8646846,
        0.7458514,
        -1.0059938,
        1.0541997,
        -1.7748386,
        -1.1766056,
        -0.83633703,
        0.063389175,
        -0.28191292,
        -0.36674523,
        -1.224517,
        -0.0051184692,
        -0.6096919,
        0.429401,
        -1.055206,
        -1.1090734,
        0.50737005,
        -1.4828161,
        -1.3396738,
        -1.0462126,
        -0.60653484,
        0.10444125,
        0.87209284,
        -1.0786468,
        -4.280668,
        1.5610533,
        1.2154613,
        1.0216217,
        -0.30731526,
        -0.54462504,
        1.1349257,
        -1.458906,
        0.33409745,
        0.33915767,
        -1.0528802,
        -1.1130546,
        -0.13614619,
        1.0201992,
        -0.85708743,
        -1.829224,
        -0.3316656,
        1.563669,
        -0.6494971,
        1.0627751,
        1.1087657,
        -1.176864,
        1.4692037,
        -0.07395899,
        -1.135875,
        -0.27049154,
        -0.08991526,
        1.7257255,
        0.40726367,
        0.6333488,
        -1.2215476,
        1.2706957,
        0.10426837,
        0.9594428,
        -1.7011614,
        0.047700364,
        -1.0308975,
        -0.6594818,
        0.2309993,
        0.41658813,
        -0.38370538,
        -0.7312252,
        -0.3940078,
        0.92125815,
        -0.01127834,
        -0.8335168,
        -1.117232,
        1.4182242,
        0.25302196,
        -0.52599025,
        0.2392616,
        1.0847406,
        0.6700479,
        -1.6941912,
        -0.8561093,
        1.2152165,
        0.59714067,
        -0.31576395,
        -0.20102486,
        0.47618747,
        -2.0128632,
        -0.68719923,
        -0.9942743,
        1.275657,
        1.2520252,
        -1.3762113,
        0.6170123,
        -0.44218445,
        -0.2418103,
        -0.17818618,
        -0.6079545,
        0.0149790775,
        -0.54452014,
        1.3457725,
        0.41574797,
        -0.80165744,
        0.53199947,
        -0.2904059,
        0.7551562,
        -0.37066293,
        0.93774575,
        -0.17859523,
        -0.7287992,
        -0.7900449,
        -0.42902058,
        -0.14689633,
        -0.35931504,
        -1.0225612,
        0.6960529,
        0.778164,
        -0.18707207,
        1.1179903,
        -1.1528637,
        2.0913246,
        0.84357077,
        -3.192019,
        1.6222992,
        -0.8198666,
        0.40748835,
        0.29578382,
        -0.37146077,
        -2.0341995,
        0.26817614,
        0.9617276,
        0.21850528,
        -0.33168766,
        -0.6141873,
        0.92605454,
        -0.83897847,
        1.4101909,
        0.71052766,
        1.752395,
        -0.28389338,
        -1.1007749,
        -2.1254203,
        0.45122182,
        0.34248447,
        -0.18248524,
        -0.9677902,
        -1.9984186,
        0.38510236,
        -0.8341928,
        -0.11588894,
        -0.3270748,
        -0.024212865,
        0.62175167,
        0.32854918,
        -0.23343505,
        -0.19510652,
        -0.49809736,
        0.59777796,
        0.662982,
        0.1442415,
        0.14696926,
        0.73360986,
        0.37655693,
        -0.8836827,
        -0.45693713,
        0.383856,
        -1.113981,
        -0.6882869,
        0.23098043,
        -0.80394864,
        -0.62901634,
        2.2997875,
        -0.11055069,
        -0.19225882,
        1.4430995,
        -0.34976605,
        -0.057214726,
        0.07424512,
        -1.9588991,
        0.23055845,
        -0.7890962,
        0.2733651,
        -0.16547355,
        -1.9018352,
        1.1045072,
        -0.4644054,
        1.2862035,
        -2.2457213,
        -0.83670086,
        0.37101582,
        -0.15568163,
        1.6509,
        0.64201814,
        -0.6079806,
        -0.44952708,
        1.3780364,
        1.345322,
        -0.7709144,
        2.1221974,
        0.59881955,
        0.5677096,
        0.94652784,
        0.79439485,
        0.5229585,
        1.1563213,
        -0.31507105,
        -0.63723505,
        -1.3963147,
        -1.2236376,
        -1.4231453,
        -0.48938864,
        -0.9839427,
        -0.7287727,
        -0.7780526,
        -0.43029854,
        0.09899999,
        1.392692,
        -0.07658851,
        0.22240588,
        0.046576027,
        0.048639897,
        -0.023776706,
        0.5336764,
        0.54647815,
        0.572722,
        0.22120175,
        0.15221567,
        0.86582166,
        -0.98059976,
        0.60603917,
        -0.6164249,
        0.048601728,
        2.2244375,
        0.948875,
        0.6235292,
        0.31715164,
        1.1251425,
        0.26046818,
        -0.24481478,
        0.400009,
        -0.19706969,
        -0.33275983,
        -0.2980695,
        0.2714535,
        0.12328814,
        0.75073117,
        0.65321743,
        0.7730578,
        -0.9514798,
        -0.06080409,
        -0.12518437,
        0.7482269,
        -0.56866515,
        -1.795895,
        0.4335471,
        -0.9794061,
        -0.18628149,
        1.1401317,
        0.0053073503,
        0.21315053,
        -0.21160182,
        0.07382869,
        0.41932762,
        0.46279675,
        -1.6268064,
        -0.23634069,
        -0.9035191,
        -0.25559387,
        0.8547295,
        -0.48005798,
        0.53785765,
        0.2554077,
        0.95735604,
        -1.3711127,
        -0.930136,
        0.7102606,
        0.9520562,
        0.068285786,
        0.2980121,
        0.8785097,
        -0.21448934,
        0.31061482,
        -1.1435913,
        -1.1654414,
        -1.1499848,
        -1.4475217,
        -1.001203,
        -0.18974404,
        0.17449953,
        0.62988436,
        -0.7663105,
        0.8115993,
        -0.7529357,
        1.583125,
        0.9090127,
        -0.7006049,
        -0.5500791,
        0.788618,
        0.77564895,
        0.8978632,
        0.39504433,
        1.1821934,
        0.83547336,
        1.1889472,
        1.1879497,
        1.7121238,
        -0.76627654,
        0.81974036,
        -1.3886927,
        -1.5339696,
        -1.4534208,
        0.43331143,
        -0.09864737,
        -0.48883587,
        0.0329307,
        -0.76725817,
        -1.1666964,
        1.1241716,
        0.16845742,
        -0.47222403,
        0.2626606,
        0.7915422,
        -2.6049418,
        0.55832845,
        0.4561177,
        0.8974117,
        -0.4958135,
        -0.83307064,
        0.24820566,
        0.58760905,
        -1.681,
        0.60480905,
        0.71653646,
        0.49707085,
        0.42978594,
        -0.19042973,
        0.15980355,
        -1.8056884,
        0.2774134,
        -0.45677078,
        -0.205659,
        -0.61337024,
        -0.11057648,
        -0.46846145,
        -0.25640252,
        -0.9740082,
        -0.8404227,
        0.8384088,
        -0.4487431,
        1.5424777,
        -0.04694189,
        -0.24265708,
        1.5005972,
        0.40976846,
        1.4279555,
        1.6533228,
        -0.5105605,
        1.2020204,
        -0.17638862,
        1.3855706,
        -0.49114308,
        0.00037905909,
        -0.59781075,
        -0.15391524,
        -0.0014612817,
        -2.4457726,
        -1.1975207,
        1.0334306,
        0.8044957,
        0.52938724,
        2.0819688,
        -1.4791386,
        -1.2896272,
        -0.984701,
        -1.7571195,
        -0.15393633,
        1.0321031,
        1.0542647,
        -0.07728768,
        -1.6850505,
        -1.05455,
        -1.3570672,
        1.8163893,
        0.36229303,
        0.2559807,
        0.44019347,
        0.47589862,
        -1.0572,
        0.52504593,
        0.9824409,
        -2.2788498,
        0.46228132,
        3.2514186,
        -0.1798227,
        -0.022316538,
        0.92472386,
        -1.665108,
        -0.6529522,
        -0.00831168,
        -0.7115189,
        0.22529575,
        -1.1743578,
        0.36325997,
        -1.3150067,
        0.37359077,
        1.5003636,
        -0.1824669,
        0.7751992,
        -0.92276645,
        -0.008444157,
        -0.09643452,
        1.1792305,
        0.6120146,
        -0.6564041,
        0.36492842,
        -0.3308131,
        -0.1867735,
        0.60485315,
        -0.98878115,
        0.06967704,
        0.6508986,
        0.71015775,
        -0.65658224,
        -0.006165109,
        -1.6784519,
        1.4731097,
        0.72115415,
        -0.40105176,
        1.7551663,
        1.1368644,
        1.119843,
        -0.9820558,
        -1.1623212,
        0.26373634,
        1.1719528,
        0.993002,
        -0.46307406,
        -1.5026646,
        0.021015199,
        1.3753505,
        -0.49424136,
        -1.048195,
        -0.14487876,
        -0.6100702,
        -0.6566227,
        -0.0019655863,
        0.25793937,
        0.27291155,
        0.17406759,
        -0.8865599,
        0.24945267,
        1.5396509,
        0.6806247,
        0.1445501,
        -0.2893598,
        1.0999439,
        0.6549388,
        0.9483041,
        -0.8416656,
        -1.821482,
        0.19942461,
        -0.45243827,
        0.4791013,
        1.0651873,
        -0.6683776,
        0.57717115,
        -0.47706395,
        -0.1616369,
        0.8042087,
        0.44597116,
        -1.621045,
        0.980291,
        0.49096677,
        1.1302283,
        0.8524772,
        -1.1523944,
        0.86849076,
        -0.1830148,
        1.4637923,
        1.5385709,
        -0.0031780133,
        -0.032797124,
        -0.06798413,
        0.42662185,
        -0.76943785,
        0.7643535,
        -1.3988073,
        -1.8309332,
        -1.2537864,
        -0.039762158,
        -1.0353473,
        0.0763029,
        0.21631534,
        -0.0032934835,
        0.42053154,
        0.818918,
        0.0064496887,
        -0.4538758,
        0.79310036,
        0.7659698,
        0.9466931,
        0.8266924,
        1.3217083,
        0.808258,
        -0.41922978,
        -0.6158093,
        -0.9660226,
        -0.38159567,
        -1.1393313,
        0.47239625,
        0.7064717,
        0.9619511,
        -0.6873806,
        -1.5733087,
        -1.0059193,
        -0.84064776,
        0.34142634,
        -0.7579675,
        -0.8417074,
        -0.50673497,
        -2.1901107,
        -0.5492642,
        -0.012000578,
        2.5410764,
        -0.2624662,
        1.6633914,
        -2.5888238,
        1.1305013,
        0.22794533,
        -0.16634274,
        -0.0057323053,
        0.22570577,
        0.94298446,
        -0.045103256,
        1.1735168
      ],
      "shape": [
        25,
        64
      ]
    },
    {
      "layer_type": "Tanh",
      "name": "AL 1",
      "index": 1,
      "weights": [],
      "shape": []
    },
    {
      "layer_type": "Linear",
      "name": "HL1",
      "index": 2,
      "weights": [
        -1.6499755,
        0.87280405,
        -0.74396497,
        0.95276207,
        0.4309061,
        -0.22406287,
        1.3651763,
        0.9535075,
        2.0171309,
        1.0342175,
        -0.050534017,
        -2.1713145,
        1.5796319,
        1.0235611,
        0.060043596,
        0.7718367,
        -0.62909234,
        0.6585856,
        -1.474366,
        2.3634384,
        0.9092635,
        0.38836685,
        1.0492196,
        -0.79418564,
        1.3695877,
        -0.37084955,
        1.1817218,
        -0.8450165,
        -1.3895035,
        0.30423647,
        0.51171154,
        -0.42850828,
        -0.28788343,
        -0.7243338,
        0.75261575,
        -0.02310728,
        1.5046173,
        -0.12387354,
        -0.62573063,
        0.23461375,
        -1.1129572,
        0.6451868,
        0.69844157,
        -0.7816182,
        0.6188157,
        0.2700569,
        0.2109983,
        0.2817759,
        -2.2610793,
        -0.36462817,
        0.8487033,
        0.7490629,
        -0.048180554,
        -0.39107934,
        0.38857502,
        0.3020159,
        -1.2406293,
        -0.51404786,
        -0.15544017,
        -0.39558047,
        0.73716813,
        1.668105,
        -1.4579004,
        0.15305918,
        0.7301018,
        -0.18102592,
        -0.19168662,
        -0.16033198,
        0.8610029,
        0.13038836,
        0.1554244,
        -1.3893154,
        1.4607153,
        1.8492769,
        -0.057094835,
        0.19270392,
        0.34331438,
        -0.370615,
        0.91720366,
        1.4560715,
        1.2642764,
        0.24086402,
        -1.3643194,
        -1.2042654,
        0.3141063,
        0.58315146,
        -0.23376785,
        1.2395023,
        0.20378451,
        -1.0397577,
        0.23474467,
        0.62032443,
        -0.7022941,
        -1.0591203,
        -0.5658751,
        0.11535091,
        0.8928497,
        0.59127265,
        -0.823822,
        -0.90844643,
        -0.5382947,
        -1.2482828,
        0.6557895,
        -0.46531102,
        -0.23011097,
        -1.4649717,
        2.1676207,
        0.97551346,
        0.5149947,
        0.26538348,
        -0.5435919,
        -1.4246997,
        0.65666807,
        0.5012121,
        0.21069843,
        0.5465995,
        -0.53587574,
        0.9691349,
        1.1968719,
        -1.9399836,
        2.0502305,
        -1.1778404,
        1.3381188,
        0.43589887,
        1.6022387,
        -0.84862125,
        -1.0650818,
        -1.2196878,
        -0.3087103,
        0.09536479,
        1.0444956,
        0.3263902,
        -2.17192,
        -0.34492275,
        1.5853814,
        -2.0351326,
        -1.1277863,
        0.25000286,
        -1.8432043,
        -0.6721638,
        -0.6760829,
        0.153422,
        -0.7025165,
        -0.0038549965,
        1.9439665,
        -1.3668642,
        0.88809484,
        0.32367432,
        0.43459725,
        -0.13387832,
        -1.6966275,
        -1.9641376,
        0.8632762,
        -1.7362884,
        -0.83627707,
        0.50527275,
        -0.4159225,
        -1.2111958,
        -1.3962803,
        -0.48705855,
        0.159309,
        -0.7474029,
        -0.24859683,
        0.3066022,
        1.4043049,
        1.1860162,
        -0.54486036,
        -0.01517576,
        0.69487196,
        -1.6436651,
        -1.4305186,
        0.1498142,
        -0.92009103,
        0.70804185,
        -0.80269927,
        -0.07282907,
        -1.3801817,
        -0.31672955,
        -0.6287858,
        -1.2431564,
        -0.2724554,
        -0.1136487,
        0.8184483,
        0.32465616,
        2.410639,
        -0.35862708,
        -0.122753516,
        0.47389174,
        -0.15052888,
        0.5741912,
        0.7869177,
        -0.57306975,
        0.22289607,
        1.0421466,
        -0.6356361,
        -0.56495297,
        -0.0061632334,
        -1.0157187,
        0.8383277,
        -0.50073916,
        0.905274,
        -1.3367605,
        -1.5163158,
        -0.95937234,
        1.4090407,
        -1.0948888,
        -0.8266406,
        0.5484469,
        -0.3179156,
        0.19929111,
        -1.5771842,
        0.7111005,
        2.7918837,
        0.5223203,
        -0.5906282,
        0.1330711,
        0.03543964,
        -1.6294733,
        -0.56656647,
        -0.5492598,
        1.4414093,
        0.56816494,
        0.595136,
        0.04431184,
        -0.12945272,
        -2.4818268,
        1.3796417,
        0.014740371,
        -0.5026662,
        -1.4457093,
        1.6663116,
        1.5496051,
        -0.6795433,
        -0.8896207,
        -1.1091725,
        -2.7614791,
        0.669533,
        -0.779379,
        0.23145579,
        0.015778884,
        -1.2821869,
        0.17458013,
        0.83866477,
        -1.617576,
        -2.1302986,
        0.54942405,
        0.8106859,
        -0.17691371,
        -1.8887595,
        0.38101912,
        1.2494959,
        -0.44145134,
        0.8450159,
        -0.8008822,
        -0.8138757,
        0.2861499,
        -2.851872,
        -1.5039371,
        -0.329528,
        0.23497762,
        -0.9345467,
        0.06957683,
        1.8120089,
        0.17016853,
        -1.0930123,
        0.4413436,
        -0.1770378,
        0.5061865,
        0.91128975,
        0.0028161593,
        -1.5175434,
        0.070318826,
        -1.5493219,
        0.573042,
        -1.4824353,
        1.1084863,
        -1.4766651,
        0.7470655,
        -0.5591076,
        -1.7039326,
        0.80272007,
        -0.04423936,
        -1.0421166,
        -1.974956,
        0.8896095,
        -0.8785555,
        -1.3627417,
        0.7133931,
        -1.7101283,
        0.18773055,
        1.2951292,
        -0.55481803,
        1.8463967,
        0.91962045,
        -0.72182137,
        0.18390928,
        -0.99033964,
        1.0519679,
        -0.57433397,
        -0.14708467,
        0.07124287,
        -0.27646622,
        0.27966136,
        0.48079002,
        0.15755758,
        0.18088657,
        0.31554183,
        -0.21799168,
        1.4665848,
        -2.5259206,
        0.27287978,
        -2.1383882,
        0.24420221,
        0.15990607,
        -1.8953402,
        -0.73771036,
        -1.2272794,
        0.47158146,
        0.020983854,
        1.4630586,
        -1.0152009,
        -2.2170777,
        1.0522194,
        -0.21259698,
        -0.20254554,
        -0.5004994,
        1.5447537,
        0.14343442,
        1.8479117,
        0.65307826,
        -1.805996,
        -1.1849957,
        -0.8510548,
        -0.10942141,
        0.9211023,
        -2.161987,
        0.1032245,
        0.21562873,
        0.5218228,
        0.34373724,
        0.75997007,
        -0.33127928,
        0.013021457,
        0.9645563,
        0.113405906,
        -0.6420631,
        -0.11682399,
        -1.1652981,
        1.156305,
        0.8422641,
        -0.8149413,
        0.3506845,
        2.010713,
        1.1154381,
        0.6419867,
        -1.0522025,
        2.2613373,
        -0.7768104,
        0.28807163,
        -0.7678363,
        0.118438,
        0.22524104,
        -0.97430986,
        1.3150108,
        -0.59108686,
        0.21942802,
        -1.2319275,
        -0.7321228,
        0.16546778,
        -0.1086836,
        1.09665,
        0.1415882,
        -0.3304537,
        0.22177696,
        0.009597992,
        1.0626912,
        0.10211309,
        -0.025189698,
        -1.0044137,
        0.37364858,
        -0.5019116,
        -0.8811686,
        0.9384624,
        -1.5580283,
        1.0733163,
        1.5121754,
        -1.0786065,
        0.16398796,
        0.5586945,
        -0.17081563,
        -0.73969203,
        0.75791776,
        0.9036286,
        -1.8857417,
        0.5491688,
        -0.5534748,
        -0.6880471,
        0.43020907,
        -1.8162031,
        -1.250838,
        -0.89308035,
        0.31575954,
        -0.5402645,
        1.9794874,
        -3.764755,
        -0.6648392,
        -0.0017533477,
        -0.020103544,
        -0.2319823,
        0.8547609,
        -0.423342,
        0.76493967,
        1.9949104,
        -2.1557615,
        -0.15434739,
        -2.5645974,
        0.70892584,
        -0.49889207,
        0.16265835,
        0.30402476,
        1.1170151,
        0.8770295,
        1.5306414,
        -1.257536,
        0.18122867,
        -0.95407337,
        0.06750105,
        -2.0144575,
        0.016186621,
        -0.30770415,
        1.3474958,
        1.3789442,
        0.81092274,
        0.51890844,
        -0.3752385,
        -0.954514,
        0.58502436,
        -0.012695609,
        -1.3163207,
        -0.14352235,
        -0.6913115,
        0.8283624,
        -0.2954355,
        -0.26461938,
        0.025432935,
        0.010616954,
        0.98876816,
        -1.1862848,
        -1.6895722,
        0.45479098,
        2.9925475,
        0.6985897,
        -0.36103866,
        -1.0623002,
        0.40003586,
        0.5766803,
        -1.4155786,
        -1.2913003,
        -1.1028653,
        -0.33372512,
        1.4575112,
        -1.9624543,
        1.7521937,
        -0.7371034,
        -0.4914365,
        0.96451706,
        1.5130078,
        -0.4328136,
        2.0722394,
        1.1583025,
        -0.97534996,
        -0.21411496,
        1.8152132,
        -1.8273562,
        -0.33661035,
        -1.3229355,
        0.10302718,
        0.025721436,
        -0.38417566,
        1.6914366,
        -0.2280979,
        0.61734456,
        0.09959717,
        0.27433062,
        1.9328734,
        -0.5305841,
        -2.365565,
        0.59603125,
        0.11117343,
        1.7484367,
        0.090857714,
        -1.4092654,
        1.0216229,
        -1.0670229,
        0.31168705,
        -0.14187723,
        0.42399648,
        0.44192955,
        -1.0889184,
        0.36674666,
        -1.9765955,
        0.6413644,
        0.58510596,
        -0.53834885,
        1.0327045,
        -2.9524627,
        0.5877309,
        -0.758041,
        -0.39150092,
        1.6706656,
        -0.110073544,
        0.90269715,
        0.12672557,
        0.80744153,
        -0.7925163,
        0.18096536,
        1.288604,
        -0.009607025,
        -0.3331319,
        -1.6001898,
        -0.82674056,
        1.3666825,
        -0.015939415,
        -1.1464052,
        -1.0048175,
        -0.20836958,
        1.0957505,
        0.87821436,
        0.11570871,
        1.512315,
        -0.72198397,
        -0.3497945,
        -0.09508812,
        1.1828116,
        0.62040055,
        -0.9911393,
        -0.048929293,
        0.9049522,
        0.8513128,
        -0.042287335,
        -0.13215756,
        0.45917517,
        -0.5738472,
        -1.364537,
        -0.74598855,
        -1.0137198,
        -0.81263983,
        1.1385512,
        -0.42562446,
        -0.04951277,
        -0.43396655,
        0.91005486,
        -1.4848962,
        0.814934,
        -1.1837387,
        -0.18669231,
        0.15941672,
        0.55131596,
        0.6224022,
        0.6598792,
        -0.4963669,
        0.30819964,
        -2.034267,
        -0.33061633,
        0.7028633,
        0.9467191,
        1.5182849,
        1.1290323,
        -0.58617085,
        2.001707,
        -1.0126607,
        -0.6162616,
        -0.50093734,
        -0.5157574,
        -0.663607,
        -1.0941726,
        0.019360917,
        0.09449076,
        0.29776877,
        -0.085460715,
        -1.5312036,
        0.15265033,
        1.1924134,
        0.574269,
        0.8383777,
        -0.9769087,
        0.25529575,
        0.78302056,
        0.17569901,
        -0.15045081,
        0.20049463,
        -0.47240287,
        -0.11145545,
        0.9868869,
        2.6560307,
        1.7776158,
        -1.0029751,
        0.77926016,
        -0.4810239,
        0.5836882,
        0.5765425,
        -2.2268372,
        0.30814078,
        -1.1622108,
        -1.177096,
        -0.97326714,
        -0.6301592,
        0.571078,
        -0.052157607,
        -0.2668516,
        -0.74547166,
        -1.6368349,
        0.19578199,
        0.52637887,
        -0.7889783,
        0.37915757,
        -0.014643293,
        -1.898607,
        0.10081833,
        0.8728884,
        -0.6394368,
        0.15112002,
        -1.8079952,
        -0.11994486,
        -0.54835546,
        0.9903684,
        -0.17126207,
        -0.25969952,
        0.18087283,
        1.7838308,
        -0.8632255,
        0.20812532,
        0.49405405,
        0.9768758,
        -1.1127158,
        -0.31375858,
        1.2577882,
        0.12908328,
        1.9620262,
        1.9345876,
        1.1312889,
        0.6876669,
        -0.38994944,
        -0.22041495,
        0.9520023,
        -0.5095753,
        0.21224307,
        1.6990651,
        -0.039384093,
        -0.6038397,
        0.73080677,
        0.8431141,
        0.1543064,
        1.3912066,
        1.5139472,
        -1.2783985,
        1.088516,
        -0.27936545,
        -1.6133542,
        1.0337054,
        0.27672496,
        -1.0942638,
        -0.1038508,
        1.8267405,
        -0.14111644,
        1.0691068,
        -1.0013518,
        0.9721797,
        0.064364746,
        0.17300184,
        0.594602,
        -1.707096,
        -0.9142017,
        0.9565451,
        1.236134,
        0.026792938,
        0.398935,
        -0.9748798,
        -1.2466276,
        -0.15333454,
        1.933187,
        0.7545922,
        -1.3266765,
        -0.37272415,
        0.4554017,
        0.31962374,
        0.6270536,
        0.4597718,
        1.5292431,
        1.014065,
        -0.5448439,
        -0.39162692,
        -2.187409,
        -0.74144095,
        -0.38160914,
        0.59403586,
        -0.11031659,
        0.25874004,
        2.0794954,
        1.5858122,
        -0.0957663,
        -0.21764463,
        -1.2489936,
        -2.107473,
        -0.07353533,
        -1.2516968,
        -0.087677546,
        0.77242905,
        -1.2546813,
        0.9081962,
        -1.121447,
        0.966722,
        1.4269869,
        0.22171018,
        -1.8713274,
        1.2285011,
        -0.33017007,
        1.2220812,
        0.111753955,
        0.62854546,
        0.71129197,
        -1.9677509,
        -0.3106555,
        0.13324027,
        0.17058226,
        -0.8387916,
        0.22226638,
        -1.0105662,
        -0.7044236,
        1.312728,
        0.24253465,
        0.142255,
        1.0579404,
        1.2021451,
        1.1791058,
        0.029567758,
        1.0672163,
        -0.37675303,
        -0.20688085,
        -1.2824707,
        -2.7397928,
        -1.1753271,
        -1.2311796,
        -0.78944093,
        -0.29842916,
        0.5532726,
        -2.092269,
        -0.3422429,
        0.78596985,
        0.35377017,
        -0.54858714,
        0.30246127,
        -0.035539225,
        1.1397735,
        -0.5551297,
        -0.2709306,
        -1.2064555,
        0.4780453,
        1.0721089,
        2.3070898,
        -1.2663387,
        1.2885233,
        1.2839048,
        0.95262116,
        -0.21015419,
        -1.1187514,
        -0.03042245,
        -0.12102458,
        1.1428565,
        0.47543678,
        -0.47007215,
        -0.018195381,
        0.17151698,
        0.71407574,
        -0.67009306,
        1.1908113,
        -0.820639,
        0.7697597,
        0.43402842,
        -0.40231043,
        -1.4303417,
        0.9505236,
        0.060337905,
        0.14884278,
        -0.5339796,
        -1.3790607,
        0.35418943,
        0.11210012,
        1.1990206,
        0.07236355,
        -0.54783535,
        0.5394148,
        -0.846098,
        -0.27970114,
        0.9865872,
        1.3193564,
        -0.476845,
        0.033780467,
        0.78391135,
        1.1735768,
        0.8629487,
        -0.41089195,
        0.5658541,
        -0.2057103,
        1.3995813,
        0.017433664,
        0.3203363,
        0.06170374,
        -0.6440923,
        -0.4394221,
        -0.02537592,
        -0.8517583,
        0.83353025,
        -0.2287996,
        -0.6066588,
        -0.30733398,
        -0.30106398,
        0.09854268,
        -1.5078421,
        -0.1891709,
        -0.4374672,
        -0.5209188,
        -1.4267085,
        0.43908498,
        -1.6968882,
        -0.6584332,
        0.16193378,
        0.9829798,
        0.055812728,
        -0.6162818,
        -1.6492202,
        0.86573267,
        0.9793693,
        -0.7649226,
        -1.1734729,
        -0.38672072,
        0.34130937,
        0.115871474,
        -0.76416177,
        -0.5399914,
        -1.2525272,
        0.9541679,
        -0.061297543,
        -1.8019539,
        -1.3344023,
        -1.1254103,
        1.2042018,
        -1.4310547,
        0.53199226,
        -0.008207958,
        -1.0779446,
        -1.6434113,
        -1.3383094,
        -1.2263068,
        -0.28450596,
        -1.154169,
        0.6959616,
        0.6946695,
        -0.056631427,
        -0.036962453,
        -0.7844603,
        -0.12613256,
        -0.40332973,
        -1.5482801,
        1.4810965,
        0.3631149,
        -1.4464095,
        0.5785733,
        -1.8244056,
        0.22426604,
        -2.6112633,
        3.062837,
        -1.0653697,
        -0.5937001,
        0.9087812,
        0.70045906,
        -0.32633576,
        -2.4292953,
        0.3400222,
        0.24123052,
        1.1948315,
        -0.3040677,
        0.9746913,
        1.5071689,
        1.4832256,
        -0.78506345,
        -2.7211246,
        0.37348273,
        -0.45122606,
        0.28632116,
        0.3034209,
        -0.6399396,
        -0.26694363,
        0.5065353,
        1.0897082,
        -0.12589757,
        -1.9083709,
        0.37976933,
        0.037868705,
        0.5934809,
        -1.5036902,
        -0.8965091,
        -0.33649215,
        -1.4724427,
        0.22216,
        -0.2368529,
        -1.61311,
        -2.2973125,
        1.5288718,
        -0.22676226,
        0.9455104,
        -0.5603745,
        -0.060802825,
        0.89023566,
        -0.4670574,
        -0.50710046,
        0.41956645,
        -1.2405508,
        -0.8881581,
        0.85592043,
        1.5447495,
        -0.10013102,
        0.2771871,
        0.050831538,
        0.6722922,
        -0.29057705,
        -1.4415483,
        -0.360128,
        0.29163465,
        0.020471267,
        -0.72731405,
        -0.084676504,
        -1.1572194,
        -0.28789622,
        -0.29091218,
        0.8192072,
        1.3038483,
        0.37616268,
        1.7607975,
        -0.95944977,
        0.092345,
        0.85250914,
        -1.3789515,
        -0.27954394,
        -0.74282986,
        0.057637874,
        1.2313373,
        1.9069254,
        -0.6435119,
        0.10567491,
        -0.37071788,
        -0.5228624,
        -0.43971458,
        -0.84147996,
        -1.3337201,
        1.3151338,
        -0.65813404,
        0.966531,
        -0.55796146,
        1.457052,
        0.8098989,
        -0.25645855,
        0.40903416,
        -1.6594905,
        0.8428854,
        -0.15352146,
        -0.2429759,
        -0.7829129,
        0.33733153,
        -0.28288776,
        1.6519419,
        -0.74338126,
        0.47708783,
        1.0760071,
        1.7156639,
        0.97310996,
        -0.5924246,
        0.46600893,
        -3.3670785,
        -0.2261554,
        0.42466146,
        -0.14361101,
        -0.38868293,
        -0.43146443,
        -0.5641235,
        0.46341333,
        -0.40877783,
        0.4174863,
        -1.2675421,
        0.49154803,
        0.79294324,
        0.7819148,
        0.13841307,
        -0.4918037,
        1.1444149,
        0.62913644,
        -0.9951968,
        1.3649112,
        -1.0298929,
        -0.334884,
        -1.1964405,
        0.89985853,
        -0.8834039,
        -1.4115057,
        0.040612254,
        0.8551262,
        0.4111766,
        2.5884545,
        -0.13183877,
        0.4492029,
        -1.0960754,
        0.32724202,
        0.24240118,
        -0.8012088,
        -0.14910145,
        1.3059231,
        1.0583961,
        -0.37268656,
        1.1686974,
        -0.8171967,
        0.8547117,
        -0.69759697,
        0.5662375,
        -0.26601696,
        -1.9273602,
        -0.1847323,
        -0.85314566,
        0.19157146,
        -0.8674568,
        1.9674706,
        2.0863926,
        0.018024988,
        -0.8952478,
        0.06148415,
        -0.34226745,
        0.85677606,
        -1.0358189,
        0.6019632,
        -0.91365886,
        -0.54788077,
        0.61199135,
        -1.5083925,
        0.50578743,
        0.743337,
        -1.1327279,
        0.14324856,
        -0.3158497,
        -0.8923539,
        -0.07377285,
        -1.0707026,
        -2.1869357,
        0.9039636,
        -0.65567917,
        -0.5893841,
        0.9351866,
        -1.2740413,
        1.6177958,
        0.1534357,
        0.061015,
        1.4652615,
        1.4277002,
        -1.5247982,
        1.0301886,
        -0.046911042,
        -1.772966,
        -0.9119551,
        0.40136766,
        -0.5334065,
        0.10119617,
        1.2736055,
        1.2660997,
        -0.8389194,
        -1.5580328,
        0.7510406,
        2.0776477,
        0.08786429,
        -0.84206027,
        -1.4433446,
        -0.23883739,
        -0.33280155,
        0.02026552,
        -0.12746471,
        -0.6037511,
        0.74464864,
        -1.1091102,
        -0.009165127,
        1.6936601,
        1.16061,
        0.21782202,
        -0.15405947,
        1.4544123,
        0.50354195,
        0.7812404,
        -1.4222944,
        0.5858729,
        -1.3003521,
        0.60419697,
        -1.3887788,
        -0.85530514,
        -0.14166218,
        -0.61482286,
        -1.595174,
        0.1266643,
        -0.43532398,
        -0.71290153,
        -1.229596,
        1.4628333,
        0.73769623,
        1.0436805,
        1.0081939,
        0.8251319,
        -1.0330216,
        -0.9991029,
        0.52361834,
        2.683623,
        2.4655347,
        0.94060844,
        0.5757001,
        -1.3987472,
        0.06098336,
        1.6213485,
        -0.6705578,
        1.2748606,
        -0.009921904,
        -0.27133456,
        -0.32730204,
        -2.3313336,
        0.82028866,
        -0.5363791,
        -0.11842667,
        0.9182281,
        -0.6741325,
        -1.0500038,
        1.5716113,
        1.6373867,
        -0.44746992,
        -0.34171382,
        0.7513884,
        -1.8186278,
        0.116404325,
        1.1350588,
        0.88216877,
        -0.1872679,
        -1.1198678,
        -0.8669736,
        0.548461,
        -1.5885066,
        -1.5957843,
        0.61040115,
        -0.8291267,
        -0.5648981,
        -0.02795198,
        -1.3875136,
        0.30232164,
        -0.66654056,
        1.6887922,
        -0.474771,
        1.5511385,
        -0.31269377,
        -2.0790808,
        1.1233581,
        1.9940879,
        1.4861219,
        -1.090602,
        0.12414865,
        -1.1232607,
        0.99929357,
        0.415815,
        1.5183254,
        0.9765014,
        -1.4770726,
        0.57811,
        1.1859303,
        -1.6777265,
        1.1186695,
        0.019976662,
        -1.7431062,
        0.8786946,
        0.22419672,
        1.7824907,
        -0.9215528,
        -0.15027563,
        0.68687433,
        0.35576785,
        -0.84145796,
        0.7383115,
        0.042902026,
        1.4438994,
        -0.50867844,
        -2.6233442,
        0.7020881,
        -1.3580077,
        0.11200838,
        0.5447949,
        0.124141365,
        -0.3183912,
        -1.3827081,
        -0.21561939,
        0.839551,
        1.8174256,
        0.09156678,
        1.8064648,
        1.9506981,
        0.005765239,
        1.4480716,
        -0.4435049,
        -0.23117532,
        -0.088193975,
        0.13408934,
        -1.6314607,
        1.8272051,
        0.5937319,
        -1.0232472,
        0.27159283,
        0.18292624,
        -0.67504483,
        0.7130255,
        0.47445247,
        1.412813,
        0.04101027,
        0.31976303,
        -0.03717839,
        0.4408809,
        0.58859,
        -0.42136514,
        -0.5895326,
        0.5748775,
        -0.5214918,
        -1.2309833,
        -1.1547704,
        -0.9178234,
        0.102190666,
        -1.0904287,
        1.3085057,
        -1.5997118,
        0.444176,
        0.5744141,
        0.109099515,
        1.4707826,
        0.07389702,
        0.7371185,
        -0.6176885,
        -0.58070624,
        -0.81246465,
        -0.42279372,
        1.2645063,
        -1.1655785,
        0.36679515,
        -0.7401109,
        1.0371538,
        0.9538772,
        -1.5248933,
        0.36123028,
        -0.95183325,
        -0.7332787,
        0.23694219,
        -2.053225,
        1.2544824,
        -0.3596047,
        0.92710435,
        0.7360121,
        1.3471887,
        -0.61478865,
        1.0179077,
        -0.6781594,
        0.37728062,
        1.636761,
        -0.09666306,
        0.46618915,
        0.4905799,
        1.2113944,
        0.3391525,
        -0.99540013,
        -1.0101566,
        1.2428446,
        1.4435371,
        -0.040219616,
        -1.4900346,
        0.18704624,
        0.29761127,
        -0.2377168,
        -1.4319615,
        -0.40153232,
        -0.92104656,
        0.6727987,
        -0.20345177,
        0.5926427,
        -2.2050607,
        -0.25386852,
        1.8930439,
        -0.032426815,
        -0.32714376,
        -0.6909323,
        -0.65706587,
        -0.17069894,
        -0.07685556,
        0.54855865,
        -0.2622471,
        -2.3916025,
        -0.40012026,
        -1.0635192,
        0.8046486,
        0.6087485,
        -0.8778282,
        -0.36403367,
        -0.12675907,
        -0.28685054,
        0.76593554,
        0.8728309,
        0.7795493,
        0.45420852,
        -0.8540367,
        0.26079276,
        0.8004822,
        0.6709876,
        0.09957262,
        -0.015730957,
        0.1912661,
        1.0668939,
        2.5600638,
        -1.6013664,
        1.690941,
        -0.76905257,
        -2.0321445,
        -0.51283747,
        -2.6363757,
        2.2079215,
        0.66061366,
        0.73124236,
        -0.53191906,
        -0.187436,
        -1.1285917,
        0.04034972,
        1.7419667,
        0.9012108,
        1.4304757,
        1.8102763,
        0.95769936,
        -0.48017037,
        -0.5255152,
        -1.4513956,
        0.23983441,
        -1.8190241,
        0.24863398,
        1.1719568,
        -1.0578649,
        -0.78833663,
        0.8216472,
        -1.6822184,
        0.68260354,
        -0.5707302,
        -0.38077343,
        0.048629638,
        -0.3583196,
        1.1216738,
        -0.31122294,
        -0.4023952,
        1.2626233,
        0.7596647,
        0.104053915,
        -0.51777375,
        0.14156729,
        0.79058814,
        -0.7510305,
        -1.1387172,
        -1.3857951,
        -0.82249004,
        -1.0546565,
        1.4507324,
        -1.7362925,
        0.68240535,
        0.17070818,
        -1.5942205,
        2.7761168,
        0.0051491144,
        0.09211604,
        0.5712907,
        1.3536657,
        -0.06717394,
        2.1923387,
        0.010672986,
        -0.2195815,
        0.6103231,
        -0.84593004,
        0.33981603,
        1.4032539,
        -0.49008718,
        1.0554988,
        -0.022311727,
        -0.675624,
        1.0880579,
        0.4447548,
        0.18602258,
        0.18598278,
        -0.09359923,
        -0.19636428,
        -1.3166779,
        -0.19531827,
        0.24099721,
        -0.6368001,
        0.31903106,
        -0.7799629,
        2.0298274,
        1.387874,
        0.28988117,
        0.60851556,
        0.75852305,
        0.7660651,
        -0.13722786,
        0.55436933,
        0.28123137,
        0.24921598,
        0.5065263,
        -0.18003145,
        -0.70647484,
        0.47628534,
        0.628371,
        0.7520276,
        -0.7191315,
        -0.8189877,
        -1.4173232,
        0.64918,
        -0.08095491,
        1.0464753,
        -1.2691089,
        0.7544283,
        -0.34666076,
        1.4317673,
        0.06871336,
        -1.081237,
        0.27163237,
        -0.4705503,
        -0.12372483,
        1.2719858,
        1.6196656,
        -0.25565886,
        -1.1167083,
        0.9873051,
        -1.1264212,
        -0.9617761,
        -0.30310035,
        1.2053883,
        0.09983413,
        1.3680229,
        -1.5767816,
        -1.2499695,
        -0.14041209,
        -0.5873203,
        -1.1213351,
        0.84710294,
        0.510269,
        -0.25510854,
        -0.6997215,
        -1.7602336,
        -1.1646124,
        0.92381674,
        1.6368859,
        0.99400735,
        -1.1292793,
        -0.7787531,
        -0.034475014,
        0.56272113,
        -0.47097123,
        -0.11818626,
        -1.4175853,
        0.2663926,
        -0.67725146,
        0.8961957,
        -0.5036899,
        -0.23350987,
        0.33977926,
        1.212582,
        0.02815992,
        0.052636474,
        -0.051653303,
        1.0598257,
        0.8479276,
        0.4059086,
        2.1720781,
        -1.2021298,
        -1.0227655,
        2.0654204,
        -0.39085862,
        0.47272715,
        -0.8279706,
        -0.6124753,
        1.1059039,
        -0.37038672,
        -0.16394244,
        1.7525022,
        -1.1769364,
        -0.3176936,
        1.4256173,
        0.6828025,
        -0.18833837,
        0.77807075,
        0.17683399,
        -0.46023402,
        2.4847114,
        -0.20123975,
        0.7677419,
        -0.72876364,
        0.7977818,
        0.68229496,
        -0.3936549,
        0.63006896,
        -1.0647416,
        -0.4499416,
        -1.3579812,
        1.2376497,
        0.4533191,
        -0.56055605,
        -0.6896403,
        -0.48033318,
        0.8657527,
        1.4496201,
        0.35878745,
        -1.0518885,
        1.0686852,
        1.3171501,
        1.0605426,
        0.79656917,
        0.10359493,
        -0.04942241,
        1.2107637,
        0.4291491,
        1.8265415,
        -1.5420032,
        -0.5671212,
        0.13671611,
        0.3024518,
        0.22237162,
        -0.73782796,
        -0.81185365,
        -0.22891262,
        0.33493826,
        -1.6521857,
        0.040115155,
        -0.3422424,
        0.5507343,
        -0.40711886,
        -0.33645773,
        -0.7614359,
        -0.7155595,
        1.56685,
        0.1519968,
        2.110126,
        -0.9537537,
        0.62556905,
        0.784473,
        -0.5972631,
        -0.19183387,
        0.21271802,
        -0.0656227,
        0.0035432163,
        -0.7485391,
        -0.31170872,
        -0.1063468,
        0.23668805,
        -0.55946773,
        -1.4576886,
        0.110915214,
        1.0784386,
        1.526972,
        1.1622015,
        -2.2573676,
        2.639451,
        1.3762013,
        -0.8807564,
        -0.82344836,
        1.5122006,
        -0.0883599,
        1.3084304,
        -1.561834,
        -2.2649946,
        -0.8111921,
        0.1550227,
        2.3160315,
        0.61616904,
        0.19373488,
        1.0120986,
        0.9376278,
        -0.7728228,
        2.088372,
        1.3667692,
        0.23622574,
        0.6456271,
        -0.75679606,
        0.75113577,
        -1.6807395,
        -0.3420447,
        0.432378,
        1.3328515,
        1.4717525,
        0.121689595,
        0.24794322,
        -1.0800246,
        0.46657926,
        0.12923376,
        0.5212534,
        0.6376421,
        0.8022716,
        1.7000858,
        -0.6529131,
        0.13047628,
        0.14337415,
        -0.8285946,
        0.22761104,
        -0.3194068,
        -0.80767524,
        0.82485235,
        -0.15854305,
        -0.7788665,
        1.1650797,
        -1.1579906,
        -0.7259704,
        -0.6836562,
        0.21346836,
        -0.5542116,
        1.2371584,
        0.6544541,
        -0.9754611,
        -0.21609843,
        -1.2234766,
        -0.22965208,
        -0.53142464,
        -0.05253208,
        -0.2760351,
        0.6206062,
        -1.4611055,
        -2.4256797,
        0.49450862,
        -0.106813625,
        0.41495714,
        -1.4140341,
        -0.4718523,
        1.458245,
        -0.4092723,
        -0.22054577,
        1.2430786,
        -0.41426036,
        0.464078,
        -0.3240375,
        0.27829123,
        0.13523948,
        -0.034513824,
        1.1564339,
        0.9325633,
        -1.373112,
        1.0055138,
        -1.0218796,
        0.74274397,
        1.7200133,
        -0.060759824,
        -1.1998898,
        2.0959792,
        0.79907966,
        -0.31203774,
        -1.1210508,
        0.40805283,
        -0.23208965,
        -1.1425635,
        -1.8946944,
        1.0693655,
        1.5493884,
        -1.283509,
        -0.21736388,
        -1.2677008,
        0.8236625,
        0.101773515,
        -0.3063938,
        -0.70935273,
        -0.087741934,
        -0.17931405,
        0.9123597,
        -0.7667691,
        -1.2576468,
        -0.62703,
        -0.39948067,
        1.122517,
        0.61218745,
        -0.5899422,
        -1.8024845,
        0.3428029,
        1.0770162,
        -1.0051798,
        0.22281566,
        -0.037919693,
        -0.9183708,
        1.5893886,
        0.008399206,
        -0.5964526,
        0.40803447,
        2.1161828,
        0.9785833,
        0.2521121,
        1.8468267,
        0.71127987,
        -0.80655235,
        0.36433235,
        -0.23437119,
        0.21907854,
        -1.3758439,
        0.52674323,
        -0.8251973,
        0.088372715,
        -2.3282487,
        -1.4294865,
        -0.93598586,
        -1.2430197,
        -0.5635221,
        -0.18783155,
        -0.27343595,
        0.8285743,
        0.19995742,
        -1.1208323,
        0.7659954,
        -0.67278993,
        0.20101546,
        1.0155007,
        -0.3736799,
        -0.48053828,
        -0.088520065,
        -1.2572457,
        -0.35350326,
        -1.1262311,
        0.18692988,
        -2.2378345,
        -0.6656451,
        0.017567249,
        0.4512954,
        -0.52422875,
        0.99707794,
        1.8480216,
        -0.04199179,
        0.42790526,
        0.010966064,
        1.2837104,
        -0.29216945,
        0.9423608,
        0.6417191,
        0.5921769,
        0.062709376,
        0.42063618,
        0.14619188,
        -1.7142416,
        1.2193265,
        -0.29157662,
        3.053051,
        1.3826834,
        0.5889179,
        -1.1300908,
        0.15979363,
        -0.95186126,
        0.26270598,
        -1.7682247,
        0.547322,
        -0.76859903,
        3.0063655,
        -0.24458851,
        0.5384962,
        0.22941482,
        -0.30238602,
        0.15732634,
        -0.9140607,
        0.8019724,
        0.67740935,
        -0.06108567,
        -0.43088976,
        -0.8138454,
        -0.039107725,
        -0.94789976,
        1.402047,
        -0.7542299,
        -0.75409544,
        -1.6399152,
        0.69331646,
        1.4250185,
        -0.97522736,
        0.104728915,
        2.2923684,
        -1.0209962,
        0.30082998,
        -0.013409538,
        0.34956202,
        1.5452546,
        0.16383116,
        0.23598304,
        -0.40836617,
        0.35031748,
        0.27816215,
        -0.46282664,
        -1.8301392,
        1.4944156,
        0.27636418,
        -1.1140226,
        -0.41077596,
        1.7905234,
        0.9134553,
        -0.8607445,
        0.78804106,
        0.114042826,
        0.14587557,
        -0.9007534,
        -0.013244475,
        -1.5020093,
        1.1481453,
        -0.44449702,
        0.8833576,
        0.230015,
        0.17694107,
        -0.039335947,
        1.6244775,
        0.33420667,
        -1.7666156,
        -0.69513917,
        -1.2987605,
        -0.18914112,
        0.26463357,
        -1.0787519,
        0.57348955,
        -0.54796875,
        1.3377136,
        0.6924673,
        -1.094432,
        -0.12026085,
        1.7511942,
        -0.68858564,
        -1.4001832,
        -0.94130474,
        -0.07581139,
        -0.17007889,
        -0.33352047,
        2.4758067,
        0.26102865,
        0.5940857,
        -0.7947898,
        0.14896049,
        -1.36585,
        0.5219211,
        0.3011063,
        -0.8085399,
        0.12583664,
        -0.659893,
        -0.16041417,
        0.80640703,
        -0.65797067,
        1.9248326,
        -1.1210827,
        -1.4311208,
        0.5020957,
        -1.2656003,
        2.2546992,
        -1.941769,
        0.48329842,
        0.11090965,
        0.3091282,
        1.016477,
        -0.5663686,
        -2.4734263,
        -1.8511246,
        -2.4408321,
        -0.32378605,
        -1.4647123,
        0.4796821,
        -0.71958023,
        -0.4567587,
        -1.3363428,
        0.1402193,
        -1.3096287,
        1.5960017,
        0.49791157,
        1.0707139,
        0.34211957,
        0.014851913,
        0.9274246,
        -1.3662838,
        1.3117129,
        -0.35036138,
        -0.33243012,
        1.7301714,
        0.9440881,
        0.41360462,
        2.5406234e-7,
        1.2771116,
        -1.0290055,
        0.41211984,
        -0.11602552,
        0.6030929,
        1.0195401,
        0.87876236,
        1.4986595,
        -0.86250716,
        -0.035590135,
        0.06223429,
        1.1751786,
        -1.2101692,
        -1.8603861,
        0.49532834,
        -0.22671638,
        -0.8663343,
        0.7847368,
        -1.5004766,
        0.7871867,
        0.6448447,
        0.10402364,
        -1.0879025,
        1.1527646,
        0.47044137,
        1.4104823,
        -0.9133475,
        -1.3766302,
        1.9327582,
        0.9361055,
        1.87467,
        -1.55443,
        0.2958837,
        -0.89450276,
        -1.5191011,
        0.47818708,
        -0.98780704,
        1.2445486,
        -1.1872245,
        1.0916959,
        0.49347773,
        2.1246607,
        -1.0279145,
        -0.24278659,
        -0.28146908,
        0.3011202,
        1.4932024,
        -0.55874175,
        -0.58157766,
        -0.4503313,
        -0.6650497,
        0.3114422,
        -1.1919174,
        0.04654711,
        0.10268934,
        2.3014135,
        1.0213236,
        0.14406413,
        -0.7694608,
        1.7168256,
        1.0579667,
        1.4976943,
        0.9045216,
        0.25983512,
        -0.58042145,
        -0.7840097,
        -0.20904458,
        1.838584,
        -2.1619616,
        0.39181975,
        1.031928,
        1.1687305,
        3.0933924,
        -0.96595526,
        -1.2969152,
        0.4796522,
        0.8072901,
        0.17278744,
        -0.5565938,
        0.042127904,
        1.0065846,
        1.561057,
        0.23933885,
        0.95077217,
        0.8240081,
        -1.7869934,
        -1.6048151,
        -1.4425888,
        1.2798977,
        1.0157402,
        -0.29457742,
        0.21361455,
        0.07494511,
        -0.95446706,
        0.47419158,
        -0.33493257,
        1.3747559,
        0.4133869,
        -0.9197661,
        -0.32896093,
        -1.582662,
        -0.6533033,
        -0.15886252,
        -0.12592591,
        -0.26667172,
        0.45589408,
        -0.36261776,
        1.1556805,
        0.8195254,
        2.6535397,
        -1.0684749,
        0.1475139,
        -0.3604376,
        -0.27069363,
        0.48400384,
        -0.6275223,
        0.69943374,
        -1.4663818,
        -1.8207171,
        -1.2561681,
        1.2513299,
        -0.38857883,
        0.23723708,
        -1.5999933,
        -1.0008986,
        0.008008084,
        0.9743288,
        0.24618682,
        -0.61345655,
        -0.60311633,
        1.5076154,
        0.5410654,
        -0.42751873,
        -0.75848067,
        0.40146437,
        0.7507631,
        0.16080521,
        0.4215187,
        -1.0696934,
        1.1199617,
        -0.21416691,
        -0.37457085,
        0.07960969,
        0.2482879,
        2.1721044,
        0.11039406,
        0.071408264,
        0.30093372,
        0.97045285,
        1.3936763,
        0.2276132,
        0.47041062,
        1.5545503,
        1.733314,
        1.9997071,
        -0.5671607,
        -0.32915208,
        0.8756168,
        -0.60597354,
        -0.63401955,
        3.2709668,
        -1.0716435,
        -0.30209425,
        1.7537041,
        1.5671445,
        -0.74065113,
        -0.16940112,
        -1.0711191,
        0.6804465,
        -0.9657874,
        0.40292963,
        -0.012130939,
        -1.3044097,
        -0.91652435,
        0.9514769,
        -0.500202,
        -0.24972266,
        -0.29899192,
        -0.88702947,
        0.8026517,
        0.34092116,
        -1.2270513,
        0.38484132,
        -1.908906,
        -0.62361836,
        -0.7471651,
        -0.3815665,
        0.1111002,
        -0.75375557,
        0.80933565,
        2.5130632,
        -0.98579484,
        -1.5559688,
        0.12366015,
        1.5365009,
        -1.7004136,
        -1.3084056,
        -0.53170395,
        -1.0275929,
        1.0461794,
        -1.2719755,
        1.0277715,
        0.8478975,
        -0.9308864,
        -0.24486062,
        0.68134344,
        -1.3951224,
        0.05398593,
        -0.3402055,
        -1.5447117,
        0.13123626,
        -0.89558583,
        0.09190487,
        0.037457656,
        -1.3532872,
        -0.22193484,
        -0.88192064,
        -1.2525009,
        0.24744596,
        -0.9997155,
        1.6823708,
        0.00096698955,
        0.66691846,
        -1.063818,
        0.7588099,
        -0.35307702,
        -0.112360634,
        -0.47588322,
        -1.0233613,
        0.22959849,
        -0.8897092,
        -0.45949706,
        0.1512517,
        -0.5655002,
        1.2596749,
        -0.234801,
        0.97024643,
        0.32525837,
        -1.9843876,
        0.35202637,
        -1.1919386,
        -0.5163282,
        0.061580718,
        -0.7385656,
        -0.7511885,
        -0.28474867,
        -0.466496,
        2.3663862,
        -0.42476767,
        -0.3162707,
        1.2949923,
        -0.05530425,
        -0.38757288,
        1.6443417,
        0.9022648,
        -0.81925005,
        0.2504621,
        0.22463033,
        2.6077662,
        0.81863856,
        0.39599496,
        0.2626232,
        -0.18336537,
        -0.64239967,
        -0.43405494,
        -0.905374,
        -1.3325636,
        -2.0398204,
        -1.4752934,
        -0.6035383,
        -0.084362306,
        1.4646741,
        0.5831234,
        -1.064383,
        0.15935773,
        -0.8167118,
        -0.5639828,
        -1.0100678,
        1.2408276,
        -2.3310132,
        1.3214703,
        1.9163145,
        1.7954607,
        -0.01147264,
        -0.32786986,
        -0.84084386,
        -0.8005082,
        0.61407375,
        2.314727,
        1.7027985,
        -0.84797066,
        -0.23205638,
        0.5717488,
        0.5688414,
        1.1217744,
        1.3748678,
        -0.8004279,
        -1.40225,
        0.6305205,
        0.07935385,
        0.22046514,
        0.41105944,
        0.9561985,
        -0.12359521,
        -0.906707,
        0.07942455,
        0.49354187,
        -0.19463037,
        0.19885617,
        -0.07424069,
        -0.6307276,
        1.0852039,
        -1.530252,
        1.8693024,
        -0.17269273,
        0.30562374,
        -0.563899,
        0.84516287,
        0.63826466,
        1.617666,
        1.0194467,
        0.121241085,
        -0.56292564,
        0.91309994,
        0.26579818,
        -0.13302076,
        0.35430002,
        -0.8676709,
        -0.19151096,
        -0.13886493,
        -0.85805213,
        -0.6415585,
        -1.4900631,
        -1.0151352,
        -0.7666794,
        -0.78245705,
        -0.23465107,
        0.46161252,
        -0.69857883,
        0.8895693,
        0.4854552,
        1.8064289,
        -0.7025672,
        0.13055934,
        -1.77549,
        -0.17242207,
        -0.41638896,
        -1.0074041,
        1.0349193,
        0.7843502,
        0.51348114,
        0.57236934,
        0.07541841,
        -0.38014987,
        1.2894876,
        -0.34686872,
        0.118124336,
        0.9607704,
        -0.25551134,
        1.0699657,
        0.376073,
        -1.6042285,
        0.29173693,
        -0.35197526,
        1.1298777,
        -0.13834445,
        1.0327438,
        0.53371805,
        -1.4273192,
        -0.46409988,
        1.1084907,
        -0.56739557,
        -0.4349832,
        1.1271029,
        0.08272775,
        -1.1775496,
        -0.59555596,
        -0.43715572,
        -1.4961576,
        1.1538656,
        0.3887741,
        -0.9654641,
        -1.5995843,
        -0.5452562,
        0.71841544,
        -1.7707644,
        0.007671938,
        0.952868,
        -0.38899246,
        0.5545918,
        -0.7014933,
        -0.22043647,
        -3.1075714,
        -0.04120297,
        0.22398807,
        -0.39699683,
        -1.0421689,
        -0.62231326,
        0.45416293,
        -0.08755584,
        1.1173204,
        -1.1353229,
        -1.2752291,
        0.50918806,
        1.2037022,
        1.0152031,
        -1.3332524,
        -0.22954446,
        -0.2821216,
        1.1552621,
        0.11474789,
        0.17839554,
        -0.50007373,
        -0.6959383,
        -0.30172512,
        -0.76802623,
        -0.8423925,
        0.138694,
        -1.7983985,
        3.3084867,
        -2.0414028,
        0.13770255,
        0.6866923,
        0.83460265,
        0.35223377,
        -0.56525475,
        1.0366949,
        -0.8345901,
        0.9786443,
        1.1679337,
        0.9218471,
        -0.46028927,
        -0.67532945,
        1.2679396,
        -0.13891415,
        1.5569643,
        0.7295029,
        0.7454741,
        0.12713176,
        0.12630509,
        0.6330646,
        -0.3563538,
        -0.94899184,
        0.34089342,
        -0.0007093288,
        -1.514002,
        -0.6775033,
        -0.60485584,
        -1.3644234,
        -0.3290333,
        -0.96870124,
        -0.0059221084,
        -1.574869,
        -0.16275646,
        0.5147982,
        1.0114673,
        -0.43550375,
        1.0749236,
        2.138883,
        -1.9068422,
        0.2603773,
        1.4888103,
        -3.032541,
        -0.29068133,
        -1.616872,
        1.282531,
        0.004724623,
        -2.1948655,
        0.90509635,
        0.63478947,
        -0.5644013,
        -0.6983934,
        -1.3312069,
        0.5780462,
        0.67194,
        -0.6863509,
        0.6679322,
        -1.4580964,
        0.4111361,
        0.59741384,
        -0.77847564,
        -0.6718786,
        -0.14490663,
        -0.02536347,
        0.18803404,
        -0.55991846,
        -0.37061802,
        1.0982445,
        -0.61191934,
        -0.099951096,
        -0.6892802,
        2.4414902,
        -0.3305216,
        0.21137778,
        -1.8243613,
        -0.6461203,
        2.0204382,
        0.47077107,
        0.98929095,
        -0.44985747,
        1.0188864,
        0.44407073,
        0.6278242,
        0.59068626,
        -0.5732933,
        -1.4072609,
        -0.19137946,
        0.88114226,
        0.10369711,
        -0.08709038,
        0.004002068,
        -0.04433677,
        0.19330287,
        -0.57045645,
        -0.28696108,
        1.4307069,
        0.19131109,
        -1.0627457,
        -1.1608931,
        0.35801744,
        -0.109605424,
        -0.6703968,
        -0.97828597,
        0.25859928,
        -0.48186657,
        -0.027798718,
        -0.40500048,
        3.9540975,
        2.364413,
        -2.058264,
        -0.90725935,
        0.7085572,
        -0.2369917,
        -0.6886399,
        0.18911883,
        0.09122761,
        -0.615599,
        0.048852634,
        0.50584865,
        -0.3919478,
        -0.17578678,
        -0.087693,
        0.9390256,
        -1.7297379,
        -0.7032333,
        0.009496974,
        1.3059578,
        -0.18289588,
        0.7404506,
        0.3720777,
        1.4694442,
        -1.1425005,
        -0.67813003,
        -2.1169724,
        0.68760663,
        -0.5386305,
        0.6104187,
        0.9145065,
        -0.2706305,
        0.25040597,
        -0.4705394,
        -0.3385704,
        0.2727222,
        -1.0085847,
        -1.0666621,
        0.12013405,
        1.1312664,
        -0.23122144,
        0.6307747,
        0.46371475,
        1.4549712,
        0.066841714,
        -1.6079186,
        3.0029407,
        -0.31879383,
        0.93439025,
        0.2663873,
        0.4083209,
        -0.18697973,
        0.5732451,
        -1.6632744,
        0.11819395,
        -0.93102646,
        -1.3698001,
        1.4475709,
        -0.53997916,
        0.38930357,
        0.23443387,
        -1.6732694,
        0.40163535,
        0.68596935,
        -0.1704163,
        0.2509582,
        0.46096402,
        -0.46346784,
        -0.35871357,
        0.9338766,
        0.8457874,
        0.22983146,
        0.4961962,
        0.23851092,
        1.2584038,
        0.3136624,
        0.67693096,
        -0.21000819,
        -1.4213923,
        0.7181447,
        -1.458736,
        -0.18596344,
        1.5671583,
        -0.51875305,
        0.2874641,
        -0.22403878,
        -0.27304405,
        -0.7315111,
        -1.012369,
        -0.68317795,
        0.2450487,
        0.6225046,
        -1.1127737,
        0.5122825,
        -0.15839525,
        0.4192517,
        -0.9697076,
        -0.3087843,
        -1.7825974,
        1.872233,
        1.013989,
        -1.6778787,
        0.14784859,
        -0.8957057,
        0.6577155,
        -0.6388485,
        1.2012007,
        0.4344252,
        -0.4668966,
        1.0999457,
        -0.27137068,
        0.020790087,
        -0.7201686,
        -1.0984207,
        1.2688305,
        -0.16867442,
        0.8353231,
        0.51117665,
        0.19352156,
        0.22742698,
        0.27874848,
        -1.1557,
        1.5619503,
        -0.91893023,
        -0.23878935,
        -2.0961368,
        0.4694079,
        1.5326008,
        1.6830217,
        0.23323834,
        0.7841747,
        -0.02667383,
        0.5805516,
        0.6527899,
        0.4785112,
        1.278886,
        -0.2884736,
        1.6250666,
        0.95896375,
        -2.2296836,
        -0.33985767,
        -1.2693803,
        0.3177411,
        -0.74709797,
        -0.32353017,
        0.42734793,
        0.486962,
        1.3472552,
        -0.16998345,
        -1.7634468,
        -0.056639053,
        1.7277312,
        1.5723853,
        -0.6651877,
        -0.39593187,
        -0.446034,
        0.13449346,
        -0.057642657,
        2.077339,
        0.77902436,
        0.016957128,
        -0.20107283,
        0.024691649,
        0.7817914,
        1.7342565,
        -0.8153388,
        1.1551012,
        0.7401675,
        -0.8559728,
        -2.2643988,
        1.1941015,
        -1.0462587,
        -0.89149725,
        1.2342864,
        1.1057748,
        -0.22112808,
        2.7384183,
        0.051894493,
        -0.3897902,
        0.9226058,
        -0.083957605,
        -0.501936,
        0.43308526,
        0.47132525,
        -1.7059703,
        0.34137133,
        -1.397388,
        -0.15566382,
        -0.92155397,
        -0.11850121,
        2.2600992,
        0.9367435,
        -0.0822475,
        -1.3101739,
        -0.65014017,
        -0.52476364,
        1.7106642,
        -1.1123059,
        -1.3427731,
        -1.4784259,
        -0.5336995,
        1.0995378,
        -1.1312811,
        -0.8880493,
        1.8829423,
        -1.6897955,
        0.47742155,
        -0.5081672,
        -0.8310376,
        -0.54994917,
        -0.5216165,
        0.3478859,
        0.06753763,
        -1.4986347,
        -0.3329807,
        -0.04084706,
        -1.0554378,
        -1.1212404,
        0.07369247,
        -1.44129,
        0.133819,
        1.8592852,
        -0.04443373,
        -0.47664198,
        -1.7252277,
        -1.5072523,
        -0.26097533,
        0.77133715,
        -2.3164203,
        -0.87823564,
        0.17119375,
        0.9158698,
        1.7103696,
        -2.6960006,
        -0.2287131,
        -0.19670357,
        0.8687931,
        -0.4952721,
        -0.92054623,
        0.7552216,
        0.8812992,
        0.6109576,
        -1.3064573,
        0.79930884,
        0.60614765,
        -0.35922226,
        -1.0145613,
        1.2088779,
        0.2659129,
        -1.6555744,
        0.76162565,
        0.21959327,
        -0.25739944,
        0.58448833,
        0.46212536,
        -0.13280332,
        1.9964765,
        0.27096394,
        0.1509994,
        1.02448,
        -0.22692795,
        -0.21682225,
        0.8692405,
        1.1776223,
        -0.5267306,
        0.052784912,
        -0.011773221,
        1.6281421,
        -0.8341681,
        1.6940573,
        2.3772006,
        0.2863125,
        -0.08918252,
        -2.119534,
        0.4435806,
        0.4886908,
        -0.5117818,
        -0.4752757,
        -1.798673,
        0.9564931,
        0.5677634,
        0.314722,
        1.8825883,
        -2.0231872,
        -0.16398151,
        1.6669068,
        -0.9421923,
        -0.73286635,
        -1.0217307,
        0.40021285,
        -0.15049149,
        -0.12286487,
        -0.74133664,
        -0.09223155,
        -1.6670445,
        -0.62753606,
        -1.2756437,
        1.1025095,
        0.27223328,
        0.12351002,
        1.1228225,
        0.51708287,
        0.8846217,
        -0.46733522,
        1.2064773,
        0.39216283,
        1.7245796,
        0.2468732,
        -0.19915205,
        0.46375942,
        -0.85285324,
        0.79434425,
        -0.9800491,
        0.14450637,
        -0.81408817,
        -1.3413445,
        -0.9271253,
        0.651035,
        1.2637535,
        -0.86380035,
        -0.31817564,
        1.3546292,
        -0.12510574,
        -1.3922387,
        -0.94561595,
        1.6197051,
        2.8406339,
        0.524328,
        -0.9097798,
        0.8872065,
        -1.0639434,
        0.6567457,
        -1.4848242,
        -0.848721,
        -0.008206542,
        -0.52415466,
        -0.61988837,
        -0.5884119,
        0.37506863,
        1.9096382,
        0.516049,
        -0.2037166,
        1.729527,
        -1.1246017,
        1.4065828,
        -0.75803906,
        -0.5099202,
        -0.75867486,
        0.09340102,
        0.18288757,
        -0.11547163,
        0.0041454,
        0.80110633,
        -0.5632826,
        -0.1734367,
        -0.17341931,
        -2.1779537,
        -0.37923208,
        1.107038,
        -0.10449141,
        0.11243595,
        0.8610698,
        0.44034925,
        0.15353872,
        1.3165919,
        -0.5971805,
        1.4564487,
        -0.44969952,
        0.08093452,
        -0.2656214,
        -0.5531814,
        0.13129504,
        -0.67763656,
        -0.5309909,
        0.44554293,
        -0.39114648,
        1.7950468,
        -0.77904534,
        -0.082070306,
        -0.9993719,
        0.7508207,
        0.57427275,
        -0.44025072,
        -0.79431623,
        0.074222974,
        1.3726922,
        -2.2224784,
        1.2630695,
        0.3247737,
        -0.85674447,
        0.6559668,
        0.57386965,
        1.2162647,
        0.86288255,
        0.70212716,
        0.28018102,
        -1.5735601,
        -1.2489254,
        -0.93767536,
        -0.96045077,
        -0.57924163,
        0.38975033,
        0.24804233,
        -1.3052362,
        -0.026310874,
        -1.5470395,
        0.65809655,
        1.05267,
        0.44811028,
        -1.3187023,
        0.548027,
        0.99643826,
        1.9671892,
        0.6039691,
        -0.30423883,
        1.7963526,
        0.27765924,
        0.013693791,
        0.37465045,
        0.6013291,
        -2.3432446,
        0.49829,
        -1.3810086,
        -0.362684,
        0.99753255,
        -0.22927034,
        -0.62076646,
        0.4348434,
        -0.4291746,
        0.13109235,
        0.08940385,
        -1.3178055,
        0.5546596,
        2.1024947,
        -0.5180359,
        0.11131265,
        1.3641139,
        -0.59371585,
        0.0826329,
        -1.4211328,
        0.5838254,
        0.72622883,
        1.0221816,
        -1.7657391,
        -0.81102896,
        -0.6096672,
        -0.0014238316,
        1.1393211,
        0.3275193,
        -0.18672429,
        -1.2272528,
        -0.06855573,
        -0.88992697,
        -1.2498832,
        -0.25906673,
        -1.7153047,
        0.062476683,
        0.04446213,
        -0.40938416,
        -0.19408263,
        0.46979564,
        -2.168977,
        1.0031916,
        -1.0710202,
        1.6999978,
        -0.23604001,
        -0.5246052,
        0.8031489,
        -0.21899174,
        0.20945425,
        -0.35479593,
        0.039130945,
        -0.61534125,
        -0.56812114,
        -0.9316027,
        0.1640778,
        0.9399822,
        -0.4614312,
        0.4888509,
        0.34291068,
        -1.018875,
        -1.1150997,
        0.9262411,
        0.675337,
        -0.34853145,
        -0.101910084,
        1.2641317,
        -0.8467946,
        1.6235574,
        -0.80795485,
        0.17586736,
        1.7962476,
        0.37395108,
        1.11226,
        0.022879353,
        1.3481834,
        1.0347705,
        1.1745079,
        -0.5062635,
        -0.64681876,
        0.9661333,
        0.49054554,
        0.36496654,
        -0.4185486,
        -1.346535,
        -0.21952692,
        0.97631425,
        0.4845075,
        -0.5480789,
        1.158734,
        0.30004415,
        -2.1208317,
        0.53353333,
        -1.8150843,
        0.1457538,
        0.06829652,
        1.7303649,
        0.3332701,
        0.21528582,
        0.10544256,
        0.93141156,
        1.328594,
        1.2698656,
        1.5703691,
        -0.5666746,
        -1.8676709,
        1.7294656,
        -1.4421766,
        1.1977912,
        -1.0693415,
        0.7032788,
        -2.1969082,
        1.1288992,
        0.26598847,
        -0.91069466,
        1.5676812,
        -1.4611487,
        0.8944928,
        -0.18077949,
        1.4288741,
        0.82481104,
        0.270215,
        0.11949435,
        -0.49848813,
        0.37951156,
        -0.43611115,
        0.75865185,
        1.0962493,
        0.057293996,
        0.14917596,
        0.41420147,
        -0.5409088,
        -0.011515539,
        0.067926876,
        -0.5223908,
        0.24806635,
        -1.1108509,
        -1.5032336,
        0.22684006,
        1.4435024,
        0.08925912,
        -1.1146333,
        -1.9469261,
        -0.33959198,
        -0.65753007,
        -0.1933746,
        -1.2627156,
        -1.0182521,
        1.3377563,
        1.4979494,
        -0.7028538,
        1.2613419,
        1.8639821,
        0.010367883,
        0.08468914,
        0.63634837,
        -0.05463252,
        0.5759478,
        0.44904485,
        0.34095255,
        -1.4409852,
        0.72413206,
        0.4664078,
        0.6226071,
        -0.30615112,
        -2.0228207,
        0.6873364,
        0.5005061,
        0.7819851,
        0.43009952,
        -0.16518697,
        -0.5395522,
        1.0030118,
        0.39841768,
        0.29057688,
        0.77658683,
        0.5398168,
        0.7110912,
        0.8419344,
        -1.3951461,
        -0.51571405,
        1.1732702,
        -1.4617692,
        -2.3884168,
        -0.009933931,
        0.051304627,
        0.23977128,
        0.3585359,
        -0.8501945,
        0.8059161,
        0.5516526,
        -0.17966232,
        -1.07609,
        -0.9557506,
        -0.30448943,
        -1.8771286,
        0.8593608,
        -0.7754573,
        -1.648455,
        -1.739676,
        -1.014565,
        0.23193716,
        0.3340181,
        -0.7225919,
        0.85945475,
        -1.0409224,
        0.16323265,
        0.4503218,
        1.7213322,
        0.69440305,
        -0.0989377,
        -1.1458731,
        0.763818,
        -0.80244803,
        0.08222611,
        -0.53728193,
        0.02967367,
        -1.6637143,
        -0.19596167,
        0.6532666,
        -0.067626484,
        -1.2654706,
        1.3960924,
        -0.28288952,
        0.30304837,
        1.679453,
        2.7893188,
        -0.047763765,
        -0.8622389,
        -0.06554415,
        0.2532118,
        0.5384799,
        0.3586703,
        0.49957177,
        0.37193176,
        -0.38646555,
        0.22793657,
        -0.6674923,
        -0.91368395,
        0.5047343,
        1.3928928,
        0.16027574,
        0.7391521,
        1.7444247,
        1.6354377,
        -0.47788388,
        0.924053,
        -0.7950076,
        -0.08116432,
        1.3279676,
        0.50407225,
        -1.2025143,
        2.3311367,
        -0.4843701,
        -0.15257005,
        -0.6392104,
        -0.6419768,
        -1.2590622,
        0.20558116,
        0.055211328,
        -0.9206308,
        -1.0639869,
        0.57494956,
        1.9249326,
        -0.18637238,
        0.41015178,
        0.5843742,
        0.2847484,
        0.02452406,
        1.177306,
        0.056299597,
        0.52116317,
        1.3008417,
        0.4901774,
        -0.048237476,
        1.1990304,
        -0.088400334,
        -0.7223409,
        -0.8994398,
        0.08368761,
        2.1777663,
        -0.6127074,
        0.13769646,
        0.0866717,
        0.4269064,
        1.6034861,
        0.74060935,
        -1.8173935,
        0.22287138,
        -0.502043,
        0.68871444,
        0.07602625,
        0.5466644,
        0.073594026,
        -1.6121138,
        -1.1547853,
        -0.9176069,
        -0.2489255,
        -0.7721098,
        0.8687113,
        -0.5525413,
        -1.722032,
        -1.0685734,
        -0.44083422,
        -1.1283325,
        -0.025952758,
        0.26679397,
        -0.5379855,
        0.24235415,
        1.0254456,
        -0.69542354,
        -1.6464236,
        -0.8514522,
        -0.2827189,
        -0.08761701,
        -1.039094,
        1.5298313,
        -0.5316947,
        -0.09181318,
        -0.7039705,
        -1.5141556,
        1.1349456,
        1.8865771,
        1.327275,
        0.14179647,
        0.16560103,
        -0.18318985,
        0.0016176832,
        -0.6301981,
        0.6070344,
        -1.3657601,
        1.9810566,
        -1.3007126,
        -0.019959165,
        1.4708003,
        1.3659117,
        -1.12265,
        -1.8561475,
        -1.5508595,
        -0.19931886,
        -1.0399159,
        -0.37721878,
        -0.593967,
        0.26232117,
        0.50391847,
        -0.79565895,
        -0.5585007,
        1.609538,
        1.3771912,
        -0.931933,
        2.649463,
        0.9944242,
        -0.3550864,
        1.8295643,
        -0.52623683,
        0.21623763,
        -1.9940517,
        0.17141372,
        0.064934604,
        0.37165362,
        0.83986557,
        -0.8911491,
        1.2671456,
        0.9408305,
        -1.046173,
        -0.7610576,
        1.1024256,
        -0.906667,
        0.044355996,
        -0.13850383,
        0.80597514,
        0.5991902,
        0.9614474,
        0.37566745,
        -1.0449549,
        -0.15898216,
        0.34814402,
        1.9409127,
        0.19839881,
        -1.4468262,
        -3.5364668,
        2.0147638,
        0.6779918,
        -2.223481,
        0.45993915,
        0.7161114,
        0.56295455,
        1.0293638,
        -0.06133209,
        -0.4169897,
        -0.59079325,
        -0.87671965,
        -0.058022954,
        0.34394923,
        -2.2343102,
        1.0864393,
        -0.26978528,
        -1.8259746,
        0.96483624,
        -2.3084056,
        1.1002192,
        1.2874354,
        1.8560586,
        -0.547434,
        -0.033960883,
        -1.1120516,
        -0.31467056,
        0.83467823,
        -1.1375093,
        0.00961899,
        -0.19598572,
        0.122130044,
        0.38358858,
        -2.3610494,
        0.3952968,
        0.6139675,
        -0.47099975,
        0.08632347,
        -0.30785996,
        -1.7955052,
        -1.015541,
        2.3190663,
        -1.3480783,
        -0.6509722,
        0.0329706,
        -0.72756714,
        0.4777514,
        0.5595236,
        0.9418423,
        0.4853176,
        1.4205174,
        0.036474314,
        -2.1795592,
        -0.048134822,
        -0.14623114,
        -0.87711036,
        -2.3594801,
        0.033710092,
        1.6201813,
        -0.050697967,
        -1.3162853,
        -1.7958618,
        2.1154747,
        -0.5178745,
        1.6147989,
        0.8978623,
        0.9115525,
        -0.6278696,
        1.0018815,
        -0.34845287,
        2.3644295,
        1.894274,
        0.8176604,
        1.8187592,
        0.50954527,
        1.1737051,
        1.5018058,
        -1.3701149,
        -0.7536133,
        -0.3649794,
        -0.52397424,
        -0.8910259,
        -0.67844725,
        0.543308,
        -0.78302723,
        1.3568168,
        0.41305497,
        -1.3615899,
        -0.045704205,
        -0.7775372,
        -0.59938705,
        0.19503403,
        0.18712516,
        1.5043249,
        1.5093735,
        -0.92565733,
        0.8883516,
        1.5357244,
        -0.27491936,
        -0.82527035,
        1.8699579,
        0.69179976,
        -1.8653395,
        -0.4259229,
        0.14915305,
        0.7574309,
        1.3855867,
        -0.48176065,
        0.1598154,
        -2.264423,
        0.21756417,
        0.5547504,
        1.2822908,
        0.44158122,
        -0.4596533,
        0.5006978,
        -1.3917722,
        0.727035,
        1.4488866,
        0.011985335,
        0.28742382,
        1.5025034,
        0.52801013,
        -0.16424198,
        -0.034334432,
        1.1087185,
        0.45183262,
        0.6671653,
        -0.31660366,
        -1.3402638,
        2.2667608,
        -1.7661935,
        -0.050319463,
        1.4060751,
        0.103409655,
        -2.5336916,
        1.5170491,
        -1.0169004,
        0.38208094,
        0.45384443,
        1.409647,
        -0.77765507,
        1.2626116,
        0.45437202,
        1.2992127,
        -0.47979718,
        -2.104025,
        0.4494208,
        2.1846404,
        -0.8559324,
        0.42220056,
        -0.25048143,
        0.060577773,
        -0.31000808,
        1.0584695,
        -1.7783151,
        -1.1406201,
        0.30328655,
        -0.5150944,
        0.63086474,
        -0.38016775,
        -0.9256046,
        -3.0266385,
        0.8056966,
        0.6987201,
        -0.89370507,
        -0.3081609,
        0.38319618,
        0.13920519,
        1.228926,
        -1.369655,
        -2.0051286,
        1.554178,
        0.7953068,
        0.89674956,
        0.27221212,
        -0.06393111,
        -1.2431947,
        -1.1117594,
        -0.07509517,
        0.6369301,
        -0.72546715,
        -2.2073896,
        -0.59023947,
        1.1095513,
        1.4537814,
        -0.41971034,
        0.6007045,
        -1.9370624,
        -1.3952713,
        -1.2440329,
