{
  "name": "image",
  "parameter_count": 98752,
  "layers": [
    {
      "layer_type": "Linear",
      "name": "Input",
      "index": 0,
      "weights": [
        -0.61248237,
        -0.26407027,
        0.6723734,
        -0.3470548,
        1.635979,
        -0.16747929,
        -1.7401773,
        0.045655817,
        2.0887804,
        -0.94518405,
        0.22705369,
        0.31231743,
        1.1513793,
        -0.766363,
        -0.0731218,
        0.20423475,
        -0.71364874,
        3.9112566,
        -0.53018385,
        3.3968544,
        0.38833752,
        1.5997849,
        -0.9246454,
        2.268653,
        2.678289,
        0.2500116,
        2.1978004,
        -0.78540385,
        0.7328562,
        1.7917521,
        -0.09833856,
        0.47972834,
        -0.7990959,
        -0.25599182,
        0.105643876,
        -1.0529957,
        -0.4177757,
        -1.1902778,
        0.12600586,
        1.918077,
        5.0915713,
        -2.4272876,
        -2.2651863,
        -0.37540373,
        0.19636774,
        -1.0694889,
        2.6165414,
        -0.7894553,
        1.336217,
        1.4502563,
        0.1597159,
        -0.9599554,
        1.8718368,
        -0.19523664,
        -0.28931957,
        -0.5398233,
        -0.15793802,
        -0.5274923,
        2.5123436,
        0.85777825,
        -0.7942721,
        -3.815232,
        3.8170226,
        1.8676443,
        0.0786265,
        0.14847988,
        0.6041011,
        2.3379757,
        1.226343,
        -1.7061003,
        0.84851676,
        -2.9088206,
        -2.2183158,
        2.061319,
        0.7876122,
        -1.5276452,
        -0.8170228,
        1.0432817,
        0.27743402,
        4.132574,
        -1.588278,
        1.3779529,
        -1.374797,
        -0.4317385,
        -0.80755186,
        1.6852692,
        1.336989,
        -2.8255053,
        1.0688847,
        0.10847359,
        1.4761772,
        -0.9853043,
        2.7104754,
        -0.7231437,
        -1.3325993,
        0.32302848,
        1.2704659,
        -0.79417336,
        2.517791,
        0.44866014,
        1.2695017,
        0.91536146,
        0.25597072,
        0.106330335,
        -1.4640902,
        0.7335873,
        -0.43795812,
        -1.5424875,
        1.7530682,
        -0.9011421,
        -0.64600307,
        1.3486238,
        -0.7640815,
        3.4317567,
        -0.8228719,
        -0.26379272,
        0.38578242,
        -0.5752411,
        0.46020082,
        1.25532,
        1.2352333,
        -3.346784,
        1.2565339,
        0.5063142,
        1.1376867,
        -0.2754055,
        -1.5102446,
        -2.0755744,
        1.0826787,
        -0.7984418,
        -0.79893804,
        3.09401,
        -3.760939,
        -0.11500761,
        -1.1419688,
        1.0608373,
        -1.0129082,
        2.660498,
        -0.99076986,
        -0.47638112,
        -4.9098945,
        -0.6477851,
        2.5042968,
        -0.52951324,
        -0.5985092,
        -4.445494,
        -2.4273202,
        -4.5334525,
        1.3727709,
        -0.40312147,
        0.77661324,
        -2.260576,
        -4.090848,
        1.2405,
        -3.390135,
        2.5306606,
        0.7952525,
        -4.4640603,
        0.26476467,
        1.3342491,
        1.7199625,
        5.8690133,
        2.8405643,
        -0.31241667,
        1.5275012,
        1.9057797,
        -2.0045505,
        -0.9443227,
        -5.238197,
        4.16903,
        0.22936404,
        0.7961602,
        -1.7763118,
        -2.9735446,
        -2.977809,
        0.29085857,
        -6.2655287,
        -0.30763304,
        -0.481617,
        1.953229,
        -1.1328685,
        -5.6425557,
        -1.2591989,
        0.50385153,
        0.83155745,
        0.5599102,
        -1.4683709,
        0.13986026,
        5.092793,
        -0.84802455,
        -2.987967,
        -3.4193993,
        3.204099,
        1.0450796,
        2.45963,
        -2.173762,
        -0.6508269,
        3.1542654,
        -2.3170927,
        -1.2766786,
        1.5161022,
        -1.5465609,
        -0.9018051,
        3.604336,
        -1.2392341,
        0.023043454,
        -0.36865097,
        -4.808114,
        -0.17005187,
        1.7885197,
        0.8157154,
        0.67990947,
        0.71023154,
        -0.638162,
        2.3390164,
        6.4246345,
        -1.2356969,
        0.82388926,
        -3.414644,
        -1.0867805,
        -3.4868758,
        1.775202,
        0.010589585,
        -0.9411205,
        -4.25486,
        0.91656595,
        -0.11285026,
        -0.39690548,
        -1.2186497,
        -3.4578283,
        1.5641363,
        3.7475035,
        0.645282,
        2.1199734,
        6.01923,
        0.86754197,
        1.5452707,
        -3.9549525,
        1.0707941,
        1.5056285,
        0.4018516,
        0.008605661,
        -2.1727498,
        0.541857,
        2.3978639,
        1.3993922,
        -1.5185707,
        1.3591994,
        0.6005943,
        1.4443333,
        -1.0650417,
        -3.0856612,
        -5.051201,
        0.07348352,
        2.854956,
        4.067313,
        2.706872,
        0.2440403,
        1.9296682,
        -2.5577028,
        2.1168444,
        3.59452,
        -1.7939192,
        1.1624335,
        -4.6476417,
        1.2724177,
        -1.7013695,
        1.1911072,
        0.50592315,
        2.2167146,
        -1.8431715,
        1.1424103,
        4.2177296,
        -3.3657,
        0.5666903,
        -0.6622919,
        -5.3547173,
        0.87445414,
        1.4009503,
        -1.6167725,
        -0.26088366,
        0.11095264,
        -1.4592727,
        -1.5206003,
        -0.97567475,
        1.8314326,
        1.4203752,
        -1.8382543,
        0.6555423,
        -2.5493007,
        -1.2452362,
        2.060019,
        0.8408981,
        -1.7615136,
        2.291592,
        -2.6589115,
        -2.8257754,
        1.3666102,
        -0.95312226,
        0.9205769,
        0.38389027,
        3.4054945,
        -1.5130416,
        0.34362623,
        1.6499991,
        -1.8976717,
        -3.3633776,
        -2.1262338,
        -0.18480039,
        2.4929354,
        4.084282,
        2.430417,
        1.3654381,
        1.6175033,
        -2.3187249,
        -0.9551637,
        -3.0479016,
        4.967019,
        -3.9872427,
        1.9930924,
        -2.6141903,
        -5.399676,
        -4.2446914,
        -2.6631691,
        -0.27417815,
        2.1720166,
        -0.9161634,
        3.9019163,
        1.002606,
        -2.352716,
        -1.9056647,
        -1.4514453,
        3.1492732,
        -0.15696694,
        -1.1794485,
        -1.6970932,
        -0.2531681,
        1.0693235,
        6.506376,
        0.9773004,
        1.5969509,
        -2.3691566,
        -2.9298773,
        0.26794332,
        2.510842,
        1.4059119,
        -2.1696746,
        3.9206767,
        -3.9258018,
        0.9047381,
        4.9571204,
        -0.22408006,
        -0.52250946,
        -0.08521262,
        -3.2134373,
        -1.0846164,
        0.37336534,
        3.0006695,
        -3.8983502,
        -2.3630192,
        0.2228321,
        0.1238061,
        -2.7496622,
        -0.505074,
        0.15356351,
        3.2845485,
        2.7336931,
        1.4161087,
        -0.47962445,
        1.5253733,
        1.7386342,
        -1.4126489,
        -0.65923357,
        2.3310206,
        -0.49669716,
        -2.377098,
        0.07230126,
        2.6086342,
        -3.4970133,
        1.9040216,
        -0.13562886,
        -0.76837707,
        -2.3987312,
        0.058082137
      ],
      "shape": [
        3,
        128
      ]
    },
    {
      "layer_type": "Tanh",
      "name": "AL 1",
      "index": 1,
      "weights": [],
      "shape": []
    },
    {
      "layer_type": "Linear",
      "name": "HL1",
      "index": 2,
      "weights": [
        -1.0284239,
        -0.64596343,
        -0.7079851,
        -0.67744887,
        0.6992455,
        -1.1167456,
        0.48460513,
        0.18352509,
        0.31848976,
        1.2452924,
        -0.5724113,
        2.6604002,
        1.5843828,
        0.37266457,
        -0.21977362,
        -1.5189512,
        -0.29055867,
        0.82321143,
        -0.38754565,
        -0.2037213,
        0.029835789,
        0.34148842,
        1.0995312,
        0.17679992,
        0.60392356,
        -1.6516939,
        0.055695977,
        -0.579065,
        -0.50975704,
        1.9121431,
        0.73526245,
        1.0787929,
        -0.7791001,
        -1.2468896,
        0.31050777,
        2.44857,
        0.25636545,
        -0.9538435,
        -0.9877604,
        2.0497773,
        1.4562068,
        0.7028401,
        -0.008624895,
        1.0687336,
        1.356668,
        -1.2003484,
        -0.15268414,
        1.8811023,
        0.600569,
        1.7797706,
        0.691728,
        0.1135758,
        0.89962375,
        -2.2287545,
        1.1231767,
        0.7860812,
        -0.75315017,
        -1.5548896,
        -1.705265,
        -0.63487655,
        0.3704388,
        1.376865,
        0.1144793,
        -0.416523,
        -0.3111216,
        0.69564164,
        -0.52736586,
        -0.8083908,
        -1.304057,
        -2.1297734,
        1.6840372,
        -0.30200955,
        -0.033038463,
        0.96096796,
        1.3074994,
        -0.6851921,
        2.1540856,
        0.63278806,
        -2.1778123,
        -0.30929604,
        0.76342934,
        -0.06942084,
        -0.19444734,
        1.2880116,
        -2.9651434,
        0.19036117,
        0.74161744,
        -0.49765837,
        0.18751237,
        0.7780455,
        -0.0957002,
        -2.5805442,
        0.21069838,
        -1.1645603,
        0.36189136,
        -0.65582544,
        -0.8004509,
        -0.2974561,
        -1.4978184,
        -0.7985695,
        0.8929216,
        0.29016045,
        0.3021036,
        0.6700954,
        0.7538288,
        -0.55449885,
        -1.0227704,
        -1.2027603,
        -1.5942378,
        0.9975202,
        1.2999538,
        -0.55567616,
        0.7225274,
        0.09120891,
        0.70216894,
        -0.88891786,
        0.51779115,
        -0.5795943,
        1.3108773,
        -1.3254193,
        2.262184,
        0.9573279,
        1.1535622,
        0.93552274,
        0.41557214,
        1.1010936,
        -1.2617905,
        -1.443706,
        0.7452983,
        -1.1191558,
        0.050196223,
        -1.0634446,
        -1.7284063,
        -0.16620493,
        0.17537731,
        -0.2857715,
        0.8935722,
        0.64758754,
        0.97170246,
        0.41063458,
        -1.1127421,
        -0.48160094,
        0.9687067,
        0.0078662215,
        -1.5956241,
        -1.8393593,
        -0.6812727,
        0.8413547,
        0.24924293,
        -0.58072436,
        -0.05876981,
        -0.67993015,
        -0.045684893,
        0.12585533,
        0.43457526,
        -0.025927443,
        -1.310446,
        1.6037712,
        -0.72404325,
        -0.2963181,
        0.7025709,
        0.36120498,
        -1.2105656,
        1.1782846,
        -0.3044399,
        1.0195163,
        0.14713739,
        -0.39712805,
        2.6324005,
        -0.35267606,
        0.13561274,
        -0.5613921,
        0.7396293,
        -0.4466153,
        -0.7308613,
        0.90987366,
        -0.66768485,
        -2.769173,
        -0.73666525,
        -0.66895235,
        0.79636264,
        -1.4371116,
        0.7216015,
        -1.3419099,
        0.3482358,
        1.6638184,
        2.233694,
        -0.2427991,
        0.17818223,
        0.39038917,
        2.056581,
        0.5945808,
        -0.4647971,
        -0.22047792,
        1.173603,
        0.33598801,
        -2.7443209,
        0.17279224,
        -0.039864335,
        0.94058144,
        -1.0860933,
        -0.3198833,
        0.31668898,
        -0.14102875,
        -2.2045038,
        0.3701747,
        -0.4583975,
        -0.38384575,
        -0.58463526,
        0.20359692,
        0.3216268,
        -1.4991727,
        -0.4426689,
        -1.2413479,
        -1.6945817,
        0.3080844,
        -0.7039126,
        -0.60939896,
        -0.20928062,
        0.8870116,
        0.3739461,
        -1.6578188,
        -0.91124064,
        -1.3660241,
        -1.0401071,
        0.24881735,
        -0.29786697,
        -1.4686621,
        0.42475012,
        0.36686498,
        0.1821926,
        1.6654849,
        0.30485046,
        0.85370433,
        -1.1435575,
        -0.2871904,
        0.12684889,
        -1.0598128,
        0.44427022,
        -1.8288482,
        -1.033909,
        -0.023594663,
        -0.72293943,
        1.0306178,
        1.4760104,
        -0.81874096,
        -0.3069283,
        -1.7671523,
        0.5221914,
        0.03570933,
        0.25872847,
        -1.0100235,
        0.45033842,
        0.24533498,
        -1.067378,
        1.1549004,
        -1.5209069,
        0.43927035,
        -0.019236447,
        0.8132101,
        0.32864067,
        2.572048,
        -0.7372593,
        -0.4450986,
        -2.0638742,
        0.73928535,
        -1.2220916,
        0.0018079946,
        -1.8721261,
        0.030333525,
        -1.2514518,
        -1.2558812,
        0.06528074,
        0.38285208,
        0.17455204,
        -0.73534966,
        0.66168106,
        -1.1204206,
        -1.128027,
        0.48179018,
        1.2678069,
        0.65791976,
        -1.1456362,
        -0.063321374,
        0.17852946,
        0.26640972,
        -1.3528026,
        1.982351,
        -0.2478943,
        0.76425606,
        -0.4269531,
        0.36786872,
        -1.4671143,
        -1.2219008,
        0.40361807,
        0.8275242,
        -0.08134777,
        0.44591078,
        0.6396282,
        -1.3413663,
        -0.9542935,
        1.5658301,
        -0.0076039145,
        -0.26811284,
        0.26810548,
        2.305404,
        -0.3800866,
        1.4917656,
        -1.1318932,
        -0.4346799,
        -1.3314147,
        -1.2932307,
        -0.4938782,
        1.2107373,
        0.19582103,
        0.7428724,
        -0.72685397,
        1.141988,
        1.3862779,
        1.0919899,
        -0.96507776,
        -1.0976284,
        1.7677977,
        0.9677645,
        0.342259,
        0.56309617,
        0.39128512,
        -2.196719,
        -2.0441637,
        0.7040061,
        -1.8086596,
        -0.78561485,
        -0.44199687,
        -2.0869298,
        0.29615486,
        -1.1947824,
        0.8435992,
        0.26234105,
        1.4193445,
        -0.28635937,
        0.61773795,
        0.7068652,
        0.6174544,
        1.095974,
        1.523543,
        0.15066771,
        0.34658203,
        0.96913385,
        0.33474326,
        1.3822403,
        1.1465133,
        0.7590216,
        1.8085532,
        0.16966443,
        -0.67302454,
        1.4859027,
        1.2311567,
        -0.8328488,
        0.29259342,
        -2.5115323,
        -0.30364406,
        -0.040576503,
        0.29508635,
        0.45661452,
        2.1888983,
        -1.2466199,
        1.5281267,
        0.35558522,
        0.3790718,
        0.08967048,
        -1.0130738,
        -0.91759884,
        2.0540485,
        0.39271402,
        2.0321121,
        1.8829658,
        -0.8137782,
        0.50084794,
        1.3871113,
        2.5761304,
        -0.38828832,
        -1.7321882,
        -0.26517573,
        -1.3013185,
        -0.9534,
        1.3442696,
        -1.9890058,
        0.98842686,
        0.26720855,
        1.811436,
        1.417952,
        1.3638126,
        2.1196606,
        1.2198669,
        0.36335266,
        0.19855055,
        1.0755614,
        0.40208358,
        0.89110845,
        0.71149874,
        0.1582212,
        1.7443459,
        0.7949153,
        -1.7169449,
        0.34367612,
        1.0463382,
        -0.5259723,
        0.20851868,
        -0.6939725,
        0.37767196,
        -0.29764995,
        1.9064808,
        -1.5424867,
        -0.3093426,
        -0.43980724,
        -0.34716287,
        -1.5618645,
        0.8136145,
        -0.71236664,
        -0.024372,
        -0.53295493,
        0.61319745,
        1.2942938,
        0.27663997,
        0.66373044,
        -0.6021049,
        1.1054351,
        -0.23115873,
        0.12126532,
        0.5827653,
        -2.2181902,
        -0.6675228,
        -1.0342904,
        1.250223,
        -0.15825309,
        -0.9121756,
        -0.13185175,
        1.8310128,
        1.4017133,
        -1.3693112,
        -1.1114492,
        1.0537399,
        -0.65138054,
        -1.0683687,
        -0.54468644,
        0.08528386,
        0.645436,
        -0.920158,
        1.0118781,
        -2.034113,
        1.005673,
        -1.3673369,
        1.8763382,
        0.44821733,
        -0.5705798,
        0.061885167,
        0.11549011,
        1.4941696,
        1.0172021,
        -0.1346438,
        0.09208665,
        -0.73616487,
        -0.47816178,
        0.8805832,
        -0.015262974,
        1.5854135,
        1.6432625,
        0.32070825,
        -0.7670343,
        0.20553373,
        -1.2995111,
        -1.0804971,
        0.03464226,
        0.86470085,
        0.9585121,
        -0.23518072,
        -1.23708,
        -0.104640506,
        0.93695223,
        -0.6348675,
        -0.12303058,
        0.17443614,
        0.52712554,
        0.2367813,
        0.011612647,
        -0.36408576,
        0.20202316,
        -0.0073931306,
        1.2823209,
        -2.0347977,
        0.2891112,
        -0.5698182,
        -0.061276782,
        -0.6246668,
        1.6183165,
        1.2061956,
        -0.26829457,
        0.4196898,
        0.64457005,
        -0.93854094,
        -0.2259237,
        -0.12000752,
        -0.031535517,
        0.37562978,
        0.020899767,
        0.6533146,
        0.109403566,
        -0.37322763,
        0.6648044,
        -0.18173455,
        1.232654,
        0.14229664,
        2.14137,
        -0.9154539,
        1.3451775,
        -2.8465552,
        0.5996374,
        -1.2909214,
        0.29380533,
        -0.10245409,
        -0.50722027,
        0.08583826,
        -0.21618167,
        1.8166924,
        0.6488405,
        0.46576238,
        -0.9750817,
        -0.22979192,
        1.6656178,
        0.20419568,
        0.5249826,
        0.08538448,
        1.3862578,
        0.021469576,
        0.2959316,
        -1.0064173,
        1.0316559,
        0.19057734,
        -0.8985671,
        0.57082343,
        1.1862857,
        1.1820387,
        -0.7784156,
        0.2153515,
        -0.9057589,
        -1.0956796,
        0.5127744,
        -0.14521442,
        0.1355911,
        -0.1173117,
        0.76958084,
        1.7533765,
        0.94194824,
        1.8766673,
        1.0633641,
        1.9162171,
        -2.1706083,
        -0.044564288,
        -0.9716265,
        1.8061953,
        0.5374557,
        -0.019830719,
        1.0976986,
        1.2834079,
        -0.34281608,
        -1.9714715,
        -1.4344183,
        0.81288105,
        -0.013504243,
        0.61589116,
        -1.269956,
        1.3646324,
        0.1604774,
        0.5668552,
        -0.012122004,
        0.7987328,
        -1.1826565,
        -0.20152804,
        1.5223833,
        -1.607007,
        0.78211427,
        0.30295613,
        0.009664129,
        1.2062373,
        1.3527356,
        -0.5585068,
        0.80947953,
        -0.66355246,
        -2.0812256,
        1.2194598,
        1.5606525,
        -1.5080417,
        -2.2201307,
        -0.20691384,
        1.6465532,
        0.4791878,
        0.51390284,
        -0.53703,
        0.0965641,
        0.520602,
        -1.6902826,
        1.1176755,
        0.18409061,
        -0.21587342,
        -2.18345,
        -0.67326444,
        -1.1595495,
        -0.21657884,
        -0.60045326,
        -0.032161128,
        -0.5598156,
        -1.2150197,
        0.5209337,
        0.4812371,
        -0.25157088,
        -1.9451325,
        0.45494848,
        0.33474097,
        -0.8197582,
        -0.11194081,
        -0.4157252,
        -1.7722572,
        -1.1737411,
        0.48557582,
        1.971012,
        0.6294544,
        -0.7791571,
        0.1357274,
        -0.9161582,
        1.8566633,
        -0.3148078,
        -0.2022811,
        -0.490108,
        0.6711394,
        -0.034661185,
        1.9658301,
        -0.24728824,
        -0.39579156,
        -0.42262584,
        1.3473685,
        -0.13082194,
        -1.0034635,
        1.3028132,
        -0.8141454,
        2.6984043,
        0.9575937,
        -1.1811942,
        1.000192,
        1.4859779,
        -0.29408485,
        0.050553285,
        0.16043666,
        -0.31977952,
        0.9399545,
        0.7318797,
        0.5450454,
        -0.5066696,
        0.18927558,
        0.8169901,
        1.8302393,
        -1.6177199,
        -0.4815637,
        0.8622583,
        2.7287533,
        0.39655706,
        1.2635269,
        -0.19260852,
        -0.7561257,
        0.5568475,
        -0.38186345,
        -0.0966092,
        0.9580631,
        -2.692106,
        -0.33427492,
        0.111380465,
        -1.2104646,
        0.48947096,
        -0.54021883,
        -0.6918789,
        -1.2253247,
        -0.13843863,
        -0.9494749,
        -0.22167519,
        -0.28608546,
        0.06815528,
        -0.40578005,
        0.038846895,
        -0.12973686,
        1.6696315,
        0.41126755,
        1.1243701,
        -0.47172314,
        -0.4683117,
        0.48933235,
        0.65205187,
        0.9093009,
        0.58548856,
        0.53170574,
        -1.6489251,
        0.93319345,
        -0.4452993,
        1.0617883,
        -0.010684325,
        0.26487502,
        -0.15633658,
        -0.11739638,
        -0.85298425,
        1.5218327,
        0.3149081,
        1.393524,
        -0.54480743,
        1.2907062,
        0.33160788,
        -0.5448748,
        -0.22951177,
        -1.1329069,
        -1.253085,
        -0.3632072,
        -1.1256664,
        -1.4429625,
        -1.5172801,
        -0.88010675,
        1.9337188,
        0.20455857,
        -0.6929592,
        0.3358056,
        -1.1001524,
        0.7691576,
        -0.8414023,
        -2.10148,
        -0.25643748,
        -0.74078333,
        -1.0947928,
        0.027736364,
        -0.39474395,
        0.15060972,
        -1.4952487,
        -0.5874712,
        -0.25951666,
        1.2774216,
        1.3148521,
        0.9415273,
        -1.0244639,
        -0.21952413,
        -0.27776596,
        -0.63598675,
        1.1253498,
        -1.3819096,
        0.097720265,
        -0.100468785,
        0.795226,
        -0.8210944,
        -0.5355132,
        1.9775835,
        1.3830627,
        -0.30820322,
        0.70951986,
        -0.42318377,
        -0.42974928,
        0.64385086,
        0.056116227,
        0.6379351,
        0.8394282,
        -0.28546584,
        -0.24293077,
        0.14554352,
        0.36869714,
        -0.9978047,
        0.43535358,
        -0.19003184,
        0.28372365,
        -0.3187456,
        1.5954543,
        0.25620556,
        0.7579158,
        0.9298019,
        1.8802418,
        -0.8068049,
        -1.1959318,
        -1.0756359,
        1.4625894,
        -0.7799104,
        0.26058504,
        2.4428668,
        1.0936614,
        -1.5792886,
        0.5831434,
        0.23360093,
        0.78723955,
        0.7392458,
        -1.4347482,
        0.96537775,
        -1.6068641,
        -0.10222738,
        0.03256297,
        0.39679804,
        0.1622114,
        2.0064452,
        -1.1885775,
        -0.87300277,
        0.24390845,
        -0.44973522,
        1.1620482,
        1.0170816,
        -0.58063984,
        0.6665691,
        1.3155944,
        -0.01663184,
        0.22322032,
        0.98970294,
        -0.9376248,
        -1.9974867,
        0.5733398,
        -1.4152577,
        1.3781257,
        0.0808638,
        -0.7110509,
        0.58321726,
        -0.021156717,
        -1.9187437,
        0.45149735,
        1.0096427,
        -0.8768888,
        0.38155448,
        -1.6286126,
        -1.9349582,
        -0.34810254,
        1.1981542,
        2.6458123,
        -1.0303453,
        -0.4268377,
        1.3681495,
        -0.7078127,
        -1.6101923,
        -0.08451675,
        -0.2763148,
        0.7095962,
        0.3719053,
        0.86057043,
        -0.0017624586,
        0.48593014,
        -0.18773167,
        -0.676047,
        0.13465276,
        1.1452024,
        0.9919409,
        -0.96045995,
        -1.0866158,
        1.3069115,
        0.68969196,
        -1.4723712,
        0.43442473,
        0.70813364,
        -0.48673078,
        -1.5141517,
        1.4036205,
        0.1940961,
        -0.26677758,
        -1.5001214,
        -0.39151204,
        -0.5229768,
        1.3944257,
        0.35559553,
        -1.2245842,
        1.7632222,
        1.0917728,
        -0.45975047,
        1.4125093,
        -0.5509343,
        -0.042883772,
        -0.93135667,
        0.7498813,
        0.877095,
        -0.10794853,
        -0.27145374,
        -0.5599705,
        0.8783974,
        1.1490917,
        1.2359291,
        0.5297869,
        -1.0643957,
        -0.6271311,
        1.7428524,
        0.26931518,
        -0.60188144,
        0.6511073,
        -0.7584763,
        0.05091757,
        -0.85830003,
        -1.1849675,
        -0.15354721,
        0.19069108,
        -1.4405265,
        1.2624623,
        0.61536956,
        0.5783057,
        -1.3643891,
        0.15483277,
        -0.70060146,
        -0.39294145,
        0.11657179,
        -0.037669253,
        -1.0513239,
        0.741329,
        -3.9667273,
        -0.5018206,
        -0.27403927,
        1.0099891,
        0.3365216,
        -0.22721592,
        -0.8949384,
        -0.46294555,
        1.5979278,
        1.0200636,
        1.7791345,
        1.1243155,
        0.99935883,
        0.8144813,
        -0.6259679,
        1.2086809,
        -0.3220423,
        -0.49981943,
        1.4537518,
        0.42555857,
        0.9833873,
        -0.1664075,
        -0.016981605,
        1.730082,
        0.95921814,
        0.89143723,
        -0.24804614,
        -0.196468,
        -0.14841281,
        0.19586019,
        -0.6418156,
        -0.017942892,
        -1.6480185,
        -0.40240672,
        -0.34448782,
        -0.27072987,
        0.056853984,
        -0.14811821,
        0.8260911,
        0.419794,
        1.2533109,
        1.5554647,
        0.07691674,
        1.0527228,
        1.0717657,
        1.1568958,
        1.8373656,
        0.42234546,
        0.46130812,
        0.52404064,
        0.61629766,
        1.0386239,
        0.62946844,
        -0.23941918,
        0.68796897,
        0.50988364,
        -0.63977486,
        0.12630194,
        -0.15901344,
        1.7027897,
        -1.053287,
        -0.9424866,
        -0.5384965,
        0.6729461,
        -0.9765371,
        1.3494645,
        0.029008793,
        0.32938147,
        1.6037989,
        -0.08665911,
        1.1182069,
        -0.43358567,
        0.6186321,
        0.13805643,
        0.5915235,
        -0.7881925,
        0.17147572,
        0.015064817,
        0.95167214,
        0.06754747,
        0.39953023,
        0.2691737,
        1.6777656,
        1.8459836,
        -1.318919,
        -1.3842039,
        -2.288455,
        -0.5170005,
        0.5806942,
        0.7472041,
        0.33596012,
        -0.16762654,
        2.1581228,
        -0.52388304,
        -0.26354003,
        1.1643611,
        0.32795042,
        -1.7337748,
        -0.41707048,
        -1.5527855,
        -0.077466816,
        -1.5090885,
        -0.9143485,
        0.39287537,
        0.9128037,
        0.3911231,
        0.66913694,
        -1.0083246,
        0.008386599,
        -0.6209536,
        -1.071138,
        -0.46096048,
        1.5951846,
        0.62426174,
        -0.63450843,
        -1.0982139,
        -0.36688623,
        0.2950502,
        1.5366379,
        0.1508568,
        0.7275325,
        0.20780656,
        0.27904376,
        0.13537453,
        0.9037924,
        0.8763903,
        -0.6695951,
        0.03663427,
        -0.3206808,
        0.06962277,
        1.0672895,
        -0.4839447,
        1.8073173,
        -1.3588556,
        1.6597594,
        0.4380892,
        0.63519156,
        0.40992785,
        0.56566596,
        -0.2537583,
        0.29585838,
        0.5726581,
        1.009691,
        -0.9571995,
        0.18174964,
        -0.0023811883,
        -0.20172964,
        0.8792592,
        -0.76505846,
        -0.78472364,
        0.15115188,
        -0.9958494,
        -0.67401475,
        -0.22393048,
        0.2889087,
        1.229046,
        -2.715,
        1.7673029,
        1.6830921,
        -0.653488,
        -0.0686438,
        0.2735706,
        0.55701303,
        0.5413357,
        -0.026196092,
        -2.5355682,
        0.02215061,
        -0.4071617,
        -1.4575989,
        -1.6817598,
        1.1343061,
        1.0421528,
        -0.93225896,
        -1.4938208,
        -0.90152615,
        -0.7479885,
        0.40127757,
        -0.15950648,
        1.1384642,
        -0.2264033,
        -1.7490396,
        1.824442,
        -1.1599622,
        0.95179033,
        0.53610617,
        0.4475874,
        -1.4005783,
        -0.6966982,
        0.8451162,
        -0.34060255,
        -1.2911966,
        0.4244749,
        1.1192129,
        0.2043045,
        2.2867222,
        1.1469413,
        1.372857,
        0.021445423,
        1.2014712,
        0.46158868,
        -0.83577776,
        0.91704875,
        1.3413479,
        -0.5715644,
        -1.4795417,
        0.10081529,
        -0.33330446,
        -0.072772294,
        -0.31208977,
        1.3037016,
        0.62857527,
        -0.4522325,
        0.16870227,
        -0.77415854,
        -0.27926058,
        0.8180476,
        -2.8577404,
        0.49284127,
        0.8919037,
        -1.054142,
        0.23418084,
        -1.605277,
        -1.0469782,
        1.3051742,
        -0.7412335,
        1.1049026,
        -1.0558016,
        1.6527213,
        0.86433375,
        -0.48959285,
        0.7277061,
        0.3002794,
        1.301176,
        -1.3999574,
        -0.276212,
        -2.4684548,
        -1.6094908,
        0.9091029,
        1.2372589,
        0.27020997,
        -0.4212588,
        1.1904441,
        -1.3277024,
        -0.23216045,
        2.1505284,
        1.142467,
        1.067007,
        -0.3575954,
        0.70258987,
        -0.84153134,
        2.0087771,
        0.30533817,
        -0.71433455,
        -1.0787534,
        -0.35168046,
        -0.51771265,
        -1.0950713,
        1.2379733,
        1.3817531,
        2.7456858,
        1.0399377,
        -0.067105316,
        -0.15318087,
        1.1451141,
        -1.4676231,
        1.5477622,
        0.36267164,
        1.1403545,
        -2.154679,
        0.5985702,
        0.58645004,
        -3.588806,
        -0.6050701,
        1.0263406,
        -0.20946983,
        -0.92858374,
        1.4485474,
        -0.8366519,
        0.103630364,
        -1.0046433,
        -1.6011838,
        -1.1191778,
        -1.7335752,
        1.4423436,
        1.3700125,
        -0.86930585,
        -0.12365168,
        -1.151804,
        0.75587237,
        -0.77724814,
        -1.3750019,
        0.040588975,
        -1.5175035,
        1.6841863,
        -0.08339316,
        1.438257,
        -1.1842538,
        0.40946335,
        1.2794597,
        -2.0705628,
        1.4200925,
        0.28078428,
        -0.9646842,
        0.18111056,
        0.08546092,
        -0.19078116,
        -0.102235384,
        -0.23861974,
        1.5852598,
        1.2801934,
        -1.3357563,
        0.66966844,
        0.2783751,
        0.4995995,
        0.2991139,
        0.30718374,
        -1.2141722,
        1.0965247,
        -1.1698079,
        0.4761475,
        -0.19376296,
        0.7503621,
        -0.76815075,
        -0.33187056,
        -0.5605576,
        -0.4397272,
        -1.0682402,
        -0.9568275,
        0.705782,
        -1.24307,
        0.10993794,
        0.6815504,
        1.3824443,
        -0.26343438,
        0.111121856,
        0.94136316,
        0.81091565,
        0.6336113,
        -0.63387585,
        -0.055212468,
        -1.4706026,
        -1.114337,
        -0.77662706,
        -2.1072998,
        0.55714387,
        -0.38092798,
        -1.6804839,
        0.557677,
        2.000509,
        0.37621137,
        -1.5491704,
        -1.2919385,
        1.7418293,
        -0.5025101,
        -0.38627288,
        -0.23862128,
        -0.9108211,
        -0.9960933,
        0.4658595,
        1.0790629,
        -1.1911817,
        -1.8230512,
        0.57171726,
        0.18130472,
        1.0039585,
        0.06484163,
        1.6550589,
        0.8828708,
        0.03279602,
        -0.20616238,
        -1.1436568,
        -2.9706857,
        0.67102486,
        -1.3426259,
        0.25142092,
        -0.33357257,
        -0.012417336,
        -1.0465635,
        0.9776482,
        1.488166,
        1.3464894,
        0.42811745,
        1.5409349,
        -1.0268112,
        0.37537527,
        -0.8571058,
        0.11136037,
        0.2880344,
        -0.6600454,
        0.7687299,
        0.8502966,
        -0.29563707,
        1.6570841,
        0.33338407,
        -0.75838715,
        -0.020842014,
        1.3663621,
        1.1339735,
        -0.2013516,
        1.3549134,
        -0.27752465,
        1.0175403,
        1.9057298,
        1.6225584,
        0.63927114,
        0.39680195,
        -0.1576449,
        1.2945015,
        -0.5911886,
        3.5362213,
        0.343142,
        -2.4809132,
        -0.074193776,
        -0.23845322,
        1.9775699,
        0.7243752,
        -0.9260948,
        0.9827153,
        -1.3688912,
        0.71846145,
        -0.079810664,
        -1.835949,
        -0.76615965,
        -2.006672,
        2.4989455,
        1.2631135,
        -1.4841589,
        -1.1548293,
        -0.42797685,
        2.2985628,
        -0.68443406,
        -2.2808018,
        0.97288424,
        2.1877613,
        -0.029811176,
        -1.4212266,
        0.19672956,
        0.59059703,
        -0.0722099,
        0.1263593,
        -2.214884,
        -0.5200444,
        0.95241743,
        1.4103882,
        0.49951026,
        0.8104358,
        -0.022507336,
        0.86602753,
        -1.6354803,
        -1.0513971,
        0.44673994,
        -0.28199524,
        1.9596187,
        1.046128,
        -0.020357711,
        -1.0742683,
        -1.2740906,
        0.08851361,
        -0.3297533,
        0.94327796,
        1.474298,
        -2.209597,
        -1.0146068,
        -0.4568022,
        0.92457086,
        -1.2131469,
        1.8034008,
        -1.949023,
        -0.26517156,
        -0.4133123,
        1.1262919,
        -0.24922003,
        -0.693376,
        0.8565721,
        0.3312331,
        -0.012865269,
        0.30251834,
        -1.5670187,
        -0.36095983,
        0.53064513,
        -2.5811427,
        -2.1170833,
        1.3852198,
        0.20341682,
        -0.07679561,
        2.5080929,
        -1.1975145,
        -0.61111754,
        0.982411,
        0.6595596,
        0.33831367,
        0.3342121,
        1.0767848,
        2.6130643,
        -0.005397064,
        -0.28474534,
        -0.65878576,
        -0.03466705,
        0.51500386,
        0.25896963,
        -0.51394796,
        1.6258478,
        0.8145669,
        0.03225772,
        0.18798225,
        0.41851085,
        0.37688214,
        0.6498882,
        -1.2838837,
        -0.08968212,
        -1.4083235,
        -0.72917455,
        -0.63904834,
        -0.28100416,
        -1.8035778,
        -0.6168571,
        -1.3420596,
        0.12732644,
        -1.0768433,
        -0.33088768,
        0.47276175,
        1.8997389,
        0.91523325,
        -0.7004206,
        -0.30921662,
        -0.62277424,
        0.8687858,
        -0.6318162,
        0.28780705,
        1.5542865,
        0.7367827,
        2.0518274,
        -0.14571738,
        -1.3612716,
        0.5800193,
        1.78845,
        1.3233609,
        0.08266787,
        -1.0726198,
        -0.08281259,
        -1.4389873,
        -1.1143559,
        -0.7618854,
        -0.75602204,
        -0.33532223,
        -0.17919251,
        0.06576801,
        1.1497844,
        -1.6826572,
        0.14101946,
        -1.0901587,
        1.6133367,
        -0.9416017,
        -1.436341,
        -0.5574613,
        1.8103815,
        0.29457182,
        -0.16321144,
        -0.34962302,
        0.55486095,
        0.5197608,
        -1.8140085,
        0.6278378,
        -1.0016276,
        -2.5533447,
        -0.96861017,
        -1.6307366,
        -1.8911754,
        -1.1941481,
        -1.3726448,
        0.6581754,
        1.6455494,
        0.06705921,
        -0.38774174,
        -0.2423465,
        -1.1530468,
        -0.98223835,
        -0.005828416,
        -0.5979654,
        -1.6464672,
        0.5724713,
        -1.0744272,
        1.1588098,
        0.2643923,
        0.6809847,
        -0.87789226,
        -1.0784271,
        -1.3095185,
        -0.0059789955,
        -1.4077297,
        -0.051396266,
        -0.9923096,
        0.2996575,
        -0.34838498,
        0.033210978,
        -1.7365174,
        -0.32343638,
        1.895361,
        -0.65044636,
        -1.2799402,
        0.118272655,
        0.59758866,
        1.2664001,
        1.1011643,
        0.22873032,
        -0.20989783,
        -0.9867839,
        -2.0169244,
        1.429595,
        -0.77912056,
        -0.6992036,
        2.8280954,
        -1.120705,
        0.6205635,
        -1.0980927,
        0.09859444,
        0.16279933,
        -0.9081215,
        0.03557776,
        0.36578387,
        0.66708696,
        -1.2811495,
        -0.27678245,
        -0.45079082,
        0.27418116,
        0.69464487,
        0.8635,
        -1.5908895,
        1.6897995,
        -0.06308582,
        1.0617287,
        -1.6645713,
        -0.011852872,
        -0.46855456,
        0.6084658,
        -0.24751051,
        -0.032727007,
        -1.5204766,
        -0.77273303,
        -0.6192448,
        -0.5736575,
        0.1339381,
        -0.27691042,
        -0.16194126,
        0.7425698,
        -1.5322746,
        -1.6992944,
        -1.9875079,
        -0.19117588,
        -0.21956645,
        2.0336568,
        0.3262281,
        -0.03696133,
        0.55418336,
        0.8087144,
        1.4088159,
        0.7280675,
        -0.55909336,
        0.3950406,
        -0.27012333,
        -0.19218665,
        0.8674974,
        0.2619699,
        0.8991104,
        0.16948617,
        -0.7332836,
        1.6609306,
        0.13709018,
        0.90962666,
        -0.13764843,
        0.31077972,
        -0.11245801,
        -1.0831671,
        -0.59570503,
        0.43980584,
        0.1487277,
        -0.27442855,
        0.80622554,
        0.9042687,
        -1.1447126,
        0.44378835,
        0.48362815,
        -0.9471752,
        1.5879494,
        -0.3565951,
        -2.1266592,
        -0.78534716,
        -0.07898318,
        -0.02562623,
        0.97746766,
        0.5705591,
        -1.2051972,
        -1.5095628,
        0.93031603,
        -2.0565643,
        0.64440197,
        0.7137018,
        0.3962357,
        0.30092928,
        2.1799433,
        -0.15458617,
        -1.3022796,
        0.3489318,
        -1.604299,
        -0.23968339,
        2.522345,
        -0.4776347,
        0.4363923,
        -1.9966645,
        -0.89189726,
        1.2943157,
        0.16821311,
        -1.1963738,
        -1.1799898,
        0.81202203,
        0.9685172,
        -0.83997,
        -0.48863184,
        -0.73479724,
        1.6571293,
        3.2320132,
        0.1741182,
        0.8021366,
        0.21665104,
        -0.11125974,
        0.022253063,
        2.0445352,
        -0.17261617,
        -0.2413225,
        0.19606732,
        -0.66114163,
        -0.35833868,
        -0.35099915,
        -0.9885986,
        -0.79251915,
        -1.1341599,
        0.35540834,
        -0.5745135,
        -0.19988023,
        -0.9304265,
        -1.5489624,
        0.93308604,
        -0.9853051,
        -0.8787638,
        0.056860976,
        0.16866854,
        -1.0761902,
        -0.14395484,
        0.42712563,
        0.4799442,
        0.17275734,
        0.24636982,
        -0.65398204,
        0.32980475,
        -0.45298162,
        0.19667439,
        -0.72234696,
        0.7078536,
        -1.2452214,
        -0.666175,
        0.17601576,
        -0.37348402,
        1.8797904,
        -0.19060071,
        -0.40862632,
        0.18750507,
        0.59244114,
        0.48091823,
        -0.69893795,
        -1.3689274,
        1.2082732,
        -0.74803275,
        0.55149263,
        -0.67822176,
        -1.1091709,
        -0.104464054,
        1.7847289,
        0.9170421,
        0.28215772,
        -1.1875036,
        -0.2132844,
        0.068206355,
        1.115812,
        -0.105564795,
        0.013934333,
        1.2215146,
        -0.13852222,
        0.90804815,
        -0.9650844,
        1.2813954,
        0.5566277,
        0.7782433,
        0.7222745,
        -0.5345975,
        -1.5391763,
        0.21853681,
        -0.8670285,
        0.2156966,
        -0.30480012,
        1.3696266,
        -0.7875367,
        0.018805588,
        2.763322,
        1.5312269,
        1.7111473,
        0.6412539,
        -0.93219036,
        0.14574835,
        -0.6395775,
        1.0796762,
        -0.4537802,
        0.117038615,
        -0.643805,
        0.25958404,
        -1.6635174,
        2.414127,
        -0.5711483,
        -0.590561,
        1.6746405,
        0.2795482,
        -1.2989041,
        0.7826696,
        -1.5991781,
        0.6699609,
        -0.9008034,
        -0.22223587,
        1.0804352,
        -0.23833592,
        -0.99065393,
        1.554448,
        -1.4189281,
        1.2796627,
        -0.99293363,
        -1.1322188,
        -0.87484056,
        0.059597082,
        0.9790579,
        -0.87189555,
        0.53338236,
        1.0799007,
        -0.31706697,
        -1.264413,
        -1.7049183,
        0.40616763,
        0.9956424,
        0.061826225,
        0.70687336,
        -0.008500475,
        -0.02260451,
        0.3107099,
        0.37235263,
        0.6433665,
        -0.30476716,
        -1.5345855,
        0.59118986,
        -0.5306516,
        -0.12780522,
        -0.24978235,
        -1.2632575,
        -0.5731487,
        0.26886088,
        0.27439004,
        0.378181,
        0.4553113,
        0.3706875,
        -0.14883801,
        0.6371044,
        -0.83488935,
        0.87658,
        -1.3438435,
        -0.0414332,
        0.02455504,
        -0.3341289,
        1.2004205,
        -0.6520807,
        -0.7173031,
        -0.89327353,
        -0.7701365,
        0.77466065,
        0.3021286,
        -0.30993116,
        0.772205,
        1.3260152,
        -1.0092149,
        -2.0247962,
        -0.0064028366,
        -0.41135147,
        0.01149902,
        0.09339107,
        0.23629914,
        0.17928998,
        0.78368527,
        -0.21745922,
        0.34831643,
        1.3676362,
        1.1146733,
        0.13769166,
        0.21083438,
        1.3981471,
        -0.016484652,
        0.075379945,
        0.81329316,
        -1.6608009,
        0.052440565,
        -0.38625616,
        0.22153562,
        -0.78982055,
        0.2561423,
        0.000046134533,
        -1.1508611,
        -0.67716604,
        1.9175497,
        -0.94724846,
        0.47738054,
        -0.6141854,
        0.780786,
        -0.49371794,
        0.43273532,
        0.933604,
        -0.100585006,
        -1.0445678,
        -0.47435758,
        -1.3004005,
        -0.9982573,
        -1.5262845,
        0.65734094,
        -0.4966134,
        2.9960356,
        1.8189577,
        0.4599884,
        1.3954784,
        2.2805238,
        0.3163642,
        0.048886407,
        0.6092237,
        -0.3626854,
        -0.11639289,
        1.6606117,
        0.27079177,
        1.0019722,
        -0.547489,
        1.117148,
        -0.737369,
        -0.16685241,
        1.2171426,
        -0.51734704,
        0.09391351,
        -0.95049524,
        -0.7873363,
        -0.53487504,
        -1.1160085,
        0.5360366,
        -0.29594338,
        0.7739584,
        -1.3932124,
        -1.941981,
        0.654699,
        1.1020955,
        -0.6287908,
        -0.19143914,
        -0.57801276,
        0.37760946,
        -0.6399717,
        -0.5290395,
        -0.7828144,
        0.8347325,
        -0.74459827,
        -0.05819324,
        0.28086752,
        0.5704058,
        1.9602299,
        -0.667951,
        -0.095460735,
        0.17140426,
        -1.7832588,
        -0.40462086,
        -0.19217299,
        -0.5274162,
        -0.2299289,
        -0.86539096,
        0.90221626,
        -0.017546458,
        -0.644064,
        1.9384744,
        -0.5112021,
        2.559325,
        0.9763148,
        0.01679701,
        0.1426779,
        1.1593176,
        1.0162671,
        -1.3895962,
        -0.54249835,
        -0.4884561,
        -1.4169813,
        0.7378495,
        0.7459064,
        -0.60941994,
        0.71780866,
        -1.401657,
        1.7168778,
        -0.37347305,
        -0.14561392,
        -2.2440767,
        0.12386076,
        -1.5110743,
        -0.016029526,
        1.4856322,
        1.6720059,
        -0.0031487101,
        -0.51805717,
        0.017965797,
        0.08257795,
        0.024849107,
        -0.36425415,
        1.033201,
        1.7550145,
        -0.73302436,
        0.1411933,
        -0.9785607,
        -0.94774055,
        0.6228126,
        0.230053,
        1.1916082,
        -1.1057847,
        1.091279,
        -0.10921716,
        -0.5824042,
        0.18353266,
        -2.703096,
        0.13618791,
        0.5796171,
        0.47974667,
        -3.2349238,
        -0.38324225,
        -0.42288962,
        -0.96646357,
        -0.97968304,
        0.3503706,
        1.1934489,
        -0.7669984,
        -0.9072427,
        0.12027796,
        -1.4538276,
        0.098335825,
        0.63413054,
        -0.43261507,
        -0.1529335,
        -1.1896107,
        -1.0828642,
        -0.69809073,
        0.9939621,
        1.6495767,
        1.6947926,
        1.623018,
        1.5314871,
        1.2576232,
        -0.14325896,
        0.8447085,
        0.5875468,
        -1.4199659,
        0.75839776,
        -0.5650974,
        1.3259224,
        -0.40073022,
        1.5002433,
        0.729851,
        -1.4674891,
        0.04132046,
        0.98026615,
        0.6990426,
        1.5599452,
        -0.3273029,
        -0.4522589,
        -0.5421494,
        -1.2662324,
        1.0092468,
        1.4373994,
        0.19582243,
        -0.94657224,
        0.0015050337,
        0.04045947,
        1.2629238,
        -1.9984426,
        -1.6740355,
        0.80269885,
        1.3353857,
        0.019574111,
        1.3256443,
        0.5226107,
        -1.4855007,
        -0.26132384,
        -2.0715945,
        -1.3379178,
        -1.7485381,
        0.604311,
        -0.4865518,
        0.50125146,
        0.1936483,
        0.70512766,
        -1.2346587,
        0.27771065,
        0.63156253,
        -0.7669129,
        0.62919647,
        -0.24407034,
        0.84472734,
        1.2811645,
        0.18532403,
        0.5423559,
        2.144795,
        -1.3178335,
        -0.87982816,
        -0.21160449,
        1.2887998,
        0.26284713,
        0.7945158,
        -0.06090531,
        2.9533577,
        -0.94187766,
        0.49616542,
        0.5696585,
        0.58044946,
        -1.035516,
        -0.56572837,
        -0.3463881,
        0.40365243,
        1.1466035,
        0.18624072,
        1.6584734,
        1.1382884,
        0.755124,
        1.4463617,
        0.8664206,
        -0.064402506,
        -1.9098735,
        -0.1219756,
        -1.4434781,
        -0.09109537,
        -0.66422987,
        -0.083024666,
        -0.7926008,
        -1.1186485,
        0.10137951,
        -0.48999792,
        0.90746224,
        0.112981364,
        0.12979549,
        1.1515671,
        -0.30882367,
        -0.006864859,
        1.4493971,
        -0.6290379,
        2.431933,
        0.18069787,
        -0.8842335,
        0.005177901,
        -0.5384224,
        0.6229833,
        -2.0839064,
        1.2448678,
        0.3791948,
        -2.0158296,
        0.7166245,
        -0.97975695,
        0.55304825,
        -1.4171937,
        -1.4184022,
        -0.08293607,
        0.7188554,
        0.6955852,
        0.44638395,
        -0.7576146,
        -2.1344416,
        0.045918442,
        0.40367442,
        0.96349305,
        0.68679464,
        0.16337697,
        0.68008274,
        -0.8182291,
        -1.1683352,
        -0.941665,
        0.28295437,
        0.085533254,
        -1.8275018,
        -0.13638128,
        0.105220504,
        0.08297048,
        0.6107199,
        -0.21269532,
        0.877705,
        0.8320549,
        1.9018033,
        0.859727,
        0.61474174,
        0.46420693,
        -1.9146531,
        -1.348781,
        0.3973665,
        -0.2174171,
        0.4555478,
        1.4578418,
        0.65899056,
        1.2033085,
        -0.15577455,
        -1.1330448,
        -0.6069812,
        0.024666062,
        -2.7817318,
        -1.6842451,
        -0.9410337,
        -1.5726172,
        -0.16292328,
        2.047481,
        -0.21597597,
        -0.50734806,
        -0.82362086,
        -1.2971925,
        -0.5746778,
        0.95642155,
        0.25588426,
        1.4411262,
        -0.29715422,
        0.36899862,
        0.5199948,
        0.79842865,
        -0.78509843,
        1.8415699,
        0.4029709,
        0.47820622,
        0.25313866,
        0.42200044,
        -2.1065407,
        -0.9359987,
        -0.2536606,
        -0.98301595,
        -0.88270897,
        -0.47501162,
        0.99958134,
        -1.6215645,
        -0.059690688,
        -1.0525999,
        0.4337809,
        -0.96649647,
        1.204024,
        -0.32005727,
        0.35258478,
        -2.178959,
        -0.48123136,
        -0.32675102,
        -0.13447063,
        -0.91171074,
        0.8188913,
        -2.1656258,
        -0.98749065,
        0.6077051,
        0.40814036,
        -1.2046568,
        0.5749113,
        -1.3178747,
        -0.036998406,
        0.2474163,
        1.9175816,
        0.6860996,
        -0.61910933,
        0.15899195,
        -0.7985488,
        -0.36927426,
        0.8103662,
        -1.5717232,
        -1.3470353,
        0.5625808,
        0.6618281,
        -0.4907911,
        0.67696226,
        0.7871153,
        -0.13991109,
        -0.72164035,
        2.170136,
        -0.25629678,
        0.30954146,
        -0.5208184,
        0.9745959,
        0.16669998,
        0.9506827,
        0.13978206,
        -0.98187155,
        0.78699094,
        0.3556126,
        -1.0973363,
        -1.0437878,
        -0.11835954,
        -0.3226303,
        -0.88326234,
        -1.2507739,
        -1.6968786,
        -0.32691514,
        0.5956717,
        0.7880233,
        -0.9967178,
        -1.540474,
        0.9795011,
        -0.18382868,
        -1.2106843,
        1.270474,
        -0.41425726,
        -1.695426,
        0.57421774,
        -1.2932111,
        -2.8612547,
        1.258838,
        1.3093743,
        -1.1316463,
        0.304615,
        -1.3044828,
        0.16136983,
        -0.39644232,
        1.3461696,
        -1.269296,
        0.6915479,
        -0.08211464,
        -2.0254877,
        0.7667377,
        -1.3440208,
        0.4759939,
        0.96790636,
        0.88893217,
        0.78459185,
        0.1888938,
        -0.33543384,
        -2.7473087,
        -1.9692007,
        0.31235963,
        -2.0486152,
        -0.8932532,
        1.4843411,
        -1.2333798,
        -0.29055542,
        -2.4679475,
        -1.7868092,
        -0.09912417,
        1.5868392,
        -1.5371087,
        1.134457,
        -0.16927315,
        -0.5481727,
        0.30167156,
        1.0696667,
        -1.5222359,
        -0.48172957,
        1.4942834,
        -1.8638402,
        1.4234987,
        -0.12022737,
        -0.21998127,
        -0.59421897,
        0.22416982,
        2.3458548,
        -1.3904109,
        1.3856857,
        0.89319056,
        -0.09520776,
        -0.2812664,
        -1.4154084,
        0.31913084,
        0.6562871,
        1.3442763,
        -0.11856549,
        -1.9380087,
        1.7723142,
        0.5233093,
        -0.046368007,
        0.44527328,
        0.51539165,
        -2.0507898,
        2.1463575,
        1.3143176,
        0.8785168,
        1.4620777,
        0.19171181,
        -0.36902642,
        -0.36535233,
        -0.63357735,
        -0.28660855,
        0.76017374,
        -1.1535125,
        0.25190616,
        0.5369486,
        0.92235905,
        1.6948364,
        0.22569354,
        -0.39659506,
        -0.23215826,
        1.5940624,
        1.2804925,
        0.11591128,
        -0.52207005,
        -0.5597563,
        0.18322937,
        0.75850403,
        0.37745318,
        -0.64772385,
        -0.31855822,
        -0.26408628,
        -1.0921646,
        -1.365956,
        0.36487946,
        -0.2870738,
        0.15917397,
        0.549376,
        -0.060519032,
        0.277908,
        0.113992505,
        -1.4694723,
        0.18294849,
        -1.0603305,
        0.9098989,
        -0.8270931,
        -1.3608489,
        0.066352814,
        0.6105467,
        0.57548,
        -2.2858195,
        -1.1042383,
        -1.4919862,
        0.68756944,
        1.5994776,
        -1.1116658,
        -0.8346433,
        -1.083211,
        -1.5759332,
        1.3007525,
        -0.77322966,
        0.7873944,
        -0.6470893,
        -0.07073968,
        0.9547937,
        -0.3778996,
        0.84964496,
        -0.83384985,
        1.862941,
        -0.43034574,
        0.05277817,
        0.7368892,
        0.6286173,
        0.63253576,
        -0.6655096,
        -0.9744856,
        0.21355692,
        -0.36979333,
        0.1407039,
        -0.2038843,
        -0.2397368,
        -0.9208764,
        -1.0528066,
        -0.3444215,
        -1.128084,
        0.47808886,
        -1.6650695,
        -0.70722926,
        -0.28010818,
        -0.31089178,
        -0.6364823,
        1.392324,
        -0.6986202,
        1.9631981,
        1.8926204,
        0.42269024,
        0.50426537,
        1.4652658,
        -0.9213962,
        0.64897966,
        0.27190188,
        -0.6719143,
        -0.080396414,
        -0.30541575,
        -0.45904675,
        0.21959428,
        -1.6549816,
        0.8840782,
        -0.56117296,
        -1.2464333,
        -0.14356323,
        -1.013656,
        -0.07306769,
        0.49847063,
        0.71003217,
        1.1036515,
        -0.74629164,
        1.0765127,
        -0.48283586,
        -1.2676848,
        -0.640071,
        3.1007044,
        0.6417175,
        0.41451368,
        -0.6449661,
        1.389289,
        -0.40480378,
        -1.1597836,
        0.09328266,
        0.39108428,
        0.78513384,
        0.06278624,
        0.63784546,
        0.20471552,
        0.5866726,
        -0.4154716,
        0.33051383,
        1.8740352,
        -1.2626817,
        -0.5065325,
        -0.4286683,
        -1.5729374,
        -0.98936146,
        -1.2345862,
        2.1283875,
        0.037015144,
        1.2805587,
        -2.1596541,
        -1.8380969,
        0.8651939,
        0.7654893,
        1.6106093,
        -0.9090261,
        -0.92707384,
        0.8195436,
        -0.942723,
        -0.005558831,
        -0.3228143,
        -1.866629,
        0.34056118,
        -0.9298969,
        -0.7202911,
        0.12923618,
        1.009515,
        -0.06262909,
        -0.016694471,
        -0.3018293,
        -1.7732424,
        -2.20543,
        0.21516402,
        3.7937589,
        -0.713221,
        -0.952027,
        0.65288204,
        -0.17932217,
        -0.7173699,
        0.8376646,
        0.38196704,
        -1.282824,
        -0.49125087,
        1.1487204,
        0.16478382,
        -0.70279837,
        0.4254671,
        1.1971167,
        -1.9091891,
        -0.26586524,
        0.7452528,
        -1.0728573,
        0.7961693,
        1.5598534,
        -0.3266147,
        -1.2763486,
        1.6178805,
        -0.9796873,
        0.90290916,
        -0.7066998,
        1.5096146,
        -0.24869084,
        1.2044892,
        -1.080792,
        -0.8756438,
        -0.06668143,
        0.017667267,
        -1.1586746,
        0.0360344,
        -0.5165457,
        -0.80529356,
        -0.3811546,
        -0.22018303,
        0.04917489,
        -0.2950964,
        2.0997376,
        2.2666802,
        -0.041648705,
        0.55406904,
        0.39182395,
        -1.7258384,
        -1.8589687,
        -0.5173166,
        -0.96569896,
        0.63202524,
        -0.5309968,
        -0.9927277,
        -0.711403,
        -0.9985723,
        -0.51297736,
        1.9790943,
        -0.6758931,
        0.7719632,
        0.25733358,
        1.071472,
        0.39604455,
        0.30277658,
        1.3080463,
        -0.7043611,
        -0.2770928,
        -0.5553239,
        0.02124979,
        -1.5796354,
        -1.2836097,
        -0.025033657,
        2.1348996,
        0.5426974,
        -0.99341536,
        2.1892936,
        2.9331834,
        -1.1004351,
        0.9360362,
        1.1983519,
        -1.4162668,
        -0.5852661,
        0.6347738,
        -0.55587,
        0.11798698,
        0.65501076,
        0.8342133,
        -0.19550054,
        0.8562723,
        0.8505598,
        -0.8001806,
        -0.21865448,
        -0.02658947,
        -0.8053199,
        -1.9752055,
        1.002526,
        1.0458099,
        1.5977554,
        -0.21856934,
        0.25252455,
        -0.19561566,
        -0.25598004,
        -0.46519995,
        -0.768552,
        0.28441355,
        -0.18799467,
        0.5057387,
        -0.77341527,
        1.2893295,
        -0.7040217,
        -0.772149,
        -1.3144385,
        -0.9585828,
        2.0904157,
        -1.1044935,
        0.116909824,
        -0.4009825,
        0.87955004,
        0.6715484,
        1.849024,
        -2.3641114,
        -1.2116169,
        -1.5081301,
        1.2089572,
        -0.009648964,
        -1.4992473,
        0.91109383,
        -0.02866416,
        1.2090899,
        1.3284143,
        -0.44116083,
        0.21562573,
        -1.1021135,
        1.0341542,
        -0.634966,
        -0.6519564,
        -1.2652886,
        0.83510745,
        -0.73765624,
        0.9556354,
        -0.43888423,
        -1.8908565,
        0.22252122,
        -0.21224079,
        -0.26434532,
        1.1878074,
        0.21457233,
        -1.0189148,
        -0.6142386,
        -0.037188824,
        2.347849,
        -0.689108,
        -0.6158059,
        -0.008273934,
        2.2318563,
        0.56472445,
        0.48879647,
        -0.54583234,
        0.3333414,
        0.22778727,
        -1.57566,
        0.64282686,
        -1.5714214,
        0.8429496,
        -0.16862349,
        -2.373479,
        0.00048120617,
        -2.2021801,
        0.18487895,
        -0.23665734,
        0.5414828,
        0.44145346,
        -0.8161034,
        -1.6235669,
        -0.42603183,
        -0.20517549,
        -1.261701,
        -0.6046376,
        0.9694087,
        -0.31670144,
        -0.38279843,
        1.0884562,
        -0.32537726,
        1.4460924,
        -1.3594159,
        -0.64321053,
        0.8324249,
        1.4380513,
        1.46585,
        1.9154651,
        -1.8178877,
        -0.98021036,
        1.0287043,
        -0.64618,
        -0.71915007,
        -0.46609476,
        0.33280924,
        0.36319992,
        0.74414855,
        0.8012341,
        0.15246922,
        -0.32224753,
        -0.5069001,
        -0.6285618,
        -0.52308184,
        -0.9511736,
        -0.27779943,
        -1.4895424,
        0.9385219,
        0.6916892,
        0.66052383,
        -0.8424157,
        -0.36006197,
        -0.02389936,
        0.34040904,
        -0.049415927,
        0.026673436,
        -0.4061028,
        1.0297543,
        -0.31171086,
        0.014900797,
        -0.6061181,
        -1.539413,
        1.3423096,
        -0.6169912,
        0.13296714,
        -1.243617,
        1.195604,
        -0.20615244,
        -0.0126609625,
        0.44176045,
        0.39303234,
        0.4756584,
        1.7329646,
        -1.281593,
        1.1038595,
        -0.46593866,
        0.38922852,
        0.79834414,
        0.3600111,
        1.3810936,
        -1.1329296,
        -0.040190965,
        1.4892434,
        -0.19396736,
        -0.77817416,
        0.05288241,
        -0.049794137,
        -0.17232516,
        0.7317376,
        -0.38660747,
        -0.114909224,
        0.011852879,
        -1.7677348,
        -0.09292261,
        -2.079294,
        0.5661681,
        1.1036073,
        0.8063825,
        -0.7388332,
        1.3186746,
        -0.68515486,
        -0.042315375,
        -0.82359236,
        0.4162004,
        -0.5821924,
        0.071912654,
        0.5934821,
        1.068907,
        -1.5612062,
        0.6119217,
        0.40998966,
        -0.61579883,
        0.7694406,
        0.8463503,
        0.34760007,
        0.46362287,
        -1.4480963,
        0.92220765,
        0.48112708,
        -1.515729,
        1.3950716,
        -0.4854754,
        -0.92872566,
        0.44143534,
        -0.75802886,
        -0.74749655,
        -0.53786445,
        0.49297667,
        -1.2485493,
        0.4798542,
        -1.635483,
        0.28239858,
        0.0849656,
        -1.7688279,
        -0.36408818,
        0.45290494,
        -0.8270432,
        -1.0105648,
        -0.70387,
        0.6766241,
        -1.1464798,
        0.7901844,
        0.72548735,
        -2.764732,
        -0.47895756,
        -2.3748617,
        -0.34282452,
        -1.1464684,
        1.0148045,
        -0.52999467,
        -0.12249118,
        -0.3251419,
        0.580355,
        -0.10316528,
        -1.1499928,
        -1.5475012,
        1.1463846,
        -1.7592833,
        -0.88753796,
        -0.016953848,
        -0.6591816,
        1.0848234,
        -1.9936574,
        0.024795407,
        -0.7587161,
        1.1577768,
        -0.2646547,
        -0.4728484,
        0.3249385,
        -1.0591991,
        -0.79061455,
        0.33695027,
        1.0960984,
        -1.3039471,
        1.9017893,
        -0.9035863,
        -2.318172,
        -1.1134676,
        -0.8712822,
        -1.0771466,
        -1.3321002,
        -0.114909425,
        -0.71203053,
        -0.56792617,
        2.1603885,
        -1.1230489,
        -1.1531247,
        -0.4044253,
        -1.0512878,
        1.0798254,
        0.028078057,
        0.9436262,
        0.83128667,
        0.60932505,
        0.07019274,
        -0.77437425,
        -1.4592189,
        -0.4394295,
        1.1691774,
        -0.21504515,
        2.0372708,
        1.6688869,
        0.20356655,
        0.12015778,
        0.9054407,
        -1.2432975,
        2.3449442,
        1.9156369,
        -0.9678152,
        -1.1254287,
        0.91962004,
        -0.47714162,
        -1.7542866,
        0.47914234,
        0.10720919,
        -1.3054612,
        0.6592228,
        -0.4723217,
        -0.87237966,
        0.15615918,
        -1.4274323,
        0.1487217,
        0.5542977,
        -0.17106293,
        1.53035,
        0.0037549331,
        -1.4308925,
        0.77483886,
        -0.9622079,
        -0.61571187,
        -0.05338228,
        -0.20731118,
        -1.1143999,
        -1.1607821,
        1.546192,
        0.26776353,
        -0.45809418,
        0.63142306,
        0.3671862,
        0.68605524,
        1.681717,
        -0.4498154,
        -1.5228226,
        0.15832956,
        1.2526102,
        -0.5850298,
        0.9852947,
        0.59470934,
        -0.62347865,
        -0.9599156,
        0.3125053,
        -0.12302467,
        0.22093794,
        0.1580178,
        -1.1626062,
        0.3619747,
        -0.7100862,
        0.6563141,
        1.6122619,
        -1.0809543,
        -1.0326087,
        0.96565825,
        0.17043526,
        0.40717503,
        -1.0059724,
        -2.1032193,
        0.75353867,
        -0.32547826,
        1.147418,
        1.3527619,
        -0.17730385,
        -0.7148884,
        -0.49637055,
        0.11242338,
        0.8693493,
        -0.5640372,
        2.0140865,
        -0.8639558,
        1.2990133,
        -0.08175508,
        1.3526099,
        -1.0281676,
        0.17350988,
        0.5623456,
        -0.09946817,
        -0.8475906,
        1.1037745,
        0.24774322,
        -1.1853096,
        -0.054177254,
        -0.32516685,
        1.019211,
        0.5976148,
        -0.095376015,
        -0.07552446,
        -0.28775254,
        -1.3682687,
        -2.0711894,
        0.45640352,
        -0.9913508,
        0.9940854,
        1.096316,
        1.628196,
        0.030041624,
        -0.47235307,
        0.77488047,
        0.271699,
        -0.42054772,
        1.1192403,
        -0.38098463,
        -0.50045127,
        -1.0589721,
        -1.0227553,
        0.44478667,
        -0.8983262,
        0.14805086,
        -1.5094384,
        -0.8324571,
        0.42200592,
        -1.8603519,
        1.1215785,
        -1.4610231,
        0.97616917,
        0.64310586,
        1.0234833,
        0.2301073,
        -0.5409758,
        0.4868674,
        0.19467404,
        -0.4445546,
        0.23192662,
        -1.6181445,
        -0.08028143,
        -0.30279893,
        0.44547206,
        0.2787017,
        1.8119866,
        -1.8116902,
        -0.52319384,
        2.0648832,
        0.010284425,
        0.3374021,
        -0.5152716,
        0.9411325,
        -1.4216968,
        1.0671586,
        -0.5461182,
        0.45320538,
        -1.6569766,
        -0.3997449,
        -0.6908074,
        1.5120122,
        -0.54612267,
        -1.263052,
        0.90664864,
        0.5744265,
        -1.0874988,
        -1.1715298,
        -2.6924157,
        -1.6821853,
        0.7386799,
        0.70471674,
        -0.9005404,
        -0.79316145,
        0.9563437,
        0.559718,
        -0.5335534,
        0.9765088,
        0.5725459,
        1.1851329,
        -1.2488567,
        -1.4995412,
        0.80651873,
        0.6462051,
        -0.32943788,
        -0.07024051,
        -0.80675405,
        0.2697841,
        -0.13208644,
        1.704132,
        -0.067054495,
        -0.30333006,
        0.054414902,
        -0.73192847,
        -0.3794383,
        -2.3152547,
        -0.24837275,
        2.183615,
        -0.6498032,
        1.2663059,
        -0.5718855,
        -0.3785254,
        0.6442824,
        -0.5297229,
        -1.6286272,
        -0.13314168,
        -0.9360259,
        1.5219383,
        -0.68951005,
        0.20461778,
        -0.26283416,
        -0.47925645,
        -0.5481466,
        0.8331438,
        0.7558033,
        -0.96089697,
        1.5838063,
        -0.26563346,
        -0.78301334,
        0.6701796,
        1.0341283,
        0.34493515,
        -0.35142505,
        0.04601473,
        0.14722794,
        -0.22267081,
        -0.30134648,
        0.07046176,
        1.2631352,
        -1.1505151,
        1.1180954,
        0.83082473,
        -0.3555387,
        -0.52387357,
        0.25580096,
        0.15603703,
        -0.89821017,
        0.010212971,
        1.1348045,
        -0.7483997,
        1.1607535,
        1.0312611,
        -1.7313188,
        -2.0508857,
        -0.6644382,
        1.4155402,
        0.50017524,
        0.0025399753,
        1.1379184,
        -0.062371515,
        -0.343014,
        -1.762562,
        -0.5262454,
        -1.1815588,
        0.9643651,
        -0.54608816,
        0.41318703,
        -0.6425109,
        -0.6299529,
        1.9365201,
        0.2912598,
        -1.178004,
        0.50480896,
        -1.3016274,
        -0.4449883,
        1.1541997,
        -0.20942463,
        -2.762054,
        0.07080775,
        0.13356206,
        0.29628992,
        1.7031081,
        -1.2227985,
        -0.23169878,
        -1.616525,
        0.34199712,
        0.6572211,
        -0.8436413,
        0.06981937,
        -0.004945314,
        0.4989714,
        0.34144923,
        -0.034564264,
        -0.17187382,
        -1.2523934,
        0.10470866,
        -0.38607758,
        -0.040238272,
        -0.40471786,
        0.61049086,
        -0.39068806,
        0.41485903,
        -0.32080463,
        -0.8978485,
        -0.49527654,
        -0.019374495,
        -1.6748456,
        0.14696562,
        -1.0174532,
        0.4628924,
        0.15012576,
        -1.1382574,
        -0.24012448,
        -0.1387241,
        -0.43854618,
        0.78814113,
        0.33070248,
        0.99117273,
        0.2179091,
        1.0323344,
        0.6605143,
        -0.8882204,
        -0.25419232,
        0.09870722,
        0.7508662,
        0.44516534,
        -1.6328797,
        0.7766912,
        0.1090953,
        -0.5611995,
        0.52280235,
        -0.380757,
        -0.8336987,
        -0.62348855,
        -0.29231596,
        0.13718162,
        -1.4523399,
        0.25269943,
        -0.21785182,
        -0.26463547,
        -1.0313156,
        0.03494182,
        1.1626256,
        1.095513,
        -1.5651425,
        -2.0785706,
        -0.14799736,
        2.279288,
        1.2052075,
        1.6412852,
        1.7516044,
        0.9757659,
        1.6728946,
        -0.03763122,
        0.57059157,
        -1.7039989,
        0.17725837,
        0.254223,
        -0.2652304,
        0.31796822,
        -0.38350335,
        0.2557832,
        -0.19025488,
        -0.048825897,
        -1.3295635,
        -0.1805645,
        -1.1949321,
        1.9459751,
        -0.6211671,
        1.1732813,
        1.2152041,
        -0.7960513,
        -0.012584951,
        -0.06465938,
        -1.9200262,
        0.06363243,
        1.5719651,
        0.9239935,
        -1.3070537,
        1.5557363,
        0.39886245,
        -1.3656535,
        -0.031268712,
        -0.78197044,
        0.56939334,
        -0.3466687,
        -1.3098961,
        0.5187265,
        0.9537792,
        1.7192407,
        0.71047336,
        -0.4566806,
        1.5966893,
        0.97057754,
        -0.83494407,
        0.18113951,
        2.333858,
        -0.46476388,
        0.86723596,
        -0.56313866,
        -1.0036165,
        -0.6071608,
        -2.0339515,
        -0.09181379,
        -0.25599816,
        -0.15213451,
        -0.12080286,
        0.46555752,
        -0.33786973,
        0.2518384,
        0.9268612,
        -0.647975,
        1.6250027,
        -1.4964279,
        -1.0270123,
        1.3851664,
        0.5408687,
        0.430875,
        0.014181872,
        0.7166579,
        0.19475271,
        -0.49910855,
        -0.59675455,
        -0.8284457,
        -0.0909244,
        0.63201344,
        0.737646,
        0.6713076,
        -1.3075082,
        1.2451289,
        -1.3894982,
        0.030066982,
        0.54342085,
        0.90549684,
        0.2129618,
        0.11635053,
        1.08883,
        0.6405249,
        -2.1191745,
        -0.047489677,
        1.7425523,
        -0.19281979,
        0.25500217,
        -0.22388229,
        1.4781499,
        0.2925963,
        -0.90239084,
        -1.6511405,
        0.16043857,
        -0.3153957,
        -0.46150914,
        -0.49460775,
        0.24208046,
        -0.046716582,
        0.5457884,
        0.73428196,
        -1.2728832,
        0.29564315,
        1.2006173,
        0.8111654,
        0.39709863,
        0.47626972,
        -2.7483654,
        -1.0611839,
        0.5206021,
        -0.41101432,
        0.7178936,
        -0.28821248,
        -1.2208002,
        1.4106091,
        -2.0242782,
        -0.0016557861,
        0.7328198,
        0.11916903,
        0.70972186,
        -0.6795025,
        -0.76822853,
        -2.3190217,
        0.82973367,
        -0.013184291,
        1.2952111,
        -1.2554348,
        -0.6932636,
        0.91339064,
        0.64901006,
        -1.0363715,
        -0.03876775,
        -0.047743596,
        0.94856167,
        -0.43652046,
        0.52111703,
        -1.1701678,
        0.41989768,
        1.2202387,
        1.2419906,
        0.572904,
        0.6991011,
        0.07101491,
        1.5521979,
        0.7068314,
        1.0472085,
        0.4309885,
        -0.24962725,
        0.99009126,
        -0.16677336,
        0.019001624,
        -0.9509423,
        0.57881725,
        1.0947449,
        -0.9502336,
        -1.4263407,
        0.9307321,
        0.8563374,
        0.18557063,
        1.1562618,
        0.30129158,
        0.032798015,
        0.3697929,
        -0.030488286,
        -0.75275904,
        0.6798438,
        -0.48945442,
        2.1867058,
        -0.28110784,
        -0.4280865,
        -2.0899856,
        1.8836356,
        0.62138927,
        -0.2544229,
        0.5356859,
        0.50148,
        0.7264786,
        1.7117488,
        1.1153889,
        1.1544708,
        -0.921348,
        1.270006,
        -0.1198158,
        1.4019918,
        -1.2756714,
        -0.09574606,
        0.032663852,
        1.0562984,
        -0.77541083,
        -1.5205115,
        -1.0818037,
        -0.46815255,
        -0.4573578,
        0.3795303,
        -0.5241287,
        -0.19202086,
        -1.0378484,
        0.9175491,
        -1.608118,
        2.1547358,
        -0.8508223,
        -0.83270735,
        -0.105447896,
        0.42454678,
        -1.4064705,
        -0.9512457,
        2.264289,
        -1.0992047,
        0.90294206,
        0.47966462,
        2.0073736,
        0.030714769,
        -1.387383,
        -0.7911716,
        0.15441047,
        0.75409865,
        -0.8899547,
        -1.0277877,
        -0.7708006,
        0.46597767,
        -0.45675838,
        0.7963046,
        -0.9070035,
        0.56430554,
        0.08725156,
        0.24228571,
        -0.39226264,
        -0.4071681,
        -1.6785413,
        -0.99306685,
        -0.35469812,
        -1.0709494,
        0.23570806,
        0.32410857,
        -1.1735314,
        -1.3812834,
        2.670808,
        0.70605326,
        0.39365795,
        -0.34738624,
        0.027199237,
        0.09119007,
        -2.4336095,
        0.934156,
        0.019655267,
        -0.4129853,
        -0.31183076,
        -0.474081,
        0.15678379,
        -0.28963062,
        1.7426608,
        -1.000136,
        0.064132676,
        -0.115753554,
        -0.5069757,
        0.6266209,
        -0.17407887,
        0.14046936,
        0.6412971,
        -0.16784492,
        0.26015747,
        -0.29236326,
        0.48984838,
        -1.0175081,
        1.8074992,
        -0.5426791,
        0.35543102,
        1.0208033,
        -1.5157082,
        0.9163652,
        -2.0094957,
        1.0091873,
        0.05123884,
        -0.31894496,
        -0.3000503,
        2.3257422,
        -0.96801716,
        -0.6730879,
        1.1148597,
        0.16797414,
        -1.6033682,
        2.2552948,
        -0.8869981,
        -0.92939824,
        0.94752157,
        -0.6991567,
        -0.3431862,
        1.1515402,
        -0.07672308,
        -0.45025527,
        0.5836077,
        -0.5987673,
        -0.24266301,
        -0.12516621,
        -0.23691033,
        0.6013691,
        0.73858017,
        2.1517055,
        -1.0906901,
        -1.191868,
        0.33692423,
        1.7592484,
        -0.6121844,
        0.4129816,
        -0.5362967,
        -0.5394542,
        -1.2590774,
        0.10899752,
        0.5858355,
        0.28575203,
        -0.4497848,
        -1.0332842,
        0.7246935,
        -0.16793713,
        0.65957123,
        0.17378755,
        -0.4942391,
        -0.69421434,
        0.35706484,
        1.2412022,
        0.6461601,
        0.24783593,
        0.015986124,
        -0.67103106,
        -0.87212056,
        0.63405955,
        1.932706,
        0.5840468,
        0.00425002,
        0.16449344,
        -1.6742077,
        1.2168914,
        0.08710435,
        -0.78658897,
        -0.46111628,
        -2.3305175,
        -0.41604128,
        -1.3642879,
        -1.6212027,
        2.168519,
        -1.9782885,
        1.6319461,
        -0.78125894,
        -1.6186072,
        -1.4533428,
        -0.53380483,
        -0.32692674,
        1.193443,
        -0.738569,
        0.76138866,
        0.1540333,
        1.0348582,
        -0.009674179,
        0.67302257,
        0.49074313,
        -0.6602308,
        -2.312135,
        0.33213368,
        -0.48263,
        0.6817244,
        1.2908345,
        0.74344885,
        -0.43759322,
        -0.7515145,
        0.027477305,
        0.85547936,
        -3.1345727,
        -0.7225259,
        1.839621,
        -0.37376863,
        1.8764492,
        -0.9746739,
        -1.7735386,
        0.29459327,
        -0.27052745,
        -0.3857849,
        -0.292824,
        1.959742,
        -0.24235529,
        -0.11192694,
        0.78440356,
        1.725027,
        -1.2202828,
        0.2635017,
        0.5682372,
        1.2562727,
        -1.1975683,
        1.1240973,
        -0.46209532,
        -0.20173661,
        -0.53426343,
        0.5934195,
        -0.26547736,
        2.3762636,
        0.008536098,
        0.1946955,
        -0.7994647,
        1.7301477,
        2.2716887,
        0.5252699,
        1.9513505,
        -1.3006499,
        0.19825843,
        -0.4442169,
        -0.31381544,
        -0.3013582,
        1.3685226,
        0.17686112,
        1.2394849,
        -0.82973737,
        -0.5276227,
        1.7574248,
        -0.19004306,
        -1.7403247,
        -0.4591083,
        -0.66248995,
        -0.1386951,
        0.34469405,
        0.5193269,
        1.4156023,
        0.31256962,
        -0.5077867,
        0.88886017,
        0.01115138,
        0.16038112,
        -0.35844365,
        0.20840402,
        -0.79007226,
        0.6049927,
        0.6763312,
        0.7764151,
        -0.39420968,
        -0.66978043,
        1.0195101,
        -0.13759539,
        0.44192117,
        1.996643,
        0.49994522,
        -0.25538018,
        -1.5154837,
        -0.12878104,
        0.06899194,
        -0.2817116,
        -1.2716944,
        -1.1138897,
        0.48312742,
        -0.12142326,
        -0.4062317,
        -0.3091014,
        1.1923591,
        1.2692293,
        0.25330088,
        -0.53485835,
        -1.4846653,
        -0.9266105,
        -0.27649972,
        -0.52942085,
        0.4476634,
        0.82192945,
        -2.334847,
        -0.29851225,
        -0.9127797,
        -0.119983844,
        2.0459082,
        0.2876745,
        0.6893675,
        0.7064259,
        -1.2738109,
        -0.32626536,
        -0.79893404,
        -0.20178367,
        -0.8174212,
        0.55156875,
        0.47361264,
        0.14063767,
        0.28476468,
        2.0772882,
        0.47574618,
        1.4692698,
        2.3015797,
        1.2514378,
        0.97707117,
        -0.27142546,
        -0.2124744,
        -1.2239115,
        1.0929315,
        -1.7618704,
        1.8760713,
        1.0509309,
        0.16610631,
        0.70177543,
        1.1290168,
        -0.61055,
        0.69525915,
        0.8486785,
        0.70714265,
        -0.6116914,
        0.40315047,
        1.2174596,
        -0.6523539,
        -0.91200924,
        1.9371179,
        -1.0115443,
        -1.4861362,
        -1.0859557,
        -1.5490412,
        -1.0102808,
        -0.39952463,
        -1.034013,
        0.81812817,
        -0.07140376,
        0.67978716,
        -1.0617081,
        -1.5355145,
        0.9314647,
        -0.98625976,
        -0.48279065,
        -1.0641764,
        1.0514259,
        1.8803431,
        0.04557646,
        0.5194451,
        -0.8881424,
        -1.1817874,
        0.22789414,
        2.4460108,
        0.600377,
        -1.3766892,
        0.6840284,
        -0.40777194,
        -0.3237985,
        1.3016891,
        0.90992916,
        0.27148455,
        -1.0305778,
        -1.1579604,
        -2.04535,
        -0.27037963,
        -1.1044691,
        -0.3563666,
        0.742553,
        -1.1361823,
        -0.09498503,
        -0.7315174,
        -0.5820248,
        0.54779047,
        -0.60090506,
        -0.11325442,
        0.6640686,
        1.2048211,
        -0.544979,
        0.73285174,
        0.49854282,
        0.18914768,
        -0.37333834,
        0.38951933,
        -0.99916726,
        0.8843932,
        0.087134406,
        -0.39606786,
        -1.2302157,
        0.5444649,
        3.337916,
        1.390443,
        -0.40814862,
        -0.23366469,
        0.13151713,
        -0.39159685,
        -0.75081336,
        -0.5418597,
        -0.6174583,
        0.16487496,
        1.9557828,
        -1.165511,
        -0.6120565,
        -0.18804893,
        -0.14754206,
        -0.3721898,
        -0.7886925,
        0.31055823,
        -1.076367,
        0.8703989,
        -0.2652212,
        0.26170865,
        -1.335531,
        0.36639157,
        -2.817754,
        -2.3195121,
        -0.65807927,
        1.6747395,
        0.7128886,
        -0.92559355,
        -0.26957923,
        -0.108583346,
        -0.12532844,
        0.014858318,
        -0.3785716,
        1.7741998,
        0.28656626,
        0.41598892,
        -0.1272525,
        0.9689098,
        1.5117658,
        -0.44743657,
        0.282872,
        0.5395988,
        -2.063925,
        -0.17024033,
        -0.7070792,
        -0.15073837,
        -0.29423374,
        -0.6551889,
        1.5573311,
        -0.22385879,
        -1.7509015,
        0.3489712,
        -0.99406654,
        1.0085121,
        0.17027542,
        -1.4078919,
        -0.61416906,
        -0.32616422,
        1.1947764,
        -0.6273982,
        0.98329026,
        0.7459753,
        -0.2552991,
        -0.8140508,
        -0.06901332,
        0.41625467,
        1.5123644,
        1.1721827,
        1.0252168,
        -0.18976267,
        0.517089,
        -1.1562917,
        1.228724,
        0.16698606,
        2.1077776,
        0.0647616,
        1.526158,
        0.68192834,
        0.85697836,
        0.79902416,
        -0.28285453,
        -0.8977999,
        0.80504733,
        0.6018753,
        -0.05366079,
        -1.4940252,
        -0.7463661,
        -2.129674,
        0.044031892,
        -0.055351853,
        -0.43659624,
        -2.0247874,
        1.4641474,
        -0.36671856,
        -0.048678525,
        1.3301395,
        0.09563956,
        -0.10404868,
        1.0650197,
        0.3010379,
        -2.3701973,
        0.3781951,
        -1.217187,
        0.7413886,
        -0.94227034,
        -0.6661743,
        -0.43440187,
        1.1653546,
        -0.44597524,
        -1.0568274,
        1.6627563,
        0.43761903,
        1.2504538,
        1.3038702,
        0.40177238,
        -1.6952984,
        -1.3734102,
        0.5369026,
        1.4529617,
        -1.392415,
        0.023030465,
        0.5454866,
        -1.206196,
        0.015584763,
        -0.64740294,
        -0.65781045,
        -0.060930315,
        0.22942051,
        0.5335396,
        0.024561511,
        0.808607,
        -0.77565384,
        -1.4702591,
        -0.54368645,
        0.91242075,
        0.20390451,
        -0.6615387,
        -0.7403025,
        0.7332945,
        -1.6462587,
        1.4880228,
        1.5720279,
        0.51811117,
        -0.64618236,
        -0.39400515,
        -0.5992547,
        0.38305736,
        0.10982831,
        0.49488428,
        0.76460457,
        1.4863436,
        -1.1197487,
        0.37356833,
        0.37047938,
        0.33408776,
        -0.14773133,
        0.57445467,
        -0.24079701,
        1.5387031,
        -0.07057323,
        0.69988495,
        0.6530213,
        -0.50814277,
        -0.06673478,
        0.9541642,
        0.27362692,
        -1.4370525,
        1.4773233,
        -0.44209328,
        -0.9404845,
        -1.4299135,
        1.8980352,
        1.3249229,
        0.47895446,
        0.10905055,
        0.50239563,
        1.5167999,
        0.4668535,
        0.2784807,
        1.3085223,
        -0.2578142,
        -0.7559346,
        -0.4354104,
        -0.120785184,
        1.071088,
        0.0714732,
        -2.4041483,
        0.1378825,
        -0.86711645,
        0.24071367,
        -0.5091951,
        1.4951891,
        0.06261424,
        -0.92322934,
        -0.42613393,
        -1.2291024,
        -0.42297897,
        0.8381524,
        -0.2875506,
        -0.7027429,
        0.0620054,
        0.8528293,
        1.0401438,
        0.017780898,
        -0.2641347,
        -1.188106,
        -0.57007116,
        0.3852267,
        0.11317208,
        1.8714148,
        -0.15077876,
        -1.1222168,
        -0.43436626,
        -0.3651716,
        -0.3496786,
        1.1955564,
        1.0256327,
        1.3422171,
        0.0400875,
        1.3859032,
        -0.059288383,
        1.5386808,
        1.0229434,
        -0.15413158,
        -1.3311414,
        1.6800171,
        -1.1719582,
        0.14438592,
        -0.10059014,
        1.4458851,
        0.34585482,
        1.8240362,
        -0.34150144,
        1.8998394,
        -0.8035772,
        1.4732089,
        -1.203807,
        0.22750267,
        -0.23878035,
        -2.095182,
        -2.1563838,
        1.054676,
        1.1853178,
        -1.1777349,
        -0.40864214,
        0.16881596,
        0.22918552,
        -0.40285861,
        -2.312832,
        -1.8953414,
        -0.8271145,
        0.07244847,
        -0.19041947,
        -0.48907134,
        1.0612857,
        1.4591643,
        -0.4472416,
        0.8270251,
        0.3536059,
        0.41349024,
        0.5019741,
        -0.68323034,
        0.9947091,
        -0.7629981,
        0.71858746,
        0.44481787,
        1.2299434,
        -0.699439,
        0.034647483,
        -0.7848117,
        -0.5847444,
        0.3913152,
        0.9974496,
        0.7860608,
        1.5231973,
        -1.0044212,
        1.5495104,
        -0.40120378,
        0.020580454,
        -1.5292121,
        1.9254185,
        0.89478064,
        0.52913094,
        0.57092243,
        0.17925426,
        -0.39759374,
        -0.03237045,
        -0.48371658,
        2.8824773,
        -1.3083504,
        0.78192866,
        0.10233668,
        0.2737112,
        -0.18441379,
        -0.73889375,
        -0.39737925,
        0.3450006,
        -0.83209807,
        0.9795723,
        -0.11960982,
        0.43793106,
        0.8577911,
        -1.3469006,
        -1.1015564,
        0.4808707,
        1.1051446,
        -0.48047942,
        -1.1188979,
        0.23985139,
        -0.7223651,
        0.7647335,
        1.0576352,
        -0.026618287,
        1.1033098,
        -0.2425218,
        -1.4770759,
        -0.2500483,
        0.8084084,
        -0.66197515,
        -0.9363008,
        -1.2847259,
        -0.764542,
        -0.08034947,
        0.903621,
        0.5382753,
        -0.5425586,
        1.4187698,
        0.642736,
        0.26701,
        0.5248894,
        -0.12479298,
        -1.1637018,
        0.9427747,
        0.019732408,
        0.31930417,
        -1.0851799,
        -0.36317593,
        -0.07038711,
        0.3821572,
        -0.63731694,
        -1.4901525,
        -0.16118516,
        0.42974797,
        0.9302083,
        -0.18690382,
        -0.8122805,
        -0.24237658,
        0.700715,
        -1.2251748,
        -1.3321055,
        -1.7317865,
        1.4794859,
        -1.2306342,
        -1.1498228,
        -0.69880617,
        0.6389331,
        0.5335478,
        0.9810024,
        -1.3888167,
        -0.7122185,
        1.3597442,
        -1.9381284,
        1.7260479,
        -0.6216059,
        -0.21388315,
        -1.9720949,
        0.6243261,
        1.9760925,
        -3.2433898,
        -0.85270286,
        -1.3179615,
        -0.8820184,
        0.9639901,
        -0.5735324,
        -1.8695915,
        -0.99325365,
        -0.7919876,
        -0.68157434,
        -0.8257276,
        -0.094726354,
        1.5407873,
        -1.123785,
        -0.1730825,
        1.6752052,
        -1.0874349,
        0.62121123,
        -1.7234824,
        -0.1996827,
        0.72120106,
        -0.037040267,
        0.5875679,
        0.97606707,
        0.08674708,
        0.6817405,
        1.6042558,
        -0.55785215,
        -0.8920528,
        0.3968648,
        -0.033778086,
        0.40313703,
        -1.0969416,
        2.2873178,
        0.5619293,
        -1.5564613,
        0.9872753,
        -0.64315087,
        -0.7853195,
        0.61439216,
        -0.16723241,
        1.2801023,
        0.8901028,
        0.28671628,
        -1.0665925,
        0.14314063,
        -0.60802567,
        -0.8277464,
        -0.6700739,
        1.3929746,
        1.2344136,
        0.37356442,
        1.4294906,
        0.010344208,
        -0.34761363,
        -0.033087812,
        1.0311437,
        0.9880727,
        0.92862004,
        0.3508865,
        -1.361358,
        -0.50357884,
        1.4598608,
        -0.5370882,
        0.51808685,
        -2.0866768,
        -1.0468837,
        -1.0357223,
        -1.4748873,
        -0.3678336,
        -0.9551622,
        1.0062677,
        -0.13784218,
        0.4814567,
        0.8359747,
        -0.613234,
        1.6142596,
        -1.3917909,
        0.69277114,
        -1.459909,
        1.1222364,
        -0.6892381,
        -0.27927962,
        -0.8498719,
        0.59820825,
        0.5693466,
        1.94783,
        0.8159951,
        0.53827876,
        -2.1913435,
        0.18586622,
        1.0521523,
        -0.13100019,
        1.3539727,
        -1.5857955,
        1.6768221,
        -1.1545603,
        -1.4581174,
        0.9717583,
        -1.3038093,
        -0.5522207,
        0.38217914,
        0.45495746,
        -0.68296444,
        0.40586254,
        1.2540193,
        -0.55403745,
        0.76789147,
        0.19723806,
        -1.3918972,
        1.620067,
        0.3822984,
        -0.223135,
        0.55287004,
        -0.58657616,
        -0.51949036,
        -3.514801,
        0.39687845,
        -0.53870994,
        0.611797,
        -0.81812364,
        1.5466317,
        0.8979979,
        -0.07841702,
        -1.7034924,
        0.9478361,
        1.2215157,
        0.16827458,
        0.23825882,
        -1.1354384,
        -0.10110755,
        -0.90541416,
        0.5741187,
        -1.0152863,
        0.30031732,
        -0.023302395,
        1.1719688,
        -0.30826703,
        0.34099945,
        2.4449635,
        1.1197243,
        0.98897094,
        -0.6904791,
        -1.1364961,
        0.19585049,
        0.07241862,
        1.1724513,
        1.4780916,
        0.10626063,
        -2.0361304,
        1.0724909,
        -0.5735819,
        -2.0703537,
        -0.49891365,
        1.1526848,
        0.38664135,
        3.178529,
        0.91704243,
        -0.29981384,
        1.7089789,
        1.6869527,
        1.3762307,
        -0.22464727,
        1.7827461,
        -0.3532724,
        -0.78062236,
        0.42043024,
        0.61501867,
        -1.4889637,
        -1.1821119,
        -1.707698,
        0.47141224,
        0.14970312,
        -1.7015681,
        0.23632969,
        -0.24994081,
        0.49201092,
        2.272328,
        -1.3632787,
        -1.4793609,
        -0.8645852,
        -0.2089807,
        1.1742984,
        -1.3087015,
        0.38146645,
        1.294342,
        0.80295783,
        -0.1460914,
        0.9354404,
        -0.052087165,
        2.0635285,
        -0.45070365,
        -0.53640497,
        -0.4781009,
        -0.413035,
        0.44327495,
        0.12005487,
        -0.25095555,
        0.45328876,
        1.0234991,
        0.16139156,
        1.2352114,
        1.1941282,
        0.93910366,
        1.0389376,
        -0.81241655,
        1.3132098,
        0.8890461,
        2.0115738,
        -0.7813239,
        0.07476202,
        -0.15551059,
        -0.7981328,
        -1.0338392,
        2.5671828,
        0.2124424,
        -1.8826594,
        -0.40905517,
        -0.93374693,
        -0.7718536,
        1.6321542,
        0.36408183,
        -0.32431832,
        -0.055280305,
        -0.30028287,
        -0.7243739,
        -0.6144401,
        -0.522029,
        0.35757238,
        -0.2633648,
        1.6598394,
        -0.11396141,
        -0.23214316,
        -1.7802349,
        -0.28085774,
        1.2784129,
        -0.71134853,
        -1.5555786,
        -1.0022454,
        -0.69809914,
        1.2199515,
        2.6823437,
        -0.33330798,
        -1.0938599,
        -0.97564906,
        0.16241509,
        -1.3240823,
        -1.2070819,
        0.5491944,
        -1.929102,
        1.755336,
        0.9606851,
        1.2104766,
        0.5681538,
        -0.44547692,
        -0.3231177,
        -1.0530474,
        -1.9517341,
        -1.6447098,
        -1.6459346,
        -0.44572872,
        0.665514,
        -1.3555865,
        0.84731835,
        -1.4435964,
        -1.3056073,
        -0.85069406,
        -0.219544,
        1.1970024,
        -0.65657353,
        -0.25679028,
        0.39985245,
        1.989749,
        0.25246423,
        -0.68890953,
        0.671775,
        -0.12709852,
        0.9590818,
        0.8810759,
        -0.9785333,
        0.13104735,
        -0.31344244,
        0.6555137,
        -0.61704904,
        0.68911856,
        -0.1699442,
        0.48866343,
        -2.1889358,
        0.0075926674,
        0.763215,
        1.8588449,
        -0.50584733,
        0.48300245,
        -0.86745,
        0.7793545,
        -2.7341003,
        0.35598722,
        0.5977761,
        -0.4993562,
        0.642015,
        -0.04501448,
        0.7193631,
        1.187496,
        1.3429624,
        0.45295817,
        1.4419914,
        0.39330667,
        -0.43308213,
        0.24850857,
        1.0151309,
        -0.42313677,
        0.48948693,
        0.013079834,
        -0.6869931,
        -0.89737594,
        -0.21952243,
        -0.289376,
        0.44988912,
        1.8436718,
        0.454951,
        0.17210162,
        0.19534858,
        -1.2475014,
        0.03544263,
        0.66282254,
        0.103880346,
        1.4631265,
        1.2264508,
        0.46860504,
        0.7526306,
        -1.2057227,
        1.0795726,
        0.99917895,
        2.037801,
        -0.2275245,
        0.6787005,
        1.2715167,
        0.053414095,
        -0.57676256,
        -0.9243876,
        -0.7231287,
        0.5862687,
        0.7477455,
        -1.0483575,
        -0.19142929,
        -1.1621248,
        -0.11765102,
        -0.12524699,
        1.1610477,
        0.48024976,
        0.37966028,
        1.7418172,
        0.092736684,
        -1.2024338,
        0.4394846,
        0.79111737,
        1.2157634,
        0.3911451,
        -0.6883766,
        0.58178604,
        0.19463892,
        0.99150336,
        1.0914387,
        0.5387033,
        1.4733344,
        -0.26603025,
        -1.2663711,
        2.1925068,
        -0.5317367,
        1.5135074,
        -0.6685696,
        -0.66225797,
        -0.75345194,
        0.18461578,
        1.8395493,
        0.62602746,
        -0.6834309,
        -0.15755627,
        0.9438783,
        0.6363405,
        0.70875347,
        -0.07273429,
        1.0006074,
        1.4288524,
        -1.134826,
        -0.6314213,
        -0.29571047,
        -0.5324558,
        0.69574517,
        0.54920757,
        -0.34827542,
        1.0567352,
        0.17768301,
        -0.24875675,
        0.8715513,
        -1.1173499,
        -0.64840984,
        1.7008866,
        1.0944222,
        0.3529003,
        0.30271736,
        -0.20268087,
        0.13341126,
        0.1619543,
        -0.7652501,
        1.3872513,
        0.3129964,
        -0.3363119,
        0.674186,
        -0.13776237,
        -0.58084446,
        -1.0283433,
        0.8073727,
        -1.6239505,
        0.7049084,
        1.1513304,
        -0.33824667,
        -0.24560717,
        0.8830708,
        -0.30036762,
        0.039190937,
        -1.2351472,
        1.620652,
        -0.13686895,
        0.879464,
        -0.48102587,
        0.38289374,
        -0.3711,
        -0.5183022,
        2.72981,
        -2.177368,
        0.59212184,
        -1.9138186,
        -1.580846,
        -0.5707437,
        0.9236826,
        1.1726927,
        -0.0064035086,
        -1.0660917,
        -0.26325727,
        0.7296682,
        0.3175673,
        1.234033,
        -0.39517143,
        -1.7478919,
        1.3474295,
        0.6065614,
        1.5414577,
        0.38115808,
        -0.43994024,
        -0.3440904,
        0.3385546,
        0.075800344,
        -0.7437549,
        -0.0019581236,
        0.6061349,
        -2.83805,
        -0.1315659,
        0.7675114,
        -0.35600272,
        0.8994418,
        -0.55955124,
        -0.27411035,
        -1.909733,
        0.4497067,
        -0.10520678,
        -0.5896173,
        0.6189461,
        1.0866259,
        -1.281202,
        1.3042532,
        0.7704339,
        -0.13790041,
        0.27682507,
        -0.7053616,
        -0.47667345,
        0.28016275,
        1.5633539,
        -0.60395074,
        -1.9969329,
        -0.5226746,
        1.076175,
        0.5555743,
        1.1180393,
        0.16444914,
        -0.8789287,
        -0.16398312,
        0.50376195,
        0.5091025,
        -0.24822594,
        -1.2053746,
        0.89093333,
        -0.12782454,
        -0.9476807,
        0.1992934,
        1.5762969,
        1.8461368,
        0.03776024,
        -1.0907536,
        0.09896107,
        -0.113712266,
        -0.6077406,
        -0.41515934,
        -1.0809748,
        0.09981576,
        1.3900362,
        1.8558981,
        -1.3169955,
        -0.63309395,
        2.1178522,
        1.5004336,
        0.13247646,
        -0.5497658,
        0.121614136,
        1.0159178,
        -0.16870297,
        1.8145432,
        -0.5173438,
        -0.63507396,
        1.0568886,
        1.0286074,
        -0.100818366,
        0.34423992,
        -0.12531899,
        1.6719189,
        -0.55313826,
        0.1680346,
        -0.7767434,
        -0.17040746,
        0.18240578,
        1.1784391,
        -1.1579051,
        -0.2109698,
        0.47401908,
        0.6034952,
        0.29055503,
        -1.0366571,
        1.7657695,
        -1.4306991,
        0.096963644,
        -1.7616704,
        0.5298624,
        0.07629438,
        -0.5452896,
        -1.32462,
        -0.27839157,
        -0.0011082187,
        -1.1150229,
        0.19193639,
        0.40934977,
        -0.2701522,
        -0.048868034,
