{
  "name": "image",
  "parameter_count": 98752,
  "layers": [
    {
      "layer_type": "Linear",
      "name": "Input",
      "index": 0,
      "weights": [
        -1.0303965,
        -0.08971168,
        0.60025895,
        -0.14239943,
        2.190987,
        -0.57923996,
        -1.756883,
        -0.3047158,
        2.9380732,
        -1.5866731,
        0.65590656,
        0.17448448,
        1.5557338,
        -0.8832598,
        0.010287106,
        -0.274307,
        -1.2207855,
        5.39356,
        -0.6899074,
        5.291171,
        0.44552076,
        1.3048517,
        -1.6096148,
        3.356315,
        3.9338708,
        -0.0819639,
        3.084417,
        -1.0531989,
        0.81337225,
        2.6192462,
        -0.5952572,
        0.7495856,
        -1.4203575,
        -0.25289378,
        0.2254142,
        -1.5289438,
        -0.8604875,
        -1.8845357,
        -0.08892892,
        2.8021846,
        7.9177637,
        -3.553563,
        -2.092123,
        -0.9580851,
        0.4481935,
        -1.5597751,
        4.060742,
        -0.70830375,
        1.8369974,
        2.2079911,
        0.34922007,
        -1.0231532,
        2.4511766,
        -0.5438605,
        -0.81432045,
        -0.97745496,
        -0.5651652,
        -1.0677844,
        3.8035312,
        1.1113125,
        -1.1443485,
        -5.932621,
        5.815223,
        2.613302,
        0.22720236,
        0.38085097,
        1.578168,
        3.5873399,
        1.2767389,
        -2.6544025,
        1.3092364,
        -4.646924,
        -3.316958,
        3.2578409,
        1.5727323,
        -2.3355498,
        -1.306666,
        0.5925965,
        0.5965393,
        6.4530735,
        -1.7425344,
        1.3750454,
        -1.920434,
        -1.1223319,
        -1.5567548,
        2.47785,
        2.0886755,
        -3.7562518,
        1.141442,
        -0.17020008,
        2.1925192,
        -1.4412972,
        3.4140317,
        -1.4412932,
        -1.9022402,
        0.8454959,
        1.925672,
        -0.92241406,
        4.052784,
        0.8458744,
        1.3862183,
        1.4011617,
        0.6248688,
        0.003188647,
        -1.6392047,
        0.48632616,
        -0.5007249,
        -1.9337236,
        1.7511823,
        -1.2167119,
        -1.1566224,
        1.3103287,
        -0.7584218,
        3.4230778,
        -1.4202762,
        -0.004526109,
        0.30070022,
        -1.026959,
        1.1615021,
        1.8622756,
        1.334945,
        -4.9235144,
        1.9452504,
        0.69315004,
        1.6459477,
        -0.015212571,
        -2.0181615,
        -2.941769,
        1.0050161,
        -1.0012776,
        -1.2418845,
        4.704761,
        -5.6441603,
        -0.16914569,
        -1.1358333,
        1.4578325,
        -1.2945019,
        3.4189856,
        -0.9776705,
        -0.55462635,
        -6.7369857,
        -0.95040566,
        3.5001013,
        -0.7770211,
        -1.0454454,
        -6.2420673,
        -3.8755271,
        -6.817864,
        1.9478241,
        -0.71871614,
        1.0675508,
        -3.4021513,
        -5.713624,
        1.6914399,
        -4.382554,
        3.6068776,
        1.1903954,
        -6.4018397,
        0.11232217,
        1.9510173,
        2.4494083,
        8.277821,
        3.906781,
        -0.27235183,
        2.167159,
        3.0659785,
        -3.3169487,
        -1.4283274,
        -8.152731,
        5.572736,
        0.4368923,
        1.143931,
        -2.4803889,
        -3.8133202,
        -4.207835,
        0.36673295,
        -8.71479,
        -0.42770058,
        -0.47778592,
        3.1276786,
        -1.9846263,
        -7.6402063,
        -1.5851097,
        0.57958233,
        1.0518733,
        0.6419129,
        -2.3713362,
        -0.17015105,
        7.094863,
        -1.6553924,
        -4.2984776,
        -4.8605537,
        4.5588627,
        1.2662743,
        3.390993,
        -2.8145301,
        -1.1042035,
        4.4117494,
        -3.1209857,
        -1.4452605,
        2.6834674,
        -2.5149658,
        -1.186359,
        5.2778516,
        -1.6170088,
        0.08609112,
        -0.2716566,
        -7.252702,
        0.00014152176,
        1.7972381,
        0.9557426,
        0.9591097,
        0.98091614,
        -0.63159573,
        3.0760317,
        8.419208,
        -1.9381685,
        1.0396332,
        -4.2210836,
        -1.4978641,
        -4.480119,
        2.240635,
        -0.18320264,
        -1.3784102,
        -5.8148584,
        1.807319,
        -0.065125026,
        -0.49605635,
        -2.0259445,
        -4.754233,
        1.9607397,
        5.1395755,
        1.0589197,
        2.2234278,
        8.230813,
        1.5893962,
        1.4901919,
        -5.2228394,
        0.9493205,
        1.4806243,
        0.7720743,
        0.0027988474,
        -3.2684927,
        1.1916586,
        3.445061,
        1.8253355,
        -2.282031,
        2.074793,
        0.8319515,
        1.963971,
        -1.1421648,
        -3.7621946,
        -7.1672807,
        0.10854156,
        4.1486807,
        5.573759,
        3.6332817,
        0.35606176,
        2.6208186,
        -3.6155984,
        2.6387622,
        4.8623204,
        -1.7986848,
        1.35127,
        -6.3470206,
        1.4575696,
        -2.3110023,
        1.5800384,
        0.5635074,
        2.9566128,
        -2.4426193,
        1.7374264,
        5.6040115,
        -5.0151052,
        1.6296357,
        -1.3957244,
        -7.1197515,
        0.7745001,
        2.2752087,
        -2.3564796,
        -0.36578637,
        -0.015473446,
        -1.9195236,
        -2.1198146,
        -1.5002601,
        2.5791774,
        1.7616211,
        -2.501193,
        0.6446599,
        -3.7868187,
        -1.9135805,
        2.7763019,
        0.81486166,
        -2.348116,
        3.600156,
        -3.6031208,
        -4.405409,
        2.3486066,
        -0.86267984,
        1.2589217,
        0.71174645,
        5.0570664,
        -2.359636,
        0.59799963,
        2.6825998,
        -2.9050574,
        -4.4169674,
        -2.9416718,
        -0.53668743,
        3.458314,
        5.6323037,
        2.9980063,
        1.9010459,
        2.2562892,
        -3.5680099,
        -1.6563946,
        -4.3082147,
        8.080779,
        -5.628193,
        2.8334756,
        -3.6426754,
        -7.185182,
        -5.944407,
        -4.047835,
        -0.8738371,
        2.8283129,
        -1.2849003,
        6.1798444,
        1.8673167,
        -3.0983377,
        -2.4695048,
        -1.8689699,
        4.4309907,
        -0.346532,
        -1.6005412,
        -2.8532786,
        0.012977475,
        1.0447823,
        8.55219,
        1.3678249,
        2.2647524,
        -3.069278,
        -4.4108152,
        0.43838224,
        3.033124,
        1.856628,
        -2.8342133,
        5.1169987,
        -4.95794,
        1.4485033,
        7.0396986,
        -0.34812856,
        -0.30628622,
        0.14468768,
        -4.9167066,
        -1.4186502,
        0.46743238,
        3.7172763,
        -5.150807,
        -3.5244668,
        0.48240855,
        -0.27609316,
        -4.0900817,
        -0.6414827,
        0.13495724,
        4.5165915,
        3.629937,
        1.4227965,
        -0.70888954,
        1.5229211,
        2.734101,
        -1.6642329,
        -1.3627189,
        3.0101008,
        -0.54760885,
        -3.6059382,
        -0.3566567,
        4.2636843,
        -5.2373314,
        2.7475057,
        0.07951231,
        -1.2348965,
        -3.5135045,
        -0.10276254
      ],
      "shape": [
        3,
        128
      ]
    },
    {
      "layer_type": "Tanh",
      "name": "AL 1",
      "index": 1,
      "weights": [],
      "shape": []
    },
    {
      "layer_type": "Linear",
      "name": "HL1",
      "index": 2,
      "weights": [
        -1.1219698,
        -0.6143444,
        -0.69206303,
        -0.68748605,
        0.8122222,
        -1.0708667,
        0.45199493,
        0.17900161,
        0.3037693,
        1.2506889,
        -0.6494726,
        2.755497,
        1.5843828,
        0.3601093,
        -0.19287047,
        -1.5042682,
        -0.33531833,
        0.9177985,
        -0.44388813,
        -0.048085336,
        0.00193892,
        0.2368242,
        1.0465552,
        0.16922212,
        0.6145264,
        -1.600139,
        -0.010402286,
        -0.62723917,
        -0.41422343,
        1.9494497,
        0.69936746,
        1.1870688,
        -0.75074416,
        -1.2563139,
        0.26304537,
        2.4007661,
        0.2907661,
        -1.027774,
        -0.98776054,
        2.0775664,
        1.4937451,
        0.6968873,
        -0.055756908,
        1.1006533,
        1.3429025,
        -0.8800879,
        -0.088047415,
        1.8790464,
        0.62932473,
        1.7784451,
        0.71705306,
        0.20547253,
        1.0006661,
        -2.2866166,
        1.1608121,
        0.89663726,
        -0.78888535,
        -1.5238072,
        -1.7502809,
        -0.4537976,
        0.5366497,
        1.3383485,
        0.06807397,
        -0.45558876,
        -0.29303503,
        0.5233255,
        -0.5906401,
        -0.8085474,
        -1.3039812,
        -2.1637557,
        1.6150904,
        -0.14327256,
        -0.02775894,
        0.95157737,
        1.3051775,
        -0.87518114,
        2.1537814,
        0.6241482,
        -2.1628678,
        -0.22852302,
        0.7848482,
        -0.029943665,
        -0.166768,
        1.2932492,
        -2.9240496,
        0.20448638,
        0.71393406,
        -0.50714517,
        0.17660132,
        0.7803304,
        -0.06689634,
        -2.5472124,
        0.21931109,
        -1.1538109,
        0.28963417,
        -0.6556432,
        -0.8008163,
        -0.3108666,
        -1.5073447,
        -0.79715484,
        0.9047857,
        0.29791155,
        0.2943752,
        0.56432617,
        0.74297,
        -0.55076647,
        -1.0547438,
        -1.2612494,
        -1.5054451,
        0.95066196,
        1.207632,
        -0.58010304,
        0.7164368,
        0.18111551,
        0.66348034,
        -0.9272284,
        0.49323574,
        -0.5641378,
        1.2897584,
        -1.3869274,
        2.1769252,
        0.944366,
        1.1553428,
        0.96574783,
        0.41853377,
        1.1055644,
        -1.2256693,
        -1.3485755,
        0.7299521,
        -1.0125022,
        0.031531956,
        -1.0352263,
        -1.7236462,
        -0.15995672,
        0.2180845,
        -0.28813428,
        0.9484993,
        0.64610934,
        0.96025956,
        0.4410511,
        -1.1127421,
        -0.36739278,
        1.0049161,
        -0.024931626,
        -1.5758706,
        -1.8327767,
        -0.6534269,
        0.8111099,
        0.2537483,
        -0.543576,
        -0.02599724,
        -0.6980088,
        -0.05260377,
        0.09327831,
        0.43733495,
        -0.00044999333,
        -1.3387841,
        1.5770092,
        -0.5955937,
        -0.32944405,
        0.48973852,
        0.34283862,
        -1.2022517,
        1.1208266,
        -0.32498753,
        1.0199224,
        0.14713718,
        -0.38673612,
        2.614462,
        -0.3246228,
        0.14391574,
        -0.5809216,
        0.74927515,
        -0.4650289,
        -0.7458423,
        0.9049355,
        -0.6791476,
        -2.7705624,
        -0.7442142,
        -0.6384234,
        0.7466801,
        -1.389159,
        0.7173203,
        -1.3372748,
        0.37980685,
        1.5245054,
        2.249023,
        -0.1885786,
        0.06132908,
        0.39815658,
        2.0310552,
        0.6139963,
        -0.46638545,
        -0.20279856,
        1.1963891,
        0.43498236,
        -2.7417083,
        0.17145413,
        0.008296344,
        0.8651268,
        -1.0863637,
        -0.29400465,
        0.3506159,
        0.06828227,
        -2.2258964,
        0.39557233,
        -0.4492789,
        -0.38349462,
        -0.4818426,
        0.14601484,
        0.3162138,
        -1.5026997,
        -0.43664363,
        -1.2144883,
        -1.7086731,
        0.278181,
        -0.6823018,
        -0.586098,
        -0.23364821,
        0.8714671,
        0.35425583,
        -1.6510099,
        -0.8632837,
        -1.366011,
        -1.0191538,
        0.22973223,
        -0.31344387,
        -1.4648933,
        0.3738893,
        0.35171998,
        0.19706579,
        1.6889995,
        0.28405717,
        0.8561942,
        -1.1240573,
        -0.2925833,
        0.073539175,
        -0.99231434,
        0.44118392,
        -1.8536597,
        -0.99999994,
        -0.057979777,
        -0.5804081,
        1.0208157,
        1.520105,
        -0.8144449,
        -0.32822064,
        -1.7397815,
        0.59839404,
        0.030606149,
        0.26299608,
        -0.98456126,
        0.41688982,
        0.24773817,
        -1.0675575,
        1.1124632,
        -1.5616503,
        0.45889685,
        0.0032736964,
        0.80604494,
        0.43126124,
        2.3603947,
        -0.7511648,
        -0.44846606,
        -2.1325932,
        0.7448027,
        -1.2905556,
        0.07836853,
        -1.8721261,
        -0.024915148,
        -1.257886,
        -1.1562351,
        0.025583323,
        0.4468598,
        0.13040772,
        -0.6351589,
        0.59484935,
        -1.1771245,
        -1.1760976,
        0.49701378,
        1.277801,
        0.7235473,
        -1.2227924,
        -0.11946315,
        0.24382856,
        0.22220479,
        -1.1438321,
        2.0326822,
        -0.25037968,
        0.7672127,
        -0.46661767,
        0.4198737,
        -1.4234774,
        -1.349166,
        0.40361804,
        0.8626688,
        -0.03734034,
        0.45326352,
        0.5897503,
        -1.3033067,
        -0.9666539,
        1.7732872,
        0.05639406,
        -0.25034112,
        0.29388982,
        2.3215978,
        -0.3528818,
        1.5791097,
        -1.0273587,
        -0.4660726,
        -1.3139756,
        -1.2044075,
        -0.5541799,
        1.243352,
        0.14517927,
        0.73604745,
        -0.65786725,
        1.1276842,
        1.3322953,
        1.0462726,
        -0.949969,
        -1.2115585,
        1.681325,
        0.920738,
        0.34993592,
        0.52103794,
        0.28463873,
        -2.1906393,
        -2.0411909,
        0.6914806,
        -1.7984829,
        -0.8606914,
        -0.4146189,
        -2.085345,
        0.27895275,
        -1.1246367,
        0.8234941,
        0.31314716,
        1.443153,
        -0.28719664,
        0.6317211,
        0.7068199,
        0.6473289,
        1.1209079,
        1.5078803,
        0.14993502,
        0.36370522,
        1.0225995,
        0.35423505,
        1.361038,
        1.0790544,
        0.7591992,
        1.7955064,
        0.04195372,
        -0.7469183,
        1.4902602,
        1.2793629,
        -0.8480763,
        0.26554728,
        -2.6001832,
        -0.2814042,
        -0.04627338,
        0.2692879,
        0.42546424,
        2.1302936,
        -1.3156867,
        1.4116511,
        0.3864684,
        0.43823928,
        0.19726503,
        -1.049203,
        -0.9536471,
        1.9773071,
        0.37527955,
        1.9482901,
        1.8259386,
        -0.7893528,
        0.49636987,
        1.3843495,
        2.6123385,
        -0.31464493,
        -1.7487509,
        -0.22526027,
        -1.34369,
        -0.9687212,
        1.2975655,
        -1.9457716,
        0.9504657,
        0.34266934,
        1.4821652,
        1.3604541,
        1.3692979,
        2.071646,
        1.214925,
        0.3251307,
        0.21606977,
        1.0755615,
        0.32471815,
        0.8587111,
        0.73401767,
        0.15196043,
        1.7438737,
        0.94441193,
        -1.6704441,
        0.34758893,
        0.9350754,
        -0.5714408,
        0.23581006,
        -0.6878272,
        0.33143672,
        -0.29467052,
        1.8902218,
        -1.6320974,
        -0.29998732,
        -0.15456678,
        -0.26935506,
        -1.5152159,
        0.9161944,
        -0.71031344,
        -0.030624459,
        -0.54277074,
        0.5939834,
        1.2942938,
        0.22226898,
        0.64414114,
        -0.63859934,
        1.138512,
        -0.26244688,
        0.10899434,
        0.30277312,
        -2.2852688,
        -0.67649394,
        -1.055224,
        1.2347001,
        -0.16520077,
        -0.86207664,
        -0.19801112,
        1.7972581,
        1.382696,
        -1.3581488,
        -1.1032523,
        0.8741923,
        -0.6764764,
        -1.0451714,
        -0.41891888,
        0.060378328,
        0.5984882,
        -0.91989964,
        0.99591905,
        -1.9809458,
        1.0486887,
        -1.297609,
        1.8155991,
        0.4670048,
        -0.51443714,
        0.064798795,
        0.11046562,
        1.4630625,
        0.9713555,
        -0.04883665,
        0.119179726,
        -0.77065486,
        -0.48313653,
        0.95698816,
        0.09623117,
        1.579335,
        1.6306423,
        0.32424617,
        -0.8605939,
        0.2316056,
        -1.2989603,
        -1.0359745,
        0.0463521,
        0.8329529,
        0.98999864,
        -0.19852835,
        -1.2045062,
        -0.12038618,
        0.9836665,
        -0.6350056,
        -0.035605583,
        0.12567787,
        0.50176144,
        0.2297681,
        0.035628486,
        -0.33939597,
        0.21399412,
        -0.1007298,
        1.2758874,
        -2.03266,
        0.3395746,
        -0.54975206,
        -0.14024787,
        -0.63504237,
        1.3190534,
        1.22247,
        -0.20154503,
        0.47560817,
        0.94425905,
        -0.9941353,
        -0.1564798,
        -0.11082587,
        -0.022900285,
        0.35566166,
        -0.012878882,
        0.65832114,
        0.10960158,
        -0.40346277,
        0.6225962,
        -0.17014359,
        1.19385,
        0.150138,
        2.0749013,
        -0.9730204,
        1.3704469,
        -2.8116949,
        0.59590775,
        -1.2316179,
        0.34866026,
        -0.10719595,
        -0.6104908,
        0.0933232,
        -0.06304478,
        1.8561815,
        0.6488403,
        0.3714174,
        -0.92264825,
        -0.15388128,
        1.6368352,
        0.2585165,
        0.40574867,
        0.07731785,
        1.3203181,
        0.046632405,
        0.3163703,
        -0.9961438,
        1.0269293,
        0.26188245,
        -0.9617995,
        0.48273253,
        1.226326,
        1.138293,
        -0.6536753,
        0.26145038,
        -0.83357644,
        -1.1223129,
        0.47766668,
        0.18760115,
        0.16584444,
        -0.37486953,
        0.76958096,
        1.8103262,
        0.98497665,
        1.9121553,
        1.0106266,
        1.9573913,
        -2.15983,
        0.20994306,
        -0.9055673,
        1.8291457,
        0.5626706,
        -0.0015484346,
        1.1137326,
        1.3225545,
        -0.23967446,
        -1.9831569,
        -1.4201826,
        0.70638597,
        -0.08200068,
        0.7719325,
        -1.2788631,
        1.2315221,
        0.3707844,
        0.5602332,
        -0.05190849,
        0.7584873,
        -1.1678047,
        -0.2122059,
        1.429625,
        -1.5040979,
        0.81197906,
        0.27370116,
        -0.10253691,
        1.0994463,
        1.3556734,
        -0.54059774,
        0.8616575,
        -0.63047063,
        -2.0516615,
        1.2462943,
        1.534238,
        -1.5797577,
        -2.1607578,
        -0.16397929,
        1.6665561,
        0.47458225,
        0.5435878,
        -0.566717,
        0.14348844,
        0.5318853,
        -1.7187773,
        1.14429,
        0.15813406,
        -0.1679818,
        -2.1776354,
        -0.7273619,
        -1.2271478,
        -0.2166305,
        -0.7422766,
        -0.11751303,
        -0.61728346,
        -1.2062615,
        0.5492309,
        0.4006933,
        -0.30290943,
        -1.9348217,
        0.5315328,
        0.3262519,
        -0.860661,
        0.039272044,
        -0.42050147,
        -1.8343172,
        -1.4685816,
        0.53072524,
        2.054891,
        0.8477171,
        -0.8604543,
        0.10864417,
        -1.0609802,
        1.8308527,
        -0.37737834,
        -0.19681816,
        -0.49801663,
        0.6580472,
        -0.03230147,
        2.025062,
        -0.28571808,
        -0.41896206,
        -0.3817921,
        1.131287,
        -0.18465514,
        -0.9963194,
        1.3424995,
        -0.81148446,
        2.815411,
        0.64541954,
        -1.1976402,
        0.99490994,
        1.4442111,
        -0.28677738,
        -0.03309507,
        0.27516714,
        -0.3197796,
        0.9203877,
        0.79541785,
        0.58011585,
        -0.5594841,
        0.24825111,
        0.76472354,
        1.9517583,
        -1.6872934,
        -0.4933877,
        0.77473587,
        2.7226934,
        0.40720558,
        1.3306311,
        -0.28336692,
        -0.86109436,
        0.6335385,
        -0.34200206,
        0.1341331,
        1.1219777,
        -2.6068606,
        -0.30918482,
        0.09896363,
        -1.0459929,
        0.5293312,
        -0.8064636,
        -0.69187903,
        -1.1863489,
        -0.093688324,
        -0.93528146,
        -0.2748918,
        -0.24573259,
        0.05455595,
        -0.15526979,
        0.10293447,
        -0.12432023,
        1.6975248,
        0.4199132,
        1.1490479,
        -0.3661626,
        -0.38259017,
        0.4521755,
        0.6849395,
        1.0010437,
        0.62392205,
        0.53080624,
        -1.6894212,
        0.9225484,
        -0.33119473,
        1.0460553,
        -0.081118405,
        0.21995482,
        -0.1387383,
        -0.26358533,
        -0.95482534,
        1.4781163,
        0.31916222,
        1.349319,
        -0.6627446,
        1.2725617,
        0.33725098,
        -0.54596096,
        -0.2087127,
        -1.3577472,
        -1.241261,
        -0.35702288,
        -1.1180393,
        -1.3586711,
        -1.4950148,
        -0.82480323,
        1.9605361,
        0.2056844,
        -0.69013876,
        0.33914423,
        -1.112786,
        0.7623151,
        -0.8696015,
        -2.0880306,
        -0.23175082,
        -0.64153177,
        -1.085066,
        0.042082056,
        -0.45580566,
        0.15064105,
        -1.4718041,
        -0.7197048,
        -0.342794,
        1.2812759,
        1.3353099,
        0.92355406,
        -1.0126283,
        -0.38528788,
        -0.29269767,
        -0.6362351,
        1.0959107,
        -1.4152693,
        0.120200016,
        -0.18557633,
        0.7205963,
        -0.8362914,
        -0.50246084,
        2.2040265,
        1.3266542,
        -0.32271782,
        0.6810157,
        -0.41815323,
        -0.5077226,
        0.57705945,
        0.016312921,
        0.62174225,
        0.8387781,
        -0.24105732,
        -0.22638932,
        0.14431326,
        0.40914726,
        -1.0083467,
        0.4892668,
        -0.23940879,
        0.22616725,
        -0.2709271,
        1.475319,
        0.3652093,
        0.81467307,
        0.9283309,
        2.0544267,
        -0.81237864,
        -1.0915245,
        -1.2016661,
        1.4625893,
        -0.75892335,
        0.3263449,
        2.3327549,
        1.1461933,
        -1.6802444,
        0.6488432,
        0.091714,
        0.85400325,
        0.8107689,
        -1.3816086,
        0.9280339,
        -1.6175408,
        -0.18075612,
        0.12751903,
        0.49242333,
        0.05619357,
        2.0861635,
        -1.2515442,
        -0.997961,
        0.28420237,
        -0.4884729,
        1.2308213,
        0.9235239,
        -0.627267,
        0.7919689,
        1.3155944,
        -0.05522247,
        0.1696922,
        1.0259478,
        -0.8805042,
        -2.0407112,
        0.5874379,
        -1.4756297,
        1.3116506,
        0.055825185,
        -0.740378,
        0.56290513,
        -0.048450697,
        -2.0345232,
        0.32873935,
        1.0818675,
        -0.8940373,
        0.26142234,
        -1.5188795,
        -2.083526,
        -0.26127905,
        1.0921078,
        2.7176123,
        -1.0127796,
        -0.3302925,
        1.4216282,
        -0.72235864,
        -1.431077,
        0.023584627,
        -0.19168857,
        0.70256007,
        0.41452903,
        0.99608487,
        0.021686174,
        0.48030058,
        -0.14297919,
        -0.63198894,
        0.15411592,
        1.0985322,
        1.0277615,
        -0.9300193,
        -1.1734103,
        1.4285287,
        0.6297995,
        -1.5041877,
        0.4310054,
        0.67569584,
        -0.48455945,
        -1.5654321,
        1.3408465,
        0.20904669,
        -0.2315308,
        -1.5344969,
        -0.468507,
        -0.560022,
        1.4260254,
        0.42530838,
        -1.2245967,
        1.809949,
        1.1760982,
        -0.4102305,
        1.4163272,
        -0.66420996,
        -0.052141834,
        -0.889708,
        0.8781719,
        0.8336075,
        -0.099049665,
        -0.23296927,
        -0.4721359,
        0.999907,
        1.2452949,
        1.2671491,
        0.46178442,
        -1.1593536,
        -0.78337646,
        1.8986108,
        0.3212054,
        -0.4908526,
        0.67679995,
        -0.7447549,
        0.11825783,
        -0.86811906,
        -1.1930704,
        -0.14470989,
        0.14383788,
        -1.5811824,
        1.2845738,
        0.5757866,
        0.63188183,
        -1.390194,
        0.20603311,
        -0.67226493,
        -0.42723057,
        0.20329979,
        -0.024807146,
        -1.1002815,
        0.7407165,
        -4.0070386,
        -0.49501613,
        -0.33210233,
        1.0568664,
        0.33652166,
        -0.18532073,
        -0.925638,
        -0.41410974,
        1.5689175,
        1.0747155,
        1.7267126,
        1.1998571,
        0.97224784,
        0.7608239,
        -0.66938394,
        1.2246181,
        -0.3115931,
        -0.4592404,
        1.4217306,
        0.39516422,
        1.0586975,
        -0.21270053,
        -0.08055056,
        1.8042947,
        0.92661583,
        0.8831246,
        -0.29086256,
        -0.1795762,
        -0.113358445,
        0.15678112,
        -0.6418157,
        -0.010238956,
        -1.6191788,
        -0.43144915,
        -0.3714517,
        -0.24877693,
        0.04354783,
        -0.012834746,
        0.8879665,
        0.4257768,
        1.2796077,
        1.5590062,
        0.10138271,
        1.1174208,
        1.1580598,
        1.0906268,
        1.8533498,
        0.45867756,
        0.3613896,
        0.59267116,
        0.5468096,
        1.038674,
        0.64073193,
        -0.2701056,
        0.6121362,
        0.477537,
        -0.62725055,
        0.0411264,
        -0.19180265,
        1.6800239,
        -1.0516562,
        -0.9608916,
        -0.6013221,
        0.6690689,
        -0.9733027,
        1.3244997,
        -0.00648369,
        0.25603086,
        1.6292691,
        -0.11546359,
        1.1142333,
        -0.36356026,
        0.5877438,
        0.1835509,
        0.6109904,
        -0.7841532,
        0.18140315,
        0.016821906,
        0.9552113,
        0.09665358,
        0.3988264,
        0.24703062,
        1.7084782,
        1.8654523,
        -1.2959094,
        -1.3849647,
        -2.355836,
        -0.51686907,
        0.5591538,
        0.7369521,
        0.33005175,
        -0.16844672,
        2.2182102,
        -0.50785464,
        -0.274116,
        1.0914472,
        0.33892632,
        -1.7354196,
        -0.45227182,
        -1.5572165,
        -0.1300706,
        -1.5437813,
        -0.9062476,
        0.40951434,
        0.8985158,
        0.46345794,
        0.6382033,
        -1.0758331,
        -0.053525917,
        -0.61956435,
        -1.0641758,
        -0.51940525,
        1.581489,
        0.62274176,
        -0.63931745,
        -1.0851997,
        -0.28192297,
        0.2918407,
        1.5641595,
        0.16645749,
        0.72114766,
        -0.043724377,
        0.29638737,
        0.107837595,
        0.78464496,
        0.34278205,
        -0.6896092,
        0.044711836,
        -0.3581635,
        0.061956313,
        1.1447577,
        -0.587542,
        1.8073173,
        -1.2838155,
        1.6552081,
        0.50820017,
        0.6933277,
        0.41359752,
        0.5906756,
        -0.1884257,
        0.18858232,
        0.52624357,
        1.0359795,
        -0.92222965,
        0.17110306,
        -0.060640316,
        -0.122194946,
        0.89627874,
        -0.8212949,
        -0.78712827,
        0.36971372,
        -1.0149451,
        -0.690931,
        -0.21363921,
        0.32746097,
        1.1432669,
        -2.7446053,
        1.8030175,
        1.6830921,
        -0.6875659,
        -0.104856856,
        0.24090776,
        0.61528987,
        0.5097583,
        -0.012537937,
        -2.8059096,
        -0.042650707,
        -0.39151564,
        -1.4935626,
        -1.6660249,
        1.1098434,
        0.9418615,
        -1.0777637,
        -1.421766,
        -0.9647015,
        -0.7067978,
        0.4023761,
        0.08406073,
        1.1537995,
        -0.19818038,
        -1.4167099,
        1.881951,
        -1.1939288,
        0.9946887,
        0.5180372,
        0.36816335,
        -1.3289423,
        -0.72544223,
        0.88015807,
        -0.3268174,
        -1.2588308,
        0.19650468,
        1.1161033,
        0.17492065,
        2.2458024,
        0.7905978,
        1.4147575,
        -0.008340577,
        1.1736586,
        0.37942088,
        -0.44510093,
        0.88941497,
        1.3181381,
        -0.5704912,
        -1.5027208,
        0.052434452,
        -0.28123078,
        -0.012491449,
        -0.31283325,
        1.2703489,
        0.6187826,
        -0.4582706,
        0.19922294,
        -0.79026115,
        -0.19940157,
        0.8178593,
        -2.9598238,
        0.48296884,
        0.8996173,
        -1.0736012,
        0.3288092,
        -1.597956,
        -0.94403833,
        1.3274195,
        -0.6736479,
        1.0952514,
        -1.0364068,
        1.6090468,
        0.6647931,
        -0.4311944,
        0.79109144,
        0.3698941,
        1.2946364,
        -1.3563159,
        -0.3754506,
        -2.4632123,
        -1.6536571,
        0.88269985,
        1.2976065,
        0.33607927,
        -0.28754437,
        1.2015076,
        -1.3354083,
        -0.2707225,
        2.416285,
        1.1330925,
        1.0307939,
        -0.22991696,
        0.69748193,
        -0.7600487,
        2.0077922,
        0.27382895,
        -0.63821346,
        -0.95179164,
        -0.4067021,
        -0.51849574,
        -1.0479676,
        1.2442362,
        1.3270175,
        2.8097286,
        1.0399377,
        0.05042025,
        -0.16733833,
        1.2045747,
        -1.4881618,
        1.5571042,
        0.30731478,
        1.1865588,
        -2.1341307,
        0.5530312,
        0.5402723,
        -3.5883636,
        -0.59445375,
        1.068313,
        -0.20759338,
        -0.90046775,
        1.4942365,
        -0.8501732,
        -0.13504006,
        -0.9534166,
        -1.6009287,
        -0.9868334,
        -1.7350949,
        1.332305,
        1.3989977,
        -0.86126864,
        -0.12365302,
        -1.1734232,
        0.769467,
        -0.81056523,
        -1.3895013,
        0.056175962,
        -1.531341,
        1.5027717,
        -0.03248455,
        1.422451,
        -1.1504817,
        0.39236775,
        1.2917858,
        -2.0040312,
        1.4586782,
        0.21533269,
        -0.9473424,
        0.15080856,
        0.080782406,
        -0.11170288,
        -0.20009151,
        -0.33682537,
        1.439765,
        1.2370757,
        -1.3906151,
        0.6493632,
        0.28196943,
        0.48769388,
        0.246774,
        0.26378378,
        -1.2381784,
        1.1508886,
        -1.2081962,
        0.40717822,
        -0.18755513,
        0.73185134,
        -0.8134507,
        -0.21028592,
        -0.56244326,
        -0.47006142,
        -1.0491878,
        -0.9013311,
        0.66496384,
        -1.1739634,
        0.122565314,
        0.6865219,
        1.3251793,
        -0.24882688,
        0.07469538,
        0.945587,
        0.78753036,
        0.6110908,
        -0.6010646,
        -0.025674855,
        -1.455171,
        -1.0737313,
        -0.85489136,
        -2.1073062,
        0.5298938,
        -0.39154446,
        -1.6845014,
        0.55481327,
        2.010592,
        0.41330972,
        -1.5542845,
        -1.3582025,
        1.7449963,
        -0.49608353,
        -0.4224098,
        -0.20402639,
        -1.059622,
        -1.0962865,
        0.5030556,
        1.0523256,
        -1.1810715,
        -1.7945293,
        0.5296665,
        0.108653404,
        0.9783932,
        0.08735263,
        1.6637517,
        0.8306301,
        -0.035490394,
        -0.20887555,
        -1.1412002,
        -2.966945,
        0.660888,
        -1.33158,
        0.24555984,
        -0.26338905,
        -0.014657104,
        -1.0884107,
        0.9686071,
        1.5099876,
        1.2529238,
        0.378523,
        1.5809886,
        -1.0240837,
        0.42811364,
        -0.862603,
        0.17927651,
        0.22568884,
        -0.6600454,
        0.74873674,
        0.84928274,
        -0.3340244,
        1.6937222,
        0.29569778,
        -0.7061164,
        -0.0495097,
        1.3710749,
        1.1210827,
        -0.15083767,
        1.3506294,
        -0.28803393,
        0.9760777,
        1.9525027,
        1.6391788,
        0.5682242,
        0.4216256,
        -0.033501964,
        1.2405292,
        -0.59574306,
        3.536604,
        0.37239844,
        -2.422931,
        -0.108526625,
        -0.19389504,
        1.9775699,
        0.7063797,
        -0.9574901,
        1.000193,
        -1.3292173,
        0.6926142,
        -0.06647143,
        -1.9531434,
        -0.83077276,
        -2.0085819,
        2.4704175,
        1.2622389,
        -1.5073395,
        -1.2328196,
        -0.5195474,
        2.3575072,
        -0.7085595,
        -2.2355304,
        1.0122088,
        2.1195874,
        0.028044393,
        -1.2776868,
        0.2026133,
        0.62615114,
        -0.025247922,
        0.16140367,
        -2.2299454,
        -0.48189342,
        0.9964822,
        1.4238529,
        0.5016986,
        0.8339462,
        0.03748515,
        0.8200299,
        -1.63868,
        -1.0342885,
        0.46547025,
        -0.27041328,
        1.944362,
        1.0635898,
        -0.026696125,
        -1.1467466,
        -1.2167832,
        0.043848347,
        -0.3535828,
        0.93857914,
        1.4617105,
        -2.2181332,
        -1.0025872,
        -0.4649758,
        0.9246761,
        -1.2030205,
        1.7753758,
        -1.9625084,
        -0.28006774,
        -0.4302072,
        1.1908512,
        -0.24923815,
        -0.67294955,
        0.8493365,
        0.3225603,
        -0.013183474,
        0.26615116,
        -1.5768349,
        -0.3469714,
        0.57254136,
        -2.5889478,
        -2.1178594,
        1.4171113,
        0.1629071,
        -0.026295995,
        2.5437036,
        -1.1220024,
        -0.6076578,
        0.97100747,
        0.6096449,
        0.3591295,
        0.403053,
        1.1281499,
        2.6046164,
        -0.0063805487,
        -0.2228656,
        -0.5802199,
        -0.026433218,
        0.51611125,
        0.2394495,
        -0.56828856,
        1.6251287,
        0.78248197,
        -0.019629572,
        0.12892817,
        0.41290703,
        0.39588583,
        0.6489221,
        -1.233327,
        -0.015449073,
        -1.4115127,
        -0.7324778,
        -0.7074502,
        -0.27442682,
        -1.8060231,
        -0.64520234,
        -1.3420596,
        0.07505099,
        -1.0855652,
        -0.23974219,
        0.4628406,
        1.948285,
        0.87719434,
        -0.5974247,
        -0.35390463,
        -0.7544328,
        0.81555915,
        -0.62622714,
        0.2960644,
        1.5930709,
        0.7252945,
        1.9881532,
        -0.07026072,
        -1.4113412,
        0.51234776,
        1.8476313,
        1.2965603,
        0.023834625,
        -1.1078175,
        -0.041714672,
        -1.4048067,
        -1.2092365,
        -0.76188546,
        -0.74556106,
        -0.31705174,
        -0.17313679,
        0.04350162,
        1.17433,
        -1.6919463,
        0.38228372,
        -1.0281674,
        1.6242664,
        -0.92084813,
        -1.425847,
        -0.535744,
        1.8244042,
        0.39022744,
        -0.15890253,
        -0.3349757,
        0.64649594,
        0.3888547,
        -1.7331591,
        0.5948315,
        -0.81250596,
        -2.0983374,
        -0.9846598,
        -1.6770129,
        -1.9158498,
        -1.1806189,
        -1.4987129,
        0.63318926,
        1.5914887,
        0.08326384,
        -0.41870633,
        -0.31236845,
        -1.0363474,
        -0.97921175,
        -0.01113089,
        -0.58993274,
        -1.5670271,
        0.584739,
        -1.0732313,
        1.1510824,
        0.30493754,
        0.77247083,
        -0.8540199,
        -1.0657173,
        -1.3104482,
        0.05792621,
        -1.4149115,
        -0.038952928,
        -0.98220336,
        0.29678744,
        -0.34623948,
        0.04274879,
        -1.5973048,
        -0.31429172,
        1.8780595,
        -0.7146041,
        -1.2799286,
        0.08478776,
        0.46669793,
        1.1881858,
        1.1067325,
        0.25417268,
        -0.2195605,
        -1.001036,
        -2.1115565,
        1.4542743,
        -0.78238803,
        -0.72187173,
        2.7357287,
        -1.1331353,
        0.62504494,
        -1.0730865,
        0.11240706,
        0.22481821,
        -0.7819668,
        -0.04429722,
        0.33064973,
        0.6018815,
        -1.2889936,
        -0.35445812,
        -0.49681792,
        0.28025302,
        0.690561,
        0.8612732,
        -1.5903934,
        1.6156083,
        -0.07480265,
        1.0950708,
        -1.6222495,
        0.10667206,
        -0.5760602,
        0.5847889,
        -0.22784874,
        -0.013733776,
        -1.5268803,
        -0.71564627,
        -0.6219334,
        -0.4765799,
        0.13021457,
        -0.24808791,
        -0.31336415,
        0.7425696,
        -1.6588237,
        -1.6446872,
        -2.0938845,
        -0.19505973,
        -0.3279465,
        2.0900671,
        0.2563532,
        -0.022156376,
        0.7279813,
        0.86847395,
        1.3842721,
        0.7173988,
        -0.65680087,
        0.31220067,
        -0.3193392,
        -0.24897721,
        0.96954644,
        0.3060494,
        0.80412775,
        0.3366846,
        -0.8377847,
        1.7040417,
        0.1143189,
        0.8809927,
        -0.052992765,
        0.31077975,
        -0.036129314,
        -1.0376315,
        -0.55907464,
        0.46837813,
        0.14040685,
        -0.26022696,
        1.0978194,
        0.90102226,
        -1.1270132,
        0.4236421,
        0.5030933,
        -0.9559467,
        1.5338295,
        -0.4364276,
        -2.0595503,
        -0.8068752,
        -0.07991244,
        0.16152695,
        0.8592467,
        0.70369804,
        -1.2391597,
        -1.6428181,
        0.97780967,
        -1.9956604,
        0.6283199,
        0.72348166,
        0.41582042,
        0.33161628,
        2.1453495,
        -0.12158413,
        -1.3685763,
        0.57427996,
        -1.6562145,
        -0.23724784,
        2.54382,
        -0.4282347,
        0.432679,
        -2.020261,
        -0.8568579,
        1.2816031,
        0.15951279,
        -1.1103741,
        -1.1683048,
        0.83612305,
        0.9650357,
        -0.7500718,
        -0.4626207,
        -0.7038942,
        1.618825,
        3.3309944,
        0.20436387,
        0.767773,
        0.14440154,
        -0.1581513,
        0.01977759,
        2.1496735,
        -0.17259377,
        -0.20110121,
        0.2767169,
        -0.6136986,
        -0.35540554,
        -0.36745533,
        -1.0115782,
        -0.77672786,
        -1.0106456,
        0.34192017,
        -0.5790858,
        -0.16361593,
        -1.013279,
        -1.296665,
        1.0296706,
        -1.0280366,
        -0.866729,
        -0.0052980753,
        0.06021595,
        -0.9908619,
        0.019976879,
        0.4736736,
        0.45683798,
        0.18246907,
        0.26475337,
        -0.7166873,
        0.3254159,
        -0.44664633,
        0.18982564,
        -0.69766563,
        0.6897658,
        -1.2103895,
        -0.62927485,
        0.20644112,
        -0.36399087,
        1.8442727,
        -0.15996116,
        -0.40229967,
        0.32777286,
        0.634092,
        0.47391483,
        -0.60809726,
        -1.3639879,
        1.1925563,
        -0.8696192,
        0.5514925,
        -0.6567256,
        -1.0929818,
        -0.0837289,
        1.7959243,
        0.8803507,
        0.26879722,
        -1.249279,
        -0.17296633,
        0.018224148,
        1.1181244,
        -0.13250059,
        0.02065687,
        1.2231414,
        -0.10594021,
        0.94747204,
        -0.93881327,
        1.2354304,
        0.41013148,
        0.72625405,
        0.6995925,
        -0.64171875,
        -1.5294429,
        0.1321153,
        -0.8436526,
        0.18738335,
        -0.30480015,
        1.3681121,
        -0.7833259,
        0.052634757,
        2.7565548,
        1.5371312,
        1.7059394,
        0.91644853,
        -0.8691779,
        0.13989875,
        -0.62410116,
        1.0775595,
        -0.43142095,
        0.06919494,
        -0.59359986,
        0.25787106,
        -1.6459244,
        2.31329,
        -0.6022133,
        -0.6278547,
        1.6747292,
        0.1712371,
        -1.1102868,
        0.7548487,
        -1.4965351,
        0.66478866,
        -0.8864099,
        -0.16662282,
        1.1196954,
        -0.21420749,
        -0.9761399,
        1.5388793,
        -1.3892804,
        1.2327827,
        -0.9895896,
        -1.0984942,
        -0.83476704,
        0.10107927,
        0.9538117,
        -0.8432202,
        0.55244243,
        1.0779948,
        -0.23064174,
        -1.2501479,
        -1.7018058,
        0.40323812,
        1.0059787,
        0.05779742,
        0.6723379,
        -0.055136625,
        0.009412206,
        0.34121585,
        0.35560966,
        0.6549746,
        -0.3279474,
        -1.5138694,
        0.55183274,
        -0.53053594,
        -0.16716206,
        -0.2619502,
        -1.2803943,
        -0.5584208,
        0.20862712,
        0.2556461,
        0.37542823,
        0.488021,
        0.39602596,
        -0.14387722,
        0.6274717,
        -0.7591337,
        0.8801736,
        -1.2692257,
        -0.1625605,
        -0.020361457,
        -0.34421274,
        1.1693296,
        -0.5073938,
        -0.73621815,
        -0.9334775,
        -0.75461423,
        0.72314847,
        0.27398378,
        -0.28894338,
        0.760995,
        1.3297861,
        -1.0353345,
        -1.9575384,
        -0.0030734239,
        -0.37981698,
        -0.056504432,
        0.06260746,
        0.21437958,
        0.21657321,
        0.7477682,
        -0.18804653,
        0.44328317,
        1.3109298,
        1.1203355,
        0.0965247,
        0.20580372,
        1.501473,
        -0.08903835,
        0.0753801,
        0.69936806,
        -1.7077807,
        0.080550954,
        -0.3893197,
        0.23244968,
        -0.6951102,
        0.30822265,
        -0.015735973,
        -1.0203404,
        -0.7173055,
        1.945361,
        -0.93945056,
        0.47739592,
        -0.66054815,
        0.75747174,
        -0.52062374,
        0.4592382,
        0.7034623,
        -0.029512651,
        -1.0351323,
        -0.48294276,
        -1.2861377,
        -0.99528146,
        -1.5181718,
        0.6574147,
        -0.49661347,
        2.965166,
        1.7989988,
        0.42300564,
        1.3893168,
        2.2699385,
        0.3036131,
        0.014382176,
        0.5539875,
        -0.3677503,
        -0.12334371,
        1.6496248,
        0.2723642,
        0.9626279,
        -0.57339555,
        1.0747871,
        -0.74419683,
        -0.14548482,
        1.1648384,
        -0.6228348,
        0.077170454,
        -0.93877274,
        -0.67238474,
        -0.5404662,
        -1.0752579,
        0.52539456,
        -0.31078067,
        0.7667796,
        -1.4056125,
        -1.7342728,
        0.6002129,
        1.1140376,
        -0.6451294,
        -0.16396292,
        -0.581007,
        0.3446896,
        -0.6854597,
        -0.42113325,
        -0.7543563,
        0.80105066,
        -0.75401896,
        -0.059154928,
        0.42998138,
        0.55421156,
        1.9353886,
        -0.6643576,
        -0.14527628,
        0.1507866,
        -1.7730564,
        -0.35845032,
        -0.2219923,
        -0.5594461,
        -0.19712855,
        -0.8459977,
        0.93303704,
        -0.032015756,
        -0.6353885,
        1.9384503,
        -0.45593247,
        2.53183,
        0.9610319,
        0.011952681,
        0.18598765,
        1.1820581,
        1.0126172,
        -1.4742217,
        -0.5468,
        -0.48828003,
        -1.3948084,
        0.7615265,
        0.6799914,
        -0.68348277,
        0.45014685,
        -1.3759127,
        1.6161337,
        -0.3279553,
        0.061789107,
        -2.2937953,
        0.1393246,
        -1.5084043,
        0.00060633564,
        1.458963,
        1.3754,
        0.003921687,
        -0.5195597,
        -0.01086219,
        0.07912803,
        0.033293057,
        -0.3997307,
        1.0457419,
        1.711046,
        -0.6548635,
        0.1423704,
        -0.96386755,
        -0.8975257,
        0.32810563,
        0.2502304,
        1.1866896,
        -1.0926718,
        1.0954304,
        -0.22252582,
        -0.54479736,
        0.18353263,
        -2.5787437,
        0.14054255,
        0.6957429,
        0.4642557,
        -3.1497722,
        -0.42379147,
        -0.39771545,
        -0.9782802,
        -0.91679966,
        0.33182546,
        1.18667,
        -0.76127964,
        -0.8862019,
        0.09548627,
        -1.4689177,
        0.1472225,
        0.5897367,
        -0.28130743,
        -0.11819987,
        -1.2919252,
        -1.1055554,
        -0.7489876,
        0.940914,
        1.6726444,
        1.5161929,
        1.623018,
        1.5485653,
        1.2813054,
        -0.12190803,
        0.8197426,
        0.6052546,
        -1.4240264,
        0.5116412,
        -0.5108679,
        1.3307974,
        -0.38826975,
        1.5063581,
        0.74916977,
        -1.4192296,
        0.108469024,
        0.9727557,
        0.7083567,
        1.5835314,
        -0.35426188,
        -0.29196197,
        -0.56648296,
        -1.2048329,
        0.55726725,
        1.426436,
        0.19028349,
        -0.9639627,
        0.013538753,
        -0.0010453351,
        1.2182003,
        -1.9343548,
        -1.6526752,
        0.7831982,
        1.264108,
        -0.07187865,
        1.3285737,
        0.5344098,
        -1.4601628,
        -0.030069632,
        -2.0735166,
        -1.3217587,
        -1.746163,
        0.6254882,
        -0.64235353,
        0.522858,
        0.20540072,
        0.7035133,
        -1.2026753,
        0.2737409,
        0.6291862,
        -0.77950656,
        0.63295585,
        -0.22922489,
        0.8398661,
        1.3796039,
        0.17928259,
        0.53738946,
        2.091575,
        -1.317821,
        -0.93998283,
        -0.34160575,
        1.2096301,
        0.26994663,
        0.7832546,
        -0.07540197,
        2.9454038,
        -0.9993932,
        0.5310073,
        0.5686122,
        0.5637976,
        -1.0413629,
        -0.7063571,
        -0.3747992,
        0.44471452,
        1.1377578,
        0.39044428,
        1.7136271,
        0.90345603,
        0.7202602,
        1.3658955,
        0.8670302,
        -0.14634989,
        -1.934929,
        -0.20719984,
        -1.4506823,
        -0.09215352,
        -0.63122404,
        -0.02178286,
        -0.7958738,
        -1.089343,
        -0.022680374,
        -0.4837824,
        0.98110014,
        0.10347614,
        0.15757494,
        1.265132,
        -0.21169056,
        0.023417462,
        1.4419117,
        -0.55572397,
        2.4369688,
        0.110284336,
        -0.77965784,
        0.0051777894,
        -0.53953576,
        0.66237944,
        -1.9883516,
        1.1986514,
        0.38914564,
        -2.0209212,
        0.7211143,
        -0.9860203,
        0.6433626,
        -1.46636,
        -1.4448925,
        -0.072682366,
        0.7830927,
        0.60601646,
        0.42024097,
        -0.6617451,
        -2.0025802,
        0.08837765,
        0.44788125,
        1.0729692,
        0.70446837,
        0.17197242,
        0.710092,
        -0.78237325,
        -1.3524024,
        -0.9416651,
        0.32029557,
        0.12675478,
        -1.7941674,
        -0.188616,
        0.14454019,
        0.069624975,
        0.9932724,
        -0.14793992,
        0.877548,
        0.8580318,
        1.90703,
        0.88604677,
        0.71516633,
        0.55013186,
        -1.9702526,
        -1.3054184,
        0.3832536,
        -0.09745478,
        0.2548807,
        1.4384569,
        0.54917324,
        1.1552907,
        -0.16623893,
        -1.1521643,
        -0.6483312,
        0.043348394,
        -2.8099477,
        -1.7832179,
        -0.96311337,
        -1.5687025,
        -0.20309566,
        1.9385107,
        -0.0036016474,
        -0.5042385,
        -0.79128766,
        -1.2558053,
        -0.5891205,
        0.93738836,
        0.28370684,
        1.4621582,
        -0.21697898,
        0.17346664,
        0.57164615,
        0.8227964,
        -0.78774047,
        1.8836702,
        0.4085501,
        0.4426847,
        0.20703693,
        0.38838494,
        -2.0750504,
        -0.9356673,
        -0.12177151,
        -1.0004219,
        -0.87116975,
        -0.52993596,
        0.99976975,
        -1.5499587,
        -0.2078933,
        -1.1526506,
        0.44960535,
        -1.0029062,
        1.1792109,
        -0.3024477,
        0.28108686,
        -2.2071037,
        -0.47723964,
        -0.33675492,
        -0.09418427,
        -0.7816694,
        0.73699147,
        -2.2296097,
        -1.0344135,
        0.71837246,
        0.5151658,
        -0.99152696,
        0.6093654,
        -1.2793332,
        -0.0203222,
        0.11203828,
        1.8565793,
        0.7341891,
        -0.6333192,
        0.15791191,
        -0.7567614,
        -0.504106,
        0.8156476,
        -1.5325799,
        -1.480496,
        0.5214809,
        0.8960542,
        -0.52759844,
        0.63998526,
        0.740374,
        -0.39728054,
        -0.68339366,
        2.1733017,
        -0.6772868,
        0.29963413,
        -0.46625495,
        0.9634238,
        0.16669999,
        1.0203198,
        0.1542739,
        -0.8529172,
        0.7141046,
        0.43556273,
        -1.0437294,
        -0.9484926,
        -0.12751253,
        -0.010142319,
        -0.88885885,
        -1.2134821,
        -1.7075316,
        -0.28040618,
        0.38801968,
        0.9446395,
        -0.9592821,
        -1.381549,
        1.3016936,
        -0.34428152,
        -1.0393867,
        1.0114847,
        -0.46314564,
        -1.7490838,
        0.5454692,
        -1.4358962,
        -2.8612547,
        1.415816,
        1.3496279,
        -1.1245923,
        0.14255954,
        -1.2482668,
        0.1751411,
        -0.72527623,
        1.2781506,
        -1.2435472,
        0.69832206,
        -0.062956005,
        -2.0286334,
        0.71478736,
        -1.3313717,
        0.54188323,
        1.0044086,
        0.93379533,
        0.8558754,
        0.2867121,
        -0.24300697,
        -2.734391,
        -1.3863276,
        0.31427705,
        -2.2137496,
        -0.889879,
        1.5012481,
        -1.3621539,
        -0.41715148,
        -2.2686007,
        -1.7680067,
        -0.20088713,
        1.5880651,
        -1.487935,
        1.126525,
        -0.16482474,
        -0.561349,
        0.28582257,
        1.1157745,
        -1.5143332,
        -0.5098835,
        1.4610589,
        -1.5795549,
        1.3170786,
        -0.121746995,
        -0.23130767,
        -0.68846816,
        0.18464667,
        2.3993475,
        -1.3292468,
        1.4218206,
        0.87017745,
        -0.12723379,
        -0.24740323,
        -1.3826212,
        0.29533464,
        0.7583473,
        1.3442854,
        -0.15118301,
        -2.1654997,
        1.625727,
        0.5200054,
        0.020632206,
        0.42782462,
        0.4464986,
        -2.0657794,
        2.1896567,
        1.3041711,
        0.91617453,
        1.4111611,
        0.27614227,
        -0.4859644,
        -0.55529946,
        -0.57331324,
        -0.14510101,
        0.90359527,
        -1.0073919,
        0.2912566,
        0.5271818,
        0.89539737,
        1.6246923,
        0.2687195,
        -0.3908073,
        -0.22196345,
        1.5844132,
        1.3883961,
        0.46163148,
        -0.53576154,
        -0.5244483,
        -0.15996757,
        0.80650276,
        0.2896754,
        -0.70367444,
        -0.2845037,
        -0.32815182,
        -1.0648632,
        -1.308932,
        0.36189803,
        -0.13436553,
        0.15364762,
        0.58727217,
        -0.16509584,
        0.27790794,
        0.089738525,
        -1.4050813,
        0.080739506,
        -1.0328953,
        0.84034675,
        -0.7749991,
        -1.4760106,
        0.13411638,
        0.6130038,
        0.6294575,
        -2.3210902,
        -1.1148034,
        -1.5642833,
        0.7196335,
        1.6738619,
        -1.2253307,
        -0.7792744,
        -1.0674238,
        -1.6893167,
        1.3943188,
        -0.80328476,
        0.8232308,
        -0.7182868,
        -0.10888186,
        1.0563914,
        -0.37789956,
        0.8483656,
        -0.858134,
        1.899366,
        -0.39012384,
        0.021246847,
        0.7509245,
        0.6248139,
        0.5955888,
        -0.67672855,
        -1.0120385,
        0.20913567,
        -0.38536727,
        0.07386767,
        -0.2520832,
        -0.16905643,
        -0.92622083,
        -1.139268,
        -0.21834649,
        -1.2409317,
        0.5531271,
        -1.7054113,
        -0.6936367,
        -0.2932357,
        -0.22237074,
        -0.6095875,
        1.3872467,
        -0.57866,
        1.9822619,
        1.9038112,
        0.4362058,
        0.49346724,
        1.538031,
        -0.89521515,
        0.64769614,
        0.3109229,
        -0.6272625,
        -0.11878539,
        -0.35074785,
        -0.42091918,
        0.24328803,
        -1.7015723,
        0.96519434,
        -0.5927305,
        -1.250624,
        -0.14609525,
        -1.0294349,
        -0.05057752,
        0.462665,
        0.65126115,
        1.1492487,
        -0.7119296,
        1.0423417,
        -0.55403805,
        -1.3034133,
        -0.61259764,
        3.166693,
        0.64172024,
        0.4521895,
        -0.5687689,
        1.4347446,
        -0.40187877,
        -1.252982,
        0.081426494,
        0.41342992,
        0.9043366,
        0.029712547,
        0.6429946,
        0.2383892,
        0.6280927,
        -0.2884786,
        0.44686502,
        1.8841257,
        -1.3175403,
        -0.56322885,
        -0.56042683,
        -1.4728681,
        -0.89693993,
        -1.1393656,
        2.1422062,
        0.04505586,
        1.325741,
        -2.1533892,
        -1.8433644,
        0.86978775,
        0.7428045,
        1.5106843,
        -0.89982986,
        -0.92548144,
        0.86135626,
        -0.9930262,
        -0.28422105,
        -0.348162,
        -1.8713362,
        0.3509838,
        -1.0253878,
        -0.685467,
        0.12522887,
        1.1527004,
        -0.056795925,
        -0.19034684,
        0.040982895,
        -1.7732424,
        -2.2887146,
        0.22639954,
        3.9513562,
        -0.7532306,
        -0.8668084,
        0.599517,
        -0.08108434,
        -0.6315898,
        0.88473934,
        0.39139307,
        -1.2461039,
        -0.50135875,
        1.2079351,
        0.15674955,
        -0.57877165,
        0.5059259,
        1.1411499,
        -1.9247175,
        -0.37672088,
        0.75723135,
        -0.98259,
        0.73586714,
        1.3698379,
        -0.32845697,
        -1.3659741,
        1.6178805,
        -0.9229011,
        0.91486835,
        -0.68315786,
        1.4570221,
        -0.20852211,
        1.2180641,
        -1.3441416,
        -0.81469804,
        -0.041397136,
        0.04254754,
        -1.137588,
        0.026685191,
        -0.23030141,
        -0.6922221,
        -0.33571628,
        -0.2042498,
        0.076427616,
        -0.40339127,
        2.1612782,
        2.2746463,
        -0.051005464,
        0.7131263,
        0.37742206,
        -1.8003134,
        -1.879429,
        -0.5027863,
        -1.0881314,
        0.55024827,
        -0.26986748,
        -0.9827845,
        -0.7264128,
        -1.0679858,
        -0.55049443,
        1.981645,
        -0.66797847,
        0.78007984,
        0.41530344,
        1.1175557,
        0.41079003,
        0.2743806,
        1.4113684,
        -0.78373766,
        -0.25524238,
        -0.4904951,
        0.010795491,
        -1.7171501,
        -1.1906452,
        0.027645655,
        2.1936417,
        0.53053856,
        -1.0040127,
        2.1676655,
        2.8257713,
        -1.0684441,
        0.902136,
        1.1330001,
        -1.4162418,
        -0.67288667,
        0.3719351,
        -0.7159137,
        0.111510776,
        0.7019891,
        0.80665433,
        -0.27578506,
        0.79750514,
        0.90378433,
        -0.81031424,
        -0.21832807,
        -0.074306,
        -0.70073086,
        -1.9581174,
        0.7228307,
        1.1009336,
        1.8639392,
        -0.0900236,
        -0.1058394,
        -0.24504146,
        -0.2795276,
        -0.4921938,
        -0.8645339,
        0.28574997,
        -0.122594096,
        0.51321745,
        -0.78288096,
        1.3451537,
        -0.7785416,
        -0.7949564,
        -1.2750286,
        -1.0676067,
        2.1721551,
        -1.1304568,
        0.07962561,
        -0.42762583,
        0.75361073,
        1.0264392,
        1.8285154,
        -2.3577464,
        -1.3390265,
        -1.5135592,
        1.2912371,
        -0.13143383,
        -1.4992472,
        0.8852322,
        -0.11872147,
        1.0828431,
        1.3833646,
        -0.517611,
        0.24424735,
        -1.2547379,
        1.1606096,
        -0.5729403,
        -0.5458612,
        -1.2444389,
        0.8244486,
        -0.80854386,
        1.0537089,
        -0.32280254,
        -1.9849415,
        0.18703793,
        -0.5574281,
        -0.44148615,
        1.152524,
        0.17732495,
        -1.0093875,
        -0.87770164,
        -0.07919672,
        2.7439349,
        -0.6891079,
        -0.65731955,
        -0.054230962,
        2.1981122,
        0.622056,
        0.44541848,
        -0.53183955,
        0.115523025,
        0.1633518,
        -1.5801563,
        0.6168376,
        -1.581287,
        0.8169899,
        -0.2782262,
        -2.4516783,
        0.040750492,
        -2.2346303,
        0.051415313,
        -0.33023936,
        0.8102365,
        0.4645427,
        -0.79014724,
        -1.7596966,
        -0.43927258,
        -0.12639916,
        -1.2184602,
        -0.62255037,
        1.1795619,
        -0.20834011,
        -0.32410592,
        1.0792018,
        -0.28173426,
        1.5799363,
        -1.2324421,
        -0.6462976,
        0.8032485,
        1.3948313,
        1.785258,
        1.9167196,
        -1.8398234,
        -0.9930189,
        0.94156885,
        -0.6100439,
        -0.7784208,
        -0.493133,
        0.33569223,
        0.31764653,
        0.7401765,
        0.820526,
        0.18392602,
        -0.2787948,
        -0.5381838,
        -0.63699996,
        -0.74819034,
        -0.94556093,
        -0.28181434,
        -1.4275223,
        0.9383317,
        0.5560114,
        0.9777396,
        -0.6356133,
        -0.3740776,
        -0.027657984,
        0.38694257,
        -0.09075466,
        0.25299194,
        -0.3371186,
        1.0294628,
        -0.29464746,
        0.068701446,
        -0.56237483,
        -1.4430135,
        1.3759562,
        -0.58723485,
        0.03639354,
        -1.5612086,
        1.0479442,
        -0.180439,
        -0.02746645,
        0.43806377,
        0.5982612,
        0.54269075,
        1.7331072,
        -1.2641536,
        1.1019408,
        -0.5119564,
        0.44162896,
        0.80010384,
        0.3191116,
        1.5164953,
        -1.1747282,
        -0.021930529,
        1.543897,
        -0.23274535,
        -0.67533284,
        -0.06005146,
        -0.095439814,
        -0.1720692,
        0.557903,
        -0.37966067,
        -0.19176994,
        0.09142487,
        -1.7677348,
        -0.1345885,
        -2.1313949,
        0.67125434,
        1.064134,
        0.8861447,
        -0.80037135,
        1.4382664,
        -0.7412418,
        -0.08009285,
        -0.8757484,
        0.44886723,
        -0.5722742,
        0.13720953,
        0.52169853,
        0.9738667,
        -1.4665761,
        0.53964114,
        0.483376,
        -0.49778253,
        0.74271333,
        0.85128397,
        0.29702067,
        0.57202,
        -1.4041971,
        0.7773861,
        0.48112708,
        -1.4826833,
        1.4426637,
        -0.5120647,
        -0.9764978,
        0.47845927,
        -0.7704769,
        -0.6265631,
        -0.4745639,
        0.5169187,
        -1.2218031,
        0.49877328,
        -1.6116377,
        0.3660592,
        0.19410485,
        -1.8292096,
        -0.34952018,
        0.55204856,
        -0.92202824,
        -0.89036655,
        -0.77502537,
        0.7560452,
        -1.1680962,
        0.7760383,
        0.639393,
        -2.8124394,
        -0.464269,
        -2.5238576,
        -0.42366222,
        -1.1960574,
        1.0267459,
        -0.5734868,
        -0.22813697,
        -0.35890085,
        0.5833652,
        -0.14157839,
        -1.181764,
        -1.5686841,
        1.1879845,
        -1.7857748,
        -0.9152612,
        0.05637861,
        -0.7681155,
        1.136626,
        -1.967247,
        0.026996305,
        -0.7342419,
        1.1532631,
        -0.21752784,
        -0.41855067,
        0.31726867,
        -1.0875858,
        -0.7618383,
        0.42030573,
        1.1286347,
        -1.3326975,
        1.8360276,
        -0.9034268,
        -2.3578026,
        -1.2098323,
        -0.9297332,
        -1.0792922,
        -1.2349092,
        -0.11100495,
        -0.7513193,
        -0.6914874,
        2.1972775,
        -1.1322176,
        -1.1856047,
        -0.4765499,
        -1.1316031,
        1.0134902,
        -0.04227682,
        1.0037273,
        0.9059289,
        0.77050126,
        -0.08812384,
        -0.8190103,
        -1.563775,
        -0.4635262,
        1.1383798,
        -0.27574894,
        2.0091698,
        1.6750612,
        0.19586657,
        0.15419808,
        1.0366278,
        -1.2640842,
        2.3829432,
        1.8321925,
        -0.9890617,
        -1.0458874,
        0.9192182,
        -0.45970008,
        -1.7219203,
        0.43877462,
        0.11742574,
        -1.3106221,
        0.6218032,
        -0.46698287,
        -0.85066736,
        0.10172664,
        -1.4274323,
        0.18249077,
        0.5622893,
        -0.20120847,
        1.528287,
        0.017198201,
        -1.4459071,
        0.7727479,
        -0.96600205,
        -0.6432975,
        -0.06692747,
        -0.23115468,
        -1.1053727,
        -1.1342288,
        1.5498646,
        0.24256073,
        -0.43735027,
        0.61503977,
        0.37622344,
        0.7475193,
        1.4690267,
        -0.45684975,
        -1.52947,
        0.16487029,
        1.2733015,
        -0.65631294,
        0.9852946,
        0.5788151,
        -0.6149047,
        -0.94652253,
        0.28722388,
        -0.1163804,
        0.20978352,
        0.16000381,
        -1.118651,
        0.34608835,
        -0.69622374,
        0.64222306,
        1.6278521,
        -1.0990921,
        -0.9435836,
        0.935178,
        0.18342644,
        0.41512686,
        -1.0176773,
        -2.158332,
        0.69783545,
        -0.29211366,
        0.81216294,
        1.3261484,
        -0.11016071,
        -0.7159874,
        -0.491824,
        0.13120873,
        0.800546,
        -0.5225631,
        2.0129251,
        -0.82771623,
        1.203323,
        -0.092104755,
        1.3564765,
        -1.0135809,
        0.19414902,
        0.52457315,
        -0.12826392,
        -0.83639824,
        1.1262125,
        0.2570962,
        -1.2148316,
        -0.05610262,
        -0.32851216,
        1.0210172,
        0.610267,
        -0.0923296,
        -0.116613306,
        -0.32730687,
        -1.3877249,
        -2.0525558,
        0.4608831,
        -0.9419613,
        0.97706044,
        1.1163272,
        1.5231657,
        0.0300778,
        -0.4640317,
        0.75667465,
        0.24871364,
        -0.41143915,
        1.0600551,
        -0.37924773,
        -0.4907347,
        -1.1088517,
        -1.0360621,
        0.45217595,
        -0.9181603,
        0.13038887,
        -1.5736605,
        -0.8803346,
        0.3110305,
        -1.9088155,
        1.0553551,
        -1.4259021,
        0.87063867,
        0.59078825,
        0.9902295,
        0.25252676,
        -0.5662391,
        0.45214108,
        0.17416829,
        -0.45459554,
        0.2372244,
        -1.6173109,
        -0.07792543,
        -0.29246736,
        0.44968566,
        0.23480777,
        1.783262,
        -1.8445113,
        -0.5196442,
        2.030478,
        0.020451028,
        0.36643305,
        -0.5233726,
        0.9420684,
        -1.3313366,
        1.0633813,
        -0.62674785,
        0.47605336,
        -1.6569766,
        -0.46646568,
        -0.6867808,
        1.6189927,
        -0.55643415,
        -1.1902088,
        0.9098201,
        0.64499617,
        -0.9392427,
        -0.93871444,
        -2.6674848,
        -1.6473529,
        0.72889674,
        0.6593584,
        -0.9044034,
        -0.72842675,
        1.0237747,
        0.5426794,
        -0.5773932,
        0.8924377,
        0.6356362,
        0.9842894,
        -1.2979777,
        -1.5145028,
        0.790981,
        0.64803874,
        -0.32943782,
        -0.036966797,
        -0.8151089,
        0.26199964,
        -0.16209343,
        1.7198437,
        -0.054480877,
        -0.4310989,
        0.06810302,
        -0.7067039,
        -0.37272695,
        -2.2943704,
        -0.2584067,
        2.2456243,
        -0.6018559,
        1.2605385,
        -0.57572895,
        -0.32837206,
        0.4514156,
        -0.31772557,
        -1.4665946,
        -0.11396909,
        -0.60442364,
        1.5215018,
        -0.75671947,
        0.1954984,
        -0.24965851,
        -0.5890179,
        -0.46384913,
        0.8874736,
        0.7560294,
        -1.0144815,
        1.7207056,
        -0.23995203,
        -0.7858071,
        0.6566868,
        1.0142353,
        0.24512114,
        -0.30739197,
        0.041354433,
        0.11852813,
        -0.17950657,
        -0.29822,
        -0.000515694,
        1.2942307,
        -1.1555803,
        1.0595881,
        0.87580115,
        -0.30277577,
        -0.46641412,
        0.28138936,
        0.13296004,
        -0.9063974,
        -0.09092466,
        1.164726,
        -0.78048646,
        1.17372,
        1.0312748,
        -1.7849021,
        -2.092169,
        -0.6782381,
        1.4053371,
        0.5814524,
        -0.0051808674,
        1.0667572,
        -0.018257348,
        -0.31037912,
        -1.7724838,
        -0.5064405,
        -1.2070396,
        0.9790093,
        -0.41866195,
        0.45960617,
        -0.583695,
        -0.47670984,
        1.9663905,
        0.17606428,
        -1.2286433,
        0.52028453,
        -1.3283088,
        -0.43990892,
        1.150886,
        -0.19203728,
        -2.7535431,
        0.062241808,
        0.12096587,
        0.27615815,
        1.6845037,
        -1.1892318,
        -0.19669849,
        -1.6676733,
        0.063311085,
        0.62368906,
        -0.83189183,
        0.03378572,
        -0.07146507,
        0.5429851,
        0.3371449,
        -0.04412489,
        -0.16643193,
        -1.36356,
        0.27950227,
        -0.38607764,
        -0.1520184,
        -0.38774252,
        0.71710587,
        -0.40013877,
        0.4894633,
        -0.36245075,
        -0.8560878,
        -0.39844078,
        0.052993014,
        -1.6732836,
        0.17956375,
        -1.0274432,
        0.51108116,
        0.16590264,
        -1.0357081,
        -0.18471617,
        -0.1940028,
        -0.45373183,
        0.66787386,
        0.485202,
        0.9753278,
        0.1646553,
        1.0295601,
        0.65876424,
        -0.95612735,
        -0.25419232,
        0.146884,
        0.76031536,
        0.47520024,
        -1.6751572,
        0.81432843,
        0.122162245,
        -0.67409706,
        0.58256054,
        -0.35537016,
        -0.8107445,
        -0.6025657,
        -0.30080885,
        0.28601518,
        -1.346651,
        0.30771735,
        -0.20491101,
        -0.30846274,
        -1.1386796,
        0.20578682,
        1.1993613,
        1.0842358,
        -1.0775063,
        -2.09179,
        -0.2509759,
        2.2620344,
        1.2198385,
        1.5545194,
        1.6956359,
        1.0901313,
        1.6969348,
        -0.055664416,
        0.52162343,
        -1.7212747,
        0.18177405,
        0.2661616,
        -0.2374269,
        0.3771423,
        -0.33922732,
        0.27452734,
        -0.21941073,
        0.008942166,
        -1.2303065,
        -0.16869813,
        -1.149,
        1.9373976,
        -0.722045,
        1.221321,
        1.2682085,
        -0.7471932,
        -0.022889618,
        -0.060041185,
        -1.9446386,
        0.03937018,
        1.5997995,
        0.88391197,
        -1.3654594,
        1.5557599,
        0.31758124,
        -1.5392956,
        -0.13430047,
        -0.7801314,
        0.60712564,
        -0.39810818,
        -1.3900161,
        0.5047777,
        1.0083703,
        1.7092541,
        0.70497775,
        -0.4440191,
        1.6902329,
        1.00626,
        -0.7284531,
        0.23646103,
        2.5366027,
        -0.37117472,
        0.5949373,
        -0.60770464,
        -1.0313613,
        -0.63403606,
        -2.1098564,
        -0.08821821,
        -0.22213973,
        -0.1463434,
        -0.12899025,
        0.488405,
        -0.45259064,
        0.22708102,
        0.9662509,
        -0.7516101,
        1.6218969,
        -1.4577531,
        -0.9894834,
        1.3469359,
        0.6020924,
        0.3732289,
        -0.037255716,
        0.7182872,
        0.03547961,
        -0.4951251,
        -0.5973183,
        -0.7851779,
        -0.090924256,
        0.59489685,
        0.6892089,
        0.7207275,
        -1.3167913,
        1.2548673,
        -1.432967,
        0.105467394,
        0.52136683,
        1.0046012,
        0.1728988,
        0.13783818,
        1.0985973,
        0.668262,
        -2.1429307,
        -0.08619342,
        1.7822622,
        -0.21795338,
        0.23331699,
        -0.14182769,
        1.3899173,
        0.30545303,
        -0.89328057,
        -1.6276624,
        0.19079447,
        -0.36634502,
        -0.46150917,
        -0.48814243,
        0.26524925,
        -0.08047952,
        0.52310544,
        0.74627125,
        -1.285677,
        0.33133137,
        1.2346367,
        0.81605375,
        0.41574365,
        0.47707078,
        -2.7347858,
        -1.0244898,
        0.53165525,
        -0.47381997,
        0.7186811,
        -0.23997922,
        -1.1628993,
        1.476214,
        -2.0805068,
        -0.032433175,
        0.50908023,
        0.10966232,
        0.68608737,
        -0.69998896,
        -0.7639822,
        -2.3636894,
        0.79955864,
        0.01813835,
        1.2826422,
        -1.2576286,
        -0.7058085,
        0.7730628,
        0.6510947,
        -1.0656344,
        -0.0801451,
        0.08677917,
        0.97640824,
        -0.46796802,
        0.51230454,
        -1.131543,
        0.33786744,
        1.2686864,
        1.248308,
        0.57670116,
        0.6797895,
        0.05761857,
        1.5644698,
        0.7432754,
        1.0470585,
        0.40352264,
        -0.21851893,
        1.0214591,
        -0.13977765,
        0.012709054,
        -0.96774775,
        0.5788152,
        1.0731032,
        -0.9632596,
        -1.4360174,
        0.9276351,
        0.91689175,
        0.20327878,
        1.1327834,
        0.22895634,
        0.044316363,
        0.36734626,
        -0.060167167,
        -0.7676967,
        0.600926,
        -0.5522892,
        1.9296095,
        -0.25583756,
        -0.44009677,
        -2.0026786,
        1.7469544,
        0.58973885,
        -0.32522452,
        0.53404456,
        0.51381725,
        0.6807421,
        1.5421256,
        1.1190361,
        1.1490529,
        -0.90208083,
        1.3871258,
        -0.12158566,
        1.4082451,
        -1.2860371,
        -0.11530217,
        0.028759629,
        1.0308137,
        -0.7732199,
        -1.4555576,
        -0.90979815,
        -0.42068845,
        -0.45865068,
        0.14523803,
        -0.52938694,
        -0.26941183,
        -0.9707718,
        0.91754895,
        -1.5595323,
        2.1690667,
        -0.77482575,
        -0.90815085,
        -0.05671878,
        0.4623717,
        -1.4245412,
        -0.8505454,
        2.1222565,
        -1.0966527,
        0.93225175,
        0.46912774,
        1.9982237,
        -0.15537106,
        -1.3100218,
        -0.7767264,
        0.22310588,
        0.66030276,
        -0.98088324,
        -0.8058916,
        -0.6968182,
        0.43024695,
        -0.40440604,
        0.771056,
        -0.9978978,
        0.56430566,
        0.19779573,
        0.29536268,
        -0.36627746,
        -0.4719131,
        -1.6535105,
        -0.9791438,
        -0.62620676,
        -1.0839138,
        0.2603997,
        0.32500994,
        -1.1524056,
        -1.3865091,
        2.7273476,
        0.7311945,
        0.45643127,
        -0.3366951,
        -0.07185044,
        0.047394905,
        -2.318269,
        1.0318649,
        0.029681316,
        -0.36453006,
        -0.30637306,
        -0.51545215,
        0.11263721,
        -0.27798823,
        1.7039918,
        -1.0534204,
        -0.13520701,
        -0.103599444,
        -0.5564738,
        0.7396603,
        -0.1815362,
        0.13751014,
        0.65306395,
        -0.14515315,
        0.23001502,
        -0.25227386,
        0.5073465,
        -1.044873,
        1.819466,
        -0.58976173,
        0.34824446,
        1.0660087,
        -1.5242223,
        0.89653116,
        -1.9718778,
        1.0611802,
        0.09569596,
        -0.2933785,
        -0.29782984,
        2.2959647,
        -0.9180885,
        -0.65415776,
        1.0795373,
        0.21896689,
        -1.6033545,
        2.225092,
        -1.0300841,
        -1.0127376,
        0.947641,
        -0.6602101,
        -0.3899507,
        1.1019589,
        -0.06959205,
        -0.40718338,
        0.57381034,
        -0.5653843,
        -0.19553614,
        -0.12340555,
        -0.24739718,
        0.7721131,
        0.79172546,
        2.3352706,
        -1.003483,
        -1.0864782,
        0.339312,
        1.7551041,
        -0.63884276,
        0.34446022,
        -0.5222344,
        -0.52165276,
        -1.2531897,
        0.10089037,
        0.6372045,
        0.44504675,
        -0.46816245,
        -0.99983984,
        0.529209,
        -0.1592677,
        0.6353445,
        0.18438812,
        -0.52646446,
        -0.646498,
        0.2022843,
        1.1901973,
        0.6510133,
        0.24752143,
        0.009025775,
        -0.5947734,
        -0.8611501,
        0.6340597,
        1.8924782,
        0.5501706,
        -0.063009106,
        0.15982762,
        -1.6861403,
        1.2837003,
        0.12326008,
        -0.7515379,
        -0.52171534,
        -2.3456345,
        -0.4113683,
        -1.3596148,
        -1.6628802,
        2.1685033,
        -1.9525317,
        1.5827523,
        -0.73927313,
        -1.2918997,
        -1.4008542,
        -0.49739683,
        -0.25412518,
        1.2049232,
        -0.77411914,
        0.74391156,
        0.2491948,
        1.0348582,
        -0.048319895,
        0.6581724,
        0.45533606,
        -0.63213867,
        -2.3420377,
        0.3223091,
        -0.45175985,
        0.6177206,
        1.2734923,
        0.723512,
        -0.45474434,
        -0.7636595,
        0.027363675,
        0.7793471,
        -3.1532595,
        -0.7323109,
        1.869727,
        -0.31857285,
        1.5997396,
        -0.9903714,
        -1.5609947,
        0.2747539,
        -0.2768303,
        -0.34439936,
        -0.2857918,
        1.944965,
        -0.23461917,
        -0.08147196,
        0.72703576,
        1.6791826,
        -1.1989708,
        0.3198727,
        0.59198993,
        1.2534026,
        -1.2179615,
        1.0771769,
        -0.47794116,
        -0.20912607,
        -0.5618416,
        0.60864574,
        -0.24164568,
        2.3344817,
        -0.019993085,
        0.18063831,
        -0.79521686,
        1.6652718,
        2.2944784,
        0.49506676,
        1.9604214,
        -1.2934791,
        0.1723434,
        -0.41831335,
        -0.35214347,
        -0.28900814,
        1.3925549,
        0.22257537,
        1.2394576,
        -0.7157922,
        -0.46608615,
        1.7930795,
        -0.19607891,
        -1.7501633,
        -0.40913925,
        -0.63145405,
        -0.17457391,
        0.275794,
        0.5248333,
        1.4392363,
        0.22389805,
        -0.5,
        0.87645066,
        -0.10827678,
        0.13640827,
        -0.49023393,
        0.1725682,
        -0.59391934,
        0.60910106,
        0.7676987,
        0.7968207,
        -0.33868438,
        -0.6767375,
        1.0041631,
        -0.12772115,
        0.43818614,
        1.9723204,
        0.5552291,
        -0.23417675,
        -1.5538093,
        -0.06740509,
        0.055519205,
        -0.021981023,
        -1.2386572,
        -1.1535641,
        0.5202112,
        -0.009243394,
        -0.45880836,
        -0.30438867,
        1.03713,
        1.269143,
        0.2904488,
        -0.41786313,
        -1.4846653,
        -0.78907347,
        -0.3250713,
        -0.52427036,
        0.40086818,
        0.86930877,
        -2.3077903,
        -0.22977571,
        -0.94848144,
        -0.21097647,
        2.0241315,
        0.31732848,
        0.6949492,
        0.76731795,
        -1.3456405,
        -0.36504343,
        -0.72657466,
        -0.21869494,
        -0.7690002,
        0.6024747,
        0.13465047,
        0.27188805,
        0.2622996,
        2.0,
        0.49622887,
        1.4865192,
        2.3015797,
        1.2699243,
        0.97423095,
        -0.306011,
        -0.2726183,
        -1.1946383,
        1.0835065,
        -1.6521875,
        1.8719938,
        1.0636282,
        0.18146123,
        0.7104456,
        1.1312841,
        -0.52716374,
        0.75706774,
        0.79699165,
        0.71618366,
        -0.53875595,
        0.3314171,
        1.1190858,
        -0.68247074,
        -0.8851435,
        1.6709657,
        -1.0009161,
        -1.5024143,
        -1.0812784,
        -1.5484831,
        -1.080214,
        -0.48558706,
        -0.8889949,
        0.78967965,
        -0.07948757,
        0.56549215,
        -0.975527,
        -1.5372155,
        0.8948336,
        -1.0275449,
        -0.21592194,
        -1.0289326,
        1.0206076,
        1.8588485,
        0.09401082,
        0.5662634,
        -0.8401474,
        -1.1816852,
        0.23042473,
        2.4456937,
        0.5894537,
        -1.3402815,
        0.7336773,
        -0.46535248,
        -0.35534546,
        1.3299754,
        0.8670073,
        0.30079666,
        -1.0544785,
        -1.1838878,
        -2.0453613,
        -0.24462686,
        -1.0790021,
        -0.33878663,
        0.7363341,
        -1.0548755,
        -0.07988505,
        -0.7425175,
        -0.6293529,
        0.55191034,
        -0.6070296,
        -0.11458053,
        0.62850076,
        0.95453024,
        -0.6866719,
        0.52121276,
        0.54814005,
        0.11839604,
        -0.35370934,
        0.47888824,
        -1.0717075,
        0.8553622,
        0.07024617,
        -0.35726607,
        -1.2490184,
        0.52870303,
        3.3463893,
        1.3848449,
        -0.37109655,
        -0.07211897,
        0.12262171,
        -0.3942547,
        -0.71438533,
        -0.6233903,
        -0.6481946,
        0.1856165,
        1.9932634,
        -1.151309,
        -0.47342715,
        -0.13027,
        -0.15224676,
        -0.5225472,
        -0.78337556,
        0.20309168,
        -0.7567709,
        0.8703987,
        -0.3030781,
        0.31145266,
        -1.3148699,
        0.3351149,
        -2.7465613,
        -2.4630346,
        -0.67556804,
        1.6076161,
        0.6656871,
        -0.8893139,
        -0.26070136,
        -0.11718617,
        -0.053005148,
        -0.04090448,
        -0.4449389,
        1.8209752,
        0.23489313,
        0.3147577,
        -0.12570754,
        0.9681091,
        1.5279092,
        -0.49013042,
        0.44684398,
        0.55673283,
        -2.176201,
        -0.1702375,
        -0.6338443,
        -0.113742836,
        -0.2572961,
        -0.707358,
        1.5989026,
        -0.21102668,
        -1.7213064,
        0.4137864,
        -0.9706448,
        1.0338234,
        0.1897009,
        -1.3988081,
        -0.44941074,
        -0.2208308,
        1.1953439,
        -0.61177814,
        0.8960699,
        0.6612593,
        0.007231508,
        -0.815201,
        -0.09921104,
        0.36204132,
        1.5046314,
        1.131892,
        0.9888704,
        -0.17525648,
        0.50394374,
        -1.2511748,
        1.2977593,
        0.20560434,
        2.0900807,
        -0.050185006,
        1.4328345,
        0.6849522,
        0.87572974,
        0.8542059,
        -0.2116954,
        -0.86751646,
        0.8329947,
        0.57492095,
        -0.07041296,
        -1.4951825,
        -0.70769113,
        -2.103258,
        0.040663566,
        0.044042572,
        -0.43913457,
        -1.97579,
        1.4732184,
        -0.3966523,
        -0.020480784,
        1.3002151,
        0.09439528,
        -0.1058216,
        0.9916361,
        0.23674722,
        -2.3701718,
        0.23632082,
        -1.2314328,
        0.73157316,
        -0.9367494,
        -0.63775325,
        -0.5131584,
        1.1067158,
        -0.3940663,
        -0.9871481,
        1.6539649,
        0.38284525,
        1.4284989,
        1.2640339,
        0.3433174,
        -1.6147959,
        -1.3265381,
        0.75183123,
        1.5392365,
        -1.4242159,
        -0.009007013,
        0.41091397,
        -1.2324364,
        -0.014065396,
        -0.64802516,
        -0.56052977,
        -0.074349135,
        0.23079707,
        0.62563425,
        -0.115860954,
        0.7858886,
        -0.7359809,
        -1.5577018,
        -0.55875343,
        0.92760783,
        0.19837436,
        -0.6566776,
        -0.7088769,
        0.5963515,
        -1.651316,
        1.4835851,
        1.4965149,
        0.52279985,
        -0.67063564,
        -0.45828393,
        -0.5992547,
        0.3814408,
        0.112693705,
        0.5102046,
        0.75794196,
        1.5214373,
        -1.1425424,
        0.39791614,
        0.3507051,
        0.15476087,
        -0.18331908,
        0.5686569,
        -0.23187457,
        1.5579655,
        -0.05362998,
        0.6856327,
        0.69634897,
        -0.5463592,
        0.029387869,
        0.9676777,
        0.262308,
        -1.4505641,
        1.4332367,
        -0.38713202,
        -0.91250294,
        -1.4469852,
        1.8980352,
        1.3194468,
        0.48499098,
        0.11616871,
        0.4934748,
        1.5328227,
        0.45663986,
        0.44733602,
        1.3676944,
        -0.25746274,
        -0.73775506,
        -0.43517855,
        -0.09754925,
        1.0652035,
        0.15714271,
        -2.4092665,
        0.15309502,
        -0.821338,
        0.14867675,
        -0.53296214,
        1.4532219,
        0.07786845,
        -0.6025596,
        -0.4506766,
        -1.2597846,
        -0.43485525,
        0.8494523,
        -0.3298959,
        -0.70579696,
        0.0375456,
        0.8676074,
        1.0272648,
        -0.05179456,
        -0.15625359,
        -1.1848954,
        -0.5690461,
        0.39571437,
        0.10658245,
        1.8702224,
        -0.14551975,
        -1.1148194,
        -0.39352274,
        -0.2149003,
        -0.32119894,
        1.1990207,
        1.0268644,
        1.3597587,
        0.033745926,
        1.3728848,
        -0.07095577,
        1.5359752,
        1.0297935,
        -0.14398356,
        -1.275141,
        1.6806144,
        -1.1649209,
        0.085919075,
        -0.10054441,
        1.4343604,
        0.30376413,
        1.8000637,
        -0.3361865,
        1.8954811,
        -0.80601346,
        1.4678771,
        -1.2412934,
        0.23757741,
        -0.23771544,
        -2.1118865,
        -2.1568706,
        0.9927096,
        1.1822699,
        -1.0872798,
        -0.42406192,
        0.121906444,
        0.24594055,
        -0.352453,
        -2.352186,
        -1.9273286,
        -0.8193271,
        0.032515883,
        -0.23346455,
        -0.34199563,
        1.0527145,
        1.459197,
        -0.46504822,
        0.71543074,
        0.35459834,
        0.43945712,
        0.50527495,
        -0.7066085,
        0.9533415,
        -0.72090995,
        0.6833774,
        0.5003041,
        1.0035566,
        -0.7528265,
        0.040958613,
        -0.7533525,
        -0.5884488,
        0.20345171,
        1.1461669,
        0.786061,
        1.4798858,
        -1.0316641,
        1.5471431,
        -0.44175044,
        0.042866997,
        -1.4287537,
        1.9895856,
        0.84623605,
        0.41545483,
        0.5388638,
        0.20872258,
        -0.39573494,
        0.0078725815,
        -0.5850289,
        2.8289073,
        -1.3055584,
        0.828683,
        0.15415865,
        0.3409526,
        -0.010669872,
        -0.5544452,
        -0.3956344,
        0.3686346,
        -0.8335956,
        0.9880425,
        -0.11961152,
        0.44998574,
        0.86969745,
        -1.3821043,
        -1.1274115,
        0.49363858,
        1.097264,
        -0.5019925,
        -1.1729728,
        0.24474812,
        -0.72266203,
        0.76520526,
        1.0460916,
        0.08050925,
        1.083135,
        -0.2711998,
        -1.4705231,
        -0.20595467,
        0.80610514,
        -0.70995307,
        -0.9647628,
        -1.221509,
        -0.5598021,
        -0.06302076,
        0.7931821,
        0.49798208,
        -0.55417955,
        1.3533331,
        0.5461667,
        0.14589378,
        0.48749754,
        -0.116217665,
        -1.2325456,
        0.89289093,
        0.014725725,
        0.28210196,
        -1.1284276,
        -0.3982058,
        -0.037975192,
        0.34725216,
        -0.65640795,
        -1.422191,
        0.0045657875,
        0.4397716,
        0.9373482,
        -0.18430428,
        -0.8208712,
        -0.23216812,
        0.7323096,
        -1.1755686,
        -1.3846829,
        -1.7643049,
        1.5074228,
        -1.2205359,
        -1.1209416,
        -0.71581435,
        0.6493551,
        0.5335061,
        1.0447611,
        -1.3975835,
        -0.712945,
        1.3510234,
        -1.8700768,
        1.7440977,
        -0.6018295,
        -0.2775817,
        -1.972088,
        0.6202219,
        2.0005283,
        -3.2653847,
        -0.81083727,
        -1.4395299,
        -0.5019543,
        1.0095431,
        -0.50986487,
        -1.8075414,
        -0.73050255,
        -0.77967036,
        -0.63045084,
        -0.8389551,
        -0.0660619,
        1.5258589,
        -0.9685946,
        -0.16284972,
        1.6724025,
        -1.0776883,
        0.49273017,
        -1.7270037,
        -0.22868735,
        0.7672443,
        -0.009510178,
        0.5059938,
        0.9584673,
        0.07649478,
        0.6749861,
        1.266944,
        -0.59839815,
        -0.8908398,
        0.33263043,
        -0.0312161,
        0.38735962,
        -1.1228216,
        2.2873178,
        0.5267056,
        -1.5751468,
        0.95772994,
        -0.6297426,
        -0.80109,
        0.5912257,
        -0.18020548,
        1.271687,
        0.6605642,
        0.24958807,
        -1.0761763,
        0.15281132,
        -0.5589306,
        -0.79474425,
        -0.6466229,
        1.3996322,
        1.2131056,
        0.40375087,
        1.407058,
        0.07654101,
        -0.22574167,
        -0.021556599,
        0.8785105,
        1.0070754,
        0.9875582,
        0.3508865,
        -1.3885864,
        -0.51470876,
        1.4359446,
        -0.5370433,
        0.52595174,
        -2.0988803,
        -0.8812969,
        -1.025565,
        -1.4918607,
        -0.35249186,
        -0.9716861,
        1.0134333,
        -0.16782902,
        0.49341258,
        0.80506337,
        -0.5958875,
        1.6110866,
        -1.3525242,
        0.70258653,
        -1.533514,
        0.97766775,
        -0.481695,
        -0.29285443,
        -0.83211106,
        0.5910843,
        0.56327915,
        1.9733746,
        0.752082,
        0.50137025,
        -2.1940186,
        0.23041841,
        0.9112274,
        -0.12959418,
        1.355924,
        -1.5972948,
        1.6476836,
        -0.7665384,
        -1.4717916,
        0.9530395,
        -1.2847823,
        -0.5534418,
        0.40629926,
        0.47079554,
        -0.6902499,
        0.4111346,
        1.2053626,
        -0.57873803,
        0.7313731,
        0.18375802,
        -1.4237914,
        1.6093677,
        0.40712127,
        -0.22845292,
        0.5528833,
        -0.5538065,
        -0.5564732,
        -3.5148118,
        0.398248,
        -0.4313537,
        0.684586,
        -0.8188518,
        1.5352057,
        0.9291678,
        -0.054963704,
        -1.6639552,
        0.9388266,
        1.2280202,
        0.14507245,
        0.25007948,
        -1.1620036,
        -0.1696043,
        -0.9056714,
        0.5426008,
        -1.0993003,
        0.23510088,
        -0.060576536,
        1.1583831,
        -0.3258263,
        0.36248642,
        2.4814181,
        1.0943862,
        0.8057794,
        -0.6935992,
        -1.1333668,
        0.16647376,
        0.043361507,
        1.1870708,
        1.4584098,
        0.19963795,
        -2.1709802,
        1.4199411,
        -0.5044703,
        -2.1045449,
        -0.5722263,
        1.2430052,
        0.32852945,
        3.1839838,
        0.75844085,
        -0.30442303,
        1.7424409,
        2.0979388,
        1.3762308,
        -0.05666281,
        1.7179803,
        -0.24353057,
        -0.8171496,
        0.5594962,
        0.5624648,
        -1.3888997,
        -1.3954163,
        -2.0355139,
        0.41484255,
        0.1862857,
        -1.6908962,
        0.2547941,
        -0.35731453,
        0.43794867,
        2.259782,
        -1.4221033,
        -1.5559956,
        -0.74419683,
        -0.4895471,
        1.2612467,
        -1.3846047,
        0.4653506,
        1.3227496,
        0.68341666,
        -0.14609344,
        0.9772324,
        -0.11235777,
        2.0274293,
        -0.46628293,
        -0.551786,
        -0.49230805,
        -0.7740909,
        0.39509708,
        0.11414146,
        -0.25759745,
        0.4343313,
        1.0314809,
        0.28013897,
        1.2361015,
        1.1238804,
        0.93212944,
        1.1186445,
        -1.0110009,
        1.4180114,
        0.73897284,
        1.983435,
        -0.7991973,
        0.080925055,
        -0.11248825,
        -0.79386187,
        -1.0496202,
        2.5005891,
        0.21319053,
        -1.847127,
        -0.45529562,
        -0.9381582,
        -0.9206961,
        1.6009016,
        0.35853958,
        -0.3574035,
        -0.10099471,
        -0.30308595,
        -0.6749666,
        -0.6504822,
        -0.53785974,
        0.33842996,
        -0.352056,
        1.736668,
        -0.18667068,
        -0.22970635,
        -1.7735642,
        -0.36983186,
        1.2924421,
        -0.65167725,
        -1.616425,
        -1.0347131,
        -0.66366345,
        1.3040426,
        2.7183785,
        -0.376169,
        -1.1109173,
        -0.9756705,
        0.120812334,
        -1.4092891,
        -1.2584873,
        0.5453155,
        -1.865095,
        1.7662792,
        0.9781414,
        1.0829481,
        0.59395885,
        -0.44426468,
        -0.35494745,
        -1.0094994,
        -2.2077153,
        -1.8487414,
        -1.4821914,
        -0.40647995,
        0.7487745,
        -1.2037753,
        0.7580691,
        -1.6244658,
        -1.3907104,
        -0.84171784,
        -0.23165298,
        1.2103899,
        -0.53403634,
        -0.26047412,
        0.40328303,
        2.108513,
        0.20221192,
        -0.67684996,
        0.6330031,
        -0.17919837,
        0.8879022,
        0.9720088,
        -0.925809,
        0.10220157,
        -0.32061264,
        0.77584165,
        -0.67393106,
        0.6939433,
        -0.28536656,
        0.48837015,
        -2.0612953,
        0.08331612,
        0.7632152,
        1.8633457,
        -0.567307,
        0.570537,
        -0.8834318,
        0.8562177,
        -2.75074,
        0.45350498,
        0.5005027,
        -0.6081843,
        0.5909409,
        -0.012544113,
        0.7296284,
        1.2725632,
        1.2791147,
        0.40399647,
        1.5160367,
        0.39060524,
        -0.44614127,
        0.3494467,
        0.83439523,
        -0.40891975,
        0.4569952,
        0.064898305,
        -0.65720713,
        -0.97325116,
        -0.21952431,
        -0.28626895,
        0.43645728,
        1.8072835,
        0.3920695,
        0.20099518,
        0.18177935,
        -1.2047262,
        0.018129312,
        0.6632373,
        0.12592177,
        1.4571468,
        1.2317116,
        0.45560202,
        0.822934,
        -1.2679335,
        1.0951173,
        1.0679964,
        1.8452381,
        -0.20406221,
        0.60568047,
        1.3125819,
        0.16712126,
        -0.5698584,
        -0.9676662,
        -0.72355336,
        0.57835865,
        0.66063666,
        -1.1121931,
        -0.094589844,
        -1.1919183,
        -0.09171157,
        -0.28096077,
        1.1632675,
        0.47752476,
        0.34394288,
        1.6965772,
        0.046506457,
        -1.1632875,
        0.40194377,
        0.77458644,
        1.2088867,
        0.38859957,
        -0.69169694,
        0.5488158,
        0.1971959,
        0.9845178,
        1.0391746,
        0.55998194,
        1.5272733,
        -0.3642201,
        -1.2995884,
        2.2262485,
        -0.47443807,
        1.5483638,
        -0.6940213,
        -0.74707377,
        -0.75346804,
        0.1710692,
        1.7734094,
        0.5862666,
        -0.6873746,
        -0.08791252,
        0.959883,
        0.63378733,
        0.5943035,
        -0.051440645,
        0.9988821,
        1.4111437,
        -1.1493651,
        -0.67186934,
        -0.46473226,
        -0.5978893,
        0.73613524,
        0.539269,
        -0.23767388,
        1.0692899,
        0.08367186,
        -0.31029555,
        0.8682098,
        -1.1248168,
        -0.67044765,
        1.6715189,
        1.0982423,
        0.351048,
        0.3349959,
        -0.16928738,
        0.13543144,
        0.13407993,
        -0.793213,
        1.4009433,
        0.28963873,
        -0.37467524,
        0.71140224,
        -0.12590465,
        -0.5028937,
        -0.982229,
        0.8005328,
        -1.4983593,
        0.70922995,
        1.0711973,
        -0.4496342,
        -0.24560718,
        0.90542454,
        -0.2890079,
        0.04587903,
        -1.2064171,
        1.596431,
        -0.15859716,
        0.79706764,
        -0.4453613,
        0.20909525,
        -0.3572419,
        -0.55012053,
        2.733897,
        -2.185348,
        0.64427376,
        -1.8604783,
        -1.5922998,
        -0.62752295,
        0.8175964,
        1.1101087,
        -0.03787563,
        -1.0845063,
        -0.26644802,
        0.66103446,
        0.3284259,
        1.2326379,
        -0.39517146,
        -1.7671578,
        1.3374441,
        0.6397492,
        1.5438213,
        0.37343878,
        -0.44299757,
        -0.2846653,
        0.38778433,
        0.061731078,
        -0.7358948,
        -0.012273298,
        0.62342525,
        -2.8792737,
        -0.088166,
        0.7913491,
        -0.34653684,
        0.8225131,
        -0.5993545,
        -0.25722006,
        -1.9268733,
        0.40008682,
        -0.026656834,
        -0.62060285,
        0.7032225,
        1.0888954,
        -1.27368,
        1.3870445,
        0.78489465,
        -0.20908962,
        0.29671198,
        -0.6800196,
        -0.46751943,
        0.2698812,
        1.5670909,
        -0.5668925,
        -1.9564523,
        -0.46257538,
        1.040353,
        0.58581066,
        1.1424787,
        0.1477982,
        -0.771959,
        -0.16141,
        0.50033563,
        0.50626343,
        -0.2374867,
        -1.1977818,
        0.846198,
        -0.18285134,
        -0.91407967,
        0.2310979,
        1.5554739,
        1.8606846,
        0.0071742525,
        -1.0669899,
        0.052611504,
        -0.113681845,
        -0.6561003,
        -0.4110767,
        -1.0875024,
        0.113282494,
        1.3042333,
        1.8435936,
        -1.3057516,
        -0.58333623,
        2.1234174,
        1.5081748,
        0.12153412,
        -0.50076354,
        0.05404605,
        1.0842623,
        -0.09391227,
        1.7581573,
        -0.528201,
        -0.690188,
        1.0158411,
        0.9981483,
        -0.1473914,
        0.36668202,
        -0.16574539,
        1.6551481,
        -0.52272,
        0.15654978,
        -0.77059126,
        -0.19423322,
        0.1409002,
        1.1874347,
        -1.1414762,
        -0.25107354,
        0.4964317,
        0.5615369,
        0.30733868,
        -1.0655254,
        1.8013027,
        -1.359413,
        0.048684634,
        -1.7618856,
        0.49414605,
        0.08205264,
        -0.5458701,
        -1.3463627,
        -0.27839154,
        -0.09328166,
        -1.1368742,
        0.218044,
        0.4184279,
        -0.27747098,
        -0.09739813,
        3.0954883,
        1.0026749,
        -0.65261376,
